{"layers":[{"out_depth":43,"out_sx":1,"out_sy":1,"layer_type":"input"},{"out_depth":50,"out_sx":1,"out_sy":1,"layer_type":"fc","num_inputs":43,"l1_decay_mul":0,"l2_decay_mul":1,"filters":[{"sx":1,"sy":1,"depth":43,"w":{"0":0.07736087261232293,"1":-0.36293807882635626,"2":-0.14262143318969026,"3":-0.1750180115507832,"4":-0.020127261927459023,"5":0.22820939579825003,"6":0.1871515969858787,"7":0.12207616458784852,"8":0.08454435774636221,"9":0.11105376540425177,"10":0.0638107907755595,"11":-0.08109525902726401,"12":-0.0032214497831539995,"13":-0.09903369670227193,"14":-0.01153469592005836,"15":0.16344884067223234,"16":-0.32041564761999525,"17":-0.21843054902852,"18":-0.06188887798355638,"19":0.11045716886374517,"20":-0.17361232282509567,"21":-0.08919576358420503,"22":-0.041171487894793767,"23":0.2522818363086101,"24":-0.17891327606467586,"25":-0.11694656021721321,"26":-0.02716732347268742,"27":-0.047478590220163146,"28":-0.0016288698965444594,"29":0.3986319078746218,"30":-0.08251193240275836,"31":0.0009153899838192504,"32":-0.1536575807334043,"33":0.10313950616762375,"34":0.5453642831003112,"35":-0.09587323629103231,"36":0.11062485717968883,"37":-0.18564205849245732,"38":0.013538798846800312,"39":0.11823421196916943,"40":-0.054292343793633194,"41":-0.0016446642057018819,"42":0.0219573761717662}},{"sx":1,"sy":1,"depth":43,"w":{"0":0.7325533088851292,"1":0.3123877815389021,"2":0.7219374827412692,"3":-1.0110334560418723,"4":0.2400313246467897,"5":0.03926868224452747,"6":0.34192436591161135,"7":0.453773417064071,"8":0.08172034673386463,"9":-0.8745087709830777,"10":0.5228617134975841,"11":0.01962072069417893,"12":0.46750000856146007,"13":-1.0621354613633593,"14":0.3840621289847759,"15":0.23394163639118012,"16":0.39460101723409696,"17":0.4923227019464671,"18":0.17683443653917896,"19":-0.8652040559779971,"20":-0.31006834455701565,"21":0.02518224375975446,"22":0.2559032383187018,"23":-0.25284558217729375,"24":0.13039073759787015,"25":-0.30297133850478486,"26":-0.33895279901017666,"27":-0.06426530522876826,"28":-0.24226510813907517,"29":-0.14482615145324665,"30":0.1565298674557245,"31":0.07152177278977302,"32":0.0043957837977264165,"33":0.5075765599193349,"34":-0.3795170624009768,"35":0.02403661091489071,"36":0.08412848468051295,"37":0.05750028486906688,"38":-0.07575465224412406,"39":0.022260996436899837,"40":-0.21883563325833025,"41":-0.30300393903256845,"42":0.09774852869010403}},{"sx":1,"sy":1,"depth":43,"w":{"0":0.45032975200486236,"1":0.10657541138199639,"2":-0.16794980885669317,"3":-0.4132760097765176,"4":0.33679602645528817,"5":-0.35436451674779973,"6":-0.00031086089256949015,"7":0.033734804179524014,"8":0.01488869244332946,"9":-1.4759107781504224,"10":0.328727911414701,"11":0.4087874688443873,"12":0.03208123747832503,"13":-0.6816606675392374,"14":0.6402254484416365,"15":-0.15422537106082798,"16":0.22126156177908027,"17":-0.36513371116333104,"18":-0.15749774267264208,"19":-1.3282475585320737,"20":0.12812317126141354,"21":-0.238081781906053,"22":0.6257419474843748,"23":0.16035842797174926,"24":0.36853789329342546,"25":-0.29399145327805454,"26":0.15692013970806795,"27":-0.07242736517028349,"28":0.32205171663299237,"29":0.12026916364571645,"30":0.1979754642303509,"31":-0.2619557866243427,"32":0.6771880964485615,"33":0.04016522945070965,"34":-0.006490926040368592,"35":-0.22031438980295465,"36":-0.396441912152338,"37":-0.2484605876283119,"38":0.03903991075806275,"39":-0.39093772119143727,"40":-0.28652104147399754,"41":0.11737385630577125,"42":0.3147538460053922}},{"sx":1,"sy":1,"depth":43,"w":{"0":-0.030714900060264706,"1":0.16429127332791424,"2":-0.12774597090230955,"3":0.1306609716407892,"4":-0.08503321931766358,"5":-0.3566936806778834,"6":-0.09010214411641204,"7":0.08890034480034774,"8":-0.05888428148611403,"9":-0.1339747576048927,"10":0.23453534200190107,"11":0.058987820130628074,"12":-0.2790732789007538,"13":-0.17796698993629487,"14":-0.539317729251993,"15":0.17687004211045151,"16":0.14956144843377409,"17":0.035253201519931866,"18":0.11465545851611338,"19":-0.37666931821469507,"20":0.10228829989496475,"21":-0.11595582033818497,"22":-0.09299495295641115,"23":0.0032453221589636237,"24":-0.11223783529508802,"25":0.39764689473907344,"26":0.013676731063184528,"27":-0.029536454461196404,"28":-0.08307703497654087,"29":-0.2643961668265284,"30":-0.03037390287869733,"31":-0.12531687124937527,"32":0.2847480453708772,"33":0.4254096229862552,"34":-0.11056125618295584,"35":0.13950810342594427,"36":0.025012194473655453,"37":-0.1174827791587481,"38":-0.03959874041255114,"39":0.19925402922814472,"40":-0.2352040998745232,"41":0.1769544238431358,"42":0.04908168843298204}},{"sx":1,"sy":1,"depth":43,"w":{"0":-0.0817061562246038,"1":-0.07498856150436019,"2":0.1322816028041609,"3":-0.04122626924416668,"4":0.07424857158385782,"5":0.1496803167671556,"6":0.009979900865337114,"7":0.05577066787323279,"8":0.002077125538312107,"9":-0.14633714275032278,"10":-0.19652172023461612,"11":-0.04845745131284794,"12":-0.11195367773582332,"13":-0.2057532022282768,"14":0.004494641175064037,"15":-0.24119864621152792,"16":-0.13135479627407426,"17":0.17505641609149744,"18":-0.205524059506354,"19":-0.3960472139038284,"20":0.2618216481575653,"21":0.6769888308109212,"22":0.33023101454362436,"23":-0.09495590440361054,"24":0.19724661443387304,"25":-0.021247423009473135,"26":0.09967099416834396,"27":-0.03339101723203574,"28":0.18365816096416965,"29":0.10098260266020637,"30":-0.08185674313441667,"31":-0.2421891698637519,"32":0.2411504318509199,"33":-0.15136982290640758,"34":0.012418970091360143,"35":-0.010118042404230287,"36":-0.03348627087388469,"37":-0.043796907347939784,"38":0.014388572145346511,"39":-0.09464197932755397,"40":0.030677288143889685,"41":-0.012081025310174187,"42":0.2224232464021847}},{"sx":1,"sy":1,"depth":43,"w":{"0":1.8155431971225737,"1":0.6284016852388931,"2":0.8189340991693493,"3":-2.506786953051674,"4":0.6211698667156097,"5":0.06325524123622572,"6":0.8842813710842318,"7":0.564377213894068,"8":-0.35617192249882584,"9":-2.888474706977931,"10":1.948978684460037,"11":0.6495748479108828,"12":1.1864885555202633,"13":-2.2832648606232113,"14":0.9197392054066484,"15":0.37760518012825034,"16":0.9271995384273507,"17":0.839218648488147,"18":-0.39798013312075886,"19":-3.0327870859161754,"20":0.2518227632841257,"21":-0.8960727621628309,"22":-0.6652718041370106,"23":0.1033082402204091,"24":0.11655525941864951,"25":-0.23133584873165525,"26":-0.012127317585386474,"27":-0.21826192072564066,"28":0.10744482361185434,"29":0.015450367193112324,"30":0.07743775997092747,"31":-0.956176231813202,"32":0.4912253690847661,"33":-0.6579595483121287,"34":0.02981075960244813,"35":-0.1652671178907412,"36":0.05105865034382017,"37":-0.9438139417483803,"38":-0.10687342732488747,"39":0.012980717894550329,"40":-0.14576225339341436,"41":0.06885820568303166,"42":-0.16030348211002307}},{"sx":1,"sy":1,"depth":43,"w":{"0":0.439469273971494,"1":0.29741880505702734,"2":0.004909116638338572,"3":-0.03836647089760336,"4":0.3634934055723756,"5":0.26503595996885965,"6":0.27119261368432696,"7":-0.18663353960598958,"8":-0.08413890112336449,"9":-0.5185053728583254,"10":0.3494306190628183,"11":0.13170757510825187,"12":0.1229942277160376,"13":0.010868929753757965,"14":0.009681775275228547,"15":-0.02205439793671126,"16":0.07129283193636017,"17":-0.12134623995588528,"18":-0.16582829930159054,"19":-0.8203454019289482,"20":-0.09829417656976157,"21":0.9014804007113697,"22":0.07701017487802038,"23":-0.32584766808954113,"24":-0.32922418214421645,"25":-0.27473896554618243,"26":-0.24542150470895646,"27":0.21381805614996244,"28":-0.019518135036170697,"29":-0.3459932736679768,"30":-0.1782989920800302,"31":0.1564323246185852,"32":-0.046534888424708785,"33":0.5129746869463693,"34":-0.27734076054725726,"35":-0.07775323417504434,"36":-0.28631737246757477,"37":-0.25928680181104363,"38":-0.22141486062886695,"39":0.3660334699338208,"40":-0.27376046376222113,"41":-0.24428941868109386,"42":-0.33898367291909354}},{"sx":1,"sy":1,"depth":43,"w":{"0":1.4116395196925826,"1":0.6117238679186778,"2":0.5156521336545435,"3":-1.40847632195208,"4":0.48780723601274395,"5":-0.028161532156638882,"6":0.3743185462421091,"7":0.5196495943029626,"8":-0.09165316039557336,"9":-2.1796102307452436,"10":0.9805324685174233,"11":0.5241097612194001,"12":0.4427535110257651,"13":-1.4432668958569954,"14":0.6313474733958285,"15":-0.12417179151206792,"16":0.7010157733031026,"17":0.34139266781223265,"18":-0.19191142132168032,"19":-2.0729153517021905,"20":-0.12569691820101023,"21":0.04830096810659504,"22":-0.44102814818842456,"23":0.31825931315883216,"24":-0.027557292302000127,"25":-0.5918340868415082,"26":-0.5125327470698009,"27":-0.09377951357206578,"28":0.06489943967684982,"29":0.04888316471987421,"30":0.15048680214063415,"31":0.17569621399289445,"32":-0.15781412759247126,"33":-0.09649549734884998,"34":-0.01060712467868976,"35":-0.02105023765869491,"36":-0.7023989675149044,"37":0.6446261151329188,"38":-0.11669233763034459,"39":0.10716894228239192,"40":-0.13540790810158546,"41":0.060296586023576904,"42":0.04264938639519288}},{"sx":1,"sy":1,"depth":43,"w":{"0":0.1106355879552813,"1":-0.0832689474581541,"2":0.08143743874870091,"3":0.06993475133327799,"4":0.0733572691813428,"5":0.2712992797158173,"6":-0.20895231547187232,"7":-0.03986514183370707,"8":0.05685054740532668,"9":0.030329289101704494,"10":-0.17930151008424777,"11":-0.05093022479006437,"12":-0.29344337875272325,"13":-0.1519467390504115,"14":-0.1731063248186367,"15":0.0929512841402106,"16":-0.208856398072017,"17":-0.15433933856725898,"18":0.14237186996567866,"19":0.06387078638352346,"20":-0.12607558436984587,"21":-0.2947259213240144,"22":0.19656985483740716,"23":0.004419084262011963,"24":-0.09454974852701871,"25":-0.26363068997245653,"26":-0.08949094214402953,"27":0.07625359425129791,"28":0.23735238548238044,"29":-0.011299430655935111,"30":0.0058727103038402305,"31":0.16638748773871767,"32":-0.0026705847675862005,"33":0.03891296714086486,"34":0.038085601996594026,"35":0.03122483073827088,"36":-0.08383611022306786,"37":-0.08036943808277199,"38":0.06960712381517906,"39":-0.14685140256446064,"40":0.22764941062992855,"41":0.06368195301361704,"42":0.25331133122776495}},{"sx":1,"sy":1,"depth":43,"w":{"0":-0.04162914943153302,"1":0.1468213877486896,"2":-0.09990542206829689,"3":0.13331840654931393,"4":0.04916090856274603,"5":-0.15099960885474215,"6":-0.26419828805259277,"7":-0.2105939739785665,"8":-0.04733911748389433,"9":-0.03375825090248007,"10":-0.1913143603697763,"11":-0.06496746232739506,"12":-0.2494010496291969,"13":0.13005447579779988,"14":-0.13398744024163453,"15":-0.33163753478051383,"16":0.08568269657613421,"17":-0.0661116242760731,"18":0.2608732692411342,"19":-0.07822434390841497,"20":-0.10308180320578757,"21":-0.09213676591274161,"22":-0.04511213084953072,"23":0.09089109707698392,"24":-0.11337499213554968,"25":0.017771892694889723,"26":0.028178471916698873,"27":-0.27396841757395085,"28":0.27754070270213044,"29":-0.07501469520890398,"30":0.016367248868329368,"31":-0.0633236746486901,"32":0.05889667601035205,"33":-0.003629355068142465,"34":0.051561211585818466,"35":-0.26896148005370496,"36":-0.06367721323814994,"37":0.00834714854290921,"38":0.10231914810512319,"39":0.19823217069593108,"40":-0.03946879675629002,"41":0.028795507365152392,"42":-0.002225973978342323}},{"sx":1,"sy":1,"depth":43,"w":{"0":0.76074687288499,"1":0.04660967555750754,"2":0.8967026393650548,"3":-1.9607289240030705,"4":0.42861761988547026,"5":0.3222616488182396,"6":1.003040797421935,"7":0.5566262138188927,"8":0.11761328627574322,"9":-1.1594951286773487,"10":0.7068941173826107,"11":0.4167645997651699,"12":1.5058258174495933,"13":-1.7572934244930098,"14":0.40772279998014405,"15":0.1982768633602723,"16":0.834903953899236,"17":0.3003429458797435,"18":-0.15029800828971138,"19":-1.09590592372673,"20":0.3541013549732925,"21":-0.41052568851309024,"22":0.418766363860721,"23":-0.3341415671003636,"24":-0.25670622904620594,"25":-0.3209916375335759,"26":0.18519910312254267,"27":0.023894297863076907,"28":-0.24276809384459813,"29":-0.43424127293789183,"30":-0.38630638269382017,"31":0.10472080044347916,"32":-0.45650182892601454,"33":-0.5423678757221293,"34":-0.6170236789181244,"35":0.11354813783290431,"36":0.26652765083187097,"37":-0.4683144570213861,"38":-0.30771660534173706,"39":0.0741606604938774,"40":0.0017464711887795817,"41":-0.3651572567895298,"42":-0.20780292745278003}},{"sx":1,"sy":1,"depth":43,"w":{"0":0.762057828375732,"1":0.5680195381836818,"2":0.5892318495570896,"3":-1.5822053116585055,"4":0.5735952652610745,"5":-0.05237681831531135,"6":0.1911832081702442,"7":-0.09102617499622259,"8":-0.34681507580065485,"9":-1.9729690231274826,"10":0.9015574435069376,"11":0.6140557146902886,"12":0.16730035624534675,"13":-1.5706807786176078,"14":0.48401832100412,"15":-0.16103306287153873,"16":0.17288027734865613,"17":0.31169768204613124,"18":0.009496925527506654,"19":-2.1366469901711174,"20":-0.13039464404235,"21":-0.5315160225880836,"22":-0.3503453980532481,"23":0.2812573687177497,"24":0.12293610768728358,"25":-0.5203386326443131,"26":0.023908849471185347,"27":-0.08053654051530416,"28":-0.17640830691736362,"29":-0.2663547146764256,"30":0.31134831873696045,"31":0.1832816414608605,"32":-0.2030600062997721,"33":0.18772252226591982,"34":0.20848010180406695,"35":-0.4413513053719197,"36":-0.545351973193751,"37":1.311581052428464,"38":0.08679980401412164,"39":0.1323821456900785,"40":0.23486975342909747,"41":-0.39233292325089086,"42":0.06693188723219211}},{"sx":1,"sy":1,"depth":43,"w":{"0":0.25423142052312886,"1":0.20827291163176825,"2":0.4821182382552213,"3":-0.7887018682326887,"4":0.3069561443308023,"5":0.4208830777412548,"6":0.1928370330225179,"7":0.46290402728022784,"8":-0.13263404264597495,"9":-0.40136041472117195,"10":0.5343756980270256,"11":0.29700291455236005,"12":0.4970486152520811,"13":-1.07904235827282,"14":0.19005649538189673,"15":0.18479952000948194,"16":0.5094727287612252,"17":0.15393984179709586,"18":-0.24264479847617249,"19":-0.4263747268195198,"20":0.12091933065849313,"21":-0.24318049005752387,"22":-0.20457890182849484,"23":-0.216994578201903,"24":0.22696736909907111,"25":-0.2086122532749149,"26":-0.09730727071370357,"27":0.004880123370941508,"28":0.0037143936324826317,"29":-0.1509917145355859,"30":-0.23586582467393266,"31":-0.032036815216876284,"32":-0.14565221127808883,"33":-0.26910279508739554,"34":-0.2834730046718398,"35":-0.22387765298436793,"36":-0.241823432302521,"37":-0.24112160171887345,"38":-0.25657287429608344,"39":0.2646988970898534,"40":0.13508327800330444,"41":0.3286816293323298,"42":-0.18394629487962194}},{"sx":1,"sy":1,"depth":43,"w":{"0":-0.05151843561786548,"1":0.023976405653728022,"2":0.13690836841137757,"3":-0.13462043692810427,"4":0.002913234242805621,"5":0.2896727064816681,"6":0.226875085073749,"7":0.029417196145829664,"8":0.04684006007563019,"9":0.42120136075762166,"10":0.10206547715671041,"11":0.09663049433332782,"12":-0.16836930457705546,"13":0.008969385161877097,"14":-0.15986513800828145,"15":0.007517507154669024,"16":-0.1260627469766297,"17":-0.0002641621407006916,"18":0.10615058523458283,"19":-0.17399598332576802,"20":0.3567248547902326,"21":-0.15557704740268896,"22":0.09561775292122582,"23":-0.029190544661225695,"24":-0.02884940220001559,"25":0.2517680881908615,"26":0.2908155985416525,"27":0.32157462058420105,"28":0.1068819319251721,"29":-0.023103405443503817,"30":-0.08771631070082138,"31":-0.11231439617511307,"32":-0.20655660883991722,"33":-0.12255454690487438,"34":-0.02540130157714651,"35":-0.08755197110849797,"36":-0.06273366778117755,"37":-0.10341308409953985,"38":0.07954600142516478,"39":-0.12212982538458172,"40":0.2175480497436927,"41":0.16881633938494922,"42":0.07964685559970007}},{"sx":1,"sy":1,"depth":43,"w":{"0":0.3419964613713662,"1":0.3447032325335478,"2":-0.3871585021064158,"3":-0.05608672367252543,"4":0.2739002919141695,"5":0.11171752933115182,"6":-0.006457597003040924,"7":0.11560297867603499,"8":-0.028758598176222658,"9":-0.7172267272810835,"10":0.37837989432343505,"11":0.199263840374415,"12":0.16715243112343225,"13":-0.11818358687101929,"14":0.08060518430073663,"15":-0.09683884281868166,"16":-0.015610908182824127,"17":0.24093268729120307,"18":0.19300756786435355,"19":-0.9223795767958073,"20":-0.2624248679716144,"21":0.9006583446934816,"22":0.1000217300294641,"23":-0.23645317191599108,"24":-0.06914092582614097,"25":-0.17969306628066195,"26":0.0412831240568154,"27":0.04081984947964077,"28":-0.3188413247636683,"29":-0.21327583933122787,"30":-0.004602630283364674,"31":0.5177145253992029,"32":-0.1633046810678605,"33":-0.03761779118083564,"34":-0.1890669689160034,"35":-0.2175112140984127,"36":-0.29557843755247626,"37":1.0071896442981678,"38":0.1032496260929823,"39":-0.2600083228369934,"40":0.3264437579815134,"41":-0.1697399261362595,"42":0.3376642601538443}},{"sx":1,"sy":1,"depth":43,"w":{"0":0.428013094979544,"1":0.09140265401667637,"2":0.9426664049364617,"3":-1.2721253229020975,"4":0.2702209765404067,"5":0.3925454533960631,"6":0.813581204476498,"7":0.6230470796491069,"8":-0.05069572657703382,"9":-0.7614398750411092,"10":0.7011342742992711,"11":0.2910690464430923,"12":0.8402934773813437,"13":-1.5172482436444712,"14":0.13998371087021114,"15":0.39549195612179855,"16":0.9670009672958478,"17":0.35672389336615973,"18":-0.04993712599299347,"19":-0.6206211061545126,"20":-0.26824197655343973,"21":-0.31225776615589235,"22":-0.6725841213382728,"23":0.030431347316325578,"24":0.2668249203628157,"25":-0.28336490278775656,"26":-0.48318371907349034,"27":-0.03960354922482817,"28":-0.3184505989394711,"29":-0.17216518876488296,"30":-0.35521264728310054,"31":-0.3676776646732785,"32":-0.26889022723722916,"33":0.16384715207060566,"34":-0.5472374792935742,"35":0.11469955772156908,"36":0.12623200975069804,"37":-0.14244939899262088,"38":-0.316638325918853,"39":-0.3756155425526107,"40":-0.32396445993681344,"41":-0.040979311357202605,"42":0.04892598880875258}},{"sx":1,"sy":1,"depth":43,"w":{"0":-0.2489776682823125,"1":0.015777804345970554,"2":-0.1295859558775034,"3":0.29811627228096527,"4":-0.28717102812801665,"5":0.06350007931376542,"6":-0.025657107671763216,"7":0.07868833712548338,"8":0.007577039708444087,"9":0.6277083301912004,"10":-0.3479456109260532,"11":-0.0964174674414923,"12":-0.16175278038376464,"13":0.29771107439584193,"14":-0.139788894562616,"15":-0.06418122441351244,"16":0.0802260051160041,"17":-0.06449607216589269,"18":0.24074669893622183,"19":0.5120007698396304,"20":-0.014204358803052857,"21":-0.10703551652255071,"22":0.05845385001663745,"23":0.04802973298625137,"24":-0.12283707498966506,"25":0.07720384233002049,"26":0.016806244188082763,"27":0.1679636633361395,"28":-0.10641584979170308,"29":-0.16159472029011104,"30":0.06461484453812551,"31":-0.2688389327693054,"32":-0.11922370092920298,"33":0.05724521925605545,"34":-0.0009957504052949785,"35":-0.09723164914624687,"36":0.07237424249577681,"37":0.030706815844229903,"38":-0.1358613770534184,"39":0.23653460549425473,"40":-0.22987082288032173,"41":-0.07842102567893881,"42":0.13733093415549766}},{"sx":1,"sy":1,"depth":43,"w":{"0":-0.009404287147268138,"1":-0.06180776688927576,"2":-0.1908334704613465,"3":-0.0869289040570855,"4":-0.1266318090194574,"5":0.07057340145156943,"6":0.014991940461787883,"7":0.04129020423527976,"8":0.05003048152714583,"9":-0.05593120708993779,"10":-0.1648930790319594,"11":-0.17526794588843903,"12":-0.21767306926357496,"13":0.16487930765135542,"14":-0.05792572296523669,"15":0.45230429349619367,"16":0.10734088719453445,"17":0.1388277323860095,"18":0.08734367877902674,"19":0.0753505627742747,"20":-0.020340633595285346,"21":-0.05603288330837795,"22":-0.028896312420298196,"23":-0.21325437161455266,"24":-0.06000654115380325,"25":-0.24888092710108312,"26":-0.0002691512980091633,"27":0.14040770806717093,"28":0.2626454472546018,"29":-0.11701950040434439,"30":-0.017995523608981216,"31":-0.16712404883211313,"32":-0.10679299251037046,"33":0.5291416752878505,"34":-0.03180611604516664,"35":0.25614929646818735,"36":-0.18651811081778735,"37":-0.049174633989842446,"38":-0.16639016617703203,"39":0.11835784581850735,"40":0.29763177389146256,"41":-0.19316322621807305,"42":-0.028269263452198944}},{"sx":1,"sy":1,"depth":43,"w":{"0":2.7523337223406323,"1":1.389685994254063,"2":0.5046182087657493,"3":-2.9260636200584953,"4":1.6634288327005864,"5":-0.35548479535371824,"6":0.514897799583709,"7":0.5822673620624896,"8":-0.2987152430890249,"9":-5.462201409322258,"10":2.5989080008740206,"11":1.107175668872939,"12":0.5302931206639063,"13":-2.890467029916627,"14":1.464988777438339,"15":-0.4495373432087459,"16":0.6014118490281067,"17":0.37866280472690816,"18":-0.3252486935550831,"19":-5.212999378281959,"20":-0.06515864893152223,"21":-1.303228300036044,"22":0.4531834040448193,"23":0.21161154796991657,"24":0.23104150157011857,"25":-0.4289207808909252,"26":0.1285374123802483,"27":-0.059767130773697184,"28":-0.12808083958906702,"29":-0.3197338654981132,"30":0.10336945645942422,"31":0.16020519363273716,"32":0.08598533816324903,"33":0.12410783282669234,"34":0.09970892682969512,"35":-0.11819845645153769,"36":0.36549488302338673,"37":-0.9554641231858715,"38":-0.07827283835065547,"39":0.08853587153486592,"40":-0.12326752174914347,"41":0.06116556019310179,"42":-0.024511414573318912}},{"sx":1,"sy":1,"depth":43,"w":{"0":-0.07070547727103757,"1":0.12054994885926258,"2":-0.1864249455189493,"3":-0.1319295222897921,"4":0.2006615747912874,"5":-0.08878455983732543,"6":-0.1449945497719769,"7":0.004567857787367477,"8":-0.0485032874696179,"9":-0.3462367204488516,"10":0.3652328862605359,"11":-0.07998526313329245,"12":-0.350810169597527,"13":-0.11358296365614448,"14":0.13471996249258178,"15":-0.23172805018638643,"16":0.15762698226866612,"17":0.2544657544137151,"18":0.10018704922257081,"19":-0.3826297704720772,"20":-0.2873864867772813,"21":0.6839041902745734,"22":-0.20867556378533142,"23":-0.09447561716065614,"24":-0.12163229119400366,"25":0.18755656225843081,"26":-0.09499700421746379,"27":-0.07966560523943098,"28":-0.23754555809016387,"29":0.11110507535154739,"30":-0.1171591339786048,"31":0.4193685625372691,"32":0.1988745320296512,"33":-0.14913779120924023,"34":-0.18152677420401225,"35":0.28904441630513916,"36":-0.1577250910212291,"37":0.26999538205561574,"38":-0.4034533481785514,"39":0.24930393507736917,"40":-0.1174114402856042,"41":-0.08204941487740297,"42":-0.07825174213060512}},{"sx":1,"sy":1,"depth":43,"w":{"0":0.5673150784318551,"1":0.02154656308297296,"2":0.21768749038248772,"3":-0.27948743043732194,"4":0.17289256300043837,"5":0.026667460570973574,"6":0.06447213676750876,"7":0.13777810157964754,"8":0.35363897866500743,"9":-0.4325946401057871,"10":0.23871150338843228,"11":0.4177271095714381,"12":0.2479277871488735,"13":-0.3929214588863663,"14":0.12644660498234006,"15":0.15826719394611072,"16":0.25027184922510926,"17":-0.009797930098544136,"18":-0.18655304007102463,"19":-0.16948522699231836,"20":-0.1755631740476512,"21":-0.207426683341204,"22":-0.30865281590987387,"23":-0.1930558600004596,"24":-0.37236529866811097,"25":0.6026026324151226,"26":-0.02321102233055654,"27":0.5870121552042386,"28":0.01587372666222518,"29":-0.0952905396083745,"30":-0.056273498849238185,"31":-0.21981791509695262,"32":-0.17593255563305177,"33":0.4216637714039064,"34":-0.2566162566171615,"35":0.005047945086299903,"36":0.15839877063914604,"37":-0.19070150369239838,"38":-0.26983104444393335,"39":0.1593960950040924,"40":0.06956071431980596,"41":0.2549821063357212,"42":-0.15015619103434732}},{"sx":1,"sy":1,"depth":43,"w":{"0":1.3292161949483075,"1":0.15726180513131585,"2":1.1055115011214114,"3":-1.7258892165322863,"4":0.6783244941438238,"5":0.13871765637047678,"6":0.4634921524924718,"7":0.7315495358717815,"8":-0.036047513389019875,"9":-2.1462798815720525,"10":1.4734515916207989,"11":0.3122620002047775,"12":0.8878324801939164,"13":-1.9719613002839185,"14":0.6445016880418465,"15":0.3249767780037104,"16":0.6775669328814102,"17":0.544325358872972,"18":-0.41749820207201865,"19":-2.0650703922752394,"20":0.08848631897828166,"21":-0.6626694069391601,"22":0.18380051977992803,"23":-0.6787263676086537,"24":0.13484027858859401,"25":-0.22796466170685034,"26":-0.570163692759482,"27":-0.04209207996831617,"28":0.0854219676681284,"29":0.14627384032138374,"30":0.20184570022521284,"31":-0.6816534518819196,"32":0.14856777106765973,"33":-0.4948865314317359,"34":0.03830722793636225,"35":-0.020831858640410768,"36":0.08823473563962271,"37":-0.37803061730030235,"38":-0.15168814194567498,"39":-0.07562733309040384,"40":-0.11998926922731562,"41":0.010515024559881968,"42":-0.10838802497733135}},{"sx":1,"sy":1,"depth":43,"w":{"0":2.408840238162155,"1":0.9077045372971484,"2":1.0673258956130816,"3":-2.802646371201942,"4":1.187373266008167,"5":-0.08668648991403763,"6":0.836187304996774,"7":1.17161792160462,"8":-0.1604387845178022,"9":-4.624625158136076,"10":2.4805326992408654,"11":1.2726699008636926,"12":1.2151281354651413,"13":-3.051654238654489,"14":1.4943037850539271,"15":0.24812600646125685,"16":0.8693591686692389,"17":0.7103069830976553,"18":-0.17119057851970593,"19":-4.332342313052494,"20":-0.0880789358732649,"21":-0.21812726260012236,"22":-1.245742021689887,"23":0.14080293490155382,"24":0.2437848889795528,"25":-0.16932545744118419,"26":-0.03880753023708858,"27":0.0592210371647418,"28":-0.062163697493900175,"29":-0.2896485009890339,"30":0.045552576759854406,"31":-0.07928052399579157,"32":0.11814429714675198,"33":0.6427946377150374,"34":-0.12662387146995796,"35":-0.06283462053181775,"36":0.3920301962422609,"37":-0.9297095687994862,"38":-0.19171474056960175,"39":0.1130726343238713,"40":-0.12433613638221766,"41":0.13519284775527157,"42":-0.2168365901648007}},{"sx":1,"sy":1,"depth":43,"w":{"0":1.8131892253689204,"1":0.9149651920989064,"2":0.7366869300304448,"3":-2.4390537867483104,"4":0.6500273749963407,"5":0.0745835910180461,"6":0.5637653677577239,"7":0.3705260641662032,"8":-0.09804566029196174,"9":-2.9088962891671972,"10":1.4912803137391486,"11":0.30083094937887245,"12":0.6630221329287924,"13":-2.1251999564581356,"14":1.018262459361686,"15":-0.0911655304269266,"16":0.5955396011340055,"17":0.3781637119424686,"18":-0.05287485843126743,"19":-2.812362900262923,"20":-0.6177877164674329,"21":-0.9102130512457631,"22":0.045540029324824524,"23":-0.693150645407036,"24":-0.013561715927327467,"25":-0.7112091953914776,"26":-0.1221679971906736,"27":-0.1249370256170459,"28":-0.5088070164053556,"29":-0.12572890255882538,"30":0.44074070330633014,"31":0.2100222007272374,"32":-0.45172402737609785,"33":-0.023202568968006394,"34":0.16356946774299402,"35":0.015355954914806527,"36":0.04686941054748763,"37":2.4114246411444835,"38":-0.01311465541608585,"39":-0.03399652004985258,"40":0.23650201314235159,"41":-0.5176852023661328,"42":-0.07407692527147151}},{"sx":1,"sy":1,"depth":43,"w":{"0":0.07224296556415652,"1":-0.3193085734677816,"2":-0.01829115568105674,"3":0.11237820149249991,"4":-0.24709020457606576,"5":-0.25403111979342025,"6":0.22978609860406055,"7":-0.0015586838875178899,"8":0.1129420873909689,"9":0.027053447033570766,"10":-0.04700136076945841,"11":-0.11660805692167914,"12":-0.058673123503400405,"13":-0.004991496716238619,"14":0.15989955483225932,"15":0.21220622551292262,"16":-0.4500962185586495,"17":-0.09485478791782678,"18":0.08990056893845581,"19":-0.0110077211158875,"20":0.07577415302498636,"21":-0.1907765215196991,"22":-0.19948533398540785,"23":-0.2739802454800236,"24":-0.02206008335189531,"25":-0.07825431029703507,"26":0.05872397225609112,"27":-0.38310313565672,"28":-0.1911648800361358,"29":0.20567512545724326,"30":-0.21201351903949062,"31":-0.061564425453353964,"32":0.0137301748097763,"33":0.3031569800512756,"34":0.1066648723402335,"35":0.19022392825641635,"36":0.32451688196006145,"37":-0.2653685840899049,"38":-0.1287164105930464,"39":-0.07394591722803423,"40":0.011440800941223706,"41":-0.02495663912177124,"42":-0.17977027144262528}},{"sx":1,"sy":1,"depth":43,"w":{"0":1.830345272036177,"1":0.9620861193967982,"2":0.8453709006982961,"3":-2.194555480427472,"4":0.7592308986513736,"5":0.1817115871155763,"6":0.7242653547482907,"7":0.3690796871310924,"8":-0.3520596977025124,"9":-2.9990495480275023,"10":2.110753287549915,"11":1.257538449647475,"12":0.6491983147174136,"13":-2.358095503980525,"14":1.2049973554236597,"15":-0.07030654917763693,"16":0.6568677008567303,"17":0.7526953356514753,"18":-0.7320508028798776,"19":-3.151199996196724,"20":-0.02353310157222501,"21":-1.100129161194461,"22":-0.7188482893910009,"23":0.3682000127899201,"24":-1.079630500709291,"25":-0.26129196428755314,"26":-0.03015139394451548,"27":0.37082877549317905,"28":0.04867144439089811,"29":-0.48652306863743067,"30":-1.125970408413345,"31":0.17549533078936233,"32":-0.6931772366219757,"33":0.16584609702020978,"34":-0.7296217529571826,"35":0.1142255286009762,"36":0.3568551158433283,"37":-1.0372037688806544,"38":-0.05439272637181613,"39":0.33291884833391394,"40":0.13393208560047135,"41":0.20984062941904805,"42":0.0052194336252821185}},{"sx":1,"sy":1,"depth":43,"w":{"0":0.5966095059229647,"1":-0.02444400361177647,"2":0.7529412706572415,"3":-1.2209143598693954,"4":0.12741722251809076,"5":0.16844496390192923,"6":0.6122707129868548,"7":0.43877316107128084,"8":0.1980447464079228,"9":-0.7844436319497966,"10":0.8071535634535784,"11":0.0439031618886677,"12":0.5432234947544011,"13":-1.1645488215549997,"14":0.3605288922495123,"15":0.44956543396907606,"16":0.6146156823396871,"17":0.5251253841573491,"18":-0.05097539312875858,"19":-0.5639135897782203,"20":-0.272874414127782,"21":-0.021548166539511807,"22":-0.5861932243162812,"23":-0.3407578980287655,"24":0.3735011332492839,"25":-0.34563951879531757,"26":-0.03603052040517869,"27":-0.1286035484682894,"28":-0.11016975783004532,"29":-0.1643198440936685,"30":-0.35337131918900444,"31":0.018284550236394713,"32":-0.2449571898174984,"33":-0.40717927239453006,"34":-0.272058257889594,"35":-0.2977486924325593,"36":-0.4440850354845964,"37":-0.2888102423302725,"38":0.00234270378456369,"39":-0.46630309375176626,"40":0.027299546187814286,"41":-0.01924080226477488,"42":0.1950970214545492}},{"sx":1,"sy":1,"depth":43,"w":{"0":0.676419225594722,"1":0.10725258084095268,"2":0.37545435049049486,"3":-0.7670223070250962,"4":0.162689765807388,"5":0.1276537147872045,"6":-0.09582125078377624,"7":0.19587455829513375,"8":-0.11455907466380585,"9":-1.2400171188737514,"10":1.0393353271007766,"11":0.20663337553136302,"12":0.25324931030602427,"13":-0.6397051443824885,"14":0.4462438120253724,"15":-0.006906824543689124,"16":-0.14233057816905514,"17":0.1264048905661633,"18":-0.06828262393569634,"19":-1.4811372279644386,"20":0.31666253165510916,"21":-0.2791014822592186,"22":0.1118322265983494,"23":0.001977178636730092,"24":0.05617506610579999,"25":-0.38465458583033174,"26":-0.012291047615337558,"27":-0.006779861652121557,"28":-0.025774013082400484,"29":-0.16771828742426265,"30":-0.27523150667629,"31":-0.36485939130680073,"32":-0.19382244466125093,"33":0.29762326734556577,"34":-0.040358393700088264,"35":-0.0180897652986957,"36":0.12918950454449393,"37":0.14201335044969426,"38":0.05901504173490244,"39":0.14806321301596082,"40":0.3201615060113124,"41":0.24392076129583634,"42":-0.0897707201620132}},{"sx":1,"sy":1,"depth":43,"w":{"0":1.4507692299514392,"1":0.6472747300301896,"2":1.0629226064899722,"3":-1.831946639226089,"4":0.18706997620943244,"5":0.35167046092373816,"6":0.9136797557102903,"7":0.4183166807006804,"8":0.06512634111378901,"9":-1.8693276809755126,"10":1.0655888247250234,"11":0.4399509260276997,"12":1.054585776152958,"13":-2.0374004260530714,"14":0.65212088220919,"15":0.4725317130213358,"16":0.959123138577138,"17":0.623749244310621,"18":0.26689914541355525,"19":-1.7317652769915504,"20":-0.25962397426048295,"21":-0.6663451457290603,"22":-0.4854450523992706,"23":-0.6504791065433214,"24":-0.6566904931953161,"25":1.45302095655379,"26":-0.012828458151437863,"27":0.24786545348532565,"28":0.08534306096789196,"29":-0.3328217052562278,"30":-0.04239814269586283,"31":-0.034864010632824745,"32":-0.09891669745970413,"33":0.33924455035061507,"34":-0.5656195968187049,"35":0.13678411383050626,"36":-0.7845630435827387,"37":-0.10628408229753286,"38":0.0005099457923736367,"39":-0.08077510096861917,"40":0.4827546394115458,"41":-0.17899029055320992,"42":-0.20184949622089962}},{"sx":1,"sy":1,"depth":43,"w":{"0":0.4075362394982156,"1":0.5853317436748874,"2":0.08006528668639717,"3":-0.2914989225663911,"4":0.0416946047315781,"5":-0.011383083808826803,"6":0.1975190439447679,"7":-0.25990263714238665,"8":-0.138621375165316,"9":-0.8768154370387864,"10":0.2916742777758178,"11":0.166292141358511,"12":0.20774123899456165,"13":-0.0616612509174574,"14":0.12542980375876883,"15":-0.0992914472586389,"16":0.22600740294700436,"17":-0.10449859316461069,"18":-0.10348556987854186,"19":-0.5898325879390358,"20":0.15226674086898162,"21":-0.0210690918343582,"22":-0.16802069782055368,"23":0.19811324973492137,"24":0.15175518462715698,"25":0.6203027847064205,"26":-0.235576196964328,"27":-0.16384317058374892,"28":0.3570938080520931,"29":-0.2728008599907721,"30":-0.25830937282459243,"31":-0.20870432057151528,"32":-0.26665229190813744,"33":0.2605737751947555,"34":-0.27027840030569095,"35":-0.0656074435543185,"36":0.30758682242192054,"37":-0.22583248867498534,"38":-0.29835293453870976,"39":0.04008983672264849,"40":-0.21489630064208673,"41":0.13686121254013028,"42":0.4035960229263024}},{"sx":1,"sy":1,"depth":43,"w":{"0":0.1863959648223673,"1":-0.35039817794443157,"2":-0.24577505924222762,"3":0.0006913393929237749,"4":0.17118959095919245,"5":-0.16186605809531146,"6":0.014549304577505954,"7":-0.058024439403018185,"8":0.07817349223763963,"9":0.08434564826071601,"10":-0.12186406483628758,"11":-0.01801001795373375,"12":0.00896844159129825,"13":0.0030146538336348117,"14":-0.11804468966215757,"15":-0.24506323394552684,"16":0.136079490466672,"17":0.03644759774010756,"18":-0.03581196086055045,"19":-0.13546485649342768,"20":-0.011514515805345753,"21":-0.20340501358293764,"22":0.5366063711218634,"23":0.34753019845953353,"24":0.0687021365111155,"25":0.2250409671394194,"26":0.2556673946505044,"27":-0.10680345071564615,"28":-0.1441880371181775,"29":0.02079004336031734,"30":-0.05498455630991062,"31":0.16939538306638605,"32":0.2609776626676881,"33":-0.02462635199888734,"34":-0.011101904531377466,"35":0.031399277810172856,"36":-0.07047231909088454,"37":-0.11561632416514545,"38":0.002521273159111873,"39":-0.0043903993982738155,"40":-0.011334873544609778,"41":-0.27138112545827364,"42":0.518713715431481}},{"sx":1,"sy":1,"depth":43,"w":{"0":0.6402155292974587,"1":0.23310268125315486,"2":-0.21114707980737127,"3":-0.25499387435355403,"4":0.17158170256881602,"5":-0.02967653119069113,"6":0.3426967370594379,"7":0.4299265306585703,"8":-0.25110702007673313,"9":-1.2973275117756573,"10":0.5455538545249629,"11":0.22693743118049758,"12":-0.05181264006290258,"13":-0.39820527380014215,"14":0.4318029436456863,"15":-0.19885051436805098,"16":-0.010773275543602977,"17":0.08070551891858278,"18":-0.14228299186178472,"19":-1.0568130513168426,"20":-0.04047608558943286,"21":1.164852140252545,"22":-0.2710150706893613,"23":-0.2556464904015406,"24":0.10472232629311808,"25":-0.34085922616999254,"26":-0.02343057482307759,"27":-0.21095258557834748,"28":0.0878169014282065,"29":0.31235592432667264,"30":-0.39158130212672065,"31":-0.39748087248989045,"32":0.14889281537216031,"33":0.31568118186285654,"34":-0.022887593481053438,"35":-0.13551841618290736,"36":-0.4549269833134096,"37":-0.36129319468347915,"38":-0.0918482510513025,"39":0.19407845266070978,"40":-0.17687053263296879,"41":0.11783661181941475,"42":0.13204325206663692}},{"sx":1,"sy":1,"depth":43,"w":{"0":1.3423229960208842,"1":0.41149742878091405,"2":0.5060121239243744,"3":-2.098264357945707,"4":0.4809230280910558,"5":0.03415711369980324,"6":0.6934458531944722,"7":0.3897965770489077,"8":-0.004239368367882172,"9":-2.96520827206432,"10":0.926222745939949,"11":0.5313924722004848,"12":0.7124976860239477,"13":-1.9006410023254587,"14":0.5808924221892734,"15":-0.24082201361681954,"16":0.3888892990534511,"17":0.1404463529563489,"18":-0.05538347277203217,"19":-2.9992285739078497,"20":0.13123187941121825,"21":-0.6466264166502986,"22":0.7125163204919566,"23":0.2854803368553488,"24":-0.7401654928168201,"25":0.004435474049362103,"26":0.34379284891844036,"27":-0.15935169367804725,"28":0.02358891428198106,"29":-0.22387089764606843,"30":0.31273497993087546,"31":0.31308779111745544,"32":0.41360170194137974,"33":-0.46845489401052365,"34":0.3034980410034097,"35":0.06291529484799574,"36":0.24345542993398742,"37":-0.7361611827071649,"38":0.16335725404931686,"39":-0.7455013179443046,"40":0.11825287114737884,"41":-0.411606889627393,"42":0.17108295685961444}},{"sx":1,"sy":1,"depth":43,"w":{"0":-0.057612042350712295,"1":0.009003894630202632,"2":0.4337327097048304,"3":-0.6100758184823243,"4":-0.022005110365819695,"5":0.31260513039403426,"6":0.5019661424039196,"7":0.15978553870395482,"8":0.2514944318443574,"9":0.2690266884584169,"10":-0.17309932971748054,"11":-0.20105123879787196,"12":0.22279678570304268,"13":-0.37309681963007596,"14":-0.10143949584406436,"15":0.14067726176660353,"16":0.551768756261306,"17":0.00508341194038904,"18":-0.03353259539124348,"19":0.18343888152559173,"20":-0.1784812922592632,"21":-0.08942540089217903,"22":-0.2354751541059438,"23":-0.030989388925028432,"24":0.17438182798727375,"25":0.006265012277523975,"26":-0.019621012911129915,"27":-0.08473635806446575,"28":-0.20759406179889825,"29":-0.004136421274716018,"30":-0.17946044993267518,"31":-0.004642431226520264,"32":-0.11688204072285889,"33":-0.30799810698670826,"34":-0.2748075545217809,"35":-0.058982141651855204,"36":-0.012513720030151922,"37":-0.23694329501634742,"38":-0.1868804596912642,"39":0.2747090403823147,"40":0.24597614509397164,"41":-0.14818743637104073,"42":-0.06549595391183652}},{"sx":1,"sy":1,"depth":43,"w":{"0":0.6618075930863104,"1":0.36472170400348286,"2":0.5877170509148215,"3":-0.955999926398436,"4":-0.010105036314702748,"5":0.13274884566731102,"6":0.18557612268687146,"7":0.40030669087621407,"8":-0.22354150081712237,"9":-1.0422945748461774,"10":0.7839050339946724,"11":0.28066914571309826,"12":0.28281864248431937,"13":-0.8180618381777214,"14":0.33794627632529833,"15":0.18705351024636702,"16":0.4444343500731082,"17":0.49226351320036144,"18":0.03291577751007641,"19":-0.9722071886486856,"20":0.1021185192965014,"21":-0.36854495951216937,"22":-0.32827385979651863,"23":-0.36250310168742866,"24":-0.4275672729192316,"25":-0.17491453284026953,"26":-0.3467081127271249,"27":0.01187022804924887,"28":0.010697063116315093,"29":0.00574104208902719,"30":-0.010505482915335927,"31":0.13446105498324035,"32":0.1866251504341822,"33":-0.2762593837365268,"34":-0.2947425261745828,"35":-0.3091068301913521,"36":0.06432922907180148,"37":0.061961599182064474,"38":-0.07425364620452388,"39":0.02323272248379058,"40":-0.07198601512853879,"41":0.2912389931981047,"42":-0.014389839187731818}},{"sx":1,"sy":1,"depth":43,"w":{"0":-0.058728780299008125,"1":-0.08472301231878594,"2":0.014921444023739811,"3":-0.20870603042224814,"4":-0.020810427414232086,"5":-0.12673434969208364,"6":0.1177217763741663,"7":-0.040730552493675624,"8":0.18009719953597567,"9":-0.057633600344407114,"10":-0.22537443680802122,"11":-0.0033678794340228266,"12":0.20213770372479367,"13":0.1881753419639859,"14":-0.11360838843959528,"15":0.3061817712174571,"16":0.0590069200164055,"17":-0.12574371834612696,"18":-0.07753125545520445,"19":-0.05309878168281358,"20":-0.03990445058923129,"21":-0.1626597790524182,"22":-0.012797632837753465,"23":0.38184815454596827,"24":-0.24033550220296523,"25":-0.44713114953440664,"26":-0.00024246464953558275,"27":-0.33409651954731734,"28":-0.0021456862651196102,"29":-0.24303515844320206,"30":0.37263494728846797,"31":-0.03212951284490983,"32":0.332364284117046,"33":0.18314458077378576,"34":0.5430928331171002,"35":-0.17523644281910375,"36":-0.2825050570638506,"37":-0.0034281389679035297,"38":0.1758671954863302,"39":0.034435036699211434,"40":-0.01368611922624338,"41":-0.28822090309993403,"42":-0.29804155319181924}},{"sx":1,"sy":1,"depth":43,"w":{"0":0.45994114407977754,"1":-0.024874526830358082,"2":0.6956204133013758,"3":-0.8222069125810434,"4":0.2280699659525433,"5":0.34222986225050783,"6":0.6986584570883736,"7":0.183614615631671,"8":0.25215306208652827,"9":-0.06853752854223923,"10":0.4125481305959187,"11":-0.14731667074210011,"12":0.5115263637225558,"13":-0.7664441807249309,"14":0.042422649192370626,"15":0.10268262245788745,"16":0.6554550388182403,"17":0.36957408299305516,"18":0.16543230072214757,"19":0.10548534111493879,"20":-0.22020824651155443,"21":-0.20901804680347655,"22":-0.49588881796427053,"23":-0.3311079210668473,"24":-0.1638257132102273,"25":-0.1665953825525691,"26":0.05423421519193407,"27":-0.07965783909850167,"28":-0.15601595640383187,"29":-0.14279865396612618,"30":-0.1415944081845941,"31":-0.15969537027084693,"32":-0.1781534627037056,"33":-0.12765404677063544,"34":-0.3635893381652003,"35":-0.18242607341728218,"36":-0.0010597894735094896,"37":-0.214309351439411,"38":-0.1551729400252546,"39":-0.15964132118079138,"40":-0.15927110562284846,"41":-0.15668485959449413,"42":-0.2546224843288361}},{"sx":1,"sy":1,"depth":43,"w":{"0":0.8858415078764624,"1":0.2276834308175235,"2":0.5699279693283306,"3":-0.9072070686977142,"4":0.3947811676060071,"5":-0.116340940339618,"6":-0.07417504924054379,"7":0.011511603457254264,"8":-0.356331313833988,"9":-1.6885934727678644,"10":0.8599812095059861,"11":0.10665344283037338,"12":0.35900866366264844,"13":-1.0590636870165946,"14":0.6916723931482677,"15":-0.0894934676509286,"16":0.1180427296439083,"17":0.13209996518772646,"18":-0.22742586691891226,"19":-1.755878821494981,"20":0.24801224121279758,"21":-0.5539237205662384,"22":0.17978421488317195,"23":0.13803071222246271,"24":-0.05263352839602979,"25":-0.008759532028437707,"26":0.2710314424872441,"27":-0.03759256554552861,"28":0.08911412970607926,"29":-0.4024635570109801,"30":-0.12533626363673334,"31":-0.39732168835221215,"32":-0.3706805682214512,"33":0.25990180994637996,"34":0.09504376275008812,"35":0.04800642962350023,"36":-0.5393204198824337,"37":-0.5667494228689715,"38":0.19921475289002147,"39":-0.4835242592753531,"40":0.2405485230475275,"41":0.14020270588120337,"42":-0.33622551703225223}},{"sx":1,"sy":1,"depth":43,"w":{"0":-0.19815549982585068,"1":-0.14841646337471617,"2":0.32774128447509215,"3":0.22424507599566743,"4":-0.03934797626984951,"5":0.012907911793059161,"6":-0.1149539622523262,"7":-0.020423861971711962,"8":0.3228851301994245,"9":-0.1854653900872949,"10":0.03357833734322492,"11":0.04518222979641993,"12":-0.08068536531822795,"13":-0.04084346827754333,"14":0.021034976214237798,"15":-0.015508868712626812,"16":-0.00035088234852263204,"17":-0.16442381275673662,"18":0.21562682131330874,"19":0.416560200781553,"20":-0.1924551222867358,"21":-0.11331434693189416,"22":-0.0315165838032724,"23":-0.1369800945920203,"24":-0.28881564134836957,"25":0.5405732102376503,"26":0.08564799676085487,"27":-0.16538324909568097,"28":-0.03192080153534532,"29":-0.0973145944538602,"30":0.23564968879923417,"31":-0.1098123723018846,"32":-0.017302754001738287,"33":-0.054718983935454456,"34":0.09520314424119508,"35":0.5059048898737079,"36":0.41572392540107606,"37":-0.12423250384453936,"38":0.006755414002982381,"39":-0.0215321890966539,"40":0.06994325832824173,"41":-0.009504270260329073,"42":-0.004332468777176749}},{"sx":1,"sy":1,"depth":43,"w":{"0":0.23461587265947503,"1":-0.3278323223727392,"2":-0.005302573618759332,"3":-0.34810549528183954,"4":-0.11907865154831775,"5":-0.04362357285379204,"6":-0.10387507159008122,"7":-0.06832105867597993,"8":-0.26602320581053474,"9":-0.05292658122652501,"10":0.05882511285249387,"11":0.042817462467638,"12":0.05019447487868974,"13":-0.16213243248027748,"14":-0.03002086062608815,"15":-0.07774467276955818,"16":-0.11200816710223721,"17":0.04830359927827152,"18":0.04967381887963016,"19":-0.03278824064250684,"20":0.07865293653951742,"21":-0.10974682876915336,"22":-0.038315283500936756,"23":-0.004741649802205143,"24":-0.005747803570376042,"25":-0.024622171895018877,"26":-0.095314594498259,"27":0.20374249500257266,"28":-0.1502691185081336,"29":0.09035990328712794,"30":-0.03333694055912007,"31":-0.3440579652052298,"32":0.006767529642232054,"33":-0.1228511173354571,"34":0.001207841604285404,"35":-0.07848212290070493,"36":-0.017861096859743634,"37":1.0775730055422337,"38":-0.0539236767790455,"39":0.1690052909466725,"40":-0.01949560459312171,"41":0.19252981756548182,"42":-0.018146327382772054}},{"sx":1,"sy":1,"depth":43,"w":{"0":0.6526197598146009,"1":0.2817458998624974,"2":0.2420927460847763,"3":-0.6362109613069216,"4":0.3577617795418836,"5":0.19547425622669237,"6":0.6234749453205715,"7":0.2242588681148346,"8":-0.1594011369637875,"9":-0.9405348774968778,"10":0.8736197910340192,"11":0.38480644375194967,"12":-0.12151212205416932,"13":-0.5569640893447736,"14":0.20114945365816644,"15":-0.12678515008833677,"16":0.4379045790867045,"17":0.10798807291433349,"18":-0.13786613609925552,"19":-1.1674397553104525,"20":-0.07527355047352395,"21":-0.4523261596305976,"22":-0.3314563327884369,"23":0.020641830827048603,"24":0.007327952055838023,"25":-0.43847632576183504,"26":-0.4416128008236905,"27":0.11707462840755567,"28":-0.10517615536301705,"29":0.018567434516054873,"30":-0.36718651072082237,"31":-0.25414253272818954,"32":-0.2726860909393528,"33":0.15662035914865985,"34":-0.2497239839925445,"35":-0.09784924412959167,"36":-0.36667894115821115,"37":0.9535352062236622,"38":-0.11811804101877116,"39":0.22757245982384247,"40":0.08146324064433833,"41":0.29460201381144163,"42":-0.06684527334678031}},{"sx":1,"sy":1,"depth":43,"w":{"0":2.4924182513914332,"1":1.0687187707718555,"2":0.7065621098641902,"3":-2.653089433055707,"4":1.3131058223861416,"5":-0.11040858349552249,"6":0.5843013067033639,"7":0.8967730411323845,"8":-0.3141360963370694,"9":-4.588308982664304,"10":2.2666010828609617,"11":0.8980581004198274,"12":0.5474145880675705,"13":-2.4956856407398864,"14":1.2387325824201405,"15":-0.29286163932084397,"16":0.44021465124976306,"17":0.5142966661406247,"18":-0.41500141227514076,"19":-4.28823317690381,"20":0.055342426164435354,"21":-1.0289311344845062,"22":0.5074178122241345,"23":0.11090461949971347,"24":0.23941510195775967,"25":-0.18285068431421725,"26":0.15594992667936988,"27":-0.07067504473327048,"28":0.08938701074171944,"29":-0.26312925074575644,"30":0.060855152732779666,"31":0.0750278472324892,"32":0.1547153831568105,"33":0.032340251254178165,"34":0.019647424720332367,"35":-0.14374716181247105,"36":0.19455181464478352,"37":-0.04608843546191449,"38":-0.16994059360816982,"39":0.004134583591069444,"40":-0.12698658181997602,"41":0.210808756026973,"42":-0.09167855102708802}},{"sx":1,"sy":1,"depth":43,"w":{"0":0.8279039320556395,"1":0.5513699048957869,"2":0.7725910425316922,"3":-1.2908581084162878,"4":0.4305348180247614,"5":-0.00552806035703768,"6":0.5429736197444347,"7":0.5800048608671878,"8":-0.24702339934182482,"9":-1.4924780085206288,"10":1.163530648095749,"11":0.5892406837259233,"12":0.5689851464650267,"13":-1.451156966629152,"14":0.2593453216352021,"15":0.22527896097437403,"16":0.4968432352541348,"17":0.1818205794969683,"18":-0.12898237274392693,"19":-1.6089535973071238,"20":0.13952744622820537,"21":0.02146937441418093,"22":0.29710547361601525,"23":-0.45463735321863813,"24":0.23191364075719384,"25":-0.4967855941018944,"26":-0.007203707382364567,"27":-0.26521406738322817,"28":0.06847903984726993,"29":-0.2729074735932806,"30":-0.02247415352467057,"31":-0.05960765927427934,"32":0.11317665061523331,"33":0.39544614152837454,"34":-0.018140592488180493,"35":-0.4225427320634381,"36":0.10327412321379557,"37":-0.5478935274372,"38":-0.05688428164687843,"39":0.0026848937324366086,"40":-0.01984725760206897,"41":-0.39584740783230965,"42":-0.07080267526364939}},{"sx":1,"sy":1,"depth":43,"w":{"0":0.6168858276672935,"1":0.5109948012121213,"2":0.33698503305533434,"3":-1.3085296072379138,"4":0.2052354989067073,"5":0.20382132648021392,"6":0.856292654219103,"7":0.2139747019720901,"8":0.2655936443608178,"9":-1.381375461776262,"10":0.5588508548050531,"11":0.26040297717315075,"12":0.3224961580601056,"13":-1.3409369914837437,"14":0.6388520342112364,"15":0.03742453640422336,"16":0.651954328402879,"17":0.21984503106226094,"18":0.13731313887449004,"19":-1.3410163943168512,"20":-0.2772802704426826,"21":1.5842705711377476,"22":-0.3134122520562572,"23":-0.33036596430889875,"24":-0.4217951564700316,"25":-0.09432767256440133,"26":0.25664278728232576,"27":0.10965790780609064,"28":-0.3642725984067502,"29":-0.3507297132437356,"30":-0.4934521720150587,"31":-0.42578943791765866,"32":-0.3263330661890138,"33":0.12000867312539645,"34":-0.3621293641530182,"35":0.18868315775778227,"36":-0.4286732843154615,"37":0.008254712364384242,"38":0.08584573601817663,"39":0.21101223696989874,"40":-0.12926329260929054,"41":0.23195553658916745,"42":-0.31325623026260724}},{"sx":1,"sy":1,"depth":43,"w":{"0":0.20579063533113445,"1":0.15531450079308137,"2":-0.27999322820017897,"3":-0.4894206217243397,"4":0.2007745245279919,"5":0.12253590549601907,"6":0.3349085949000852,"7":0.06585477326471023,"8":0.13508977494257943,"9":-0.15636855118289364,"10":0.22243155156301203,"11":-0.053676898449378604,"12":0.24987010811944874,"13":-0.16032832912563907,"14":-0.17278446182736365,"15":0.010789440341309431,"16":0.3438351750484083,"17":0.35489450644673826,"18":0.057264931321812,"19":-0.218341568403687,"20":-0.050616355004009635,"21":-0.1284674115259222,"22":-0.2663834273589607,"23":-0.11341229159329357,"24":0.18141979978383135,"25":0.184510478472027,"26":-0.19950606278308816,"27":-0.09094855950714424,"28":-0.1102303367233429,"29":-0.08611776483683836,"30":-0.12723056962248797,"31":0.37824922219195783,"32":0.15860448895747428,"33":-0.2617559621819638,"34":-0.1990338919583058,"35":-0.26928789904610706,"36":0.057943122299689516,"37":-0.08947395964243539,"38":-0.11733841786151814,"39":0.4002169922896337,"40":-0.11010654978907668,"41":-0.09310910427449343,"42":-0.3366585530479319}},{"sx":1,"sy":1,"depth":43,"w":{"0":1.2080192070776807,"1":0.5224039932308308,"2":-0.08338672404322864,"3":-0.7832693514012445,"4":0.5789792330252183,"5":0.15332744012132365,"6":0.06794524839603627,"7":0.3910169601916791,"8":-0.18601171049573223,"9":-1.9795393961717718,"10":0.7333885781775883,"11":0.5782222811642318,"12":0.08498631834233696,"13":-0.7855640820947388,"14":0.4009821085660096,"15":-0.12588148442651534,"16":0.14130896882993466,"17":0.001485819741076578,"18":-0.19120299095210067,"19":-1.9815028333398612,"20":0.024674025759682163,"21":-0.4470359393174666,"22":-0.6244276042009714,"23":-0.021069983778811516,"24":0.04251724135332895,"25":1.0654226748515478,"26":-0.24552356577055817,"27":-0.3164110784154462,"28":-0.05801938205719078,"29":-0.3429360338118324,"30":0.03846913078584135,"31":-0.006955280016225225,"32":-0.09040987739031947,"33":0.06749123587307151,"34":0.7359672719800073,"35":0.11635335307526111,"36":0.42886815191543576,"37":-0.44861535668877506,"38":0.007950595799265193,"39":-0.13994311704498974,"40":0.21802886834159008,"41":-0.5071477984124938,"42":-0.15169274298801075}},{"sx":1,"sy":1,"depth":43,"w":{"0":1.2390240824263132,"1":0.23587191032813262,"2":1.017430371788098,"3":-1.6966192808763436,"4":0.5887773718673254,"5":0.492114089161524,"6":1.0092356483659086,"7":0.7063529103397859,"8":0.2777176054599812,"9":-1.6196385793766253,"10":1.2380795376313767,"11":0.05257646297564341,"12":0.8391681151213378,"13":-2.0975293942183724,"14":0.6094050427897129,"15":0.1928937413062462,"16":1.293168019716771,"17":0.6903099936104371,"18":0.38220018216979473,"19":-1.648565047918731,"20":-0.47001269459583,"21":1.2166549183963813,"22":0.6095892329145436,"23":-0.5815519362813876,"24":-0.05225619657502175,"25":-0.6234928652433642,"26":0.09807981326094602,"27":-0.35681275122254674,"28":-0.21172481263238893,"29":-0.32563509564392396,"30":0.17216146590271383,"31":-0.6600334993586353,"32":0.10367240541122026,"33":-0.6767893177006838,"34":-0.08334327361293556,"35":-0.07476931996558717,"36":-0.6987636503981385,"37":-0.13303077025757665,"38":-0.11678063474291119,"39":0.0163073327631792,"40":-0.20794303351438365,"41":0.01726112921261957,"42":0.0008484118790179683}},{"sx":1,"sy":1,"depth":43,"w":{"0":-0.003931017838510347,"1":0.03880178445247665,"2":-0.05830965061150089,"3":-0.19955000577499157,"4":0.09594936573554484,"5":-0.065422006229305,"6":-0.11566579183087454,"7":-0.2838052445379777,"8":0.06471204399414682,"9":0.06948227137897105,"10":-0.07405594565413913,"11":-0.10214013368606639,"12":0.06069570079160955,"13":-0.1379963517315642,"14":-0.01890626739046699,"15":-0.08755647328677696,"16":0.3047021485864513,"17":-0.01385805143418804,"18":0.4126623860010955,"19":0.02149726184537567,"20":0.0058737511543487855,"21":0.14814529960430284,"22":0.14401031210539075,"23":-0.05542185592232426,"24":-0.171556071874194,"25":0.020259809813053906,"26":-0.10660508359933185,"27":-0.23478881191577278,"28":-0.04778435012660127,"29":-0.20292229734944633,"30":-0.10519158971474593,"31":-0.10233423032093163,"32":-0.06754999224664847,"33":-0.038851957447604224,"34":-0.13928796760055617,"35":-0.18241718133487436,"36":0.2236144672230378,"37":-0.2511128276049489,"38":-0.029635454866471005,"39":-0.14019801543878627,"40":-0.10936876910276382,"41":-0.09619869398922465,"42":-0.15142430547479044}},{"sx":1,"sy":1,"depth":43,"w":{"0":0.05221707349767277,"1":0.1293849475964444,"2":-0.17494674394998497,"3":-0.16150004021808942,"4":0.2159941367548932,"5":-0.06759296570271932,"6":-0.023247694148988043,"7":0.14580154126732467,"8":-0.19441952991552672,"9":-0.7431612298259656,"10":0.10844855533303567,"11":-0.03458776090104598,"12":-0.16320414709820935,"13":-0.7460237715446145,"14":0.23252502291190102,"15":0.01709272780903656,"16":0.08458176561425187,"17":0.23596489373174268,"18":-0.018381711299747982,"19":-0.7612182029264289,"20":-0.16619173464943265,"21":-0.19766159319038498,"22":-0.33855394319222487,"23":-0.05392402218321881,"24":0.03821854255701116,"25":0.37811400530800005,"26":0.11466601887731118,"27":0.2747908673272263,"28":-0.1799438752121509,"29":0.08450381719557204,"30":-0.2838377676581407,"31":0.1504532558837252,"32":-0.0887586382747779,"33":0.7104714933422126,"34":0.3095406380424621,"35":0.42218445687722167,"36":-0.18369250257401187,"37":0.8667506983394155,"38":0.0022276362181962734,"39":0.03073766207561545,"40":-0.19292381017934196,"41":-0.1864771289232045,"42":-0.21345762590505288}},{"sx":1,"sy":1,"depth":43,"w":{"0":0.5960048218820491,"1":0.12498612629014141,"2":0.12501228124549515,"3":-0.34816563043338106,"4":0.3520085401536708,"5":-0.13622392826957716,"6":0.14704191539693617,"7":0.11603002342190966,"8":0.18909927109719563,"9":-0.8055326292373389,"10":0.523973023507698,"11":0.14938533218771244,"12":0.20775369787473758,"13":-0.26826200550976104,"14":0.38209125985003656,"15":-0.301529545242495,"16":0.10111628795830349,"17":0.16451269932820417,"18":0.07792565002176,"19":-0.9782817980215902,"20":0.27492784243419677,"21":0.4546242354674739,"22":0.33680896278609135,"23":0.06955622506574594,"24":-0.08441136839603781,"25":-0.2616026576345225,"26":-0.2693968133203201,"27":-0.14981080972812874,"28":-0.14854893006823047,"29":0.019825825914455766,"30":-0.34144034826756736,"31":-0.28772766261337523,"32":-0.21241184272060198,"33":0.21860834088718248,"34":-0.2799607130970957,"35":-0.4387323521184874,"36":0.1840632769388125,"37":0.764131921568201,"38":-0.0863486978189877,"39":0.031138741341651094,"40":-0.15632075286103875,"41":0.08798919780391021,"42":0.27489554686690926}}],"biases":{"sx":1,"sy":1,"depth":50,"w":{"0":0.04846802737340479,"1":-0.2879477114551072,"2":0.026203035396488036,"3":0.1336552482037293,"4":0.08376558142749838,"5":-0.9655630463091642,"6":0.21084566489081302,"7":-0.3444424544713405,"8":0.06384485394248973,"9":0.11745953238450213,"10":-0.8936045194661169,"11":-0.5366933533469721,"12":-0.4289125460746563,"13":0.0029146072868405683,"14":0.3162774202114891,"15":-0.5669492059764455,"16":0.08990218497764671,"17":0.11472890055414293,"18":-0.7537713483509436,"19":0.19366814014627032,"20":-0.001672919925145764,"21":-0.694294957885512,"22":-0.9083926016034545,"23":-0.8627504002923805,"24":0.10747388554955911,"25":-0.7203905126957184,"26":-0.49616009099985886,"27":-0.08867834353432459,"28":-0.7593417699089664,"29":0.1761664174066902,"30":0.12576615927948298,"31":0.18162559442846646,"32":-0.7725161786735344,"33":-0.4688142615708433,"34":-0.23855930748204654,"35":0.14767175567633684,"36":-0.5977624547471885,"37":-0.33536394525481444,"38":0.12875000870454886,"39":0.10563848040063306,"40":-0.2304619886059296,"41":-0.6422533358795368,"42":-0.5889529398497225,"43":-0.43143359766816136,"44":-0.18412883392464646,"45":-0.08086776033209736,"46":-0.5944538194540658,"47":0.0850542933421266,"48":-0.051042725704187344,"49":0.2282210531397745}}},{"out_depth":50,"out_sx":1,"out_sy":1,"layer_type":"relu"},{"out_depth":50,"out_sx":1,"out_sy":1,"layer_type":"fc","num_inputs":50,"l1_decay_mul":0,"l2_decay_mul":1,"filters":[{"sx":1,"sy":1,"depth":50,"w":{"0":0.2189377524674741,"1":-0.11005975885259904,"2":-0.08856064658929409,"3":-0.19442636889350287,"4":-0.14081465590596365,"5":0.33926983389139187,"6":-0.3165719303883672,"7":0.2118811554852246,"8":0.11349835619951185,"9":0.042517310439614556,"10":-0.42774518792585664,"11":0.5990754377004361,"12":0.09916333400883245,"13":-0.2720710362504606,"14":0.33324731938810365,"15":-0.16917291224116665,"16":-0.06736421182762357,"17":0.048332091980537784,"18":0.16826718457769912,"19":-0.33421884141064057,"20":-0.26501397313177666,"21":0.1525402490014389,"22":-0.2980143286946104,"23":1.3646869669998123,"24":0.03051803746903279,"25":-0.20188497539397565,"26":-0.07995449491611603,"27":0.2199566556544073,"28":0.0738861276912697,"29":-0.3843372586123477,"30":-0.376546637539396,"31":-0.019331428406457223,"32":0.10306983956195077,"33":-0.2243310863505302,"34":0.04746740116919023,"35":0.1699227734146367,"36":0.010969498538874814,"37":0.0011904817065768103,"38":-0.10905967323427312,"39":0.5613505871833949,"40":0.1764884449460536,"41":0.00615628095340439,"42":-0.17928515998839575,"43":-0.12161462328473824,"44":-0.2505888120294255,"45":0.5567456135489405,"46":-0.12167280432686225,"47":0.11050590968982785,"48":0.12775013557630852,"49":0.022099444022364616}},{"sx":1,"sy":1,"depth":50,"w":{"0":0.036124924831549124,"1":0.007571732737762453,"2":0.010763213874024515,"3":0.0014576490417720278,"4":0.061965782869614745,"5":0.14630638382366853,"6":-0.22731535716909193,"7":0.2282831818837204,"8":-0.035093785015508125,"9":0.06349738494411677,"10":-0.20357634435713512,"11":0.007643116764349382,"12":0.1981560469812722,"13":-0.06935700864101906,"14":0.021219035658330734,"15":-0.23396723478204914,"16":-0.07788927663841082,"17":-0.015000155533847169,"18":-0.08685825168399725,"19":0.08904544056305821,"20":0.19399435775734658,"21":0.24015846096160745,"22":-0.18606752117826383,"23":-0.06328206860413917,"24":-0.1941579095107834,"25":-0.1069117475064691,"26":-0.13528505080889777,"27":-0.07883485347882199,"28":-0.049939796826206896,"29":-0.05568288990782079,"30":0.24021252326095494,"31":0.06657811514895498,"32":-0.15808560425659576,"33":-0.019690927747931998,"34":0.09079134548751736,"35":0.08133844531375052,"36":-0.07253174319251146,"37":0.06089329201516408,"38":0.13230877522114787,"39":-0.13469181560467886,"40":-0.2657231991914776,"41":-0.14876542431965853,"42":-0.05409700384244506,"43":-0.055080933842722876,"44":-0.16401117282285083,"45":-0.13951580507978176,"46":-0.026215339962580048,"47":0.3417758156402119,"48":0.07600596188459142,"49":-0.05341458613997933}},{"sx":1,"sy":1,"depth":50,"w":{"0":-0.23861792793104986,"1":0.09277609997702253,"2":-0.19936363670508725,"3":-0.17753162059151711,"4":-0.2633208513523978,"5":0.14537192530038526,"6":-0.2787833920499839,"7":-0.20119107557339772,"8":0.05816078697026898,"9":-0.09736317694564241,"10":-0.1193712900679913,"11":-0.062158834465326815,"12":0.06161197695026032,"13":-0.05832114802631215,"14":-0.019024207091579,"15":0.17881971280830727,"16":0.006947769994115946,"17":0.38416072971507514,"18":0.0650969287628384,"19":0.00969713947103947,"20":0.12087459995869823,"21":-0.22591718786805248,"22":0.1138436930759779,"23":0.3567145664020374,"24":0.11431490944817783,"25":-0.13634951099664003,"26":-0.06422455235402608,"27":0.05672797802788662,"28":0.2723021799266675,"29":-0.10219592272769161,"30":0.018470793631165647,"31":0.04471237460821793,"32":-0.03163890695121495,"33":-0.1429744731620818,"34":-0.07251018722805933,"35":-0.0419391198211003,"36":-0.07989764160047821,"37":0.2546294631570266,"38":0.31362543620823413,"39":0.2662331530417973,"40":0.06269245049668387,"41":-0.09991805417517682,"42":0.030697210797349186,"43":-0.06481170816026713,"44":-0.047173407974352904,"45":0.10434343540759781,"46":0.058305257873153535,"47":0.06976344792534259,"48":0.1436073758348057,"49":0.06940874125907337}},{"sx":1,"sy":1,"depth":50,"w":{"0":0.016472275555592147,"1":-0.07192883668929763,"2":0.4114992645116015,"3":0.00023863179232723334,"4":0.18566885647511294,"5":0.057740988296354955,"6":0.11448046878700342,"7":0.22105575786180587,"8":-0.22839004850059155,"9":0.19277962517072303,"10":-0.0340191237243549,"11":-0.2404563333385261,"12":0.3472860505410274,"13":-0.021105952187092183,"14":0.12664855252033902,"15":0.34225391650389764,"16":-0.011130196088290781,"17":-0.08466530597417382,"18":0.05620330034024164,"19":0.10492918365218984,"20":0.08039353430909264,"21":-0.0554181948207407,"22":0.09433660074831496,"23":-0.27328697733454815,"24":-0.2541558339480115,"25":0.0801658328973902,"26":-0.18508583437406964,"27":0.23588306355777253,"28":-0.23779071654919412,"29":-0.06625573200075104,"30":0.16617285394562792,"31":0.7006657088679403,"32":0.09919389220490538,"33":-0.21324639140550838,"34":0.06791070270430342,"35":-0.440998188575532,"36":0.03704797487433601,"37":0.06775073395703288,"38":-0.3045996230074124,"39":-0.17614069642628724,"40":0.1343523695180105,"41":0.38326194058928514,"42":-0.11679798664156242,"43":0.2737172343377803,"44":-0.2206577886075716,"45":-0.35206316712992386,"46":0.3485131872830195,"47":0.03836532147600643,"48":0.04323930026593297,"49":0.230132667001699}},{"sx":1,"sy":1,"depth":50,"w":{"0":0.04466314731294566,"1":0.034104807097354244,"2":-0.15138391255596106,"3":-0.14326120070947965,"4":0.006520310488533572,"5":0.06868884541458482,"6":0.04327513649496182,"7":-0.15766239290907313,"8":0.0901437333037458,"9":0.08975151432146004,"10":-0.19800909384263637,"11":-0.08177918177313499,"12":-0.1767147065607061,"13":0.03147962358280141,"14":-0.19808267298020188,"15":-0.17937165224928742,"16":0.0430838287427376,"17":-0.053889960307539245,"18":-0.24243648724991415,"19":0.10028412688732422,"20":0.23468159559152552,"21":0.14635824130338188,"22":0.014210850295929714,"23":-0.046272007023127795,"24":0.23247122038235085,"25":0.27132798380752093,"26":0.1476665048882426,"27":-0.01723478513206566,"28":-0.01793772155777089,"29":0.12932740322485964,"30":-0.0062433412951147784,"31":-0.3157568983195505,"32":0.19837560667426446,"33":0.022789401689390754,"34":0.04148039340462421,"35":0.01837759938284723,"36":-0.044980285198890954,"37":0.0357408915871115,"38":0.05525847066867829,"39":0.015705290130625903,"40":0.004869442416823044,"41":-0.057239543375150956,"42":-0.26478133312900987,"43":-0.10749276987909803,"44":0.05103557288938093,"45":0.10617341438078352,"46":0.005544185799799499,"47":-0.21900660995915547,"48":-0.04202874024880141,"49":0.17818406297337894}},{"sx":1,"sy":1,"depth":50,"w":{"0":0.2711888327946057,"1":0.12968495818556652,"2":0.1289162714934226,"3":0.03146716718606448,"4":-0.057820170022765086,"5":-0.34269974035161255,"6":-0.1902592690591845,"7":-0.09121294877428292,"8":0.10657185676135557,"9":-0.027767496359119386,"10":-0.08490397990904511,"11":-0.07663038215876856,"12":-0.001453388261693386,"13":0.16883905959911152,"14":-0.3300984327379733,"15":0.18651551091742172,"16":-0.17328055538613224,"17":-0.10602820347235552,"18":0.05624662638947513,"19":0.037773026360256826,"20":0.09175971015299692,"21":0.1419311366266369,"22":-0.16234537955041303,"23":-0.10271056356354721,"24":0.2968266141122136,"25":-0.20440873169486626,"26":0.07067396602188397,"27":-0.33902289184159706,"28":0.30737263149923877,"29":0.4763181474421416,"30":0.23245169296485033,"31":0.003206813536359542,"32":0.29633509818147885,"33":0.13086308547283365,"34":0.10918958671822983,"35":-0.008283160922504999,"36":-0.1116560085875733,"37":-0.16581045390540872,"38":0.43508892251205333,"39":0.006275434035236187,"40":-0.3635217192747365,"41":0.13075817871371748,"42":-0.13326372610186052,"43":-0.053158740231147875,"44":0.27441852930620786,"45":0.23356735294626202,"46":-0.035534004396292895,"47":-0.14596772972920172,"48":0.1954965146606122,"49":0.11970373247944271}},{"sx":1,"sy":1,"depth":50,"w":{"0":-0.16778241575818248,"1":0.3080552909515695,"2":0.030631963369518327,"3":0.25542619799554944,"4":0.12432271057097186,"5":0.23481147818921433,"6":-0.08397590004325046,"7":0.03292432942421297,"8":0.16669935102516928,"9":-0.03272230800071248,"10":0.5332971759428675,"11":-0.22530724210434613,"12":0.14891731983972067,"13":-0.06361730716222913,"14":0.2152411119592765,"15":0.16634478180665827,"16":-0.022323976842647548,"17":-0.30102631709173977,"18":0.45817695671713676,"19":0.3847745366031894,"20":-0.004220710901593243,"21":0.03815314262572019,"22":0.2374720318005577,"23":0.16521828083392665,"24":-0.012881582272140974,"25":-0.111978788303331,"26":0.1311075559455001,"27":-0.23850750681554822,"28":0.3811038225975889,"29":0.12738849062362004,"30":0.3614428901633187,"31":0.07218730927110587,"32":0.516264496304221,"33":0.012812811868939272,"34":0.46426070217521076,"35":-0.2260062605778008,"36":-0.23088949198641573,"37":-0.020779907164000078,"38":0.026019793611107768,"39":0.214305832483518,"40":-0.13894990339946206,"41":0.385964433320773,"42":0.19512452268645347,"43":0.31545405645632496,"44":0.11520058349229335,"45":0.25439787266836483,"46":0.6145468177225532,"47":0.17842555921182907,"48":-0.09734313716918971,"49":0.321980881886941}},{"sx":1,"sy":1,"depth":50,"w":{"0":-0.23254829795072304,"1":-0.3740481293631156,"2":0.21711084874638858,"3":-0.1176519894910081,"4":0.09212539602910987,"5":0.019225874521916854,"6":0.035099608080380866,"7":0.010725274206721097,"8":0.15459016182562815,"9":-0.08815271833240623,"10":-0.02754650202793991,"11":0.006682547647499055,"12":0.36087606776865067,"13":-0.009292272747629978,"14":0.1398281686812985,"15":-0.052257326251865334,"16":0.1416535691867154,"17":-0.09693251613602975,"18":0.2661922402019664,"19":0.08858293401554998,"20":0.09893994833424925,"21":0.08805543243230607,"22":0.1879915537762642,"23":-0.01767510928242804,"24":-0.04133845068635485,"25":0.360357853739996,"26":0.14703439621149075,"27":-0.020445035098419925,"28":0.19533980056275105,"29":0.13478671108446824,"30":0.25636237050337746,"31":-0.17689955745900338,"32":-0.10361557834010388,"33":-0.17161749374135923,"34":0.1369804715422081,"35":-0.2817410055240755,"36":0.13299286366148036,"37":-0.23100472538204242,"38":-0.17978772540455973,"39":0.21925189925475075,"40":0.15721855867040388,"41":0.15838109506324274,"42":-0.005090167359306064,"43":0.10958940256330761,"44":0.09548787588154327,"45":0.0895328709672724,"46":-0.022872017023002476,"47":0.0925423241095141,"48":-0.07902170717043404,"49":0.04863905394649673}},{"sx":1,"sy":1,"depth":50,"w":{"0":0.21317984231314008,"1":0.04915338048071141,"2":0.28941769822347424,"3":0.1378676306560777,"4":0.08314615124762777,"5":0.03217541812104632,"6":0.19354067624379018,"7":0.28776994512795673,"8":0.3701908016548639,"9":0.2195860801794542,"10":0.2365080285785152,"11":0.39500338952080616,"12":0.2340621751142723,"13":0.11485120498947368,"14":0.6697736812206825,"15":-0.09041304533738943,"16":0.03187810279694021,"17":0.20277181251630738,"18":0.42172047331294055,"19":0.1820094670155071,"20":0.18041646387412205,"21":0.20223765264569146,"22":0.2467416640024547,"23":0.6323561388218368,"24":0.37018360972625175,"25":0.6087920835130783,"26":0.14303048720298805,"27":0.009645530470674325,"28":-0.13318857917434065,"29":0.2124902848415213,"30":0.22271856210720228,"31":0.5766664367566384,"32":0.1922211723590959,"33":0.07916121939195328,"34":0.44464696068562853,"35":-0.09721909863128894,"36":0.2503609322067582,"37":0.18847200678760145,"38":-0.1911109467596311,"39":0.5598625258660681,"40":0.5617506466217947,"41":0.22491051032911882,"42":0.36238955992692107,"43":0.46928659664325717,"44":0.1323549888199952,"45":-0.4750572035355337,"46":0.1954297158312196,"47":-0.06637402938161198,"48":0.3700212972885661,"49":0.48252535262219937}},{"sx":1,"sy":1,"depth":50,"w":{"0":-0.039224715009588206,"1":0.24462435773228483,"2":0.2784521068056638,"3":-0.11038924652230976,"4":0.14331562892650906,"5":0.056721973601886674,"6":0.42521074848243173,"7":0.25844696308944803,"8":0.36353957977710555,"9":0.08652025926264664,"10":0.34097699080417676,"11":-0.13931980168033845,"12":-0.1079891357902885,"13":-0.20964966004548022,"14":0.18933308930497453,"15":0.18227635220759328,"16":0.08925086447340913,"17":0.06469442938304612,"18":0.11432670354444834,"19":-0.033020343398983014,"20":0.21702616496889715,"21":0.260250830890816,"22":-0.1167360004670664,"23":0.3570874238831351,"24":-0.09307486735711581,"25":0.27302912459778267,"26":0.12135073143272947,"27":0.0012397106606701512,"28":0.02830109860323252,"29":0.12713652005845733,"30":0.03650906235406971,"31":0.14948815985220562,"32":0.13961361129362398,"33":0.15322085617800885,"34":0.007002851380452367,"35":0.10392181677329684,"36":0.05016825273268444,"37":-0.29830037837749346,"38":0.06597292262344699,"39":-0.018198070930332575,"40":0.21888172782483478,"41":0.01570849874005941,"42":-0.05968853168089194,"43":0.08686043154724034,"44":-0.09466866003013412,"45":-0.1552298727791428,"46":0.13593480591686635,"47":0.29273975435379956,"48":-0.08473436137499504,"49":-0.033484058438917115}},{"sx":1,"sy":1,"depth":50,"w":{"0":-0.07560310127881416,"1":0.13670815847530193,"2":0.23236767800666286,"3":0.19047300379863355,"4":0.015010298520604136,"5":0.05752580589276761,"6":0.25009373047864886,"7":-0.11469674592677091,"8":0.19123134257429722,"9":-0.1752967067363335,"10":-0.14836892100417742,"11":0.004080602072707062,"12":0.10587592822026037,"13":-0.1288991410569813,"14":0.17059950347942837,"15":0.29612345881148366,"16":0.26234506605807767,"17":-0.041978211765245854,"18":0.05143810053676158,"19":0.06509278907450072,"20":-0.14099618781238266,"21":-0.039541709395799596,"22":0.1662447789728071,"23":-0.13768860907895267,"24":0.11166718603826135,"25":0.06700367126207184,"26":0.052351937235346466,"27":0.02202719848698582,"28":-0.05731483930957933,"29":0.1962533844454524,"30":-0.09624874861084044,"31":0.24067662554923117,"32":0.03644450647327262,"33":-0.11343007181489581,"34":-0.1378140124620191,"35":0.204374180866183,"36":0.03439715606208258,"37":-0.028200710645282148,"38":-0.18482313447914264,"39":0.24405045174234577,"40":-0.0402323878719601,"41":0.04984312410598962,"42":-0.12320607068684176,"43":-0.12015222517566192,"44":0.07594698855010089,"45":-0.07837667153237866,"46":0.007319990162959784,"47":0.21457345361280583,"48":-0.29431487409527607,"49":0.22811247017592534}},{"sx":1,"sy":1,"depth":50,"w":{"0":0.25210439126057743,"1":0.2373307488357178,"2":-0.012827908790950084,"3":0.09007432959682206,"4":-0.01910470251179175,"5":0.03964854259903996,"6":0.008846362724173641,"7":0.34313003102519274,"8":0.2433631742596398,"9":0.07819082450794375,"10":-0.008075128332961465,"11":0.4458369748984224,"12":0.18086762688909977,"13":-0.02144555520549276,"14":0.16894350690310447,"15":0.44078980173387555,"16":-0.2643513054350172,"17":0.13052961918855424,"18":0.5994544498936207,"19":-0.17522655245413374,"20":0.1557350899038562,"21":0.12703694561187207,"22":0.4758666402127302,"23":0.5621088302805703,"24":-0.09091375300495624,"25":0.225620623802592,"26":0.11327505105481198,"27":0.18980845957192985,"28":0.43211152813147613,"29":0.3253431790550573,"30":-0.08567910338271786,"31":-0.027708623004354817,"32":0.07788950537005647,"33":0.0012269552000095532,"34":-0.12108120617573176,"35":0.14511291180118013,"36":-0.16273043952347468,"37":0.054564569825750774,"38":0.13924483709117716,"39":-0.05224441177733902,"40":0.2878208560720614,"41":0.33574546649324327,"42":0.3464482420957833,"43":-0.05106838163264028,"44":-0.13159200319318676,"45":0.712564128578929,"46":-0.0013981119313378025,"47":0.05013566343648453,"48":0.5623272462565946,"49":0.02513960375896929}},{"sx":1,"sy":1,"depth":50,"w":{"0":-0.1714761751602955,"1":0.15225684226252528,"2":0.24505989967240133,"3":-0.07618783036868973,"4":-0.20931193766420098,"5":0.48381437324790616,"6":-0.221899088605561,"7":-0.17211810192257426,"8":-0.0015237103377925532,"9":0.03873662321150084,"10":0.3059207603588842,"11":-0.10717880108154988,"12":0.06391865257626665,"13":0.25012070165821165,"14":-0.3508496704873123,"15":0.24728613708769628,"16":0.05084891281770653,"17":-0.04559525887913913,"18":0.9232501707160783,"19":-0.07873720819403075,"20":-0.07045513355444286,"21":0.10928111861721106,"22":0.30491748848548367,"23":-0.09475243969002126,"24":-0.10190696250049455,"25":0.5143336836281852,"26":-0.06664962360340818,"27":0.15454777222956767,"28":0.21039366944759158,"29":0.4912221189277571,"30":0.23198312643100902,"31":-0.20448379587941332,"32":0.3751447119466979,"33":0.015685185848978794,"34":-0.09834719855531576,"35":0.08315211160475347,"36":0.046995794344348044,"37":-0.0444379377882421,"38":-0.04073285320144811,"39":-0.3733247956088987,"40":-0.1391261819885444,"41":0.6919535695483825,"42":0.3299553385175863,"43":-0.08937005698440442,"44":0.07469864844605892,"45":0.11357068209141483,"46":0.17626298994830372,"47":-0.21960895632255162,"48":-0.07371536869627557,"49":0.15321404905282932}},{"sx":1,"sy":1,"depth":50,"w":{"0":-0.05609993392976174,"1":0.13985927266509293,"2":0.4105596522978492,"3":0.07386366696512935,"4":-0.05018949724174187,"5":-0.23866569705474927,"6":-0.03303629995814093,"7":-0.09821519043432358,"8":-0.13507128989185033,"9":0.20617445541351911,"10":-0.14406775636649974,"11":-0.03783207408938139,"12":-0.16980369450816835,"13":-0.016224752887343857,"14":-0.009445724984683919,"15":0.0002796600629398139,"16":0.1504002699985139,"17":-0.14476824605391847,"18":-0.057072040070190795,"19":-0.03393586432036505,"20":0.10848647638459441,"21":0.0322573273422248,"22":-0.00010111983711002387,"23":-0.17546004151951589,"24":0.12441244866319873,"25":0.08691041157921207,"26":-0.0475956521737453,"27":0.25776318337868437,"28":0.5091628893501875,"29":0.2268454638491731,"30":-0.02925744146949836,"31":-0.039680655086473726,"32":-0.04283018104901135,"33":0.034702155602066936,"34":-0.1345484884549914,"35":0.1918978673971608,"36":-0.17275667996790578,"37":0.11721584173006971,"38":0.21102614756202692,"39":0.060751773895937715,"40":-0.07355417023155345,"41":-0.3382284356304424,"42":0.08997412369297061,"43":-0.036147114001036894,"44":0.2100307278615656,"45":0.14741543970126167,"46":-0.11733212153583737,"47":-0.10386450219764536,"48":-0.059773043520034395,"49":-0.0062899995961743435}},{"sx":1,"sy":1,"depth":50,"w":{"0":0.09967484557809006,"1":0.13786710939442434,"2":-0.2691503582203523,"3":0.0064106416064337365,"4":0.1398936067773677,"5":-0.2946646528792643,"6":0.5536761802761209,"7":0.010257635992929278,"8":0.09044708852063103,"9":0.22516753781938034,"10":-0.2012890807745634,"11":-0.3176545462362865,"12":0.14212711483233068,"13":-0.19024315341750098,"14":-0.032937986696025205,"15":0.09323306359366884,"16":0.22406408703079517,"17":0.1743698633047112,"18":-0.05569353937478673,"19":0.420378156701584,"20":0.08343766831051691,"21":-0.21630465903190726,"22":0.14932604815113246,"23":-0.043182213103904334,"24":-0.018728808946552284,"25":-0.0388564628833011,"26":-0.13420091610598336,"27":0.1869232224785363,"28":-0.032841448478604894,"29":-0.05948202100947394,"30":0.050256322008180906,"31":0.2859884185905843,"32":-0.1460936783193157,"33":0.15423707707203557,"34":-0.2790333236644625,"35":-0.05507655630691545,"36":0.05540340749909778,"37":-0.1500970328653341,"38":-0.15158987050604983,"39":-0.16417686779954666,"40":-0.011339719466540405,"41":-0.013239349568794335,"42":-0.06075198950378545,"43":0.0763802894086162,"44":0.010238879202908278,"45":-0.08631503753223595,"46":0.02643983242731857,"47":-0.021962095909812577,"48":0.27579283481887157,"49":0.15460493666835243}},{"sx":1,"sy":1,"depth":50,"w":{"0":0.2006320828112671,"1":0.10483111497785849,"2":0.8741566798318464,"3":0.1197607082877656,"4":0.3819185307769889,"5":0.966924335561411,"6":0.4032342606569557,"7":0.837043276515941,"8":-0.11140115484424913,"9":-0.01354018387198402,"10":0.0968666492337425,"11":0.2068514256804242,"12":-0.10270967246112812,"13":-0.13045898709142212,"14":0.27084485045480095,"15":0.18015567402831592,"16":-0.12129575730527799,"17":-0.06501789004400635,"18":0.8423051466946418,"19":0.09984294586181244,"20":-0.36542736514332264,"21":0.8168446422588332,"22":0.6563273109948221,"23":0.2735935429132512,"24":-0.19003148383134608,"25":0.3173958216003018,"26":0.12095673116770524,"27":0.23404985255796676,"28":-0.17122498897841198,"29":-0.09603618588177094,"30":0.3837868957427894,"31":0.532638021087927,"32":0.8607490457581607,"33":0.25138386294915205,"34":0.4044745871073958,"35":0.3382891461430158,"36":0.08980243754551992,"37":0.5180664092559258,"38":0.03537671031739374,"39":-0.28395429275475353,"40":0.02399986533067315,"41":0.9002901419298619,"42":0.12301379902668567,"43":0.3449270561504722,"44":0.12544043960442205,"45":0.2946683755614477,"46":0.9250471722007765,"47":0.3201742318009023,"48":-0.6227154007482728,"49":-0.15917695034737997}},{"sx":1,"sy":1,"depth":50,"w":{"0":0.0721622937710535,"1":0.1190738067864725,"2":0.4645631613586973,"3":0.09370794424294235,"4":-0.1313971757097601,"5":0.07469218699215656,"6":-0.09172532397259696,"7":0.11853248299127878,"8":-0.015563527961207607,"9":0.06160689062097843,"10":-0.016639818227475234,"11":0.10547598112997825,"12":-0.0443767493274263,"13":-0.4010398858427403,"14":-0.43351409950141157,"15":0.3041609265131227,"16":0.09032081334479164,"17":0.14603100106990585,"18":0.45194782665147215,"19":0.10679400261954161,"20":-0.04479491610769908,"21":0.3217874264107795,"22":0.3245933816874202,"23":-0.23919730179018964,"24":0.13737480622528025,"25":-0.0970455367431329,"26":0.06327121591378966,"27":0.02810713290965509,"28":-0.20686262621311854,"29":0.2510429842713633,"30":0.061080236178037796,"31":0.20017119508639805,"32":0.05061987281585531,"33":-0.07438431731493571,"34":-0.18814697676183836,"35":0.10411951485103707,"36":-0.22927706645089183,"37":-0.1074818287699295,"38":-0.06065241486159282,"39":-0.023202098014474173,"40":0.14143540733520338,"41":0.018211890225700165,"42":0.43973289436989543,"43":-0.08011499650500904,"44":0.06780070694862952,"45":-0.08724611658704147,"46":-0.35919588141000935,"47":0.13974210505332285,"48":-0.024564117062842124,"49":-0.02431211734402896}},{"sx":1,"sy":1,"depth":50,"w":{"0":-0.0689874839502261,"1":-0.024622060527178323,"2":-0.01350996191061641,"3":-0.1662163308299468,"4":-0.1286307974262875,"5":0.1069150797395865,"6":0.15184290130718375,"7":-0.030150970121447414,"8":-0.06496500960287312,"9":0.07804390487483802,"10":-0.0015796615547739833,"11":-0.14088860005062864,"12":-0.0693811088202975,"13":-0.0022808697839068327,"14":-0.05944391851668037,"15":0.031131403425416496,"16":-0.12429536019102673,"17":-0.04647071935065638,"18":-0.11466552057544598,"19":-0.04695658462060163,"20":0.05885572491528267,"21":-0.09526218740616894,"22":0.03229715573722099,"23":0.014663990425579379,"24":-0.33778558059281105,"25":-0.19540038875010948,"26":-0.06339045229557377,"27":0.29317888553661486,"28":0.1299617288746655,"29":0.06633021470052161,"30":-0.07921762749810707,"31":0.09810078401843972,"32":0.08651175377460572,"33":-0.10890587854625011,"34":-0.24580204775186662,"35":-0.08656554853086208,"36":-0.007763339985621285,"37":-0.1629310169527135,"38":0.028756001381462417,"39":-0.17492802358881987,"40":-0.3432619531471864,"41":0.025816800080781462,"42":-0.11029755162794559,"43":-0.003896257388909323,"44":-0.35084977507396087,"45":-0.12419207792443462,"46":-0.05544805490607374,"47":0.18773638716777072,"48":-0.04760756912982214,"49":-0.11422415984552815}},{"sx":1,"sy":1,"depth":50,"w":{"0":-0.11464317013741525,"1":0.33024327568352635,"2":0.390166256073713,"3":0.09863722197922178,"4":0.21959451636982882,"5":0.3055248720101434,"6":0.5062511473716277,"7":0.3264361614227377,"8":0.38165219039204,"9":0.1832048774092878,"10":0.08407929942513709,"11":0.17379007574003943,"12":-0.13145322150012087,"13":-0.07573644688438133,"14":0.984637145351773,"15":0.14504873698653703,"16":0.0020734795555973776,"17":0.005345567498796829,"18":0.842484709251193,"19":0.5351666548981322,"20":0.08885273884985621,"21":0.06601800594057225,"22":0.6208060008960803,"23":0.43603925104613206,"24":-0.10039893175354667,"25":0.6545646213707623,"26":0.3079069063240708,"27":0.25830779397217396,"28":0.2586319015965311,"29":0.24820118910484218,"30":0.31901785438235253,"31":0.0994512966710401,"32":0.31720392497856303,"33":0.06484657059102948,"34":0.15498110997066297,"35":0.26411743259898535,"36":0.328082066777469,"37":0.23139541411301984,"38":0.013812905002307016,"39":0.14366648084155378,"40":-0.04589214415054223,"41":0.5630356204183504,"42":0.41891143906654926,"43":0.8174188624610977,"44":0.12475101184089316,"45":-0.06513733393264125,"46":0.7717613976733798,"47":0.10561912029745026,"48":0.14135514199306295,"49":0.27456841256649955}},{"sx":1,"sy":1,"depth":50,"w":{"0":0.2584973020634671,"1":0.43765525592168447,"2":0.059808150685682085,"3":0.589781876113101,"4":0.1198952769999798,"5":0.7065135744252433,"6":0.6439848378811741,"7":0.6016778059278369,"8":-0.1662108334503633,"9":0.2351759542507586,"10":0.2433060517761037,"11":0.5685364848618548,"12":0.23027225810289897,"13":0.21319868556398158,"14":0.34796595466644653,"15":0.3524396875346638,"16":-0.24775844902888985,"17":0.15431553460710334,"18":0.7532312125729139,"19":0.3876264274048264,"20":0.5703932390117972,"21":0.4963147431814738,"22":1.3618796741957524,"23":1.0345821797179844,"24":0.3869105226477587,"25":0.9138261446082835,"26":0.16340086683272154,"27":0.09430172479197443,"28":0.8892034670997084,"29":0.4157045634606058,"30":-0.21028634130809146,"31":0.6558779307152708,"32":0.1894084698971752,"33":0.12641147190247165,"34":0.42005370586201574,"35":0.24280593631271172,"36":0.10550251018942869,"37":0.3440820745799952,"38":0.3467223987393772,"39":0.3548237255928842,"40":0.5305916769518405,"41":0.8289588389223389,"42":0.3398287233962658,"43":0.5867875878030101,"44":0.21538561824894747,"45":0.7721519607664296,"46":0.5075255955221948,"47":-0.03278081306058591,"48":0.6919931547858379,"49":0.5275095668040439}},{"sx":1,"sy":1,"depth":50,"w":{"0":-0.08815744555592196,"1":0.16473967193483818,"2":-0.3152932575219581,"3":-0.10561974240776603,"4":-0.04180083145389935,"5":0.02360993946490197,"6":-0.054254329713754636,"7":-0.1485121825659549,"8":0.04562494457647488,"9":-0.11850058231795199,"10":-0.12204084893345175,"11":-0.2153423496439238,"12":0.038981552469520765,"13":0.06330274904505664,"14":0.2122742813014684,"15":-0.3839306055450304,"16":-0.09501727014908114,"17":-0.22502533569086872,"18":0.2800784776650453,"19":-0.15449455539046372,"20":-0.2581196075267434,"21":-0.03132972520006853,"22":0.016944596104439942,"23":-0.1185978624529894,"24":0.13792501628953485,"25":0.1062421430592333,"26":-0.1283715181910842,"27":0.23959958970178022,"28":-0.20124404558876852,"29":0.13121257595946265,"30":0.3219050462403696,"31":-0.10216127229968772,"32":0.05545860184518474,"33":-0.042524867486615124,"34":0.0023794539929776906,"35":-0.05376269019143376,"36":0.05183582219631682,"37":0.11927597050453424,"38":0.09295844286435481,"39":-0.12771862249905563,"40":-0.1509537106670239,"41":0.13109262459503368,"42":-0.11748170253034622,"43":-0.06778161522050004,"44":0.05713940237931762,"45":-0.12820353911248006,"46":0.2654487120981931,"47":-0.0232759005251884,"48":-0.07795103392782393,"49":0.3326413555149126}},{"sx":1,"sy":1,"depth":50,"w":{"0":-0.06517390143062357,"1":-0.2622002318434499,"2":-0.02683381798953502,"3":-0.04798781437170653,"4":-0.0705323718019194,"5":-0.2777632748866591,"6":0.16003054858963392,"7":0.011794622641201362,"8":-0.02746680921658456,"9":-0.16837249548978528,"10":-0.11696089189806691,"11":-0.06098524888651368,"12":-0.08123824013518777,"13":0.19461477900111912,"14":0.2321340780168276,"15":0.050085244317830645,"16":0.3002896512068141,"17":-0.11534578764355931,"18":0.30964337360410876,"19":0.05669942607444203,"20":0.502063198558438,"21":0.1170438105198767,"22":0.00736543460763367,"23":-0.026158505066923507,"24":0.09294398353218833,"25":0.5421089467504393,"26":-0.024832874973766617,"27":-0.15359900210013944,"28":0.37177514491266045,"29":0.3004232859203486,"30":0.2765491099200163,"31":-0.17026868363552772,"32":0.047617743094055205,"33":0.16483906992608277,"34":-0.09770907499099507,"35":-0.10468892837137382,"36":0.06888860789329737,"37":-0.061698867708281674,"38":0.26063098304946763,"39":-0.012621770574978503,"40":-0.2846286771568534,"41":0.19624544966415577,"42":0.16733659406377957,"43":0.11122921481697534,"44":0.5554429144503966,"45":0.29245790569142144,"46":0.056996669811673076,"47":0.1631904933417363,"48":0.09228398354793617,"49":-0.26457369138241466}},{"sx":1,"sy":1,"depth":50,"w":{"0":0.14849123288700247,"1":0.24712283626844092,"2":0.3290800187752761,"3":0.07295225431116266,"4":0.07171243678051024,"5":0.14821400069976967,"6":-0.022757156525986647,"7":-0.11111449979811608,"8":-0.06080589293708238,"9":-0.2756413550025601,"10":0.21005936301780884,"11":0.15734733078602298,"12":0.16819499970729054,"13":-0.04780117289745983,"14":-0.21252730085747135,"15":0.1676614397399596,"16":-0.2490964384244988,"17":-0.13540233202049665,"18":0.9017585044264959,"19":-0.07876292377244677,"20":-0.05989789477909838,"21":0.14941817214263609,"22":0.47458931687109823,"23":0.018259679681919876,"24":-0.20650253146403552,"25":0.2524006486252651,"26":0.48961442029576957,"27":0.16046980136364009,"28":0.06910497622229009,"29":0.2777923614678304,"30":-0.055018683186769904,"31":0.12624784179419635,"32":0.48628220998912364,"33":-0.09208331765452078,"34":-0.012434255648565122,"35":0.25238681154757237,"36":0.12945364757833278,"37":0.2009219380763514,"38":-0.1391376598718832,"39":-0.4760987837578246,"40":-0.08507019674977494,"41":0.49240273572716864,"42":0.23458584846803968,"43":-0.040994872075426986,"44":0.21493994484855916,"45":0.48275114634821853,"46":0.09950328789620475,"47":-0.011566176558922111,"48":0.09458111480240099,"49":-0.0010042468934176093}},{"sx":1,"sy":1,"depth":50,"w":{"0":0.04756165701746856,"1":0.10218114905931155,"2":0.41619058867211545,"3":-0.03385476048955095,"4":0.15757712508289384,"5":0.3938113910214912,"6":-0.25435921349268625,"7":0.3017661006533931,"8":0.06690511247022292,"9":0.09532099862922566,"10":0.025618677512070545,"11":0.10606144528251207,"12":0.014215060108196344,"13":0.06809123058034532,"14":0.0547506024792538,"15":0.13093480397736107,"16":0.138125812436426,"17":0.031171847303470022,"18":0.21694491639649394,"19":-0.15413427807472005,"20":-0.10461706793538258,"21":0.39491706501513313,"22":0.35558971502360054,"23":0.36987291777182824,"24":0.24954794306639533,"25":-0.1769125777510147,"26":0.11955483754240345,"27":0.00568366973735724,"28":-0.1525024321892397,"29":0.10919066535800158,"30":0.10277236990409144,"31":0.010533900044981082,"32":0.4120821017206002,"33":-0.06417933901204849,"34":-0.22944621693570058,"35":0.19763770673599382,"36":0.023131440758179612,"37":0.2053407847915947,"38":0.04497349010186265,"39":0.21539086251166356,"40":-0.05362833612262352,"41":0.4971177827229689,"42":0.13164171272925787,"43":-0.16680907036248838,"44":0.06777419941737281,"45":0.10970088107908783,"46":0.11708235160869257,"47":0.015280587031735965,"48":-0.23249500101623252,"49":0.15601907594451173}},{"sx":1,"sy":1,"depth":50,"w":{"0":0.0754262460664741,"1":0.422427357419597,"2":0.4763803537365505,"3":-0.1614658418129109,"4":-0.00914760448581706,"5":0.3963208145998703,"6":0.12812297678270393,"7":0.26173328799174955,"8":0.201296757663805,"9":-0.05880134998355,"10":0.07175940916603896,"11":0.5463134888341336,"12":-0.2775983089142653,"13":-0.1200748278010182,"14":0.37038255105643514,"15":0.1372759950817604,"16":-0.1428923344660664,"17":-0.011249747114675917,"18":1.0679699625658308,"19":0.13024423865456003,"20":0.20487676110279537,"21":0.6212623820021271,"22":0.9581374828981919,"23":0.7264852703059249,"24":0.1725874793592617,"25":0.4907795182257009,"26":0.21519840521599137,"27":0.07619703598341429,"28":-0.015922264719035108,"29":0.06384083973935387,"30":0.2360561888189077,"31":0.2629956951251046,"32":0.7019091017174597,"33":0.01078989362161266,"34":0.14655412318742936,"35":0.18037471550103007,"36":0.0920557534697077,"37":0.35749397905337754,"38":-0.19021663579256048,"39":-0.04797858674596083,"40":0.2605829302275854,"41":0.9628955891803105,"42":0.21043142902490755,"43":-0.005102568979328283,"44":0.38151114303071165,"45":0.17446421133325246,"46":0.22783540835406677,"47":0.026420747528366432,"48":0.27367723284703893,"49":0.11319513035322813}},{"sx":1,"sy":1,"depth":50,"w":{"0":0.18946994703734463,"1":0.07019730857097993,"2":-0.027874567136761993,"3":0.06454424245791994,"4":-0.2781604164502365,"5":0.24161976311984312,"6":-0.050213869772641556,"7":0.3394946964096678,"8":-0.011006978084398657,"9":-0.040957192027992154,"10":-0.023717478967190626,"11":0.4316715677276946,"12":-0.14872642502685574,"13":-0.26640486495979304,"14":0.5285886714334941,"15":-0.007769100798267557,"16":-0.042954171414226694,"17":-0.08869758642590882,"18":0.3096609559139445,"19":0.18125983175618568,"20":-0.2328566715015492,"21":0.024474287979758005,"22":0.1397010825471643,"23":0.9413548676064749,"24":-0.05649234823039471,"25":0.013817535254830118,"26":-0.1773319476838136,"27":-0.1679303510201584,"28":0.09975647391504112,"29":0.0023559855590314996,"30":0.00033468310109919033,"31":0.17220464055454904,"32":0.20560926041121935,"33":0.104774632702899,"34":-0.01515677042400941,"35":0.5265941167268087,"36":-0.12811527623905583,"37":-0.10393884896771871,"38":0.06392201144386353,"39":0.3072549957432903,"40":0.3310471085678722,"41":0.1267051815954539,"42":0.03234802466906045,"43":0.012152707518153885,"44":0.14136643256224288,"45":0.2303530119190309,"46":0.3098122656045715,"47":-0.03387761782964667,"48":0.10655213920255992,"49":0.4126734564879982}},{"sx":1,"sy":1,"depth":50,"w":{"0":0.11704824257467644,"1":-0.1482346524999736,"2":0.08579674993443835,"3":-0.09672385270118235,"4":0.022355388468085987,"5":0.2734255229773285,"6":-0.03790979461183959,"7":0.1885813512115075,"8":0.21597401378582176,"9":-0.024192195353351664,"10":0.41993630494936596,"11":0.38668207170624863,"12":0.0739258847034434,"13":0.46771146306851324,"14":0.19968204813543397,"15":-0.23040196643408573,"16":-0.04683678914979471,"17":0.0011134826607202787,"18":0.5399609782980571,"19":-0.10104892713719776,"20":-0.0361147220652024,"21":0.16438139944212238,"22":0.21427027754949254,"23":0.3441780747603437,"24":0.13832795781618407,"25":0.14845145434340853,"26":0.04338762715291277,"27":0.1578973224950183,"28":0.28697876561925006,"29":0.07182466725081695,"30":0.028858383276991428,"31":0.03440247031139099,"32":0.19841083676282426,"33":0.19164409141118416,"34":0.12395626019538979,"35":-0.2727133249174791,"36":0.07919267221216808,"37":0.15620790312962798,"38":-0.2937374264666166,"39":0.3956795590431617,"40":0.31322405293304606,"41":0.5417400703693789,"42":-0.024818030740019648,"43":-0.14405322198890336,"44":-0.18619917919429071,"45":0.009738515451642633,"46":-0.12839287488887535,"47":0.24223537312186505,"48":-0.08840830991583601,"49":0.44388228473709623}},{"sx":1,"sy":1,"depth":50,"w":{"0":0.17246600286385433,"1":0.03577298381328648,"2":0.11073562176861863,"3":0.060532667921161035,"4":-0.20947634274727803,"5":0.22227005238181805,"6":-0.0666184558809405,"7":-0.1248920811499245,"8":0.11753228912850133,"9":-0.031266534522128256,"10":-0.1479015368789182,"11":0.045968456158623106,"12":0.09363739344720445,"13":-0.09991868701720501,"14":0.0888213314101076,"15":0.15341746061652334,"16":-0.15551230987914916,"17":-0.07691343934002912,"18":-0.05868030449563638,"19":0.20117458408259023,"20":0.18518558410049551,"21":-0.12235167509823484,"22":-0.09721900394562902,"23":-0.12162086365423679,"24":0.09309648342134626,"25":0.03431905993549582,"26":-0.11079651408400253,"27":-0.058600719036627245,"28":-0.08530019930774149,"29":0.11283515747771733,"30":-0.022932921650401915,"31":0.17881635052824615,"32":0.12810372696680122,"33":-0.27836585594751917,"34":0.09795678899866878,"35":0.3216904688814434,"36":0.013898110424278659,"37":0.2193026840178326,"38":-0.1476009707335615,"39":0.24435401381546634,"40":-0.1014142690985338,"41":-0.04459658609598482,"42":-0.05685467577287772,"43":0.0750169426084384,"44":-0.1409601016963113,"45":-0.21847111790187654,"46":-0.08535541915652657,"47":-0.0781694213901947,"48":0.010759940182528124,"49":-0.13514698921937845}},{"sx":1,"sy":1,"depth":50,"w":{"0":0.015104149975547768,"1":0.08813546929993701,"2":0.04938502347252974,"3":0.1982793225634172,"4":-0.13581374651299222,"5":0.19292515831497506,"6":-0.16261795119909578,"7":0.009937231806364012,"8":-0.023114275146541262,"9":-0.21487266731852048,"10":-0.33711927648165174,"11":-0.0894099946016305,"12":-0.17299317009705212,"13":0.11052957583957611,"14":-0.05330221750832967,"15":-0.12309106219661514,"16":-0.01068833168307729,"17":0.030877783272665885,"18":0.05255392955869865,"19":0.10052330970292464,"20":-0.024037026103105125,"21":0.10754336563706828,"22":-0.027332032905149246,"23":0.07693978729819981,"24":0.23765117468603525,"25":-0.16280184751506405,"26":-0.03977661573749669,"27":0.09245478286089398,"28":-0.09699239170346372,"29":-0.11444547582581152,"30":-0.008222543306336039,"31":0.09747240351147532,"32":-0.08443032072351782,"33":-0.03528266955746894,"34":-0.1411162001056191,"35":0.10108910003932046,"36":-0.021724568341058462,"37":-0.020046950167540867,"38":0.07020801768789016,"39":-0.05089976411680987,"40":-0.19093764542459468,"41":-0.12108528808730296,"42":0.06629260503255811,"43":-0.2252700882896558,"44":-0.11771375986969353,"45":0.24749487089323138,"46":-0.06397737971919885,"47":-0.07837573010636478,"48":0.032584788697077295,"49":-0.204764089801678}},{"sx":1,"sy":1,"depth":50,"w":{"0":0.027387786586414224,"1":0.024812932826701432,"2":0.0490360560834316,"3":-0.1587470748701221,"4":-0.09539934976408138,"5":-0.14291072380136285,"6":-0.3085194349600491,"7":0.11309645306401278,"8":0.1162969856825331,"9":0.3718304451302103,"10":-0.26317926717164386,"11":-0.006894521601930616,"12":-0.09695821684778541,"13":0.05440744219811007,"14":-0.2264025357201691,"15":-0.09290429353150172,"16":-0.006792236122043564,"17":0.0016085018556757445,"18":0.006268056603911639,"19":-0.21612966993034466,"20":-0.03128912086950415,"21":0.09608673988791386,"22":-0.04558925723254855,"23":0.4857242941816238,"24":0.02998627315091896,"25":-0.25363796118892185,"26":0.11632914552309108,"27":-0.0861939096003223,"28":-0.44332923764937654,"29":0.27732222893101277,"30":0.23164882389105804,"31":0.0665413780766667,"32":-0.1599697295110966,"33":-0.10708539939400523,"34":0.05354869090693221,"35":0.05919427771740493,"36":-0.0001500801406121938,"37":-0.05823189851768033,"38":0.05726726616842199,"39":0.0636128708805015,"40":-0.009880488918951845,"41":-0.16359688616826581,"42":0.0236883543039343,"43":-0.03311438934819566,"44":-0.1837122643361289,"45":0.04774581145331063,"46":0.19764279099451493,"47":0.09874524331116681,"48":0.25645053621068287,"49":-0.14956154027416088}},{"sx":1,"sy":1,"depth":50,"w":{"0":-0.10064465720597915,"1":-0.05426841248501215,"2":0.2547107312193854,"3":0.15288061350768198,"4":0.01561323923685959,"5":0.20344120433100832,"6":0.004664352860228429,"7":0.09006576463721512,"8":0.4385399775047653,"9":-0.09765425950203563,"10":-0.0011731773368442416,"11":0.026218711435105492,"12":0.04309715662004116,"13":0.21022000366881066,"14":0.019512775397444372,"15":-0.038541109656149715,"16":0.19005200558226742,"17":0.17423035030818873,"18":-0.08441834457498142,"19":-0.07388654663736342,"20":0.17022180661909161,"21":0.03419129455483508,"22":-0.02054937676924731,"23":-0.21485524390928076,"24":-0.06585741661531135,"25":0.3009936080529065,"26":-0.14365457910978932,"27":0.10042784894706289,"28":-0.00011693718634767092,"29":0.3051902086860248,"30":0.28075064823088935,"31":0.20991131681786565,"32":-0.19936510462143178,"33":-0.22339730055029672,"34":0.18872855485498002,"35":-0.2727293008170277,"36":-0.20184072501041228,"37":0.011589573942988225,"38":-0.14658397308667848,"39":0.039365511558271754,"40":0.15017301742160624,"41":-0.01691867187184605,"42":0.04952346507814518,"43":-0.024764830094543076,"44":0.09235362328885927,"45":0.17955697482526323,"46":-0.2156828085296949,"47":-0.0673349425869489,"48":-0.17139030801234134,"49":-0.071206663618156}},{"sx":1,"sy":1,"depth":50,"w":{"0":-0.0055611574833610965,"1":-0.18650593244480518,"2":0.127072189969437,"3":-0.3265296438288352,"4":0.0684105624908099,"5":0.05450439164082407,"6":0.0029758995977471536,"7":-0.05933414975778729,"8":-0.06312266171029815,"9":0.03718584294506979,"10":-0.07333210981867135,"11":0.1845449268642219,"12":0.14088918892441693,"13":0.17533039270943265,"14":0.10269443365271717,"15":-0.17246568902220574,"16":-0.03841572542415183,"17":-0.22927368479098686,"18":0.28584733060185397,"19":0.11537696520510872,"20":-0.20161829375037624,"21":-0.1709766069191807,"22":0.09289054103890895,"23":0.015706938311140544,"24":-0.00004665780686741465,"25":-0.03909358540329747,"26":-0.09670101444884645,"27":-0.2240237973976837,"28":-0.00783514259058341,"29":0.012890982359201674,"30":-0.04411873135949861,"31":-0.1271026947304881,"32":0.1888380114130133,"33":-0.18475134764421505,"34":-0.04360931335552783,"35":0.18361629801101506,"36":-0.16130119319286224,"37":0.10797630041890201,"38":0.008161595628246893,"39":0.0919933134660876,"40":-0.10384237563587295,"41":-0.044772184410301535,"42":0.14844148596818343,"43":-0.10390802778460419,"44":0.18926136612399058,"45":0.1826660119512508,"46":-0.04831966124427269,"47":-0.06949941390350922,"48":0.11921681100264155,"49":0.08949692022397994}},{"sx":1,"sy":1,"depth":50,"w":{"0":-0.06477861560509611,"1":0.13922925260093874,"2":0.20859979443724985,"3":0.02060863209987882,"4":0.34401420117050757,"5":0.4109127747413379,"6":0.23930171066184916,"7":0.3357378214695045,"8":0.05130627175106548,"9":0.03714847421473085,"10":0.01951121522466709,"11":-0.01953169645439445,"12":0.26946033903672667,"13":-0.15366969144823406,"14":-0.07812669192853089,"15":0.04665731772678125,"16":0.2442633450256225,"17":-0.05992481716917062,"18":0.19063821928312646,"19":0.086462263808798,"20":-0.1598360100591332,"21":0.07848139281253169,"22":-0.1326822621434833,"23":-0.31723055680533335,"24":-0.009198694424929873,"25":0.03793839969596268,"26":0.3741334824476519,"27":0.0760290248546803,"28":-0.33594219423606286,"29":0.45759179491432034,"30":0.011862663007692752,"31":0.4940425692420101,"32":0.15648681936384634,"33":0.07490993686919593,"34":0.1418457016153519,"35":-0.1701889278671911,"36":0.06846400685156616,"37":-0.02462784657124319,"38":-0.2869410418999187,"39":-0.11487462474423776,"40":0.30147807491081174,"41":0.39563385615506774,"42":0.236412793288717,"43":0.06797360827870778,"44":-0.02314578815076098,"45":-0.24479768034717836,"46":0.23462548620552914,"47":-0.148348291060523,"48":-0.3108804851035552,"49":0.07990108929948646}},{"sx":1,"sy":1,"depth":50,"w":{"0":0.03974679542030561,"1":-0.10288936989703812,"2":0.14376421212142393,"3":0.1391141085213016,"4":-0.09030457158341215,"5":0.03163085420676756,"6":-0.0249782878379773,"7":-0.17244923469290754,"8":-0.04286773480513066,"9":0.2054275710819999,"10":-0.1206389926646986,"11":0.003481595004634598,"12":-0.22735241605499523,"13":0.2572241676158163,"14":0.14372922778817587,"15":-0.04791672035497903,"16":-0.06088098426002093,"17":0.15167235512724894,"18":0.17149659116537067,"19":0.18737809292383165,"20":0.012617010570717834,"21":-0.2785978635394266,"22":0.01302975599485455,"23":-0.21289285531079105,