{"layers":[{"out_depth":43,"out_sx":1,"out_sy":1,"layer_type":"input"},{"out_depth":50,"out_sx":1,"out_sy":1,"layer_type":"fc","num_inputs":43,"l1_decay_mul":0,"l2_decay_mul":1,"filters":[{"sx":1,"sy":1,"depth":43,"w":{"0":-0.022090313013005906,"1":0.06536876391003725,"2":0.1954299270310872,"3":-0.28066224463978573,"4":-0.08948621962252461,"5":-0.043927347610012345,"6":-0.05860925637084912,"7":0.1427199462444473,"8":-0.18214709620670316,"9":0.09261505912674202,"10":0.08094704580940136,"11":-0.008267721289789554,"12":0.041511193951562615,"13":-0.010929294640257508,"14":0.2098869361465122,"15":-0.08874347551939758,"16":0.18767944470549802,"17":-0.17322853875185096,"18":0.09549128633685383,"19":0.12859404887461554,"20":-0.09947491731088666,"21":0.1960670683435873,"22":-0.08562023804335897,"23":0.2696180723716198,"24":-0.19983168322619524,"25":-0.11531308190375392,"26":-0.08425709306678149,"27":-0.1147600256799254,"28":-0.026737109154606333,"29":0.09931730141939318,"30":0.011996085662783493,"31":-0.10607567118981892,"32":0.1638158755447187,"33":0.07400555336034098,"34":0.0774147943813168,"35":-0.0032857216922731842,"36":0.074434041262693,"37":0.26162792428370957,"38":-0.11473310479044065,"39":0.08568615865101842,"40":0.26278951593763833,"41":0.14801754237427647,"42":-0.18313810410246975}},{"sx":1,"sy":1,"depth":43,"w":{"0":0.14909152408351573,"1":0.1362925948378559,"2":0.0660590709418663,"3":0.06995519203640307,"4":0.27993271276701515,"5":-0.12075247025740767,"6":-0.12562349511638662,"7":0.05917190121294848,"8":0.039068277638525176,"9":0.3003920877074027,"10":0.0550566107783471,"11":0.1880187062432996,"12":0.10050688922208136,"13":0.3809717075636071,"14":-0.258747900578686,"15":0.08019151477239662,"16":-0.012833248637700622,"17":-0.05367270425531022,"18":-0.0611245393433658,"19":-0.06954158808909701,"20":0.10284438952737959,"21":0.026617347442517057,"22":-0.08479557351201346,"23":-0.017405583015899215,"24":0.057089502054832646,"25":-0.016420348097675393,"26":0.04937121229814207,"27":-0.01930259942824557,"28":-0.13817373933733004,"29":-0.15914135768923635,"30":0.20258499919059453,"31":0.21548250313899192,"32":-0.15186306538882688,"33":0.08084555319903494,"34":-0.26374519443662536,"35":-0.029162765074552843,"36":0.11729100876395573,"37":-0.08222072962455088,"38":0.05301035387662758,"39":-0.04216298158649039,"40":0.16303789119269682,"41":0.2793588648402762,"42":-0.19107892744744626}},{"sx":1,"sy":1,"depth":43,"w":{"0":-0.1064193057393268,"1":0.05263657011092784,"2":0.026099931384617393,"3":0.0463593262584659,"4":0.05164549946072666,"5":-0.014025042570497167,"6":0.2013630053039164,"7":0.23081421931706603,"8":0.17776985870147147,"9":0.08551195781956554,"10":0.07140160981414528,"11":0.07817857865651393,"12":0.15971964913977524,"13":-0.3688129939771221,"14":0.18629160285959084,"15":0.16316002078266706,"16":0.11801729612991207,"17":-0.0013446168793093663,"18":0.036819298309115164,"19":0.10037600202953141,"20":0.11914986248178945,"21":0.11534397284394567,"22":0.0947896449313718,"23":0.31476006507433546,"24":0.15644441454420818,"25":0.13058025356907182,"26":0.12873625667412872,"27":0.4537950009391398,"28":-0.09947877810808141,"29":-0.1136901994028457,"30":0.04933289176419554,"31":-0.03090910172287988,"32":0.40616256186539157,"33":-0.15044928346570427,"34":-0.13090867779263637,"35":-0.06327682688907797,"36":-0.1843192567579628,"37":-0.04445522928024303,"38":-0.22973684019427532,"39":0.23160087477739585,"40":-0.2900347960515432,"41":0.12751781296045214,"42":-0.13889130915848813}},{"sx":1,"sy":1,"depth":43,"w":{"0":0.19209048275981314,"1":-0.10737335575972877,"2":0.041171971368501856,"3":-0.45490236019482666,"4":0.07212007321154566,"5":-0.25386654075550175,"6":-0.17657063110298366,"7":0.029742634372234403,"8":0.017518314715052264,"9":0.17446518565009622,"10":-0.07771625242264295,"11":-0.1012267998782323,"12":0.10890463047144675,"13":0.27739258727833344,"14":0.19171821084850468,"15":0.008254007186504477,"16":-0.17212415760034572,"17":-0.18549086047326188,"18":-0.10069195564781086,"19":0.008696296348115655,"20":0.12021884736154884,"21":-0.030175816094623636,"22":-0.01815079510967352,"23":0.0731117309958586,"24":0.07864250977069527,"25":0.17100853594318374,"26":-0.28995342329638857,"27":-0.2640605629145248,"28":-0.19933708491562682,"29":-0.24779999264212807,"30":0.18058803119912128,"31":-0.09939060934554014,"32":0.15277525592208327,"33":-0.022709405561079577,"34":0.10237444526657695,"35":-0.1821894234597928,"36":-0.06029136769515101,"37":-0.014085119760582602,"38":-0.003328679429609989,"39":0.31510795878093295,"40":-0.24383303961179278,"41":-0.12022271778092605,"42":-0.09287311943907836}},{"sx":1,"sy":1,"depth":43,"w":{"0":0.07586032774938954,"1":-0.07591696345491174,"2":-0.11775231102917107,"3":0.1337178265163067,"4":0.2038150605459116,"5":0.1282187906507523,"6":0.1643401589349146,"7":0.0058893553848539506,"8":-0.18098707438359457,"9":0.08711645529049937,"10":0.23700950989331543,"11":0.2730978866990713,"12":-0.05444220816343678,"13":-0.08413494206377967,"14":0.1944516248784543,"15":0.032907485550653745,"16":-0.1317166906756226,"17":0.16527581331619484,"18":-0.13645627921444048,"19":0.14606271195001608,"20":-0.03278109283992975,"21":0.04372190360149794,"22":0.17631262508706708,"23":0.3571601733296453,"24":-0.10107360576423638,"25":-0.13391354942848122,"26":0.18014204366172815,"27":0.15696668423513954,"28":0.09472041149528417,"29":0.02097006722163609,"30":-0.43284934970333333,"31":0.08140990142852339,"32":-0.10522538646208067,"33":-0.05013557277563584,"34":-0.011048191020321969,"35":-0.03174165855595365,"36":-0.027977396690594604,"37":0.33693167434645016,"38":-0.15646435141269344,"39":0.07689167715455439,"40":0.21685855893218164,"41":0.10126048448252883,"42":-0.03420800393152569}},{"sx":1,"sy":1,"depth":43,"w":{"0":-0.03667445395616275,"1":-0.07279602555632679,"2":0.04660403454346319,"3":-0.01032124372135548,"4":-0.1355730446625746,"5":0.02740160000893068,"6":0.0141674766994924,"7":-0.3294074677475201,"8":0.11857765175012308,"9":-0.004018781478198315,"10":0.013570061909473491,"11":0.1301966953716699,"12":0.0835988569189334,"13":0.21160696876547094,"14":-0.12848732959564485,"15":-0.15460783020391028,"16":0.06387586954471208,"17":-0.06614372339848867,"18":0.2125992283650251,"19":-0.031018402608433363,"20":0.04400727033015012,"21":-0.14840387248587913,"22":0.19639961167899342,"23":0.30518101652906865,"24":0.029237680884383856,"25":-0.13790371557687092,"26":0.251850169304925,"27":-0.03179051032714142,"28":0.09840818653027388,"29":0.08623564947495077,"30":0.25233281546621855,"31":0.19259739985426944,"32":0.1751339487956431,"33":0.22086240972992305,"34":0.0010288782749856324,"35":0.0719614556240335,"36":-0.024606456173871173,"37":-0.044619633943485656,"38":-0.1183984815001336,"39":0.2684521113599079,"40":-0.06321809205037876,"41":-0.10880074123388771,"42":0.23812658594969796}},{"sx":1,"sy":1,"depth":43,"w":{"0":0.04161854574012085,"1":0.04775160004398829,"2":-0.2482680428078222,"3":0.01223791175900593,"4":-0.27817860312647474,"5":0.0942809164492554,"6":0.19648321078002404,"7":0.010534520336992398,"8":-0.13926329948740154,"9":-0.18660648128316906,"10":-0.15946248102679772,"11":0.024768048126887342,"12":0.03335274166494949,"13":-0.12123995294823137,"14":0.037728109801375184,"15":0.17757931072321292,"16":-0.10851259880777554,"17":-0.0904885281871881,"18":0.03503240755465753,"19":-0.1633595579603,"20":0.1606297668871132,"21":0.18056705428570138,"22":0.17214552993976023,"23":0.20784011384360968,"24":-0.06926677937168474,"25":-0.11608816136023029,"26":-0.002139492688302141,"27":0.0649323125973952,"28":0.15109543400532935,"29":0.20787080601883506,"30":-0.32828651940691206,"31":-0.042908399358289336,"32":-0.10438040334653036,"33":0.031065668878729233,"34":-0.08595863298628288,"35":0.29845652434486414,"36":-0.24528123737216367,"37":-0.04496775166064467,"38":0.1937994809181836,"39":0.1940233458256162,"40":-0.02620857562770551,"41":-0.026179327351858985,"42":0.026685256497193766}},{"sx":1,"sy":1,"depth":43,"w":{"0":0.23832002387611947,"1":0.14412505786738586,"2":0.05840268545840294,"3":0.1865818020540865,"4":-0.09932661471852289,"5":0.015169885665797732,"6":0.13001450142449603,"7":0.3500134319861482,"8":0.15463104824764476,"9":0.10668745393669045,"10":-0.007006076551448053,"11":-0.3311775597453064,"12":-0.12843044358476094,"13":0.057811282284759395,"14":-0.027803689750652723,"15":-0.1554510566734221,"16":-0.040623548218267795,"17":0.21085325629705806,"18":-0.016998198843900414,"19":-0.11901722537658342,"20":0.1154933441685784,"21":0.04840923419282373,"22":0.193106489401661,"23":-0.2104194254844965,"24":0.17988786647784183,"25":-0.07653940834043259,"26":-0.2607616122261841,"27":-0.003950432118735665,"28":-0.25183168904135883,"29":-0.12271022008471548,"30":0.07103724218749478,"31":-0.18441109961016916,"32":-0.07188766770265873,"33":-0.12892491994846683,"34":0.013180479181242362,"35":-0.10116319534209521,"36":-0.1816382584045516,"37":0.0712076132903159,"38":0.001051665841201869,"39":-0.1373177063926026,"40":-0.18920787989416965,"41":-0.0847695190644374,"42":-0.04043039402348493}},{"sx":1,"sy":1,"depth":43,"w":{"0":0.11492501812904277,"1":-0.19230983267683302,"2":0.1733227579262701,"3":0.13209268117007195,"4":0.004577707386217723,"5":-0.02177629400555968,"6":0.2236364354780919,"7":-0.3012103031725313,"8":0.2950145277182481,"9":-0.053267440464203585,"10":0.10572864052708068,"11":-0.08735436766770467,"12":0.043571318820333486,"13":-0.10213753161385765,"14":-0.027824712705267183,"15":-0.22710717095045785,"16":-0.14719273169281635,"17":-0.05434752960711139,"18":-0.12291177702890778,"19":-0.08877830513934362,"20":-0.22269633417293666,"21":-0.1290886085665695,"22":-0.06687304672941939,"23":-0.24940894022366178,"24":-0.2841401148175762,"25":-0.11771049142698607,"26":0.13200321729477385,"27":-0.00666916682199038,"28":-0.02536078372650143,"29":0.005826801083107015,"30":0.08711979861927531,"31":-0.1201556732104146,"32":0.05798604308571743,"33":-0.028300487095414883,"34":-0.13288935661484105,"35":0.061394468667952375,"36":-0.0383640854522393,"37":0.16199865320355264,"38":0.11765988883341398,"39":0.003229741083853821,"40":-0.07817790399981926,"41":-0.13221008606482848,"42":-0.23901269134062786}},{"sx":1,"sy":1,"depth":43,"w":{"0":-0.008796104233953862,"1":0.030909866848938185,"2":-0.2424717512870292,"3":0.02195651369367004,"4":0.014060854659311804,"5":0.04714165741428652,"6":0.00905452858397601,"7":0.10685073649930772,"8":-0.2418801650703049,"9":-0.0385023908696235,"10":0.054860397269113195,"11":-0.06038684891695375,"12":-0.17012728609178657,"13":-0.003203104069939256,"14":-0.09208768526899654,"15":-0.0316682115198382,"16":-0.00541813389271583,"17":-0.036393799895136504,"18":0.08022036768696428,"19":0.055878641654352725,"20":-0.05536147840832753,"21":0.14257930908028402,"22":-0.02736773268342878,"23":-0.4763009433557065,"24":-0.09529658628314336,"25":0.026801768784063953,"26":0.16369170493658877,"27":0.026681818752877177,"28":-0.026412733837959026,"29":0.1736304890378628,"30":-0.05354336350052077,"31":-0.07909400983496737,"32":-0.1029513364325721,"33":-0.11158511971662002,"34":0.010320547700483513,"35":-0.14920644680249634,"36":-0.06863208909228298,"37":-0.12594105730319052,"38":0.056101572609897565,"39":0.0903782496304803,"40":-0.1348039292925855,"41":-0.04613482659923589,"42":-0.07901762002849708}},{"sx":1,"sy":1,"depth":43,"w":{"0":0.15764645122339552,"1":-0.030691326088764587,"2":-0.1678974337770452,"3":0.1165475790335083,"4":-0.20938940084461977,"5":0.0398693063154601,"6":0.05923467798716528,"7":0.1631096768361992,"8":0.020795011517772907,"9":0.2271984981739654,"10":-0.0832975650800541,"11":-0.18132264628577766,"12":0.053931483182627686,"13":0.02228321236172917,"14":0.009163210027732096,"15":0.031003312892207886,"16":0.06555492721217618,"17":0.14172236213119646,"18":-0.1606848392376926,"19":-0.2235150950966101,"20":-0.14974942283753603,"21":-0.09440733041927762,"22":0.06629144086638428,"23":0.4110314397676242,"24":-0.071553882700456,"25":-0.04373168650419029,"26":0.07058982081489944,"27":0.02742511208907443,"28":-0.0034880350017162595,"29":0.10460512311041842,"30":0.26600975610575905,"31":0.16138212334272484,"32":-0.10728600587087958,"33":-0.24099421131638155,"34":-0.17071966942049444,"35":-0.029930534313278613,"36":-0.100489244545998,"37":0.00548133366784666,"38":0.1545668419005847,"39":-0.02528211261538495,"40":-0.009690356400720792,"41":0.05425059478072919,"42":0.13106002007587092}},{"sx":1,"sy":1,"depth":43,"w":{"0":0.041635283847518446,"1":0.18950681315429663,"2":-0.2735887458732368,"3":0.01576847383586763,"4":0.1945181725351714,"5":-0.11551624263439098,"6":-0.06738162046238293,"7":0.06162352495413634,"8":-0.1502205126613466,"9":0.09760064088629458,"10":0.03559328301369578,"11":0.11342838139175518,"12":-0.20029108108286864,"13":-0.09633776019944007,"14":0.05287171113723149,"15":0.07220310669927675,"16":0.13575093250976028,"17":0.17248730508426946,"18":0.002508985521813597,"19":-0.19445721554593653,"20":0.10994786427575647,"21":-0.0752396447540832,"22":-0.15753318190832635,"23":-0.08806181068040035,"24":-0.14776840216939136,"25":-0.03769054075295721,"26":0.011455952122220982,"27":0.10585928875352985,"28":-0.23129865614658163,"29":-0.18743709983796691,"30":0.00039744514505360667,"31":0.08601805748717174,"32":-0.04266022277662446,"33":-0.041383006257635156,"34":0.0913200824817667,"35":-0.019681108947305712,"36":0.1403410267762503,"37":-0.4077299196889285,"38":0.10580475344608731,"39":-0.37632646054655744,"40":-0.1951248361072221,"41":-0.14274567387458686,"42":0.17044606645802193}},{"sx":1,"sy":1,"depth":43,"w":{"0":-0.10965759658228841,"1":0.15079971964593958,"2":0.07539854442516823,"3":-0.02733223951431816,"4":-0.1401938323093284,"5":0.26405832683860847,"6":-0.10288177372288497,"7":-0.19234804265703037,"8":0.23896342615773447,"9":0.02220952239310113,"10":0.30402846788275395,"11":-0.02895965193626042,"12":0.1306545410275404,"13":0.1761281766734132,"14":0.1370121595389328,"15":-0.2515285023856486,"16":0.061289648687768324,"17":0.01605124055698214,"18":0.002732396078715241,"19":0.29508386173261486,"20":0.03233849042960416,"21":-0.29307891073106945,"22":0.002089668426171873,"23":0.055163141502436897,"24":-0.31346586218470046,"25":-0.06631033130373239,"26":0.10227443318344535,"27":-0.01800284562439547,"28":-0.14693126434571682,"29":-0.12459740471808002,"30":0.14292169592146514,"31":0.10088478602405984,"32":0.03777006723463448,"33":0.20357258698880484,"34":0.0877716915043212,"35":0.15390891722754196,"36":0.05917262645423071,"37":0.1722289009548537,"38":0.08711644716080175,"39":0.03146071188747572,"40":0.05886926056927358,"41":0.2304112500523765,"42":-0.09671695474117072}},{"sx":1,"sy":1,"depth":43,"w":{"0":0.011834956691401567,"1":0.020275199858291897,"2":0.18135704331661062,"3":-0.16553649269509713,"4":-0.15317729281911283,"5":0.026819225474935968,"6":-0.02322181759856332,"7":0.0007478774710110832,"8":0.03097932607118117,"9":-0.026984990612860794,"10":0.021405369178012036,"11":-0.029961102029068768,"12":-0.32384929770438275,"13":0.04030862702799459,"14":0.2975232487121893,"15":-0.05652540693978286,"16":0.09085886699527929,"17":0.2526156114641784,"18":0.2311833986639899,"19":-0.12539590273916346,"20":0.021566114907923904,"21":-0.0068679074612338934,"22":-0.04455809956478013,"23":0.27139135350760457,"24":0.37049072396923255,"25":0.06587418732765565,"26":-0.40858920638312,"27":-0.10756196123734503,"28":-0.005685240125047931,"29":0.1700784086880037,"30":0.07284154530796302,"31":-0.13614843130095597,"32":0.240426942554483,"33":-0.13746541344332538,"34":0.006371658543526604,"35":0.3087758711608838,"36":0.14621296115958063,"37":0.07136867812804161,"38":0.055286816251694786,"39":0.3776074205383888,"40":0.18621198503580502,"41":-0.01901534684793935,"42":0.13204709093762015}},{"sx":1,"sy":1,"depth":43,"w":{"0":0.10028038198942439,"1":-0.12851819951157165,"2":0.06016119229397238,"3":-0.05352889032790121,"4":0.13540039389816877,"5":0.035773766987665385,"6":0.1996215262658387,"7":-0.04488147082507594,"8":-0.04336138852639351,"9":0.0033522828186833427,"10":0.11063305517423914,"11":-0.12701831257535293,"12":-0.1820726469906302,"13":-0.15573025135330024,"14":0.14718143568243292,"15":0.06363331786172223,"16":-0.04991219851558692,"17":0.20055340200352548,"18":0.14505813446515958,"19":-0.04489197272152224,"20":0.042022246066369846,"21":-0.14881556751305985,"22":-0.08557034075089753,"23":0.31018232422831643,"24":-0.06587990740862486,"25":0.08383823532123304,"26":0.01776148872562999,"27":0.16861279712722024,"28":-0.2889552976231132,"29":-0.03803140451694747,"30":0.08640888229947134,"31":-0.2272804845811428,"32":0.13805479084161143,"33":-0.2050706169010597,"34":0.23369543013010294,"35":0.05386105498971885,"36":0.25662966058550196,"37":-0.08412406269258305,"38":0.05784440639266408,"39":-0.21495259160584584,"40":-0.07191095329296703,"41":-0.050027572923015545,"42":-0.07463236202989902}},{"sx":1,"sy":1,"depth":43,"w":{"0":-0.0632524874838864,"1":-0.057961021944786736,"2":-0.03147166836937186,"3":0.07097914358840031,"4":-0.09536775305498302,"5":-0.03182179099919325,"6":-0.15953190948658338,"7":0.28101595581933814,"8":0.12432088226222895,"9":-0.1779141609980989,"10":0.0580542722984328,"11":0.2939672550326303,"12":-0.18249010604499716,"13":-0.1261955032164854,"14":-0.022165912127248125,"15":-0.22651236831909904,"16":-0.060668154135940414,"17":-0.16746428909166908,"18":0.16180623208156816,"19":-0.05602660296824227,"20":-0.13233592943830808,"21":0.1345185759306098,"22":0.12833533123826033,"23":-0.025112331973866243,"24":-0.14115916778570295,"25":0.0797815825435175,"26":0.11974378723346764,"27":0.04992626794017445,"28":0.05031219799403249,"29":-0.23201526829321295,"30":0.027806858424620894,"31":0.02463556640644316,"32":0.0960052956066719,"33":0.11596776108986533,"34":-0.18864697738655392,"35":0.19294368764575828,"36":-0.08228587892700065,"37":-0.13051682248871183,"38":0.14799149655366203,"39":-0.29444949653289737,"40":-0.006204187610041417,"41":0.3315005801978059,"42":-0.06244065270397129}},{"sx":1,"sy":1,"depth":43,"w":{"0":0.19675957752646578,"1":0.08083091825698335,"2":0.042746518388929164,"3":0.16646735093439755,"4":0.10243255626698367,"5":-0.32850939728878453,"6":0.15939498708266717,"7":0.00837585388459118,"8":-0.07860763580201235,"9":0.17216903917520898,"10":-0.015509700642780207,"11":-0.03277339308572927,"12":0.053970785004667336,"13":-0.09279832269408733,"14":0.14357574693586714,"15":-0.047007799010461176,"16":0.10106142928640777,"17":0.056811412741986915,"18":0.21760392857505526,"19":0.13376820750053334,"20":0.18097917156234916,"21":-0.17775513974497592,"22":-0.11909090253440481,"23":-0.0574048855794961,"24":-0.04968360331973915,"25":-0.05187827846243915,"26":0.1633416767938223,"27":0.03537975381153822,"28":-0.13747002445766462,"29":-0.08391210289722087,"30":0.11148938919044948,"31":0.09649155512133059,"32":0.27846890014126735,"33":0.006192195913890456,"34":0.015509934337613118,"35":-0.13498264938208746,"36":0.067117236148137,"37":-0.07542755889967974,"38":0.050653165001036796,"39":0.1654045886841881,"40":0.22954095076407932,"41":0.09347538715262511,"42":0.19286922605765874}},{"sx":1,"sy":1,"depth":43,"w":{"0":0.14238563030905815,"1":0.028525097179594564,"2":0.09030712733577434,"3":-0.011532821509441881,"4":0.05604361233949042,"5":0.29200683225798074,"6":0.013115358004322326,"7":-0.059914692582831004,"8":0.07177526435684792,"9":0.058492980842158565,"10":-0.06943170910881093,"11":-0.2639440806090451,"12":0.0582039206844312,"13":0.1914808936945488,"14":-0.1068321689802777,"15":0.2385548720591265,"16":-0.26278026755755696,"17":-0.045534476405063314,"18":-0.17062717327457724,"19":0.2405424017634637,"20":-0.43774546573659917,"21":-0.03270598204235637,"22":-0.1593417889188503,"23":0.009352844968275185,"24":0.015764686087314007,"25":-0.03727835539783868,"26":0.06464961782416496,"27":-0.22628307551539406,"28":-0.11878149110720472,"29":-0.13710179598970298,"30":-0.324248532991032,"31":-0.39812368470378906,"32":0.23007120111799362,"33":0.15631570769103195,"34":0.05550283695098304,"35":0.24788957608133783,"36":-0.08920402952810295,"37":-0.2102694490833754,"38":0.17231633470196872,"39":0.08885327957081017,"40":-0.02890717114876192,"41":-0.013225294889822613,"42":0.061368675359548784}},{"sx":1,"sy":1,"depth":43,"w":{"0":-0.09188639066749689,"1":0.19174375207945332,"2":-0.03724469186294631,"3":0.18215510710834903,"4":0.1442322472937153,"5":-0.2321449632247746,"6":-0.09076641640398109,"7":0.07504752105217863,"8":0.11745296022168358,"9":-0.19606063172167104,"10":-0.116164063503697,"11":0.13529219315379745,"12":0.38326942472628045,"13":-0.0854486515038508,"14":-0.1435292366510616,"15":0.4413878416432053,"16":-0.12094416363676092,"17":-0.19032119374930404,"18":-0.27922049314561365,"19":-0.09539268684010074,"20":0.047731182926918456,"21":0.10292883660926035,"22":-0.04409207310775473,"23":-0.04811382409600045,"24":0.11933269127764812,"25":-0.0008778919218398439,"26":-0.24153819814532854,"27":0.28906969321963927,"28":-0.21757355273729395,"29":0.2391102704106482,"30":0.20666803804182513,"31":0.04748782812215043,"32":-0.17025977197963443,"33":0.17709107628964318,"34":-0.00524323074722126,"35":0.03806954166281718,"36":-0.2872506934973885,"37":0.014153572332440342,"38":-0.6171331486486397,"39":-0.013243908828701205,"40":-0.014518953895261293,"41":0.13350338066122824,"42":-0.09622425756059098}},{"sx":1,"sy":1,"depth":43,"w":{"0":-0.15851150892946275,"1":0.4710536048203612,"2":-0.008909739416353849,"3":0.060691119550623875,"4":-0.17315703999218224,"5":0.09192560147063554,"6":-0.04536131683111056,"7":-0.16545500382330916,"8":0.38573085319699496,"9":0.08466508771085078,"10":0.03670542345060519,"11":0.14836925204759627,"12":0.1058590394716834,"13":-0.09631881311704966,"14":-0.11488615454350432,"15":-0.20481798569146692,"16":-0.07142803291938825,"17":0.01627358454676822,"18":0.22474836248546198,"19":-0.10004125843800671,"20":-0.12618020169053012,"21":-0.037211149241586854,"22":-0.04185715966861595,"23":-0.03247456208125633,"24":0.06285776973004335,"25":0.24082906668763107,"26":0.06307355426622714,"27":0.28310716918251144,"28":0.03406254752399421,"29":0.025508860495741942,"30":-0.1196069292514803,"31":0.2116269361337734,"32":-0.12667396125174288,"33":0.02985320367144705,"34":-0.042222228165471554,"35":0.0546793960014006,"36":0.056574031198586894,"37":0.04274998398279521,"38":-0.0999440592009824,"39":-0.043650863222848335,"40":0.18592712691162042,"41":0.0879872757296875,"42":0.07452640934395866}},{"sx":1,"sy":1,"depth":43,"w":{"0":0.19387591788793188,"1":0.24682312371062473,"2":-0.017386018941052517,"3":-0.10693166815880041,"4":0.18413232969931398,"5":-0.1221594283028967,"6":-0.10524746968859724,"7":0.25713621383103125,"8":-0.09056310083873932,"9":-0.14842309941703632,"10":-0.102842629359312,"11":-0.028629246616169828,"12":0.09158268100259624,"13":-0.2537563383989354,"14":-0.28826901393919346,"15":-0.11876292101424399,"16":-0.1301085641270028,"17":-0.21290127548762217,"18":0.2442367119997812,"19":0.12763563200120637,"20":-0.2607136279843747,"21":0.13341510516959976,"22":-0.07309826003119849,"23":-0.1701660193047632,"24":0.20805194202790867,"25":-0.01830522797932838,"26":0.05033702786286233,"27":0.23362645089288056,"28":0.09853334764431224,"29":0.013949114483407335,"30":0.05846072562527588,"31":0.22043213073108534,"32":0.0965410049686328,"33":-0.13677878044237599,"34":0.21634692936572317,"35":-0.050545225794669815,"36":-0.12050449488104188,"37":-0.0066538932707426585,"38":-0.19998540594591582,"39":-0.09530365202401397,"40":-0.04078265397887808,"41":-0.19011548840381154,"42":0.12438544621530384}},{"sx":1,"sy":1,"depth":43,"w":{"0":0.14492072124835292,"1":0.022988191528332577,"2":-0.0044917899899377545,"3":0.3107664363089405,"4":0.10754864280371028,"5":-0.1010875632667486,"6":0.04194756428221,"7":0.019463221890438337,"8":-0.21503608916173275,"9":0.05782448226424224,"10":-0.10999106059194078,"11":0.0886487339230509,"12":0.012938913042650279,"13":-0.020345607234802977,"14":-0.30271579148264416,"15":0.07127338661587486,"16":0.2533610968257107,"17":0.05227841066671945,"18":-0.01653475936564684,"19":-0.09689461652061503,"20":-0.03731363200790106,"21":-0.04949020785974536,"22":-0.12176988191581525,"23":0.013524142238079944,"24":-0.1668392757977028,"25":-0.10996615980513512,"26":-0.19108698544762717,"27":-0.02370040032853485,"28":0.009768585945100269,"29":-0.1357170873671041,"30":0.2398145639873971,"31":0.021858107829523594,"32":-0.23684669225038354,"33":0.02048957124350444,"34":-0.14851014507030416,"35":-0.22297384310803722,"36":0.006988897486494063,"37":0.10490153082898923,"38":-0.0514928051077627,"39":-0.12708796241045214,"40":-0.12330347174144113,"41":0.1518089713324729,"42":0.4071597659322325}},{"sx":1,"sy":1,"depth":43,"w":{"0":-0.1021208684698598,"1":0.18304055437654448,"2":-0.08441602832095497,"3":0.14572601851813516,"4":-0.0056403885941485295,"5":0.17587953863682515,"6":0.06604091316481162,"7":0.2092413213527533,"8":0.08051440716813286,"9":0.08128263094942019,"10":-0.06019191068676547,"11":-0.1749426216268708,"12":-0.0654639097014774,"13":-0.030595734962610005,"14":0.3063963091541426,"15":-0.04024597887023461,"16":-0.49161065311326047,"17":0.16400219236563066,"18":0.04128273003959301,"19":-0.06309080093888818,"20":0.02161196587874967,"21":0.08863682587363496,"22":0.05619163583091259,"23":0.2520331070919208,"24":0.18814094003720677,"25":0.026495147934102112,"26":-0.3081826072795542,"27":-0.11697501686607936,"28":0.10085330623927255,"29":-0.018233498755332277,"30":0.20861583861655172,"31":0.1279596858933806,"32":0.2076394976677852,"33":0.05384780712443961,"34":0.022202789024476664,"35":0.010549809613183365,"36":0.06184898330074216,"37":0.07009109396693523,"38":-0.0630729692053965,"39":0.06609626852394841,"40":0.06460078319925293,"41":-0.02137627020346379,"42":0.03536904630154139}},{"sx":1,"sy":1,"depth":43,"w":{"0":0.18247638399862398,"1":0.280876504750024,"2":-0.008634184641189636,"3":-0.03387204728212663,"4":-0.03597530723806594,"5":-0.008139113383782764,"6":0.09981913247305457,"7":-0.01683587876859269,"8":-0.05508831794421785,"9":0.03457326180407353,"10":-0.09641293891242392,"11":-0.15182212284372645,"12":0.1473155049212059,"13":-0.1329664586472669,"14":0.36342054083298153,"15":0.1307666962241031,"16":0.023917266736279582,"17":0.17111519000191933,"18":0.20743597469784159,"19":0.28928182158025595,"20":0.04283637602028111,"21":0.14257117833475974,"22":0.03396437631910755,"23":-0.05938361911321255,"24":0.2998360841183003,"25":-0.3717939984292904,"26":0.11380773268660474,"27":-0.11583926728876728,"28":-0.1978452918623448,"29":-0.24928252482121602,"30":-0.05917506873441725,"31":-0.04053619739473796,"32":-0.04393102258254293,"33":0.029130799342427682,"34":-0.03811395548524111,"35":0.09581473266564701,"36":-0.0620690737866282,"37":-0.2736386177522337,"38":-0.013454530713355808,"39":-0.09525013591146873,"40":0.019149939913240883,"41":0.09786000830427702,"42":0.1273567510201056}},{"sx":1,"sy":1,"depth":43,"w":{"0":-0.0894616894543475,"1":-0.34611558016052674,"2":-0.08764202362888172,"3":-0.04747195196230088,"4":-0.2147788077078624,"5":0.11860273234426887,"6":0.08796564366260708,"7":-0.1969749697794952,"8":0.05404655199599276,"9":-0.17077907427879874,"10":-0.034259573385606756,"11":-0.07769763452984625,"12":0.186259504953763,"13":0.2722012737360303,"14":0.22229206279348343,"15":0.13560430509350044,"16":-0.06165956051486592,"17":-0.08165961753017056,"18":-0.01905092145197923,"19":0.23492765989964354,"20":-0.15967199473690732,"21":0.1119927307518045,"22":0.31775439039663694,"23":-0.11428554683745383,"24":0.04052859222899832,"25":-0.05907416758919209,"26":-0.18296033718147006,"27":-0.1320307927040815,"28":-0.2019569403962963,"29":-0.1176835966121071,"30":-0.1892254534114001,"31":0.02911070239945587,"32":-0.01980171948306337,"33":0.036038778704238016,"34":-0.03396068177258138,"35":-0.1749444114687051,"36":-0.1485822566965577,"37":0.06614847116928813,"38":0.03520001668447941,"39":0.11790584643953306,"40":-0.16964666199002096,"41":-0.12822216552816837,"42":0.09601828435498916}},{"sx":1,"sy":1,"depth":43,"w":{"0":-0.19327529043897615,"1":-0.16474009536088813,"2":-0.08119401370556398,"3":-0.18658076237301008,"4":0.09589783902598423,"5":-0.030897789535692912,"6":0.040735341125218455,"7":-0.06694279325571445,"8":-0.05516673425847426,"9":0.1688038715688963,"10":0.22158506519227822,"11":0.08304039419039966,"12":-0.3621106722257953,"13":-0.2364403244194067,"14":-0.3192064454967306,"15":0.05352783660082147,"16":-0.11284614144303154,"17":-0.09370331364341783,"18":-0.013640254296473756,"19":-0.26670027038262345,"20":-0.07072483780709551,"21":-0.16899634423819607,"22":-0.0948776980523357,"23":0.18959735025034166,"24":-0.08607115561540236,"25":0.30237882144505657,"26":-0.13875096052038632,"27":-0.13492386934697972,"28":0.09198595030837504,"29":0.046599084346002115,"30":0.1502772376701111,"31":0.17423641958801883,"32":0.14175133748893243,"33":-0.006289644341069136,"34":0.14119464207957994,"35":0.1744737156712201,"36":-0.29967696951135436,"37":-0.18098710271744717,"38":-0.04663736666358416,"39":0.03806687556744735,"40":0.028189361458956848,"41":-0.12695293378006353,"42":-0.18002616751321285}},{"sx":1,"sy":1,"depth":43,"w":{"0":-0.019164343139161252,"1":-0.2122987605062957,"2":-0.31136367434447837,"3":0.06854227539934288,"4":-0.12697570768262242,"5":0.1788000604974487,"6":-0.08359341560560879,"7":0.15990495926512435,"8":0.2170119953795768,"9":0.1725387643588111,"10":0.09563752029411884,"11":0.027624300511688953,"12":0.11066513345206559,"13":-0.1244193390129131,"14":0.16660394324436487,"15":-0.10951362539951723,"16":0.06373117932524958,"17":0.013060134551707287,"18":0.1644692550602635,"19":-0.09907424485362881,"20":0.23665071961616926,"21":0.017233904513324464,"22":0.08487652061736752,"23":0.10148157382903839,"24":-0.0309685435848516,"25":-0.18159395336431639,"26":0.11682282254069531,"27":0.043591169697694485,"28":0.3238956641616976,"29":0.09640656903417301,"30":0.14988334369460177,"31":0.04629695554772806,"32":-0.034837154640591464,"33":-0.07406426051455832,"34":0.3468404023284675,"35":0.12453232518081153,"36":-0.026162318182514185,"37":0.09339477198060844,"38":-0.06685305050512758,"39":-0.07524462956868133,"40":0.07844642297716244,"41":0.1112002480953954,"42":-0.03581314635461851}},{"sx":1,"sy":1,"depth":43,"w":{"0":0.2889162829580683,"1":0.040295018725801816,"2":0.13010234591592726,"3":-0.3103935134046236,"4":0.17365486267302088,"5":-0.11870798764526418,"6":-0.1962839245130007,"7":-0.23210853080213678,"8":0.2870594125736024,"9":-0.014728455675943514,"10":-0.12098073796538071,"11":0.1441742792483325,"12":-0.27890668443470396,"13":-0.0226861568618102,"14":0.2925926752153929,"15":-0.12257013948164501,"16":-0.25376586028660447,"17":0.22162879935322288,"18":-0.04578628072798751,"19":0.08114540255378434,"20":0.21615952379467845,"21":-0.04378055988081346,"22":-0.019869982137272674,"23":0.0754176846011759,"24":-0.3509681292292011,"25":-0.02343185888618349,"26":-0.08766220306833078,"27":0.08676002914385018,"28":-0.10123915674209352,"29":-0.21483090273010827,"30":0.006272932541654012,"31":0.33718572766307003,"32":0.1509708305461968,"33":0.06220580837795272,"34":0.0591731163527751,"35":-0.04966726180736746,"36":0.08128203647146959,"37":-0.20172356255362486,"38":0.1781570410451013,"39":-0.26605009594601886,"40":0.12811842863664066,"41":-0.1019408154593143,"42":-0.1298628887073216}},{"sx":1,"sy":1,"depth":43,"w":{"0":0.11556530181936202,"1":-0.09318147108598789,"2":-0.1738077742686715,"3":-0.06868913143289448,"4":-0.07078705798600969,"5":-0.009942732924091495,"6":-0.18428202867654855,"7":-0.10908897350035215,"8":0.016814549165706336,"9":-0.16359062480154785,"10":-0.13755801646360777,"11":-0.020810185209215067,"12":-0.13541295020917055,"13":-0.018928164280558237,"14":-0.027578375895221,"15":0.11289456797654689,"16":0.14312892524515913,"17":0.1421165234210964,"18":-0.13756768858351598,"19":-0.04162371338994935,"20":0.09405903082665429,"21":0.0788572996698831,"22":0.19483187673114766,"23":-0.007353989344016403,"24":0.2771127460896331,"25":-0.4194840097339615,"26":0.05695218593799709,"27":-0.17888769580542252,"28":-0.3151591491970943,"29":0.19163837049585894,"30":0.07528688388952044,"31":-0.07099180754425015,"32":0.10371588667642513,"33":-0.09709928371113134,"34":0.05190543801483446,"35":-0.002726279208623834,"36":-0.08159523374735635,"37":0.05485610409580431,"38":0.10679459199701552,"39":0.14687681475676204,"40":-0.12799027916418085,"41":-0.14825318547787658,"42":-0.02006221737851571}},{"sx":1,"sy":1,"depth":43,"w":{"0":-0.02526286577324194,"1":0.016238431008672716,"2":0.3308155558009452,"3":-0.20431943266066832,"4":0.05262371070941761,"5":0.21520234522317547,"6":0.006889584466143166,"7":-0.03700510163495679,"8":0.04633337785799494,"9":-0.13136224314729625,"10":-0.09203962992357252,"11":0.05001538846585288,"12":0.08134556306089541,"13":0.11020480691833036,"14":-0.206387336986451,"15":-0.168334841839595,"16":-0.08965712603560279,"17":-0.15732529427964562,"18":0.14113148183717836,"19":0.27211249795963827,"20":-0.28001965466283274,"21":-0.00445008123974984,"22":0.07799877119863147,"23":0.10000154778954312,"24":-0.027995312947927044,"25":-0.074324053929465,"26":0.45444098624068574,"27":0.16774881580719964,"28":0.08762320089531851,"29":-0.10916670615424645,"30":0.054900090418750234,"31":0.09885191442954694,"32":-0.156418795733361,"33":-0.16436068223182893,"34":0.08381468305538153,"35":0.019760758561383762,"36":0.05982149484102115,"37":0.14245101879017863,"38":0.1987894160602244,"39":0.04441011944032151,"40":-0.16982331423645566,"41":-0.05717401766439874,"42":-0.11872094816631448}},{"sx":1,"sy":1,"depth":43,"w":{"0":-0.004115757261551754,"1":0.06642608921365015,"2":0.120840520900074,"3":0.11604313304563463,"4":-0.0886360886074899,"5":-0.04667180663907041,"6":0.08585959340029238,"7":0.07623905168385428,"8":-0.21704848800345317,"9":-0.12039400488287261,"10":0.08663923897814876,"11":-0.11365061160228658,"12":-0.018659208920327446,"13":0.052452220165020366,"14":0.025051475334602516,"15":-0.07870387500511353,"16":0.15326002049506313,"17":-0.01543634704092306,"18":0.2418374605720169,"19":-0.07171382476725761,"20":0.01157829537957213,"21":0.014265389260519588,"22":0.15135991806194524,"23":0.021817572401602196,"24":-0.2758769002206341,"25":0.09623118812456279,"26":-0.12936582374032007,"27":0.09205592218308994,"28":0.05634375835650932,"29":0.0376374557085141,"30":-0.024257819179615503,"31":0.22630587930164456,"32":-0.1362529257176814,"33":-0.1374991110453931,"34":0.11372918052042373,"35":0.06136168249058861,"36":-0.1517311481467084,"37":0.3083112815295382,"38":-0.08247873559494481,"39":0.1314537661032317,"40":0.10243661933747217,"41":0.1269915273713048,"42":-0.16563479770643633}},{"sx":1,"sy":1,"depth":43,"w":{"0":-0.10819027405851199,"1":-0.2237280066318154,"2":-0.04182827473082102,"3":-0.1993190178701072,"4":-0.015671690373711546,"5":-0.10372824444859881,"6":-0.059812116824083925,"7":-0.36286494103037736,"8":0.04689504107195051,"9":0.05442652265915124,"10":0.07565672200225161,"11":-0.1720439940767031,"12":0.013288377299722513,"13":0.15884337816265795,"14":0.19270454154064273,"15":-0.2557197522149387,"16":0.18814638094593264,"17":0.22579546509117043,"18":0.08945373410485136,"19":0.1792737923122313,"20":-0.06491788268487304,"21":-0.06071296782238607,"22":0.18484993803101965,"23":0.15453794850871497,"24":0.024785418229593133,"25":0.050568448722951534,"26":0.01964885745234779,"27":-0.2460704952589742,"28":0.2072682540045498,"29":0.0641396429553543,"30":0.2901464679483106,"31":0.0707727408671702,"32":-0.09580060539867315,"33":-0.0341989029851668,"34":0.12742294088509556,"35":0.07878158436004418,"36":-0.31158697968614174,"37":0.15988157434012656,"38":0.09684401256901846,"39":0.07620446807822936,"40":-0.10325705107333732,"41":-0.09537257442678508,"42":0.06716918708354427}},{"sx":1,"sy":1,"depth":43,"w":{"0":0.08151050247355862,"1":0.07007831153278322,"2":0.02074580041311456,"3":-0.06276001629983995,"4":-0.08722941725368111,"5":-0.1274512251443913,"6":0.24807025513474648,"7":-0.3779562529253251,"8":-0.057767055846833046,"9":0.26141741428779347,"10":-0.12563605452263463,"11":0.12513284834535915,"12":0.10659313955005942,"13":0.13445271100277692,"14":0.034063806712964675,"15":0.12058303723448563,"16":-0.0021452263146032654,"17":0.024567610946078514,"18":-0.2647069937981015,"19":0.06631175574040622,"20":-0.12140266620795347,"21":-0.09413408760405817,"22":0.06994674267096103,"23":0.06358381703244795,"24":-0.10408077687535901,"25":-0.17933316371158123,"26":0.031711073382164105,"27":-0.11294271835331135,"28":-0.2445652983338967,"29":0.10523103608567551,"30":-0.05841356285618445,"31":-0.15008914082051386,"32":0.24982719791687968,"33":0.09294929704003042,"34":0.12311287460410239,"35":0.06089186567322726,"36":0.07435806025857548,"37":0.050400396378964596,"38":0.1171599670154682,"39":-0.22299436537942668,"40":-0.10939306743178363,"41":-0.04689999665140102,"42":0.005360477809388148}},{"sx":1,"sy":1,"depth":43,"w":{"0":0.052829686603909944,"1":-0.1070088628728942,"2":-0.07785772661005226,"3":0.0005283147471157331,"4":0.09301124270901434,"5":-0.013867933432774426,"6":-0.1784911926612177,"7":-0.07877514912596839,"8":0.10931371340358968,"9":-0.11328079503770591,"10":-0.052300855083426606,"11":0.04624285570539965,"12":-0.19598100895916115,"13":0.127638934608545,"14":-0.25416002071635785,"15":0.0964207435730074,"16":-0.042766022387835424,"17":-0.22130269973290836,"18":-0.14156263834752075,"19":0.0714061575942109,"20":-0.005595788990360447,"21":-0.14183469947416785,"22":-0.10416509440865639,"23":0.30330528400345286,"24":-0.09853755042391416,"25":-0.31767652401325197,"26":-0.23249118108886316,"27":0.21598925756397852,"28":0.17651882380812656,"29":0.1853083708328687,"30":-0.10788492626045125,"31":-0.10173202921369069,"32":-0.17205430656429332,"33":0.2343562626491323,"34":0.02815331306724968,"35":0.15169128580169647,"36":-0.05155070641899987,"37":0.06968809493653529,"38":-0.05284541373544607,"39":-0.18043399542362523,"40":0.011930449492937896,"41":0.3884532741190997,"42":0.06042442102364793}},{"sx":1,"sy":1,"depth":43,"w":{"0":-0.14853774395493258,"1":0.1323630245576935,"2":-0.011675132720193366,"3":0.0023467906341953573,"4":0.05513333531161396,"5":-0.03954794919670194,"6":-0.0894649058463289,"7":0.07421477359320185,"8":-0.2505861044891954,"9":-0.06021376476754788,"10":0.3032640131762013,"11":-0.11238939238093602,"12":-0.16888053391160254,"13":0.06645925962493257,"14":0.041100531567910416,"15":-0.09146523337174106,"16":0.03317310519850431,"17":-0.03844137131447254,"18":0.06427192508584709,"19":0.24196962061881697,"20":0.1523759466291308,"21":-0.13633232348503685,"22":0.050727647478652986,"23":0.033940020201885225,"24":0.30539080132444607,"25":0.061663931250626663,"26":-0.02334566659910256,"27":0.0423994544770862,"28":-0.06448475682900066,"29":0.26736454746886545,"30":0.061864579180696364,"31":0.09553346452974815,"32":0.12482665699183147,"33":-0.27232392449026127,"34":0.06564370620738356,"35":0.17644832269228886,"36":0.2702363615618489,"37":0.028358552060965624,"38":0.2280324884872202,"39":-0.08505560027270612,"40":-0.23382011103749592,"41":-0.16231619394682414,"42":0.04352944080193096}},{"sx":1,"sy":1,"depth":43,"w":{"0":0.13932995969306225,"1":-0.2562643700800852,"2":0.07740214720219779,"3":-0.21307813942828546,"4":0.033527034601618766,"5":0.09352962967487476,"6":-0.09603182909364325,"7":0.026188550704956508,"8":0.11848176649114145,"9":0.1934285118969947,"10":0.11850325578303758,"11":0.05007883490219771,"12":-0.20901346072070098,"13":0.044477393630798626,"14":-0.04535106736378391,"15":-0.22541173950892224,"16":-0.06471781967586077,"17":-0.3254991635866648,"18":-0.24964249405616218,"19":-0.03530967860311163,"20":-0.009697047769836908,"21":0.17846821482925002,"22":0.1491061586822644,"23":-0.06257372083755515,"24":0.10660409216833065,"25":0.21271426787234438,"26":-0.05921873150675814,"27":-0.04571773424504242,"28":0.11281151651174877,"29":0.18595016631894035,"30":0.16339838138008567,"31":0.20644917391850046,"32":0.1885275051411446,"33":0.19713697200365082,"34":0.11327700069284298,"35":-0.008170769844087015,"36":0.14543089773846493,"37":0.007121592848402317,"38":0.09706373995348731,"39":0.13505446533898421,"40":0.10227918253912748,"41":0.04714548748374468,"42":-0.18498104178410993}},{"sx":1,"sy":1,"depth":43,"w":{"0":-0.011416150434843534,"1":-0.28851195042738825,"2":0.14720624917890388,"3":-0.1096432353535833,"4":-0.03834870214915549,"5":-0.026593890433987237,"6":-0.10975901068565859,"7":-0.11458526768719354,"8":0.15112316172842039,"9":0.0012765467656580467,"10":0.2582255797220689,"11":0.11714843772257709,"12":0.17366800722347708,"13":0.08713805786485562,"14":0.10412530213703215,"15":0.1186110669150674,"16":-0.06619340809855441,"17":0.03904290971047033,"18":-0.2706948198719301,"19":0.12024669394018633,"20":-0.1826736987809868,"21":-0.0538406529117471,"22":-0.15119250683924318,"23":0.11703245435197607,"24":-0.030318644764668775,"25":0.17529007299768704,"26":0.0071467615527021355,"27":-0.18555189668834518,"28":-0.27930428831534626,"29":-0.04133010198141523,"30":0.10952070516247979,"31":-0.13965354866345536,"32":0.08988759054448825,"33":-0.09865347771537465,"34":0.12888528175424227,"35":0.02055662261206077,"36":-0.13176452331793953,"37":0.02291508556314038,"38":0.11954299516748297,"39":-0.2467268584713911,"40":0.08944253064823894,"41":-0.007885934335807166,"42":0.1796473717908253}},{"sx":1,"sy":1,"depth":43,"w":{"0":-0.1422047980041032,"1":0.018503954685412858,"2":-0.05116610003452171,"3":-0.23237063007050282,"4":0.14631260361573944,"5":-0.2416967571640968,"6":-0.19849263626525027,"7":-0.2261649336852197,"8":0.23177921155432163,"9":0.16189222924565222,"10":0.05531280252577796,"11":0.015053052477249073,"12":-0.04294488975398672,"13":-0.21200305803414338,"14":-0.1615061231424248,"15":-0.0738495058049271,"16":-0.20725779026303154,"17":-0.04124716335701865,"18":-0.0032551442679040537,"19":-0.03487351986122617,"20":0.11584925995088803,"21":0.08746699747657238,"22":-0.37675365983927844,"23":-0.030479007022603463,"24":-0.18723284393372522,"25":0.07306375340069489,"26":0.04255293073064388,"27":-0.324696547307226,"28":-0.10862364996714075,"29":0.17409341158408828,"30":0.35552338868030786,"31":0.14192729576142016,"32":0.07916899904260563,"33":-0.08045903528021874,"34":0.004653333162895633,"35":0.1155515286538737,"36":-0.3812182584955022,"37":-0.04330497631607625,"38":-0.22754047379158407,"39":-0.2764219310972698,"40":0.32607929628792703,"41":-0.04272849863074659,"42":0.06183215671379858}},{"sx":1,"sy":1,"depth":43,"w":{"0":-0.0010858494007619296,"1":-0.15766076630879444,"2":-0.11287554844943344,"3":-0.022076479249100386,"4":-0.15650066609385122,"5":-0.39564686123452064,"6":0.01050642591148928,"7":0.26930955677044643,"8":0.18460597420867952,"9":-0.22782275014469464,"10":0.19545353185307407,"11":0.026913710765661167,"12":-0.27749131678860567,"13":-0.025260968926542962,"14":-0.3128786423361638,"15":0.13495207956996616,"16":0.2491916857738605,"17":-0.09687144100973825,"18":0.07204277965703573,"19":0.13671188288865022,"20":-0.16132777441851853,"21":0.05226537055481783,"22":-0.27880635699750367,"23":0.051681842880010195,"24":-0.0005366377048756362,"25":-0.1675325444412594,"26":-0.11148168436096739,"27":0.2559557881464523,"28":0.11371250848338181,"29":-0.18296787848222176,"30":0.11578379691315027,"31":0.09378461101729908,"32":-0.11588046134757429,"33":0.08343937523180774,"34":0.019787669147165624,"35":-0.04105534614795941,"36":0.08653575742860802,"37":-0.19993981565979888,"38":-0.2539303634254354,"39":-0.09065749789812837,"40":-0.14590548376786103,"41":0.012736930525276467,"42":0.014662865091711537}},{"sx":1,"sy":1,"depth":43,"w":{"0":0.09209130908725223,"1":0.05461882691345636,"2":-0.17090716806479528,"3":-0.09556754697165715,"4":0.14286414971479014,"5":0.15559411113026844,"6":-0.050063840385208835,"7":-0.2937601617069758,"8":-0.1356264488387515,"9":-0.17852586981010654,"10":0.20689620064818637,"11":-0.1092762390672956,"12":0.03658471711942175,"13":0.2061215651915672,"14":0.008191135477001989,"15":0.05986162379584562,"16":-0.2630541800899601,"17":-0.0981348755825037,"18":-0.01103160656352586,"19":0.005712118458167908,"20":-0.22353933502082363,"21":0.02986573858776794,"22":0.022742655733673733,"23":-0.01835377885268216,"24":-0.14360884793940237,"25":-0.19254637303224748,"26":-0.07858746456095873,"27":0.054520014867226,"28":-0.07183248713638578,"29":-0.37445932810286625,"30":-0.046121903486804026,"31":-0.13230222736135744,"32":-0.027761016301033593,"33":0.2064892601759929,"34":-0.06460939588540827,"35":-0.04890641018591163,"36":-0.2517816577710889,"37":-0.34187347140392876,"38":0.010462889473959826,"39":0.06985318644670638,"40":-0.2782470837989917,"41":0.11006695707718951,"42":-0.09638612906999784}},{"sx":1,"sy":1,"depth":43,"w":{"0":0.036268113619235244,"1":-0.12486575712595986,"2":0.03825498481744804,"3":0.07224031939793851,"4":0.049200992370676974,"5":-0.13031726101315824,"6":-0.056430161743932894,"7":-0.12434132461515753,"8":0.031013335175567223,"9":0.2659856412338986,"10":0.1726345199642744,"11":0.12846009902880837,"12":-0.11974023638502435,"13":0.006277731815668562,"14":0.03672743909241771,"15":-0.02505552004562276,"16":-0.13745926701093472,"17":0.19263641099194181,"18":0.011727839648320904,"19":-0.07979674109856694,"20":0.29819856790372024,"21":-0.04956560576172158,"22":-0.1683031996430118,"23":-0.25260186919003086,"24":0.019753158812076805,"25":-0.07437842133884726,"26":-0.049641816780705256,"27":-0.27251569750648724,"28":0.11870569482266265,"29":0.017102256872772226,"30":-0.11238457910715609,"31":0.21949723602997165,"32":0.01032139927381756,"33":0.015936240362135163,"34":0.08156719396594792,"35":0.2874191361647671,"36":0.06627211014109305,"37":-0.16738317918309897,"38":-0.3221665068790474,"39":0.07908713092775904,"40":-0.25727223848611663,"41":-0.12379063296813803,"42":0.02437752203956762}},{"sx":1,"sy":1,"depth":43,"w":{"0":0.21360618221699526,"1":-0.23289044219479568,"2":-0.16325386271603623,"3":0.08190627562953873,"4":0.13346285323172527,"5":-0.18795757131049892,"6":0.08875632661397338,"7":0.11651325942367416,"8":-0.3620553961215085,"9":-0.07587760063737195,"10":-0.1208240442825348,"11":0.05582967009179014,"12":0.12051495126461362,"13":0.11268177322681716,"14":0.037873887223188636,"15":-0.06511645030257668,"16":-0.26370821621046336,"17":-0.1794635624194172,"18":-0.11093557174846395,"19":-0.13032052926663243,"20":0.05091693358560578,"21":-0.28006890990455097,"22":0.01056672621985325,"23":0.11946453417874144,"24":0.1514419491815027,"25":-0.10065663443889034,"26":-0.06533371282051947,"27":-0.16791264131210157,"28":0.20101068973737762,"29":0.1022636771612424,"30":-0.16292227258902586,"31":-0.19122145461719103,"32":-0.2675607226952091,"33":-0.1392824487655253,"34":-0.062170560677594966,"35":-0.11279929496841977,"36":0.01739130357393407,"37":-0.23821299468953971,"38":-0.029098563601372883,"39":0.05952592105127725,"40":0.02688627074019558,"41":0.07381127499390866,"42":-0.11484357570898689}},{"sx":1,"sy":1,"depth":43,"w":{"0":0.040813216771708356,"1":0.14032456285835068,"2":0.07849632976616365,"3":-0.025791155645327052,"4":0.0033969808523725653,"5":0.028817917502255746,"6":0.018720178420819855,"7":0.01755294672454747,"8":0.14506798357599113,"9":-0.01595184432267954,"10":-0.16485333241567288,"11":-0.1396752870881452,"12":0.21748436505503224,"13":-0.057386119571297904,"14":-0.15400285383202503,"15":-0.036354023054133995,"16":-0.1077497974668938,"17":-0.09975652544681628,"18":0.1435218034170288,"19":-0.363302212747041,"20":0.09064325052527898,"21":-0.16402605440889675,"22":0.22467967516561083,"23":0.04069554531129651,"24":-0.045001202356750626,"25":-0.12266288359023314,"26":0.056093669742690935,"27":0.0013017262776579385,"28":0.10368601908251156,"29":0.023260817916626614,"30":-0.0817426968987249,"31":-0.161408386416177,"32":0.0021234308982570286,"33":-0.09018848881260412,"34":0.07370654369766903,"35":0.03594812115929383,"36":-0.03358837263758966,"37":-0.04568054176766045,"38":0.012365081984773336,"39":-0.15658070978886685,"40":-0.16366013079250127,"41":-0.12243070837210264,"42":0.04987822371795975}},{"sx":1,"sy":1,"depth":43,"w":{"0":0.022552202779502612,"1":-0.1066634455506405,"2":-0.1707173805126171,"3":0.04065950995648458,"4":-0.13111021267961687,"5":0.013524723111145272,"6":-0.03921776730652932,"7":0.007990771300324905,"8":-0.19054661525100428,"9":0.07735147390219169,"10":0.1396175585751488,"11":0.06786651871688308,"12":0.0025399882179789994,"13":-0.16142468529295745,"14":0.07442526895698608,"15":0.04825543382788386,"16":-0.08771465361147322,"17":-0.13605869690996586,"18":0.08245576874041194,"19":0.00603340411730158,"20":0.0881116918427023,"21":0.03153219215717635,"22":0.08454805147187923,"23":-0.31328423047562864,"24":-0.0947628284625787,"25":-0.10076586539980796,"26":0.30499980281697836,"27":0.18074484878260602,"28":0.32427411363353015,"29":0.07147664072184876,"30":-0.03185568019494585,"31":-0.10181911999095282,"32":-0.022411190691761458,"33":0.06514009994133736,"34":0.06444236382802461,"35":0.10238106909499868,"36":0.09867124831217611,"37":-0.10780300045338095,"38":0.20120924263038747,"39":0.06969095813718758,"40":-0.052545331348479114,"41":-0.1677111163963489,"42":-0.0010078028285995652}},{"sx":1,"sy":1,"depth":43,"w":{"0":-0.15821373055516832,"1":-0.009875228846833072,"2":0.028633004004481256,"3":-0.12069706306323684,"4":0.05097978764706738,"5":-0.09838207864505809,"6":-0.012504490014043853,"7":-0.03483469645059742,"8":-0.17866294597033644,"9":-0.17585586245831128,"10":0.02317671578458328,"11":-0.17312353980428558,"12":0.23821550525703827,"13":0.11348263069886783,"14":0.080893361630367,"15":-0.3082361802875328,"16":-0.07115584899433479,"17":0.035119383562172146,"18":-0.2867719447997791,"19":0.0709809143810752,"20":0.02482496841254628,"21":-0.10648817952829491,"22":0.09849373997871587,"23":0.05906216342665264,"24":-0.3049836330827483,"25":0.06387356104538006,"26":-0.0366711786865948,"27":-0.08953954434299247,"28":0.04467073254514499,"29":0.16639853018719866,"30":0.1536358350333027,"31":-0.32105750078779016,"32":0.20168332406366996,"33":-0.029578310290323952,"34":0.04054816050811153,"35":-0.29394187888298906,"36":0.19940378998228084,"37":0.1499571772093204,"38":-0.13542974929803867,"39":0.24287149788744516,"40":0.006978895806054768,"41":0.04369515739589309,"42":0.09915673325492136}},{"sx":1,"sy":1,"depth":43,"w":{"0":0.00325824616722313,"1":-0.045351143430458596,"2":0.08026041225568382,"3":-0.053225718987461514,"4":0.31666573530231734,"5":0.035642644698652554,"6":0.06689941154673891,"7":-0.2050328070889742,"8":0.1926693044798292,"9":-0.0886926130957868,"10":-0.14927797183065264,"11":-0.09010870868460422,"12":-0.0395927908128986,"13":-0.11271581482573413,"14":0.02866154629494681,"15":0.10240886328623443,"16":-0.3377928451656383,"17":0.32261467126483795,"18":0.413916671626955,"19":0.025898974416756555,"20":-0.01528231162915778,"21":-0.25335226216262813,"22":0.23113778383908284,"23":-0.4160571321556663,"24":0.17031893777653112,"25":0.040638967253646074,"26":0.04381336735945083,"27":-0.05250791618626707,"28":-0.16486462652511422,"29":-0.1260351511655524,"30":0.02407187708098028,"31":-0.217101364771141,"32":0.0511891867853608,"33":0.07717138663526965,"34":-0.2636566896420276,"35":-0.3018491059580188,"36":0.10219844529716603,"37":0.25682268668312025,"38":-0.023337782143821668,"39":-0.08805646180782686,"40":-0.11446980446316027,"41":-0.2499762634205286,"42":-0.18962622516112368}},{"sx":1,"sy":1,"depth":43,"w":{"0":0.0922193138847051,"1":0.17809458719076698,"2":0.20648903821618433,"3":0.05554535585696764,"4":-0.010398068658674929,"5":0.049487902589601514,"6":-0.06124890597108134,"7":0.21777512112804037,"8":0.04142156915132529,"9":0.027822650610158938,"10":-0.0407667958627221,"11":-0.08461766407874911,"12":0.04549240088735026,"13":0.13900224469194378,"14":0.24284492600152754,"15":0.011574109204386228,"16":0.027402681191014338,"17":0.13215764661549306,"18":0.055632201530800694,"19":0.04040518193011997,"20":0.029834741120841505,"21":0.07765495867650962,"22":-0.14876497838722966,"23":-0.06419110316113523,"24":-0.10236048340781131,"25":0.1172477464210091,"26":-0.08403114486871624,"27":-0.12478090495885377,"28":-0.4871032320479331,"29":0.005466189876793824,"30":0.014544541318893522,"31":0.31933937756137654,"32":-0.05720508161562861,"33":0.09370444479355881,"34":0.22138829738265692,"35":-0.06198282273568116,"36":-0.07709411080351339,"37":0.09985898607007952,"38":-0.2107969927635426,"39":-0.0462056399179005,"40":0.1297903802313337,"41":-0.10845973003920993,"42":-0.14350748109856798}},{"sx":1,"sy":1,"depth":43,"w":{"0":-0.038212639144929665,"1":-0.3554581694725975,"2":-0.23472896397578114,"3":-0.25152976318662956,"4":0.023621321395982452,"5":-0.0942286118417212,"6":0.01362631668840254,"7":0.2539910469614706,"8":0.1826506812270857,"9":-0.35900368268035493,"10":0.12085046879972311,"11":-0.15073907400708664,"12":0.07452226703095625,"13":-0.10453388879016198,"14":0.01525997990511647,"15":0.12291748023348935,"16":0.147107785661185,"17":0.08684131055204816,"18":-0.04241106688374255,"19":0.11238446916382407,"20":0.05552135803744081,"21":0.04597181955927222,"22":-0.07817653290691036,"23":-0.11287887830748873,"24":-0.18127640812715037,"25":-0.05730317574755439,"26":-0.04043301776937633,"27":0.18729707390806602,"28":0.19898610066365652,"29":0.15690677775016376,"30":-0.19787589628308205,"31":-0.10119783508226059,"32":-0.0926068093806683,"33":0.095705340488667,"34":-0.20805601993616993,"35":0.05585544690751426,"36":-0.2000393813816815,"37":0.03200096400864012,"38":-0.029911011996028015,"39":-0.026078135119477104,"40":0.24202114385764317,"41":-0.31217675224732155,"42":0.09046412558958952}},{"sx":1,"sy":1,"depth":43,"w":{"0":0.2962320850160851,"1":-0.12450882705292023,"2":-0.30853462309069823,"3":-0.2773395757060094,"4":0.13339008121665893,"5":-0.1292374003357605,"6":-0.20730356648225723,"7":-0.06762488709702083,"8":-0.02778085225954999,"9":0.18823760618039134,"10":-0.025768650402478603,"11":-0.27748554136731973,"12":-0.13123465152834135,"13":0.049351492448856386,"14":-0.16862158316344436,"15":-0.04049484657125823,"16":-0.07310631019478879,"17":0.02564278346558741,"18":-0.10817321678335166,"19":-0.08015213484327631,"20":0.27781919351824746,"21":-0.032272396151619774,"22":-0.14208142134455606,"23":0.009993856115131854,"24":0.3599724373619339,"25":0.17495484238308284,"26":0.18850649123277882,"27":0.01467256309156182,"28":0.21988712053492607,"29":-0.039978491164121006,"30":0.05164213491336673,"31":-0.1344840785288868,"32":-0.21298888972301896,"33":0.23145946188254723,"34":-0.25556491563303574,"35":0.011162949468925031,"36":0.19600067479964495,"37":0.14364804105439213,"38":-0.023026918003378357,"39":0.10521731990457008,"40":0.1839469695848989,"41":0.018254343438777354,"42":0.07305460664723211}},{"sx":1,"sy":1,"depth":43,"w":{"0":0.006762821382167658,"1":-0.15237187516273598,"2":0.08243700383888893,"3":-0.09047634202030135,"4":0.047998919019139635,"5":-0.10133127040268704,"6":0.05087367257748102,"7":-0.0484782470735839,"8":-0.019433769759748063,"9":0.13197093539007246,"10":0.1285344120059164,"11":0.023586036041250945,"12":0.0767784381154913,"13":0.07440291229459679,"14":0.02615230239103725,"15":0.16569181849097578,"16":-0.0964735167851327,"17":-0.27555949732667895,"18":-0.14656231945603027,"19":-0.09286645879468865,"20":-0.026522417567281235,"21":-0.028381898391541947,"22":-0.040345729712693665,"23":-0.07592645124129156,"24":0.2959686294155474,"25":0.0156259024891399,"26":-0.12625662660341067,"27":0.0654542653876949,"28":-0.15342007536541694,"29":-0.05119504855396315,"30":0.08017767968670705,"31":-0.14189584087288817,"32":-0.3221686653612825,"33":-0.1589682181834822,"34":0.012407482839545105,"35":0.2180493783909321,"36":-0.001353590291105379,"37":-0.13454266031038695,"38":-0.01283841983548845,"39":-0.12585938515064343,"40":0.046616005465787334,"41":-0.031506633176504054,"42":0.0589968430247628}}],"biases":{"sx":1,"sy":1,"depth":50,"w":{"0":0.1,"1":0.1,"2":0.1,"3":0.1,"4":0.1,"5":0.1,"6":0.1,"7":0.1,"8":0.1,"9":0.1,"10":0.1,"11":0.1,"12":0.1,"13":0.1,"14":0.1,"15":0.1,"16":0.1,"17":0.1,"18":0.1,"19":0.1,"20":0.1,"21":0.1,"22":0.1,"23":0.1,"24":0.1,"25":0.1,"26":0.1,"27":0.1,"28":0.1,"29":0.1,"30":0.1,"31":0.1,"32":0.1,"33":0.1,"34":0.1,"35":0.1,"36":0.1,"37":0.1,"38":0.1,"39":0.1,"40":0.1,"41":0.1,"42":0.1,"43":0.1,"44":0.1,"45":0.1,"46":0.1,"47":0.1,"48":0.1,"49":0.1}}},{"out_depth":50,"out_sx":1,"out_sy":1,"layer_type":"relu"},{"out_depth":50,"out_sx":1,"out_sy":1,"layer_type":"fc","num_inputs":50,"l1_decay_mul":0,"l2_decay_mul":1,"filters":[{"sx":1,"sy":1,"depth":50,"w":{"0":-0.06740940831264652,"1":-0.041370822291850205,"2":-0.13833617913998222,"3":-0.08331295620935254,"4":0.04281815292974431,"5":-0.06306894768911195,"6":-0.03358245084105045,"7":0.08487522190198898,"8":-0.050318861314241715,"9":-0.011160214233894848,"10":-0.26031010292596896,"11":0.059858593084450754,"12":0.18431031513168725,"13":-0.2401398042269353,"14":-0.049030395937668544,"15":-0.08773440844662396,"16":-0.11254769408037654,"17":-0.11379145100248522,"18":-0.052578606258666734,"19":-0.11913894454801209,"20":-0.34101638187701905,"21":0.18249188369468483,"22":0.010073720088683106,"23":-0.047697689862709676,"24":-0.13122502432156136,"25":-0.0538218834725695,"26":0.012332276942500614,"27":0.0881804087562665,"28":0.10484173870430062,"29":-0.40093178195029533,"30":0.014168583293614508,"31":-0.14948125067451412,"32":-0.08096745238441211,"33":0.07531617170901343,"34":-0.19204029969633427,"35":0.034627104306365904,"36":-0.04654163133776603,"37":-0.10438869595661186,"38":-0.01724695601195957,"39":-0.13152124975966528,"40":0.17347533764874135,"41":-0.11494406294706473,"42":0.0903306180437926,"43":0.04606950174973053,"44":-0.021295038551335885,"45":0.11620665711132282,"46":0.047513113838560196,"47":-0.04792770397909005,"48":0.16063841067950882,"49":0.05614031771152969}},{"sx":1,"sy":1,"depth":50,"w":{"0":0.18906016041462811,"1":-0.2283648263755748,"2":-0.09299230559521217,"3":-0.19403364273320636,"4":0.1581150792388878,"5":-0.08535278957513164,"6":-0.02083700669012232,"7":0.2330833706454648,"8":0.017459816853478877,"9":0.09506278536434144,"10":-0.2292198860499661,"11":-0.00875890536876804,"12":-0.15428014712631624,"13":0.03395376931410764,"14":-0.04163507973040558,"15":-0.04118182672828722,"16":0.07132469729947888,"17":0.21551266667451632,"18":-0.08099604908973068,"19":0.08916934572643154,"20":0.2065947343244167,"21":0.11446772009620636,"22":-0.2926419391836142,"23":0.04141116681474289,"24":0.019421486328539076,"25":0.02882390078693312,"26":-0.04832290197227892,"27":0.010246147438997254,"28":-0.0425999723420083,"29":0.09358340613906557,"30":-0.07689493980576052,"31":0.14886289719136658,"32":-0.006208439326036024,"33":0.1029230030805245,"34":0.12599542216358225,"35":-0.03936865833213887,"36":-0.03449975084256002,"37":0.29518261721166716,"38":0.17880115905075414,"39":-0.14252994206585723,"40":0.1873827239089066,"41":0.09219177335546665,"42":0.06003335983517123,"43":-0.17762000784681334,"44":0.0587031604398578,"45":0.18438131732918162,"46":0.06133525127127378,"47":0.12777333467265356,"48":-0.08021606379191869,"49":-0.21486939930565688}},{"sx":1,"sy":1,"depth":50,"w":{"0":0.14713180967178718,"1":0.1437421920326251,"2":0.14794063704688384,"3":0.2286583322109696,"4":0.07132266181036422,"5":-0.08860614685435238,"6":-0.11223237172952105,"7":0.016820421369674477,"8":-0.06900796056683883,"9":-0.019360179070238983,"10":0.1365791835908683,"11":0.2037646577910601,"12":0.16801335295278771,"13":0.1686269240653495,"14":-0.1011678357288822,"15":-0.03786004903277935,"16":-0.015756138463684576,"17":0.02090643317652227,"18":-0.1178845898390637,"19":0.13691171649483644,"20":-0.008611089817663987,"21":0.057347551784924726,"22":0.039527799610223416,"23":-0.04435316609951208,"24":-0.3763161598388012,"25":0.3132392408921935,"26":0.21886784332357612,"27":-0.04291703154225202,"28":-0.042588362737043264,"29":0.12820084021783476,"30":-0.19965644417899064,"31":-0.13397259371748696,"32":-0.012259404455112047,"33":0.46979066731646696,"34":-0.02568063570407256,"35":-0.16488305363591813,"36":-0.023147122009653364,"37":-0.28286695215947105,"38":-0.005816909503383501,"39":-0.0671428060330343,"40":-0.12935963716931,"41":0.3860322670822992,"42":-0.20596554676241527,"43":-0.13422682112521933,"44":-0.11571209716223925,"45":-0.01087720315727125,"46":0.1146814518196177,"47":-0.0026927310517721194,"48":0.11025348529148225,"49":0.1079246888691102}},{"sx":1,"sy":1,"depth":50,"w":{"0":-0.29595826985666635,"1":0.012987534972700577,"2":0.008835678787211577,"3":-0.2008334573970923,"4":-0.13519123316511072,"5":-0.11799138645647728,"6":0.03636404062234803,"7":-0.0970500307293252,"8":-0.030468101673121212,"9":-0.10900010025998397,"10":0.08786788645764432,"11":-0.16404147851218326,"12":-0.062274044041819895,"13":-0.1599884755256085,"14":0.06373200506465537,"15":0.0251557485362388,"16":0.20367473039768416,"17":-0.2049098230908371,"18":-0.0762293279154517,"19":0.014382605710853221,"20":0.027453247587411744,"21":-0.10817968646755526,"22":0.06701948085130209,"23":0.32470069866185786,"24":0.1419979357788218,"25":0.16119243669403321,"26":0.13363846834336202,"27":0.23938535044370274,"28":0.07082383063917602,"29":0.02702720401823679,"30":0.019086191728093966,"31":-0.12007365553705811,"32":-0.29506096024570877,"33":0.018150159582390957,"34":0.16547313897795804,"35":0.06519048449074463,"36":-0.03130373909390474,"37":-0.1902383803337426,"38":0.10927435527561531,"39":-0.05101259053397174,"40":0.12249207403008082,"41":-0.3250826404138794,"42":0.024129152695975167,"43":-0.03372046851634748,"44":0.03316274593817379,"45":-0.06074967965031396,"46":-0.15016980656517365,"47":-0.24087139261738533,"48":0.00775255875442066,"49":0.008927102337222909}},{"sx":1,"sy":1,"depth":50,"w":{"0":0.05089243945272331,"1":-0.08569119905832896,"2":-0.02729755197198567,"3":-0.11303385807384425,"4":0.13599380726965885,"5":-0.04765012481431531,"6":-0.070257825860226,"7":0.007334315548891889,"8":-0.058985096638982895,"9":0.0731098635646387,"10":0.2649738978716184,"11":0.09539305938560998,"12":-0.14744172780939446,"13":-0.058935347655376925,"14":0.18975679533137202,"15":-0.17936387631915743,"16":0.0575856284967905,"17":0.0006458667196971922,"18":0.15342389939258844,"19":-0.011669065331503673,"20":-0.17767660160220983,"21":0.1769074966078242,"22":0.09601894403372456,"23":-0.2524545334814252,"24":0.09476174494873782,"25":0.07681509832734322,"26":0.08518505330652003,"27":-0.10579171142206392,"28":0.17110530586080416,"29":-0.08269520064888469,"30":-0.26595389382716833,"31":-0.12384694481738559,"32":-0.014084482225867556,"33":0.20777568357365764,"34":-0.011865972147535887,"35":0.016916453841521448,"36":0.09658486958511839,"37":-0.16162543366129245,"38":0.01718683856824864,"39":-0.1297547902515113,"40":-0.1935232830550228,"41":-0.062433703052299915,"42":0.30666667171662726,"43":-0.04158678333055214,"44":0.14399570590504326,"45":-0.32471372546768135,"46":0.009557424970608288,"47":0.04088010320257044,"48":-0.05139593298792528,"49":-0.018201146443589576}},{"sx":1,"sy":1,"depth":50,"w":{"0":-0.12633085944327982,"1":-0.033845565259939744,"2":-0.04445367362454902,"3":-0.014067989273594742,"4":-0.28224333149267383,"5":-0.012491616147853199,"6":-0.26671922739232456,"7":-0.006119641699132749,"8":0.03683228073482951,"9":-0.22934689000805167,"10":-0.051538067519174516,"11":0.08642925072638699,"12":-0.0496263517186557,"13":-0.1351868277107483,"14":0.04736050567846016,"15":-0.02857577547637163,"16":0.2584330683171737,"17":0.17974777242463272,"18":-0.12977355865455867,"19":-0.41978123290050506,"20":-0.14348663127515748,"21":-0.025902729403168845,"22":-0.0532570619117852,"23":-0.07763577369218158,"24":-0.18750709454083986,"25":0.09522287697884309,"26":0.04693356549660095,"27":-0.040376369919388075,"28":-0.1166099593989965,"29":-0.02500196280607518,"30":0.008038829218200863,"31":0.11556057557394177,"32":-0.08409529328069723,"33":0.18075821756298618,"34":0.1751726507470488,"35":0.2121118360095785,"36":0.11430576765308796,"37":-0.13811622994691775,"38":0.1423764996295954,"39":-0.17206535918215998,"40":-0.12587210290483067,"41":0.02742718333240036,"42":0.16319156369588877,"43":0.3025271144172135,"44":-0.06671264966355103,"45":0.25702235218382213,"46":-0.08844826230198821,"47":-0.08832907610141612,"48":0.05230504245623221,"49":0.12551714600889047}},{"sx":1,"sy":1,"depth":50,"w":{"0":-0.2614173955283202,"1":-0.12809024309573824,"2":-0.1714625328176379,"3":-0.3134152645402614,"4":0.16554468919357454,"5":-0.019740652506886423,"6":0.3298791125145879,"7":0.09299249795487353,"8":0.0293816122537337,"9":0.02738283029812682,"10":-0.16492906371282934,"11":0.3183914018880316,"12":0.08133266141987433,"13":0.0038860952779542065,"14":-0.158889246277032,"15":0.032987738183903006,"16":-0.22416713688394788,"17":-0.1473157392131557,"18":0.06095600785751237,"19":-0.12303048236284096,"20":-0.03665844675767514,"21":-0.05375962886659589,"22":0.09635193848028048,"23":0.06721145569917127,"24":0.04813938087074756,"25":-0.0032351180002314554,"26":0.1109694624373154,"27":0.13054687581340163,"28":0.1515459436623537,"29":0.1736237263355885,"30":-0.06694119518731455,"31":-0.26811579421109005,"32":0.1514247041096173,"33":-0.11467815037812552,"34":-0.09284312411846374,"35":0.22126662375754003,"36":0.14555804105139739,"37":0.21267748999900382,"38":0.1502582604707262,"39":0.048943573209330134,"40":0.07746398236440219,"41":-0.15407705903202917,"42":-0.14595491463473395,"43":0.00047328093139714005,"44":0.05596814153931721,"45":0.13986351232285793,"46":0.1841231311340091,"47":-0.04943046713323221,"48":0.22050119688623276,"49":-0.18005709323547162}},{"sx":1,"sy":1,"depth":50,"w":{"0":-0.02031997936855222,"1":-0.22256299851112382,"2":-0.06839877021147707,"3":-0.11651226902462611,"4":0.010300689146489767,"5":0.00012963891051394544,"6":-0.09177347479669579,"7":-0.14676649653268115,"8":-0.11815363886446757,"9":-0.23404909405194657,"10":-0.058327143526827684,"11":-0.015291967825515604,"12":-0.08546908687863189,"13":0.23882123210230477,"14":-0.1607090025093287,"15":-0.3975860332567568,"16":0.054283073419970705,"17":-0.2960523746029193,"18":-0.012285047257027767,"19":0.19741269912914322,"20":-0.000508870713342141,"21":0.03433119929857106,"22":0.02640487065245316,"23":0.0024473877682145676,"24":-0.19118666491239758,"25":-0.20720108172039248,"26":0.27310886304135684,"27":-0.09863252086246595,"28":0.0421153778301513,"29":0.1161709388965727,"30":-0.012366237890111693,"31":-0.07482345412063056,"32":-0.16437940434093978,"33":0.02006934742454385,"34":-0.06726315450247382,"35":-0.052683777413019696,"36":0.10312152216622343,"37":-0.1187280652294599,"38":-0.3023827414083105,"39":0.12653714550159295,"40":0.10125305331993123,"41":-0.3202798175166615,"42":-0.005422178878938545,"43":0.19588420683900365,"44":0.12283319544139759,"45":-0.1142064512516916,"46":0.0034643574447143903,"47":0.16540138257673623,"48":0.013886419142806541,"49":0.21473698741945166}},{"sx":1,"sy":1,"depth":50,"w":{"0":0.23841321709579283,"1":0.21639780812835757,"2":0.13342332503127538,"3":-0.06338189808084492,"4":0.16577093157953873,"5":0.12990776583925343,"6":-0.18868133552263822,"7":-0.19295100461235773,"8":-0.07932902625730583,"9":0.040687853733691506,"10":0.0016841776163146638,"11":-0.031627232740176404,"12":-0.2743504207706334,"13":0.07767922901930878,"14":-0.008681272618361819,"15":0.056928544163656274,"16":-0.24943727247240302,"17":0.09853654451630764,"18":0.15496949358815013,"19":0.20666961520186208,"20":-0.10348790327336586,"21":-0.033279446685386654,"22":0.19841420867176832,"23":-0.005452070137183147,"24":0.17675550398036635,"25":0.10278165882794284,"26":0.07721504787768048,"27":-0.11888342037899277,"28":0.3372558931956392,"29":-0.2307004923401221,"30":-0.0035231770538087046,"31":0.2959212613150153,"32":0.2770548604753422,"33":0.02890193716066342,"34":-0.13969282282935921,"35":0.14377093330992424,"36":0.041053326714630405,"37":-0.0053861727147771245,"38":-0.1572048585276887,"39":0.0378579705294767,"40":0.08102291465866554,"41":-0.10676601383202054,"42":0.09610536357660492,"43":-0.06632035480892537,"44":0.10326053805525551,"45":0.002216568926144622,"46":0.04502298002902986,"47":0.045467153306866785,"48":0.3033424908746248,"49":-0.018465070368871534}},{"sx":1,"sy":1,"depth":50,"w":{"0":-0.01765550892897161,"1":-0.08114267900914074,"2":-0.20864858716607093,"3":0.08522665188971389,"4":-0.07255131621684692,"5":-0.04956900605322745,"6":-0.2470250596536811,"7":-0.26579784985081867,"8":0.11002459822424623,"9":0.07871189446802247,"10":0.04195385932582841,"11":0.1057402094740508,"12":0.09644169575012342,"13":0.2350275815121755,"14":0.16781035310037898,"15":-0.14714584583455995,"16":0.05744471839932637,"17":0.005357029413516326,"18":-0.0864415090298189,"19":0.1792713971627548,"20":0.08227209679433516,"21":0.28732608035902396,"22":0.1221591744229486,"23":0.015309002733984839,"24":-0.024286630087036798,"25":-0.2013528895623073,"26":0.09170742963412454,"27":0.013437504391241466,"28":0.16218484773156447,"29":-0.1517051349410429,"30":0.10026694150041844,"31":0.04047787266776763,"32":0.011538450208335308,"33":-0.02220306669218885,"34":-0.0077177395847154604,"35":-0.25127130604597164,"36":0.038897469306421045,"37":-0.34197546673201623,"38":0.22133636640667387,"39":0.12808024946421287,"40":0.01659477629567429,"41":0.1297476441773788,"42":0.0430474223592141,"43":0.08812507122896206,"44":-0.07635248846977655,"45":-0.03940847903645588,"46":-0.09057461944357582,"47":0.13121476422113967,"48":0.0897324347006743,"49":0.1350247524203327}},{"sx":1,"sy":1,"depth":50,"w":{"0":0.24827026111366013,"1":0.09177060133450245,"2":0.10464662046318766,"3":-0.19283212487706308,"4":-0.14464784558441998,"5":0.025067843032917585,"6":-0.1742475494218981,"7":-0.0036657341800872775,"8":0.06974984088666975,"9":-0.18989923779763934,"10":0.021025332470263,"11":0.08089668454583657,"12":0.0199094014877553,"13":-0.22333832664118952,"14":0.18647235950875377,"15":0.06477952177190961,"16":-0.2817545427126048,"17":0.01267069730814052,"18":0.13501135575161013,"19":-0.10361608883490375,"20":-0.1349976845645632,"21":0.299760424769062,"22":-0.1885716675626395,"23":-0.1290016149884501,"24":0.21729676072646392,"25":0.23044909976349998,"26":-0.1309966534626866,"27":0.030269792152793126,"28":0.15961587299754196,"29":-0.035395913479127086,"30":-0.09179194742233417,"31":0.18771809410167217,"32":-0.26469499727449586,"33":-0.030961523932784618,"34":-0.013228289772062899,"35":-0.02907491184103591,"36":0.17625331288911236,"37":0.11866664462790602,"38":0.21075033486845984,"39":0.04121857947604752,"40":-0.2212215588201804,"41":0.18285257575127176,"42":0.13631537212688938,"43":0.1846514812066479,"44":0.07615808557424071,"45":0.08371116187386761,"46":-0.03886156216002103,"47":0.14298449538214533,"48":0.097567185599115,"49":0.07290510068338875}},{"sx":1,"sy":1,"depth":50,"w":{"0":0.18955997721991374,"1":0.13598384485526205,"2":-0.05486858350823583,"3":-0.08589375168204211,"4":-0.07767754042023906,"5":0.2011027798841763,"6":-0.08044604878868318,"7":-0.2499580239001597,"8":0.025626767897419266,"9":0.3048514198124949,"10":-0.19059356279084746,"11":0.14038803738846914,"12":0.0629163531204848,"13":-0.033702675966826134,"14":0.345818742788071,"15":0.18940111797022716,"16":0.17329464084493806,"17":-0.19939710419004109,"18":-0.18268415339355484,"19":0.04240928388769844,"20":-0.044474817738010965,"21":0.08538700517093617,"22":0.1355213375396793,"23":-0.22852278990196828,"24":-0.0501710629654507,"25":-0.13611552713408281,"26":0.052992836702225175,"27":0.2644238215286584,"28":-0.13431933391494932,"29":-0.08661248183179852,"30":0.16053166212234996,"31":0.005728495710615167,"32":0.14768015853138675,"33":0.29908803957868174,"34":0.04572295304886194,"35":0.24742856521041923,"36":-0.201603306828946,"37":-0.0378936370498733,"38":0.06692168311141734,"39":0.22527568103790432,"40":0.09294176704051703,"41":-0.02254300172827297,"42":-0.12657611140978636,"43":-0.1067301318285546,"44":0.06866317918403192,"45":0.1941424731919418,"46":-0.34625859420729044,"47":0.15339503011282365,"48":-0.1706623990670225,"49":-0.012605167356893807}},{"sx":1,"sy":1,"depth":50,"w":{"0":-0.1235173480074752,"1":0.19599994349091418,"2":-0.13097962963010357,"3":0.06701755979213124,"4":0.09497323796054405,"5":-0.11509308134661868,"6":0.06044255326780825,"7":0.022955749994608036,"8":-0.14672502916701605,"9":0.018154499676530406,"10":0.07612650601851126,"11":-0.23534325531173364,"12":0.14331999030895656,"13":-0.2533728116785493,"14":0.2118987163512106,"15":-0.0008221510763479599,"16":-0.0038025353493647725,"17":-0.008329763149966645,"18":0.14914594254865982,"19":0.20607098206444746,"20":-0.07842157834536324,"21":0.01446723166414309,"22":0.16318887753847672,"23":-0.08755182788982137,"24":-0.17183575371350227,"25":-0.1027216735374773,"26":0.12889882247630538,"27":0.11935547726481201,"28":0.03058475036635512,"29":0.1820278283517505,"30":0.28103289164693274,"31":0.11808030712419948,"32":-0.36014724065709863,"33":0.14580365019441444,"34":0.056414641466907126,"35":-0.41888484851923513,"36":0.024110471119084997,"37":-0.15485485990793435,"38":-0.19685179752354584,"39":-0.0022419394209551116,"40":0.05415940074626237,"41":0.05948216644021389,"42":-0.06198666221824155,"43":0.0006500390174406441,"44":-0.016905723019896516,"45":-0.017789513896953463,"46":-0.2645069315273981,"47":0.04463366642173793,"48":0.05619156791443306,"49":0.11855003575186712}},{"sx":1,"sy":1,"depth":50,"w":{"0":-0.12038008814760372,"1":-0.27225451694863834,"2":-0.04080195961552191,"3":-0.07519805050827454,"4":0.20179500424692715,"5":-0.358969033867276,"6":-0.08911753031623268,"7":0.060338633410187255,"8":0.11342075327631125,"9":-0.10934999839775943,"10":0.04873774390896081,"11":-0.027571233592029596,"12":0.023859255259485283,"13":0.029999047048258686,"14":0.057833118870541364,"15":-0.03173658989953762,"16":-0.24906918136138756,"17":0.055678014876409214,"18":0.10773195167414272,"19":0.0393328757667156,"20":0.020266633419171984,"21":-0.016406927449845135,"22":0.18612945451063231,"23":-0.08933006180760876,"24":-0.06279557250476438,"25":-0.011721715851248465,"26":-0.08719191390069207,"27":-0.06703786871098726,"28":0.1347048002495135,"29":0.08626831575421821,"30":0.03222417868303951,"31":-0.042993243091419095,"32":0.0029913035905732707,"33":-0.0026595796108163385,"34":-0.09395330572073197,"35":0.08910538467345883,"36":-0.03735403606856368,"37":0.1325292058121584,"38":-0.07259327275286558,"39":0.1658547589122658,"40":-0.03219076506358529,"41":-0.13978723244721414,"42":-0.05477353560572815,"43":0.046110318852211896,"44":0.12076086117975336,"45":0.17889405233016004,"46":0.03994699208251076,"47":0.18028797900069968,"48":-0.0007530483687451685,"49":0.027445113065325044}},{"sx":1,"sy":1,"depth":50,"w":{"0":-0.0793650562610533,"1":0.03218812758078266,"2":0.04527699148871842,"3":-0.047363290758988486,"4":0.039831733938479344,"5":-0.03103145299171116,"6":0.08856380873484941,"7":-0.26055079631738814,"8":-0.21215403889835077,"9":0.1044821198274784,"10":-0.03876765382980641,"11":0.11551745757688701,"12":-0.0413548396156401,"13":0.19430775504563863,"14":0.03481201371268108,"15":0.004032596842496541,"16":-0.24348483201316898,"17":-0.08076250184508105,"18":-0.37929931821253016,"19":-0.0050993059550986436,"20":0.35510696918047785,"21":0.051143877305486383,"22":0.19957177523754552,"23":-0.12197298268849995,"24":0.09245884344003288,"25":0.00016842111123037694,"26":-0.0315090238217662,"27":0.002806044991644909,"28":-0.10274417821623066,"29":-0.028464931410159735,"30":-0.1402145089341755,"31":0.03725943170163776,"32":-0.06446957269174379,"33":-0.00864817845472873,"34":0.09597727420890775,"35":-0.06346685960298523,"36":-0.15483679513611492,"37":0.011518243945505848,"38":0.042764806122472535,"39":0.07529512201326387,"40":-0.04288614015048686,"41":0.0509824350763048,"42":-0.23695970811165082,"43":0.12019187835102939,"44":0.12777654729242213,"45":-0.19540966828479842,"46":-0.026604323634844766,"47":-0.10225207130610268,"48":-0.053293162562335704,"49":0.09640301286259263}},{"sx":1,"sy":1,"depth":50,"w":{"0":0.20045540343615356,"1":0.11797532367706627,"2":-0.05062930170871999,"3":-0.20413407609798143,"4":-0.0732229346105548,"5":0.07635758726589792,"6":0.24911944102315922,"7":0.1394678455967603,"8":-0.37632998555057234,"9":-0.08217743303142865,"10":-0.3268941817225314,"11":-0.20023054927321168,"12":0.032421906891552374,"13":0.011447518556238658,"14":0.3087871895029395,"15":-0.013324862241113636,"16":-0.11699597097883406,"17":-0.12883461769365065,"18":-0.16286643879145082,"19":0.19546754323615215,"20":0.028076489369269472,"21":0.11242469583003312,"22":0.408220056121679,"23":-0.27734353660283456,"24":-0.22372486057262558,"25":-0.09276318742637789,"26":0.14478848515278753,"27":-0.07443350616123955,"28":0.07606595162794651,"29":-0.12791119599625594,"30":-0.13342490068428675,"31":-0.08005855132311013,"32":0.12275080079823363,"33":0.15659661534268893,"34":-0.06827744749921631,"35":-0.032029440629626225,"36":-0.04813917145173754,"37":-0.060070371333735356,"38":0.06712073255390068,"39":-0.06878674456719296,"40":0.11013949751499251,"41":-0.16892643045455807,"42":0.09409147244619766,"43":-0.04737231130855564,"44":0.21362500490305936,"45":-0.07387142463459324,"46":-0.03474146995561373,"47":0.08723009682405278,"48":-0.1733132280133335,"49":0.07327099062982972}},{"sx":1,"sy":1,"depth":50,"w":{"0":0.06760302229967603,"1":-0.1947433012883188,"2":0.13075890118967534,"3":0.1199525445117559,"4":0.0860344802674458,"5":0.016154826770192872,"6":-0.19113943404389555,"7":-0.10984275629486441,"8":0.054468178906698056,"9":0.18512695777612653,"10":-0.10255196410027183,"11":-0.008599946344690398,"12":-0.1062648302432656,"13":-0.26474973161450055,"14":-0.09213399426915532,"15":-0.10658766214477686,"16":-0.024916053607686384,"17":-0.10801690878806798,"18":-0.09417850614765674,"19":-0.04274984344425371,"20":-0.1899336649417588,"21":-0.08356901864842371,"22":0.14979588581799896,"23":-0.010590721348240956,"24":0.24233618958013553,"25":-0.00047725127470168695,"26":-0.337870773591651,"27":-0.027669877767975387,"28":0.03323781443855396,"29":0.11506972454306155,"30":-0.19193443189767145,"31":-0.18435276110129584,"32":0.10440337719562169,"33":-0.03489599063012098,"34":-0.11730657993944019,"35":0.08211392218146069,"36":0.02013195794796463,"37":-0.10152193974107615,"38":-0.07861829058119317,"39":-0.0692310911371669,"40":0.06818565031742542,"41":0.03160954127224158,"42":-0.1401433558086051,"43":-0.07268772502633929,"44":-0.059260720848476514,"45":-0.11960708993450231,"46":0.15101599318201603,"47":-0.0037184402329359803,"48":0.024566060829822316,"49":-0.07016488385208516}},{"sx":1,"sy":1,"depth":50,"w":{"0":-0.12416235380430667,"1":0.049604096100210854,"2":0.03869128622647818,"3":0.23803504159494482,"4":0.08544915503334521,"5":0.10565238881898606,"6":-0.05988410299011613,"7":-0.08084474445943722,"8":0.23088063850376347,"9":-0.16041470622433762,"10":0.08974619700858333,"11":-0.06815778083641284,"12":0.2070481289555344,"13":-0.015232563625277445,"14":0.07485848441641463,"15":0.12895511697797643,"16":-0.017251482303008176,"17":-0.1052017738709271,"18":0.16208955866177627,"19":-0.3736510908662486,"20":0.11718782029128803,"21":0.1877662847979363,"22":0.31798412977046414,"23":0.25748667995581276,"24":-0.09190908145806834,"25":-0.13405885305890133,"26":-0.16792555173236304,"27":-0.19744879051816555,"28":-0.07161941016372417,"29":0.18146964272588556,"30":-0.04322990405161974,"31":-0.39853482018715747,"32":0.18911645665577767,"33":-0.2250291970812974,"34":0.22136288950880584,"35":0.19431838788662364,"36":-0.016272813207634684,"37":-0.04562390686789909,"38":-0.02219082414166603,"39":0.17356066766529868,"40":0.17458025388693216,"41":0.0807878414524068,"42":0.08876623382855432,"43":0.27280910569298317,"44":0.06305414464643276,"45":-0.146225804173986,"46":0.025391572417169946,"47":0.04038717048558544,"48":-0.03326973447100544,"49":0.06410334388848334}},{"sx":1,"sy":1,"depth":50,"w":{"0":0.2056993530667926,"1":0.0026350860185474696,"2":0.32361655826625857,"3":0.27212766036796443,"4":0.037586277427460874,"5":-0.04684382259921795,"6":0.1744755010688418,"7":0.027652236120637448,"8":-0.05517079077354985,"9":0.01955133374778214,"10":0.013621077203238121,"11":-0.1508259157460316,"12":-0.050144372393115255,"13":-0.1498751425344581,"14":0.15045057889450156,"15":0.0516989753402375,"16":-0.19962208331118078,"17":0.00985804889852986,"18":0.023267920127152564,"19":-0.13549279488467156,"20":0.1516891605005022,"21":-0.1569518769617939,"22":-0.01035519317329039,"23":-0.09279583124282038,"24":0.29431973826428703,"25":0.022690745930504692,"26":-0.036371597110979315,"27":-0.011570889075637114,"28":-0.02604216770572397,"29":-0.007077633839393287,"30":0.17315300446782525,"31":0.12246639692029324,"32":0.2802591230285989,"33":0.11739105378354027,"34":-0.004288537649039419,"35":-0.21172967238844817,"36":0.27051061480854394,"37":-0.11195944177443427,"38":0.07028672278894102,"39":0.0005117574142680745,"40":0.08380257010383349,"41":-0.11461866410284142,"42":0.029594047912978726,"43":0.06037370223454388,"44":-0.13238925463561196,"45":-0.06685855834400775,"46":0.061168051226133564,"47":-0.029516306540612488,"48":-0.14738741209683348,"49":0.10664348504734823}},{"sx":1,"sy":1,"depth":50,"w":{"0":0.1520126687668883,"1":0.051745598318662545,"2":0.10032814331943583,"3":0.18728621582689006,"4":0.0547456068377805,"5":-0.1590915444200222,"6":-0.03903144174815332,"7":0.03440337809806618,"8":0.07222794197140342,"9":-0.2193325584491556,"10":0.2458159113452899,"11":-0.04004770273886966,"12":0.11577646124156521,"13":-0.1972875636906733,"14":0.08516227463459239,"15":-0.0824294591654863,"16":0.06289725809302622,"17":-0.030627484559406757,"18":-0.05771702905836263,"19":0.21206976630569113,"20":0.12463627576767543,"21":0.24167225795003597,"22":-0.01862050237346523,"23":-0.11811771696032942,"24":0.2890541691193047,"25":-0.0919463314394386,"26":-0.10261751457688582,"27":0.18551291062157374,"28":0.18729535215354104,"29":-0.07869490184110793,"30":-0.1670029518694566,"31":-0.11818748763671855,"32":-0.30047138741533624,"33":0.07159855164581344,"34":-0.02599563032306597,"35":-0.01858473107598471,"36":0.23581594391128713,"37":0.1735751567695536,"38":0.11079258799666661,"39":0.10728103415004539,"40":0.1860199068118879,"41":0.1851519452380582,"42":-0.12610144088670844,"43":-0.180969442853942,"44":-0.11639476945289041,"45":0.096493169935897,"46":0.28168883977720793,"47":0.0044013843414439455,"48":-0.03352683323847762,"49":0.08814291224589398}},{"sx":1,"sy":1,"depth":50,"w":{"0":-0.015699299869079784,"1":0.38220044401784964,"2":0.09067532039360691,"3":-0.18397997558814674,"4":0.26807574472746626,"5":-0.07403050124220215,"6":0.07433878223348896,"7":0.033124149113648194,"8":-0.17804933398979977,"9":0.10699179807448925,"10":0.2349264277093726,"11":-0.16404085798587173,"12":-0.055263760877846825,"13":-0.02758937127046534,"14":0.19376750841266918,"15":-0.23558712198245918,"16":0.04701368564581484,"17":-0.17854137806354856,"18":0.1573399667959321,"19":0.0547477452316998,"20":-0.1331707991293155,"21":0.04281815735905497,"22":-0.2089505873913834,"23":-0.1941886879950415,"24":-0.09562410811344844,"25":-0.22376539678700785,"26":-0.038261865008645854,"27":-0.031044119833470243,"28":-0.05502408887255545,"29":0.009764095127020622,"30":0.017087499919491708,"31":-0.06871486880974045,"32":-0.030355490708857145,"33":0.06431850833115274,"34":0.021189898298051468,"35":-0.0008078822302245334,"36":0.07715163551513582,"37":0.0954517962635669,"38":-0.0962536890360775,"39":-0.0338388669759923,"40":0.07649444151985431,"41":-0.16244385830671723,"42":0.1998626175885872,"43":-0.11288182734923001,"44":-0.0684973909445684,"45":-0.0747583385725533,"46":0.21062065153758858,"47":-0.2032381810212142,"48":-0.03422100807302452,"49":0.04343908269335686}},{"sx":1,"sy":1,"depth":50,"w":{"0":0.10604866696351342,"1":-0.09918361547185335,"2":-0.30395080806925595,"3":-0.06048460533608602,"4":0.11774424240027144,"5":-0.04142907647265056,"6":0.10385553395059947,"7":-0.018351971384320296,"8":0.2679926994639741,"9":0.06081059345371337,"10":-0.2557815779891458,"11":0.13633783458910315,"12":0.05952853515074718,"13":0.16917756223041122,"14":-0.05307896943238266,"15":-0.0473670009669845,"16":0.1320933848952375,"17":-0.13617361183384963,"18":0.03302471595927724,"19":0.19115722160166818,"20":-0.14210671108506312,"21":0.0666449001405659,"22":-0.0775643607317296,"23":-0.05730044708684001,"24":0.15881723147134802,"25":0.12892848394535997,"26":0.030251829674901802,"27":0.050544236614067525,"28":0.2583450335535444,"29":0.131408124661412,"30":-0.15000184282576493,"31":-0.16033905844222782,"32":0.07178930316425668,"33":-0.05781899515838636,"34":-0.07868714354881495,"35":-0.3002793420684155,"36":0.09048495828685336,"37":-0.19511331120912884,"38":-0.17312449806853783,"39":0.010545715013002244,"40":0.09138780278277832,"41":0.1750907488654378,"42":0.00997217247604582,"43":0.04079558476851319,"44":-0.26566296749986135,"45":-0.002618452756402889,"46":0.03466887552710926,"47":0.010908628028193037,"48":-0.07511227430971869,"49":-0.11867615638689581}},{"sx":1,"sy":1,"depth":50,"w":{"0":0.04361431264086524,"1":0.03315686920818449,"2":-0.049605673414832484,"3":-0.14480508332008735,"4":-0.11049966313483166,"5":-0.24387903340871786,"6":-0.030656840538672438,"7":0.1863703046841074,"8":0.07502585139588248,"9":-0.1626034887045548,"10":0.06685032446151538,"11":-0.002216416751912191,"12":0.04125652491608987,"13":0.20183407009200377,"14":0.11014815964930712,"15":0.14997196672040547,"16":-0.10564753377799468,"17":0.1566380829523091,"18":0.2350084148819005,"19":-0.2593359753324048,"20":-0.04684759646850586,"21":-0.11105717917981466,"22":-0.15460014826872154,"23":-0.04096679341564444,"24":0.05267948535106719,"25":-0.09322891921829703,"26":-0.08578518776841342,"27":0.18629385680506833,"28":-0.1626556865793366,"29":-0.036483075322693036,"30":0.03575358178956372,"31":0.24012164095696714,"32":0.2702636015063708,"33":0.0836721996735164,"34":-0.010866436641857186,"35":0.045773937109415234,"36":0.05487964186360254,"37":0.030779741123414122,"38":0.06324562539011057,"39":0.03647438834853939,"40":0.012079216779945794,"41":0.016285672946988763,"42":-0.2495617034970814,"43":-0.024275962639432137,"44":-0.06090527967667091,"45":0.12655738667934524,"46":-0.16718923477815573,"47":0.09071429329076454,"48":-0.00015168821562090975,"49":0.12574619309223964}},{"sx":1,"sy":1,"depth":50,"w":{"0":-0.06158658599045207,"1":-0.038997840294795916,"2":-0.09458341913736196,"3":0.0565175968617716,"4":0.08432930538862654,"5":-0.0523596093209151,"6":-0.18069265113024138,"7":-0.07951819682041764,"8":0.33124629903699837,"9":-0.16863789849855743,"10":0.016511332656428082,"11":0.05051093379653851,"12":0.29264312009660065,"13":-0.05906771129684158,"14":0.21310287678662518,"15":0.03644734023600366,"16":-0.023982085260811963,"17":-0.04167165401775587,"18":0.012245719104055974,"19":-0.14981354544752176,"20":-0.03936743989415061,"21":-0.28533287625745185,"22":0.13219016378718718,"23":-0.10153110293344543,"24":0.25100315399247464,"25":-0.1769697211224965,"26":0.19833911064236473,"27":0.1914858777864274,"28":-0.20753951744622548,"29":0.16094937093273248,"30":0.07727210651196252,"31":0.2474661631064169,"32":-0.06307072108725918,"33":0.18346690896303633,"34":-0.17620078276654452,"35":-0.03344994854989946,"36":0.08747712331470384,"37":0.02985631215664271,"38":0.23071225429613537,"39":0.30418976104143736,"40":-0.24920275489216803,"41":-0.07496793510833798,"42":0.01535082505747882,"43":-0.053453852449040815,"44":0.1796639934449558,"45":0.22469326738799444,"46":-0.11624247805104611,"47":-0.2218053617851646,"48":0.13877232950308832,"49":-0.2832314545012163}},{"sx":1,"sy":1,"depth":50,"w":{"0":-0.09527185825869426,"1":-0.12027510562539444,"2":0.12202964416822436,"3":0.3063687654280812,"4":0.03003549265598754,"5":0.04546798100957871,"6":-0.09119051323240336,"7":-0.07030569606001918,"8":0.0626306556655568,"9":0.06500195396571698,"10":-0.018357653022281182,"11":-0.1903280479779415,"12":0.028362773104266527,"13":0.0977999827958459,"14":0.0047237397115035135,"15":0.049353281504989285,"16":-0.06663626349936959,"17":-0.08213261279173456,"18":-0.0012238920786955116,"19":0.03205693630504175,"20":0.03284889602402189,"21":0.08807373191749271,"22":0.4129828440095266,"23":-0.0894044033608018,"24":-0.0361282370701967,"25":-0.1764563036678054,"26":-0.06333777342649519,"27":-0.005698909325463385,"28":0.14107970495231303,"29":-0.1354524109425312,"30":-0.019446126239746682,"31":0.2085062904831146,"32":-0.004506762100798963,"33":-0.29551439522285605,"34":0.07356232503543744,"35":0.10075912566987168,"36":-0.29720046219135365,"37":-0.13700454844840934,"38":-0.2263252387356832,"39":0.018454820951267666,"40":0.4421850215916233,"41":-0.1728527941662246,"42":-0.07740029517970941,"43":-0.24484952844581692,"44":0.029167301972667068,"45":-0.3139132518172541,"46":0.14727411658176826,"47":0.06235948195719162,"48":0.17060377857500256,"49":-0.13808814477551606}},{"sx":1,"sy":1,"depth":50,"w":{"0":-0.038506792263506374,"1":-0.0390297900547586,"2":0.11998316827291963,"3":-0.29531936252729063,"4":0.08472223898246758,"5":0.003447423074104497,"6":0.15245349723373972,"7":0.06549209889364908,"8":0.194012730611248,"9":0.0664549138348437,"10":0.15665784146291917,"11":-0.060465012647301676,"12":0.12583852521353353,"13":0.020470333260697148,"14":-0.25027561582960195,"15":-0.09038468878463497,"16":0.10155139338198954,"17":-0.033811869640753035,"18":0.02746666368747938,"19":0.2681341144137798,"20":-0.07629942746867821,"21":0.03660983326226013,"22":-0.20401559741562003,"23":-0.022363659587654978,"24":0.1146712172078895,"25":0.1446390747189077,"26":0.11444597525275135,"27":0.16665801225382684,"28":-0.07631885932979912,"29":-0.12604144576780604,"30":-0.09568758897173668,"31":0.16523629857934835,"32":-0.08808001023614961,"33":-0.04767649463464167,"34":-0.13962432064346544,"35":-0.03199324073094494,"36":-0.04031112721222907,"37":-0.29616418037233144,"38":0.11559125499105304,"39":-0.01537204685719336,"40":-0.0850385383694107,"41":0.13868303669257295,"42":0.05519400559734243,"43":0.016648702708247788,"44":0.37081894237423013,"45":-0.07013239611040302,"46":-0.16202857389067987,"47":-0.1094067557369494,"48":-0.24399702564696799,"49":0.1529694231862159}},{"sx":1,"sy":1,"depth":50,"w":{"0":-0.024159705477540195,"1":0.017816665175346778,"2":-0.24727460637510643,"3":-0.19171994076214266,"4":0.053140197859388186,"5":0.10891303867915168,"6":-0.15300120737612044,"7":-0.06711623805679282,"8":-0.028432286441195175,"9":0.03342626563953627,"10":-0.21566243599187324,"11":-0.137750536801566,"12":-0.00838934281035915,"13":-0.0005003192166386988,"14":0.10274160063443055,"15":-0.2380943131835172,"16":0.08009914513474219,"17":-0.04030231510143005,"18":0.3734126349990969,"19":0.1720500706618708,"20":0.003025184522944137,"21":-0.061698395396808076,"22":0.04366528167302125,"23":-0.3685933319910057,"24":-0.019159718374792557,"25":-0.030010738863943908,"26":-0.1619537438276362,"27":-0.03157879880588953,"28":0.01164696152903224,"29":0.14063189798488585,"30":0.03805338560654425,"31":0.2600147039508661,"32":0.06605194652349251,"33":-0.20674069916665425,"34":0.001967139720489555,"35":-0.04129589432045751,"36":-0.03684924731871781,"37":-0.05134021754737815,"38":0.07503941037434418,"39":-0.15327538500071497,"40":-0.09572715444505542,"41":0.015479069975113799,"42":-0.24565949263644657,"43":-0.18891735295270068,"44":0.2685570559876053,"45":-0.15664672820949022,"46":0.1539049443002172,"47":-0.06812759266448666,"48":0.10934301821457576,"49":-0.1283201190751859}},{"sx":1,"sy":1,"depth":50,"w":{"0":0.12117487571658168,"1":0.06397615969736249,"2":0.10194231722500496,"3":0.067118238374002,"4":-0.11412758819889847,"5":0.014341410540495685,"6":-0.26992342149635323,"7":0.0000777371772348867,"8":0.016816927893673624,"9":0.08586603760397987,"10":-0.08083287314224995,"11":-0.24072554155491652,"12":0.1341619841598852,"13":-0.0068120894074842385,"14":-0.012168781541549522,"15":-0.0020329519556386974,"16":-0.07102008502504417,"17":0.1158211343709758,"18":-0.14981615023403447,"19":0.2017331815013521,"20":-0.2454097908567411,"21":-0.05080239887553128,"22":-0.21317055456716816,"23":0.028480764012537817,"24":0.2681014140609725,"25":0.019564649230990508,"26":-0.2614592907988063,"27":0.04376936140649055,"28":0.166885837571378,"29":0.20837000395021674,"30":-0.08704354157851271,"31":-0.1843397565783721,"32":-0.05445780730087716,"33":-0.005363807873343491,"34":-0.34277874230429023,"35":-0.06855284591278116,"36":-0.039708583133780104,"37":0.19406123237275905,"38":0.19472570189641725,"39":-0.014217199522487916,"40":-0.015420676199758027,"41":-0.07666840581058608,"42":0.11682460541645999,"43":0.23711153368003726,"44":-0.03648412797269695,"45":-0.030772129707450756,"46":-0.07801106396483634,"47":0.017251784745682355,"48":0.005631535368146487,"49":0.17168739405566638}},{"sx":1,"sy":1,"depth":50,"w":{"0":0.26411796671171633,"1":-0.07769329563897576,"2":0.10541662340768984,"3":-0.05355941030913596,"4":0.026178088950748257,"5":-0.09114077369441222,"6":-0.07678417323805395,"7":0.057748668600654085,"8":0.0398288270992277,"9":-0.005634575491262748,"10":-0.2505018012442321,"11":-0.09471853148126459,"12":-0.05598034259083697,"13":-0.1497394485211562,"14":0.3202310626916267,"15":-0.06444290343836756,"16":-0.1524984771141307,"17":-0.02738336907877516,"18":0.06607607936775312,"19":-0.14972592084334171,"20":0.12881744564771028,"21":0.017321276178233834,"22":-0.0209998957086928,"23":0.022805821482340657,"24":0.1568440399782143,"25":0.32485262126952097,"26":0.06903924871455613,"27":0.07440392168471406,"28":0.25795057131954935,"29":-0.047441865885367335,"30":0.18733641328811665,"31":0.01244377530224425,"32":0.009751933235905662,"33":0.24459660223293758,"34":-0.022355514853968406,"35":0.028560107232498664,"36":-0.05828072636436457,"37":-0.20513646938056548,"38":0.18844826793767055,"39":-0.09401861975546272,"40":0.0644229623081782,"41":0.0632215241159552,"42":-0.06868839655774521,"43":-0.12765271599204223,"44":0.13614990010395078,"45":0.19005542724080332,"46":-0.2855052101048207,"47":0.10318519242002054,"48":-0.11321683565024815,"49":-0.09974012621753196}},{"sx":1,"sy":1,"depth":50,"w":{"0":-0.06737033896536937,"1":0.02888140644404972,"2":-0.1188422038166964,"3":-0.10806602377101543,"4":-0.06818313044869544,"5":0.13621128501131238,"6":-0.14309556716988922,"7":-0.11435193010203161,"8":-0.10694076804830567,"9":-0.19787028895543685,"10":-0.3043121737362036,"11":0.06350298956030966,"12":0.355169226875985,"13":0.059429593277126005,"14":-0.2174562602591896,"15":-0.17143620552919214,"16":0.09514880596559386,"17":-0.00534747977797157,"18":-0.09582090804614436,"19":0.2124060272157494,"20":0.12147925625713757,"21":0.2797873097629263,"22":-0.13323158480363848,"23":-0.044245835673753925,"24":0.10008407755965656,"25":0.07977467024669539,"26":-0.20517364728888554,"27":0.12474548386179064,"28":0.15985430384030735,"29":0.20847747724808047,"30":0.026531612706438,"31":-0.18940523319538702,"32":0.24476760386320576,"33":0.04172729427768762,"34":0.20625980695549084,"35":-0.0006196377726492006,"36":0.019893592444512522,"37":0.205158410325726,"38":-0.30755405433868216,"39":-0.05720864728122478,"40":0.1021494109282327,"41":-0.2259353372741422,"42":0.20299118722844303,"43":0.15020090273976894,"44":-0.11012115395617113,"45":0.047144636324420106,"46":0.03196423931191584,"47":-0.08168820996858335,"48":-0.032641306567334695,"49":-0.05800761743421814}},{"sx":1,"sy":1,"depth":50,"w":{"0":-0.12116349997319133,"1":-0.19421507016953726,"2":0.18750722925131033,"3":-0.1238009996730448,"4":0.05798688710983417,"5":0.037257501672363386,"6":-0.07187145235756572,"7":0.08199062370085938,"8":0.03846742277835921,"9":0.06089092222905073,"10":0.19282373924546398,"11":-0.027878833119938193,"12":0.13116487480394226,"13":-0.04105698213880208,"14":0.0956267158255123,"15":0.20753001299335624,"16":-0.03428738553529585,"17":-0.16447954203715093,"18":0.007483621854142087,"19":0.09285870414336439,"20":0.10184770198533019,"21":-0.178936880277112,"22":-0.17686103495368835,"23":0.09792763588882146,"24":0.2296033709832304,"25":-0.12905131178714005,"26":0.08896148782243411,"27":-0.1567151644142909,"28":0.1384442192735997,"29":0.08759640822223853,"30":0.06025659722177493,"31":-0.14363659907911325,"32":-0.014035195799482557,"33":0.09852671698199256,"34":0.10320266837714466,"35":0.12786660635327465,"36":-0.09910061655009611,"37":-0.19662719174400622,"38":-0.09840189626733244,"39":0.35260868529242834,"40":-0.11965387295773859,"41":0.07513012841854426,"42":0.1614592872079044,"43":0.29659590337420494,"44":0.15742612962559552,"45":0.13763450183925352,"46":-0.12464827156947546,"47":0.11679289645389332,"48":0.06707952898224119,"49":0.053173146902312736}},{"sx":1,"sy":1,"depth":50,"w":{"0":-0.13435760382567113,"1":0.06695639906124567,"2":-0.01823575277426024,"3":0.02072998931903382,"4":-0.13086519847819536,"5":0.5224735321578575,"6":0.12051116948519389,"7":-0.01666689062909851,"8":0.03877554572623164,"9":-0.17879961198294983,"10":0.3048945897868567,"11":0.06977235534842349,"12":0.22146109147945617,"13":0.23621980154213057,"14":0.01403787311104084,"15":0.3599068769445168,"16":0.04572879180374205,"17":-0.08424431952353646,"18":0.19404267591868546,"19":0.09408515357094602,"20":0.1723669718677494,"21":-0.10408701764100588,"22":0.2782391313994631,"23":-0.33537375022188753,"24":0.278312098107566,"25":-0.16665148061808052,"26":0.00827568936688439,"27":0.2872712597491854,"28":0.11912104209336212,"29":0.16383956749880477,"30":0.15100503652945838,"31":0.07852327567812334,"32":-0.11048608632789175,"33":-0.0853851443550817,"34":0.07987466081078161,"35":0.032386093093750616,"36":0.10675372189940482,"37":0.05432521687827444,"38":-0.21491787222506445,"39":0.19128664059586817,"40":-0.08191148975540602,"41":0.15068340189738053,"42":0.06942560823689287,"43":0.01508474923952178,"44":-0.07252314804768067,"45":-0.021867075048584525,"46":0.3920474582085843,"47":0.1730642842292684,"48":-0.2721785099477904,"49":-0.2235714706149384}},{"sx":1,"sy":1,"depth":50,"w":{"0":0.12126638598166514,"1":0.09184187398928775,"2":-0.023989258214408494,"3":0.22547936805469235,"4":-0.05370817382382498,"5":0.12226651732678473,"6":0.31510152748590753,"7":0.1857503043084771,"8":-0.07394442391120308,"9":0.1986038337612564,"10":-0.08559146268903646,"11":0.18429300570504017,"12":-0.13904861576346847,"13":0.0008075723476508134,"14":-0.10780435771927865,"15":0.13606448436990046,"16":-0.030682607254353848,"17":-0.025450866117175196,"18":0.14427364578542215,"19":0.1090866712034567,"20":0.13756905273341996,"21":0.07705404623808688,"22":-0.011282967544603754,"23":-0.1493040360115374,"24":-0.025462884527181293,"25":-0.2924733592255518,"26":-0.08164613911583159,"27":-0.05187543705794686,"28":-0.02459380819987239,"29":0.07775828998526205,"30":-0.06266625098709606,"31":-0.022556246610125834,"32":-0.03137570940315667,"33":0.3605420583541569,"34":0.14623812158652896,"35":0.16069760027054603,"36":0.09024921461006412,"37":-0.07908925018801317,"38":-0.07962841226044358,"39":-0.005997707225262708,"40":-0.12236419302067232,"41":0.1001047676758665,"42":-0.1767501902044829,"43":0.09656068979259542,"44":-0.023428199785144245,"45":-0.11421685341653068,"46":0.0014641303083198567,"47":0.15268049046906806,"48":0.053909822713831664,"49":-0.3684658646412742}},{"sx":1,"sy":1,"depth":50,"w":{"0":-0.17335078372554533,"1":0.15080275735007,"2":-0.0005197517797790762,"3":0.20187402525260925,"4":0.13010433398268764,"5":0.01513285379570111,"6":0.005965535973963358,"7":0.006870296498749734,"8":-0.04502597430314856,"9":0.13892686281375927,"10":-0.0611650660514649,"11":0.017630144957489144,"12":-0.316319912418701,"13":-0.015365681263175736,"14":0.26750115656599166,"15":-0.10279034515745743,"16":-0.12956591948777954,