{"layers":[{"out_depth":62,"out_sx":1,"out_sy":1,"layer_type":"input"},{"out_depth":50,"out_sx":1,"out_sy":1,"layer_type":"fc","num_inputs":62,"l1_decay_mul":0,"l2_decay_mul":1,"filters":[{"sx":1,"sy":1,"depth":62,"w":{"0":-0.12524151395568794,"1":0.22888472635487817,"2":-0.2129780752763112,"3":-0.07005853150859574,"4":0.10245245520931716,"5":0.005115611216314847,"6":-0.0640702479777449,"7":0.34270270770601746,"8":0.23921489049989197,"9":0.5128788003960182,"10":-0.010912214151105725,"11":0.1647420200053785,"12":-0.11766591416981473,"13":-0.34344212411459457,"14":0.05468424716473858,"15":0.23209890701130173,"16":0.32469737915160785,"17":0.34444112550316575,"18":0.36139103162426056,"19":0.37773415879976724,"20":0.29696273487127367,"21":0.6568999126178453,"22":-0.21239402032793772,"23":-0.20972267462735636,"24":0.13829926698973363,"25":0.0833641771616305,"26":-0.17715108366316054,"27":-0.07256682128018375,"28":-0.03935783371123313,"29":0.011580555147113668,"30":0.1680051683075588,"31":-0.15731917587837424,"32":0.03502368545376536,"33":-0.24145913606587432,"34":-0.21177666503258866,"35":0.5624691655946749,"36":-0.21103517528883614,"37":-0.17356950834198862,"38":-0.21951840698174693,"39":0.08116890484593271,"40":-0.12320137526567647,"41":-0.21706476041833325,"42":0.5337743856077872,"43":0.23706697210924052,"44":-0.23462541734572095,"45":0.047361994080115086,"46":-0.09303451882157804,"47":-0.19791314114451686,"48":-0.1643338095324185,"49":0.012205823161110636,"50":-0.14923832320553446,"51":-0.16110768181411966,"52":-0.24055957269439465,"53":0.8740942751895708,"54":0.3452412330609003,"55":0.11486486318313566,"56":-0.13174921221703279,"57":-0.14545057841636536,"58":-0.21412006092237282,"59":-0.10344124172529455,"60":-0.1077219979812909,"61":0.014515745496197986}},{"sx":1,"sy":1,"depth":62,"w":{"0":-0.08698394692306863,"1":-0.08601817368262761,"2":0.19897880646525742,"3":-0.249743734036759,"4":-0.06273706375124542,"5":-0.26162551188043565,"6":-0.13325743150882607,"7":0.11075525612499236,"8":0.03414829694202501,"9":0.1428885008323728,"10":-0.16091137759762023,"11":0.02051278099782191,"12":0.06916137279930618,"13":-0.09258937392113738,"14":0.264607544057898,"15":-0.14394235967983418,"16":0.1719449684527843,"17":0.39238165235059774,"18":0.2702768429595699,"19":0.12335075431841953,"20":0.28050746940474647,"21":0.03988446058908474,"22":0.06009391636964552,"23":0.2573028256018759,"24":-0.10937171160952404,"25":0.17063869565091558,"26":0.09761047585305363,"27":0.5308106682862221,"28":0.398888947336428,"29":-0.17864738088122906,"30":0.20797227587161157,"31":-0.15424182550251808,"32":-0.18122864891001103,"33":-0.09213821216692174,"34":-0.17531992266859392,"35":0.15634044376733838,"36":-0.21123859676599488,"37":0.10920028453784388,"38":-0.1332584028213254,"39":0.23915214576052093,"40":-0.026379129787211367,"41":-0.12821362756685684,"42":0.37459973102553895,"43":-0.18805777513882238,"44":-0.16653210740560342,"45":0.5122300152299515,"46":-0.17417399464421532,"47":-0.18681334362832136,"48":0.33769678179763274,"49":-0.16736493965238916,"50":-0.2522730853558801,"51":0.09857955961195981,"52":-0.07490871359391206,"53":0.23311245517324153,"54":0.055644817649312575,"55":-0.21297176750156646,"56":0.10004969305010519,"57":-0.13206108504879346,"58":-0.20951562712260913,"59":-0.19110157317247053,"60":-0.2061487735560759,"61":-0.10642763973845372}},{"sx":1,"sy":1,"depth":62,"w":{"0":1.1194626012991484,"1":-0.321946660564638,"2":0.12822164827939977,"3":0.6476859010731875,"4":1.1430073626800683,"5":-0.028577473403859903,"6":-0.1900799486666809,"7":0.46034690125456623,"8":0.3303287647675398,"9":0.5499062540943932,"10":0.7186891812666806,"11":-0.09536491154513003,"12":0.11384845388142024,"13":0.4742398674582673,"14":0.9163401367821675,"15":-0.07512486632408412,"16":0.04460742340636494,"17":0.47623597674859336,"18":0.41143812863903945,"19":0.6450288128689269,"20":-0.2207872052078002,"21":-0.501234096087759,"22":-0.5184401519280394,"23":0.2744065758701336,"24":-0.1394890775781026,"25":0.013449613464726801,"26":0.6924679224624097,"27":-0.6648745028905703,"28":0.3593698539200327,"29":-0.25515684207074135,"30":-0.10703646333925318,"31":-0.14985348908262103,"32":-0.08955481082031211,"33":0.8361554252230491,"34":0.16011579122961897,"35":0.018493564389336213,"36":-0.12075357054244057,"37":0.1868444970373373,"38":0.2993649124168205,"39":0.21135127900613931,"40":-0.14763279822571349,"41":0.24477615109639592,"42":0.7741356183983985,"43":0.43027920734763664,"44":0.06451248165673815,"45":-0.3163216782403093,"46":0.027133216784376964,"47":0.1117419579908358,"48":0.5211470383946623,"49":0.7173787699070108,"50":-0.5981845088368704,"51":0.7983588714763368,"52":0.49360403610509884,"53":-0.4013916330908424,"54":0.11442254347349873,"55":0.11742659215915854,"56":0.46569802855320086,"57":0.43349255326045727,"58":-0.022997517531542416,"59":0.8442377150115375,"60":-0.23317193088588742,"61":1.288600150638454}},{"sx":1,"sy":1,"depth":62,"w":{"0":-0.2920901775837515,"1":-0.10017176560920925,"2":-0.37941261201461834,"3":-0.19387161128334382,"4":0.10035907008586467,"5":-0.09019406570679396,"6":0.5637301176593746,"7":0.4830984748086098,"8":0.1406017866899143,"9":0.07988514777725512,"10":-0.6120007405144223,"11":0.07302164554239861,"12":-0.3894207499813401,"13":-0.3000870917601642,"14":0.3198146662018718,"15":-0.3629166216759045,"16":0.4151248984008497,"17":0.4374176311659516,"18":0.33117872585742064,"19":0.23893542911709098,"20":-0.16818133473373587,"21":-0.11159135851051263,"22":-0.415095630909786,"23":-0.12752332217416285,"24":-0.28461099919075544,"25":0.38542587278899104,"26":-0.12359178985795687,"27":-0.105113571931842,"28":-0.1256578225356541,"29":-0.23127187007621722,"30":-0.3630469424145581,"31":-0.11667025836829273,"32":0.13775009167124658,"33":-0.2786491244855246,"34":-0.40726658297622903,"35":-0.12705744909979771,"36":-0.5259824404190655,"37":0.3460652336809983,"38":-0.2796813301985857,"39":-0.09904686055254379,"40":-0.10997536705551868,"41":0.09536100374148357,"42":0.610024889363676,"43":-0.03433428555945907,"44":0.1751687329754687,"45":0.39473981138920083,"46":0.25296811132370234,"47":-0.3545814478350682,"48":0.13750388564237212,"49":0.8608196121084954,"50":-0.1208905230089498,"51":0.34026655633150077,"52":-0.1630880130848696,"53":-0.45145891242594655,"54":0.06944948171423602,"55":0.060417260410301064,"56":-0.1408290694733887,"57":-0.3935112781512053,"58":-0.3288254095202961,"59":-0.3640487772830739,"60":0.26787937337275247,"61":0.04968619559260574}},{"sx":1,"sy":1,"depth":62,"w":{"0":0.22472006113437695,"1":0.1439539595146208,"2":-0.03430669061057758,"3":0.02690060385304368,"4":-0.18952014320708155,"5":-0.2441021052873583,"6":0.0003814151205999541,"7":0.18792731843889107,"8":-0.008972854891457886,"9":-0.08109397878320203,"10":0.07837826296567611,"11":0.11310173595456402,"12":-0.11218835854229224,"13":-0.19504441146701354,"14":-0.1367730564498993,"15":0.0010502722379455976,"16":0.19408958083476316,"17":0.3461435751540594,"18":-0.003162257319256601,"19":-0.03133724375685092,"20":-0.08859614885005833,"21":-0.11780716086621891,"22":-0.12053621563309172,"23":-0.17294365337369827,"24":-0.029446418020942777,"25":0.49069083346227227,"26":0.38654819439574983,"27":-0.16505410336168502,"28":-0.15056137530018263,"29":0.125228516225458,"30":0.27436786168695604,"31":0.08443914629755132,"32":-0.08321790368470146,"33":-0.10341411024589665,"34":-0.09646103754005571,"35":0.2308220714784254,"36":-0.10778087721483083,"37":-0.17083480348321312,"38":-0.11881319908083231,"39":-0.03947821579426538,"40":-0.1408383740532731,"41":0.08346535697867942,"42":0.29588442711550395,"43":-0.17293690408199133,"44":-0.23768942136064017,"45":0.5314941687600473,"46":0.16980057531541806,"47":-0.4157721816879568,"48":0.5731627661113007,"49":-0.08223426746029573,"50":-0.1115694989379238,"51":-0.15698022403550535,"52":-0.0910116274654158,"53":-0.07674881193359788,"54":0.07941534106491717,"55":0.14950750457865072,"56":-0.10677418607979351,"57":-0.11185533528665524,"58":-0.11036743587391883,"59":0.248535018303282,"60":0.4453648236372362,"61":-0.09626180999246414}},{"sx":1,"sy":1,"depth":62,"w":{"0":0.8282521161664298,"1":-0.48054989415117555,"2":-0.024544992828863473,"3":0.2456236216402349,"4":0.6237260545030197,"5":0.41280663121398165,"6":-0.2874908524060924,"7":0.1946100197597756,"8":0.4810752558131758,"9":-0.029177174811469416,"10":0.8435334695390435,"11":-0.22094169794893362,"12":0.10865458562540758,"13":0.4884784921506729,"14":0.7154528858483031,"15":0.043603371231783726,"16":-0.3825710424235209,"17":-0.16245098947596884,"18":0.2723228615076979,"19":-0.009748081039497258,"20":-0.401238552496083,"21":-0.36400889334519726,"22":0.35856737437930897,"23":0.1794236643822476,"24":-0.04616993026195607,"25":0.49437100805002826,"26":0.5142525679112003,"27":-0.7356760800813847,"28":0.21919386269911612,"29":0.1870164182888927,"30":0.23124743849236581,"31":-0.15261180120666745,"32":-0.012889581781051741,"33":0.22393350601896247,"34":1.060392269333065,"35":0.16668348627793708,"36":-0.4257874581278427,"37":-0.3764605148394965,"38":0.6779584791681825,"39":0.19309766683560325,"40":0.11118463565688733,"41":-0.30979999369303024,"42":0.34552010706707736,"43":0.07101094329224847,"44":-0.6942391037918928,"45":0.155245146714549,"46":-0.27537455589220977,"47":-0.3990897816839388,"48":0.22099659871514316,"49":-0.08193926394909518,"50":-0.7493872403598099,"51":0.2722048370220031,"52":-0.0041998078172373965,"53":-0.06608801076872016,"54":-0.4060093564989953,"55":-0.10332032927561335,"56":0.46964330568347956,"57":0.6495829386937476,"58":0.750251227294986,"59":0.9355251643695899,"60":-0.36537661092220797,"61":0.24902398103435217}},{"sx":1,"sy":1,"depth":62,"w":{"0":0.045971922045835605,"1":0.009996949467894098,"2":-0.3956156346726838,"3":0.1370343825347198,"4":0.14256846623211017,"5":-0.20434416716056003,"6":0.08469703557770167,"7":0.4520774974621077,"8":0.09261525776980802,"9":-0.09240532129366942,"10":0.12997035276822877,"11":0.16931192490394625,"12":-0.11703474056121797,"13":-0.12301369925411414,"14":0.33558848164105465,"15":-0.1533738283739372,"16":0.28508240168454946,"17":0.06297766071110235,"18":-0.041784672293339715,"19":-0.011311464079585026,"20":0.17631492068602012,"21":-0.0284718808225267,"22":-0.23714883507276335,"23":0.8914957487486571,"24":-0.15076920428643228,"25":-0.060197568533407624,"26":-0.04694240825834856,"27":-0.1818807302871991,"28":-0.10880221276130027,"29":-0.3659256723853741,"30":-0.10497754615239199,"31":0.07623694721816847,"32":-0.19291144941673305,"33":-0.18650398576786115,"34":-0.17530953371156344,"35":-0.16558244211534465,"36":-0.502909652086917,"37":0.9346355833362411,"38":1.1893949808774096,"39":-0.11817118425612912,"40":-0.1844110725014218,"41":-0.17021907969450809,"42":-0.15107607856665475,"43":0.11046821718817917,"44":-0.30731821108076923,"45":-0.22403149722386256,"46":0.432333492592263,"47":0.16720470898796258,"48":-0.1592460298132272,"49":0.9867561365598279,"50":0.15582563132333302,"51":-0.07997780851773513,"52":-0.16770654787848152,"53":-0.24894542211931275,"54":-0.1577632080964485,"55":-0.061795044476084277,"56":0.18628362735848303,"57":-0.22220694170311764,"58":-0.19415136827956278,"59":-0.2911256382325334,"60":0.805039575401905,"61":-0.28390280810710783}},{"sx":1,"sy":1,"depth":62,"w":{"0":-0.20415775330251118,"1":0.015884306853232753,"2":0.0004944622952466368,"3":-0.1339703981151421,"4":-0.0166354982343383,"5":-0.09236473248338208,"6":0.11105508412547216,"7":0.19339174054566502,"8":0.012570716112252663,"9":0.07852927974812925,"10":0.050432132761772164,"11":0.06706352036222524,"12":-0.002202535097978142,"13":0.0014314504267768004,"14":0.12336414827084506,"15":0.10661550395483886,"16":-0.04079585896778186,"17":0.23519542357842094,"18":0.0730014865494043,"19":0.10667972731961571,"20":-0.12819197372302288,"21":-0.11806393163033577,"22":-0.0913314295636484,"23":0.3416543309779665,"24":0.036478148061215784,"25":-0.19007730609495915,"26":-0.12362066699087274,"27":-0.147378204798674,"28":0.14913538277857002,"29":-0.07083509445983038,"30":-0.14727135523949197,"31":0.1658665982540343,"32":-0.18319569686631898,"33":0.1624594664019044,"34":-0.09584518564681072,"35":0.12393788104024267,"36":-0.12440021590237495,"37":-0.09961862556674723,"38":-0.10807728749421747,"39":0.34854047001201127,"40":-0.11038296286939502,"41":0.13649352766230716,"42":-0.10171267419645928,"43":-0.10704358779414067,"44":-0.0032164578848879475,"45":0.19801099899266197,"46":-0.10212124324696747,"47":-0.09852115893926046,"48":-0.03332002182941989,"49":0.47281362146273725,"50":-0.07577411511987729,"51":0.35855210946945454,"52":0.6395891529740414,"53":0.39195937725404584,"54":-0.054873381585191804,"55":-0.23947351070321593,"56":-0.10859709711426418,"57":-0.15211909869597073,"58":-0.09641875529475334,"59":-0.2570480435026165,"60":0.6642526647629693,"61":0.14345329930297657}},{"sx":1,"sy":1,"depth":62,"w":{"0":0.40077065762265324,"1":-0.10695013454262774,"2":0.11521274020871133,"3":0.38101410947705056,"4":0.15725446854318278,"5":-0.089359004437565,"6":0.04543007844348908,"7":0.16238782574173913,"8":-0.15386424010805116,"9":-0.1439177996265558,"10":0.6550093056605417,"11":0.1227935156703016,"12":-0.07968124381384976,"13":0.12211933916217572,"14":0.16346638345834902,"15":0.08828833348244301,"16":-0.18177636361628904,"17":-0.009893886865683993,"18":0.15482822603895371,"19":0.08043051352537223,"20":0.05288920280518096,"21":-0.13564302019191407,"22":-0.19584517369697108,"23":0.18156302286616965,"24":0.25114023296236065,"25":0.15985379486580936,"26":0.21647219185083733,"27":-0.22829569976166975,"28":0.3048156304634656,"29":-0.26322532772508683,"30":-0.1948528053031197,"31":-0.15528815747878602,"32":0.1259514420368478,"33":-0.16721020969135067,"34":0.19873900078110598,"35":-0.1276263373053833,"36":0.8250181295095652,"37":-0.207593457943389,"38":-0.23512217703735747,"39":-0.11674482619581814,"40":-0.10107768723544355,"41":0.15058672708918372,"42":-0.26574812809747406,"43":-0.2267542175828397,"44":0.43025238175943925,"45":0.1982330047437446,"46":-0.24341375518431996,"47":-0.2285218082981933,"48":0.5014631009267686,"49":-0.025187552485526923,"50":-0.15486779618871882,"51":-0.230227138522885,"52":-0.22042267272890934,"53":0.05348248347907468,"54":-0.19867968488574048,"55":-0.23577921785987685,"56":0.13917893487620692,"57":-0.2379381801666531,"58":1.3122111854986314,"59":0.4139148512759707,"60":-0.20573051128188247,"61":-0.1872112595795417}},{"sx":1,"sy":1,"depth":62,"w":{"0":-0.02452979489661614,"1":0.2204493229319063,"2":0.046497702507283085,"3":-0.3829366497966811,"4":-0.5371014163423334,"5":0.014319144708842765,"6":0.2100640564696226,"7":0.45468599589965314,"8":0.2641303559519813,"9":0.4213268734538496,"10":-0.17892248355395315,"11":0.13446634716122638,"12":0.2575925604681047,"13":-0.021056986531394258,"14":-0.36174522611525495,"15":0.0052232175840620865,"16":0.1129350992828865,"17":0.24165698132148508,"18":0.3700317208781742,"19":-0.124684371923247,"20":0.3190471440526933,"21":0.3587553767264288,"22":-0.22798265146344054,"23":0.012122266791953893,"24":0.45817232032278277,"25":-0.17287369324534488,"26":-0.4483960186061796,"27":-0.051091687021352056,"28":-0.21413956110616025,"29":0.25045138871290373,"30":0.10908577188211341,"31":-0.20866700323816623,"32":-0.2200120769336371,"33":-0.12964523973465092,"34":-0.22164997216227744,"35":0.3318095873357384,"36":-0.2784815128897056,"37":-0.09911957510588501,"38":-0.23276900653497512,"39":0.6248921344759039,"40":0.7851149295335338,"41":-0.0912844479332008,"42":-0.15262065341449285,"43":-0.17030552442855376,"44":0.544127774167184,"45":-0.19077855308336691,"46":0.3200607160540596,"47":-0.23696861562535312,"48":-0.062142580930292825,"49":-0.1290594266637101,"50":-0.06502680513714942,"51":-0.06348909336614107,"52":0.5901286685529761,"53":0.6252821148404801,"54":0.334001473368745,"55":-0.13161855496664782,"56":-0.17302179917655733,"57":0.009699228526064236,"58":0.6930543723898904,"59":0.33791430711208675,"60":-0.25038209643530196,"61":-0.1833272872292825}},{"sx":1,"sy":1,"depth":62,"w":{"0":0.41120750243381066,"1":0.08313164606388182,"2":0.044165997513516256,"3":0.04285265539594245,"4":0.10138597940307588,"5":0.13518059665589868,"6":-0.24332839902441572,"7":-0.022242414043780363,"8":-0.026387254363698657,"9":-0.14714969751329426,"10":0.1677528074240121,"11":0.1583480362005208,"12":0.1542661330322065,"13":0.1958634471482207,"14":-0.11111663239464335,"15":0.391665318997295,"16":-0.19302107122893428,"17":-0.05528822035356515,"18":-0.06661189702797944,"19":-0.059789772369218376,"20":0.27242736422275365,"21":0.1635469587450973,"22":0.8237575580337901,"23":-0.13527855899930644,"24":-0.16606782387180988,"25":-0.1621176332693689,"26":0.22908511714556862,"27":-0.13890823545079603,"28":0.08871193523609693,"29":-0.1220271711754935,"30":0.03904265524239918,"31":-0.14050949847153543,"32":0.09925745013946687,"33":-0.1816970813493238,"34":0.26369215498479903,"35":0.09634584744801045,"36":1.1073911313716696,"37":0.04994726488611565,"38":-0.07500522147363001,"39":-0.045731315143462875,"40":-0.08024285726256891,"41":-0.3799634058872472,"42":0.0132579506800031,"43":-0.14306974531718444,"44":0.36575718019503295,"45":-0.3039096414970883,"46":-0.17717357418515445,"47":-0.17952473219828705,"48":-0.1769770566692475,"49":-0.1209942293521214,"50":-0.11717925197817734,"51":-0.12421657591605885,"52":-0.0729593329504277,"53":0.30139127736450716,"54":-0.16934827961502413,"55":-0.2880440034362094,"56":-0.14776913899596467,"57":-0.04982660045933587,"58":0.7503244599481137,"59":-0.17351097575365246,"60":-0.07457781517899308,"61":-0.19019145501416085}},{"sx":1,"sy":1,"depth":62,"w":{"0":-0.2247185618002698,"1":0.031554648623208066,"2":-0.04460714521382284,"3":-0.2727712308059263,"4":0.059924554023712606,"5":-0.40565663551744224,"6":0.14442214426652764,"7":0.03370679089614561,"8":0.10203424766648923,"9":0.11520779271421891,"10":0.04109391882452235,"11":0.021786192873691983,"12":-0.04977152071391665,"13":0.005534618945182423,"14":0.07686108991398813,"15":-0.21625821392920724,"16":0.10629452551144193,"17":0.2158912563655468,"18":0.2528614916387058,"19":0.06776521779736668,"20":-0.10146683409117344,"21":-0.017398529684372332,"22":0.3128125740816046,"23":-0.167655798396179,"24":-0.19645665704930346,"25":0.07312257775721337,"26":-0.2942231422835067,"27":-0.06827639296258783,"28":0.02543899423333343,"29":0.014790002736719592,"30":-0.17129066066185203,"31":0.33710197145808246,"32":-0.16185915271528653,"33":-0.1391250228064867,"34":-0.21985797272929933,"35":-0.09690815748862867,"36":-0.09265218314633246,"37":-0.24776161108151684,"38":-0.08931997578638795,"39":0.07875126425214365,"40":-0.1005278519139212,"41":0.28788662671542986,"42":0.17082784499819242,"43":-0.08333148195669184,"44":-0.22971515948014298,"45":-0.2133108856029364,"46":0.08511998962400494,"47":-0.21391993448391866,"48":0.13088528997205054,"49":0.07595157934618857,"50":-0.09978127692142963,"51":-0.1386600191252905,"52":-0.12257455757615691,"53":-0.06297152906883768,"54":0.5109446817344538,"55":0.17628658874980388,"56":0.0877835858889683,"57":-0.1191679843618983,"58":-0.09580878636557841,"59":-0.023919987945605188,"60":0.21513886479344155,"61":-0.07645152029939667}},{"sx":1,"sy":1,"depth":62,"w":{"0":-0.3836177109105495,"1":-0.10032009791382533,"2":-0.004184951007346766,"3":-0.18109788232902077,"4":-0.054987823637094375,"5":-0.038424551808479576,"6":0.16736716525043918,"7":0.1876753683864218,"8":0.20282392992476614,"9":0.058578169569792345,"10":-0.06614046577159069,"11":0.03551230991991968,"12":0.015754608217411963,"13":-0.44989198037507394,"14":-0.03992337799239341,"15":-0.3392337835468227,"16":-0.034565319604926106,"17":-0.023755029969371858,"18":0.09288376249366452,"19":0.04553214689421971,"20":-0.1347966655132248,"21":-0.033112890108985014,"22":-0.10911896089316009,"23":-0.040235068206841584,"24":-0.0818543928388466,"25":-0.03125657577360642,"26":-0.11023014117098556,"27":-0.32362375686467937,"28":-0.07657432061318575,"29":-0.15158545514387997,"30":0.07168959909770671,"31":0.16594771006654369,"32":-0.1567604196545479,"33":0.2562337165191159,"34":-0.06986135502583621,"35":-0.10921453023866577,"36":-0.2602801527813535,"37":-0.09789439983075125,"38":-0.10931537161214239,"39":0.2909446550694671,"40":0.34878950445293616,"41":-0.1299407491432267,"42":-0.08013440275169584,"43":-0.1276934499041812,"44":-0.015914414982193197,"45":-0.21215024455230325,"46":-0.14439668980609513,"47":-0.13111004201132076,"48":0.021428882457227034,"49":0.6209967672856133,"50":0.12626740562141703,"51":0.011570723881293862,"52":-0.13779594722647795,"53":0.5312369655829503,"54":-0.08105784348572757,"55":-0.06100053828935654,"56":-0.09432201877228878,"57":0.01930697883436071,"58":0.17935181275465883,"59":0.42095001610742605,"60":0.5315830056633724,"61":-0.13939746869380754}},{"sx":1,"sy":1,"depth":62,"w":{"0":1.1061855378972278,"1":-0.09609805036755646,"2":-0.17016221941805842,"3":0.5907171255271445,"4":0.9745515553620329,"5":0.049882539346099555,"6":-0.001898824216602109,"7":0.10188031225239073,"8":0.7009696447413484,"9":0.9796979318685368,"10":0.9803879915281429,"11":-0.054116231103792704,"12":0.0758592422319712,"13":0.5806915135429027,"14":0.8986908092376233,"15":0.20299947845039232,"16":-0.3092136850903614,"17":-0.009033921694199207,"18":0.8695013212245568,"19":0.5009581355389061,"20":0.4256158023106915,"21":-0.5283408121438943,"22":0.7048206028031911,"23":0.6674527443886249,"24":0.24390539035469558,"25":0.4716632019788418,"26":0.31984785060520915,"27":0.5203926480154322,"28":0.11638301074106382,"29":0.2581094498901987,"30":0.0487043992070226,"31":0.0034099314761227534,"32":0.06956116364781134,"33":0.17946430905547997,"34":1.0926599421677474,"35":-0.1134870695305006,"36":1.6375050229528654,"37":0.26341855281309573,"38":0.46770829034695216,"39":-0.09454756047999019,"40":-0.6376808329624973,"41":0.3800001000439087,"42":-0.638999601968627,"43":-0.16958664912630828,"44":0.18184051751070848,"45":0.8950059945756774,"46":-0.3668902351934899,"47":0.9261041769802782,"48":0.4529970358873111,"49":-0.16888733155106198,"50":-0.8803783659846004,"51":0.07305552971843823,"52":-0.40267146275250515,"53":0.5154671360324038,"54":0.17538172440932806,"55":-0.1894855132439321,"56":0.6148337714576639,"57":0.13137094019452003,"58":0.20400529714854387,"59":-0.1845254576677605,"60":-0.22475242198346174,"61":-0.05473822070308761}},{"sx":1,"sy":1,"depth":62,"w":{"0":0.27996020251560677,"1":0.11047837569811422,"2":-0.01730881978319704,"3":0.11307703422067847,"4":0.029910335311224376,"5":-0.1965577793547986,"6":-0.4027516038618177,"7":0.09599682531183464,"8":-0.025485577473587536,"9":0.10701733950895148,"10":0.39309327628316765,"11":-0.5340130629576703,"12":-0.04062479216379483,"13":0.07133281817818767,"14":0.37210172716259615,"15":0.13490530348189808,"16":-0.20869883382185572,"17":0.015530640551991607,"18":-0.05978547666002333,"19":0.03982161700188459,"20":-0.048227047186304106,"21":-0.06420874119583361,"22":0.008903584289821182,"23":0.16877663020361774,"24":0.22402839512209657,"25":0.08824755035424746,"26":0.3370258038847909,"27":-0.34869584312111324,"28":-0.02290483315902248,"29":0.2005267285198635,"30":0.03889175735379288,"31":0.1704048047140286,"32":-0.017399307170171012,"33":-0.13060309863583922,"34":0.01900546447831471,"35":-0.06183039976725911,"36":-0.21764426538504067,"37":0.3423647853541476,"38":0.5007502581436177,"39":0.12166005653891555,"40":-0.07146688762418164,"41":0.2360326861656827,"42":0.19794020391413258,"43":-0.16165933668698332,"44":-0.16071970317882545,"45":-0.07481945272319476,"46":-0.04430538692930372,"47":0.11770164158327366,"48":0.15834027608606493,"49":-0.2844540516065465,"50":-0.206306207583029,"51":-0.12829859171297864,"52":0.48348849268410565,"53":-0.05505690393321965,"54":-0.00796591586357969,"55":0.1615986763494555,"56":-0.024414991054912002,"57":-0.15779724422543448,"58":0.04529133480037132,"59":-0.20576695992088279,"60":-0.24763842216368429,"61":-0.16767543003106933}},{"sx":1,"sy":1,"depth":62,"w":{"0":-0.47248372579888753,"1":-0.05632575944857887,"2":0.037358914159089505,"3":-0.6153557531911185,"4":-0.10203455877169484,"5":-0.26903147457907356,"6":0.3557468621859285,"7":0.3268508645897524,"8":0.03771001628055079,"9":0.13761518036177994,"10":-0.44750155453016777,"11":0.05867688720932353,"12":-0.159433425248561,"13":-0.8000506801477503,"14":-0.06734073558955841,"15":-0.32680212683442306,"16":0.2583530993943643,"17":0.47046458874285074,"18":-0.08117753688486803,"19":0.22086662798814247,"20":-0.6388184200944514,"21":0.2794228909742811,"22":-0.30331414774266313,"23":0.2436273728899724,"24":-0.2319934934441205,"25":0.07783113386754348,"26":-0.39153309931248387,"27":-0.26821925016410186,"28":-0.06331566510039521,"29":-0.03925554729507949,"30":0.03673710291984538,"31":0.020121259510949067,"32":-0.2428114507089043,"33":-0.23714074418592634,"34":-0.276043489727302,"35":-0.17450029975135178,"36":-0.7832677353107469,"37":-0.13145032905548915,"38":-0.15011314654273172,"39":-0.03330059793549023,"40":-0.06313203582832662,"41":-0.14464745179388014,"42":0.5993470123318191,"43":-0.04163864692356104,"44":-0.057315070730892884,"45":-0.15502677491029132,"46":0.7824135474333088,"47":-0.2756332136712624,"48":-0.09547270226986923,"49":0.25162826714641384,"50":0.453188010040931,"51":0.1508902437936135,"52":0.5037062125036328,"53":-0.361669365508783,"54":0.03433885070866682,"55":-0.002988478305780978,"56":-0.11521982520391835,"57":-0.2922573923234892,"58":0.48656534916541083,"59":-0.17683876508143057,"60":0.418362055476205,"61":-0.32859997103273825}},{"sx":1,"sy":1,"depth":62,"w":{"0":-0.2904628421776623,"1":-0.0003020710187196993,"2":-0.254701815769571,"3":-0.26169785695697523,"4":0.33061356901132427,"5":-0.059237709670077805,"6":0.37264442513698,"7":0.19901726655613391,"8":-0.007652911884737384,"9":0.3264871427931027,"10":-0.3043603356606387,"11":-0.01992882540214416,"12":-0.2160838003303691,"13":-0.43749618500569243,"14":0.10398347970374296,"15":-0.3484075734751519,"16":0.5868314440028164,"17":0.1468061446019514,"18":0.0051738388484694866,"19":0.16425642691980244,"20":0.21093743752209912,"21":-0.10830037673203216,"22":-0.3560411061855661,"23":-0.21414282160637632,"24":-0.0813093546601141,"25":-0.35687400266938996,"26":-0.06549497007044226,"27":0.46661990000438375,"28":0.20605696250000696,"29":-0.31255113092241354,"30":0.003756777177876331,"31":0.017210886001800197,"32":-0.18879218708086692,"33":-0.25897821354880235,"34":-0.3165955506874898,"35":-0.08420871129342984,"36":-0.37405532383147555,"37":0.5018471710462196,"38":-0.5050425207716716,"39":0.066610263250896,"40":-0.12180260720908453,"41":0.4882231235376253,"42":0.16445397506518744,"43":-0.13677137595498537,"44":-0.0462855611810866,"45":0.41090488833606864,"46":-0.06656208164932725,"47":-0.5828438362972952,"48":-0.10595443890667845,"49":0.26501550098307114,"50":-0.18613593450807678,"51":-0.29908991562291976,"52":-0.20273544103488042,"53":-0.4543676713742993,"54":0.702592996017399,"55":0.13066308492040069,"56":-0.1377042909995725,"57":-0.34916701008595785,"58":-0.3351834353406793,"59":-0.48698849685886214,"60":0.07041290884950237,"61":0.004545778935077577}},{"sx":1,"sy":1,"depth":62,"w":{"0":-0.1572669161776643,"1":0.05918463039725539,"2":-0.278384623622715,"3":-0.17081743370276656,"4":0.19331169124558306,"5":-0.101446315334488,"6":0.17676607745861803,"7":-0.08098241926081706,"8":0.04988458092256537,"9":0.2710930100093222,"10":-0.15610914520752167,"11":0.06696044408298475,"12":0.03805216434196465,"13":-0.2047826993605529,"14":-0.00342321019931028,"15":-0.004758714893793814,"16":-0.0860283552126381,"17":0.0583124617883737,"18":0.059634841623181924,"19":0.18008022836249934,"20":-0.14835723986859,"21":0.3339509767486653,"22":0.2722895331863942,"23":-0.22222225110408098,"24":-0.21106503067251411,"25":-0.12445078524907374,"26":-0.04756998291677202,"27":0.2521561217738561,"28":-0.1539515387936943,"29":-0.09548249148976856,"30":0.030441472170874104,"31":-0.0527056211654625,"32":-0.31125923816085027,"33":-0.09607987694229159,"34":-0.15245879568405063,"35":-0.01395338508250348,"36":-0.16181743441067278,"37":-0.12299746759900061,"38":-0.20425598934460742,"39":0.21303639653334533,"40":-0.14527070039953677,"41":-0.1387345791183971,"42":0.44278876984689947,"43":-0.09692564239718252,"44":-0.17250901237466235,"45":1.1839440002596964,"46":0.1698597850099543,"47":-0.4479613828564434,"48":0.12966043471076108,"49":0.12264679958171158,"50":-0.19231486842051587,"51":-0.1720486927653489,"52":-0.25751316095728033,"53":-0.10853232623599877,"54":0.3778934275227111,"55":-0.04766765135753121,"56":-0.24181794766027673,"57":-0.16690894710427728,"58":-0.23165841892424022,"59":-0.22534204544345235,"60":0.011088174210025194,"61":0.04260984597634446}},{"sx":1,"sy":1,"depth":62,"w":{"0":-0.012153115854810567,"1":-0.06852370302137023,"2":0.08747785927768678,"3":0.1164479630760222,"4":-0.06077231234695505,"5":0.16086375184510712,"6":-0.15401166183858547,"7":0.12679725520708432,"8":0.05587626737041845,"9":0.10047190072708487,"10":0.21122677181506433,"11":-0.1842852766719866,"12":-0.04091333445386656,"13":-0.016936941169577946,"14":0.06742647921204223,"15":0.06896371908931825,"16":-0.038259801847905756,"17":0.12929547918387588,"18":-0.15254542813704272,"19":0.02767220664000967,"20":-0.1143718349821463,"21":0.023401814798365842,"22":-0.07340228635662756,"23":-0.05651173925203725,"24":0.15101654100401982,"25":-0.019847642452765345,"26":0.060046561832906284,"27":-0.20194216255622993,"28":-0.1628241118101527,"29":-0.16679738724472468,"30":0.2997548575594937,"31":0.15759924771047876,"32":0.327215742905336,"33":0.2810047342402753,"34":-0.21196513647819945,"35":-0.1174143514637829,"36":-0.043328667103597375,"37":-0.04346684744441668,"38":-0.044256160264565025,"39":0.328208572789759,"40":-0.04115954693696419,"41":0.1624170537224832,"42":-0.04803542600833151,"43":0.23756038173256214,"44":0.03439471975529681,"45":-0.006903132708085108,"46":-0.03714517079344362,"47":0.5336420593187886,"48":-0.10562036007964624,"49":-0.003019738909086885,"50":-0.15757836670092729,"51":-0.1673876206990097,"52":-0.08894518455316597,"53":-0.051018613134116333,"54":0.06586383530727224,"55":0.01471632037248033,"56":-0.2058240186429152,"57":0.10012776551818876,"58":-0.09489799919103517,"59":-0.15411431636896147,"60":-0.1955908966208123,"61":-0.12387290152543258}},{"sx":1,"sy":1,"depth":62,"w":{"0":-0.253673169427588,"1":0.030156109914557486,"2":-0.11169828442909915,"3":-0.2327327276612841,"4":-0.026114781646079364,"5":-0.030173514870609135,"6":0.2857067371795571,"7":0.19792350111508303,"8":-0.06647819082306515,"9":-0.005332740648659215,"10":-0.013984376851339884,"11":0.2564548390284894,"12":-0.16284503874795953,"13":-0.44092267352890985,"14":-0.14412416840726547,"15":-0.14438349118126437,"16":0.324870755340279,"17":0.41021296877773455,"18":0.1566454153956541,"19":0.24248574326072084,"20":0.023370688826915464,"21":-0.27608787512323757,"22":0.06680932378508088,"23":-0.24778413832619495,"24":-0.14639493388706418,"25":-0.007965033536667407,"26":-0.12345035458415424,"27":-0.05115531263102549,"28":-0.16239554095671724,"29":-0.1516841967546876,"30":0.1257158850438519,"31":0.3548653180139085,"32":-0.28732832902112865,"33":-0.24732550493675573,"34":-0.3290470758237502,"35":-0.15468589555644294,"36":-0.34707974098423017,"37":0.2363267206692496,"38":0.20480025937457008,"39":0.2726858014251413,"40":-0.1402270973828561,"41":-0.19879908422293394,"42":0.18455352191747118,"43":0.04849789483236649,"44":0.4813636511154847,"45":-0.14525919273594906,"46":0.5090316076616836,"47":-0.4940601613670531,"48":0.2749140196886572,"49":0.5288341151469833,"50":0.018658816037882064,"51":-0.26923825088164616,"52":0.20587247040159348,"53":-0.40159455310957043,"54":0.41550373718559547,"55":0.09256579557987411,"56":-0.07172270725745622,"57":-0.3400132665520928,"58":-0.2460884280483449,"59":-0.32357679074956697,"60":0.6486751311037046,"61":-0.12089044815599928}},{"sx":1,"sy":1,"depth":62,"w":{"0":-0.3886578957412868,"1":0.006398164716772464,"2":-0.11707106627254257,"3":-0.5519812904194471,"4":-0.22487620849221,"5":-0.23321575964213626,"6":0.09915564862274369,"7":0.4506153757082132,"8":0.17691587876873452,"9":0.6731368943904535,"10":-0.7314370665117552,"11":-0.06057598202188118,"12":-0.2422204502091705,"13":-0.5990817141876883,"14":-0.07536145083858957,"15":-0.11185746585654842,"16":0.21079952719958467,"17":-0.0003365971444673764,"18":0.17413731176712355,"19":0.3293312087785603,"20":0.38215970734462584,"21":0.6835649051138587,"22":-0.24835687081068195,"23":0.6272976562615669,"24":-0.19423868820173157,"25":-0.05485746512856722,"26":-0.6149696930346413,"27":-0.046304162587626284,"28":-0.011569622226341903,"29":0.058964883415882643,"30":-0.06679915921416867,"31":-0.2590835923522165,"32":-0.2762971499963593,"33":-0.2468655062285334,"34":-0.22808372760748785,"35":-0.12691865765807117,"36":-0.704276553938937,"37":-0.012765954148126734,"38":-0.22446642422823768,"39":-0.17586761259203135,"40":0.7685635410726334,"41":-0.2008009259114547,"42":-0.050647135423918965,"43":-0.05392486133130165,"44":0.5801262505347922,"45":-0.12237653031526517,"46":0.7081375641518766,"47":0.16995129174326903,"48":0.013907278603299954,"49":-0.19890489308171252,"50":-0.3068988914419074,"51":-0.07213118019130897,"52":-0.02163798793354618,"53":-0.14547319132263578,"54":0.5378756224586175,"55":-0.06385500152741658,"56":-0.11365095142030392,"57":-0.1844283687241728,"58":-0.22608944336611944,"59":-0.24051600845685311,"60":-0.0094422362129467,"61":-0.0803006160552438}},{"sx":1,"sy":1,"depth":62,"w":{"0":0.5712256810542407,"1":-0.14625976567560253,"2":0.07141469181728233,"3":0.3555378974270332,"4":0.2873451316537523,"5":0.09527935958862238,"6":-0.26163675062068203,"7":-0.08217386375156885,"8":0.5240236260365853,"9":0.310723553945255,"10":0.3889237830356824,"11":-0.054160986182564166,"12":0.07886976094926264,"13":0.11909407639148778,"14":0.27027587763990785,"15":0.17163356275045272,"16":-0.3894019216993313,"17":0.10194827681266637,"18":0.4666590419598639,"19":0.5190757754908198,"20":-0.2617965217063316,"21":-0.12774446377702628,"22":0.685321091345643,"23":-0.22260078126828425,"24":0.07983828275317516,"25":0.27749119995885285,"26":-0.1464488565773464,"27":0.8279384673161027,"28":-0.059041800103034114,"29":-0.14769526378989475,"30":-0.01719098275145211,"31":-0.004364821946368025,"32":-0.14655198057896077,"33":0.3048853246768026,"34":0.5958682605125284,"35":-0.006757504764031455,"36":0.4101782410637995,"37":0.3930243000618499,"38":0.3829791530609567,"39":0.5054903669722521,"40":0.29116270994783866,"41":-0.11118749093052789,"42":-0.11960782162571161,"43":-0.14218634798668242,"44":-0.31293848249282924,"45":0.16873619862491496,"46":-0.1578937127378034,"47":-0.08193295382313755,"48":0.29560422340141307,"49":-0.11696101996837319,"50":0.004488771895460653,"51":0.2627296418845919,"52":0.06508853950039337,"53":-0.2676916587438116,"54":-0.23875593980198756,"55":0.10982382320692576,"56":0.28862813592259756,"57":-0.2865492280356247,"58":0.2828710889729897,"59":-0.010941221925617532,"60":-0.19356080844259563,"61":0.21696312358294703}},{"sx":1,"sy":1,"depth":62,"w":{"0":-0.13917343015270467,"1":0.24244407131069567,"2":0.2267465148869295,"3":0.05555787638813156,"4":0.3803531805105893,"5":0.1751183909196865,"6":0.2917665055200677,"7":0.3356622058559314,"8":0.3902611053731754,"9":0.6101845501478848,"10":0.1815162861383206,"11":0.006832936022388911,"12":0.2137795527799358,"13":-0.20101149808902088,"14":0.4078179736588078,"15":-0.02435878098911161,"16":0.3719775240061778,"17":0.16792323490077077,"18":0.40179058146668944,"19":0.37575584059816075,"20":-0.30205291836431347,"21":0.21748958664539011,"22":-0.338387251734045,"23":1.0452307619788919,"24":0.18417705876142745,"25":-0.3444264641514785,"26":0.03615761159074569,"27":0.3758167494057574,"28":0.1637782411142136,"29":0.0784587460576023,"30":-0.08242372577382165,"31":-0.06338277968523538,"32":-0.04433841741709112,"33":-0.01766887719216472,"34":-0.3114460945845915,"35":0.23289070174918075,"36":-0.5504113105823388,"37":0.4859850810552999,"38":0.1215560772989844,"39":-0.21898046771859597,"40":-0.27871010080213093,"41":-0.3230827013470994,"42":0.6203004454744265,"43":0.4372368379483761,"44":0.062030775318430445,"45":-0.32037311812903757,"46":0.2910138926608817,"47":-0.32075172074783154,"48":-0.04257081577526526,"49":0.8056673349228366,"50":-0.26498227915326644,"51":-0.15814739479595322,"52":-0.28016587366391116,"53":-0.14010828918324925,"54":0.12499293970836507,"55":-0.1606173432356019,"56":0.2911768629321818,"57":0.27632644746818147,"58":-0.11888323974514446,"59":-0.29734285982690345,"60":0.08318091871033712,"61":0.251112540330831}},{"sx":1,"sy":1,"depth":62,"w":{"0":-0.5824964960944018,"1":0.04503076171838176,"2":-0.18270989210701627,"3":-0.3195218458768759,"4":0.08347686213097189,"5":-0.12484119053121541,"6":0.49168040558198206,"7":0.3185858308578963,"8":-0.2527545123023126,"9":0.2661557781018066,"10":-0.5166774345551648,"11":0.04110525751942398,"12":-0.22389917097723014,"13":-0.30546805398844834,"14":0.30729667278714257,"15":-0.39847414312769797,"16":0.34280958893066776,"17":0.16497679060283296,"18":0.05708618108688357,"19":0.23469908951458612,"20":-0.08516148576402115,"21":-0.07534064975716959,"22":-0.2471870982313288,"23":0.8325063156832576,"24":-0.0330999413514378,"25":-0.16959593327765254,"26":-0.09825986414626814,"27":0.4511970000190202,"28":-0.20440111944092162,"29":-0.22870413886218666,"30":-0.19645335590148416,"31":-0.2350408667766876,"32":-0.057387301812234996,"33":-0.1874568633773945,"34":-0.43872924362656485,"35":-0.09572362647439366,"36":-0.6266985794570226,"37":0.5068354181580788,"38":-0.3686174743168491,"39":-0.10341938433209902,"40":-0.09699439020324324,"41":-0.13959444806010465,"42":-0.0825771737740243,"43":-0.05668890520607536,"44":-0.009714545242919247,"45":1.041518405327938,"46":0.3035477822285184,"47":-0.43586991158677596,"48":-0.08651199503417924,"49":0.2975805726030336,"50":-0.15999370492911677,"51":-0.36141779152050707,"52":-0.13004715812069817,"53":-0.26725502465753204,"54":0.14478454466848473,"55":-0.17797957728765348,"56":0.30271903373621334,"57":-0.3985239560958832,"58":-0.37536850107127884,"59":-0.27122185398045645,"60":0.43351770671734663,"61":-0.098045682408427}},{"sx":1,"sy":1,"depth":62,"w":{"0":0.43510638645281136,"1":-0.016841058542057162,"2":-0.013508201794579526,"3":0.10201748636071163,"4":0.11784475461377807,"5":0.20198477304996632,"6":-0.23744601543564375,"7":0.3597430030317552,"8":0.01071005612841787,"9":-0.6544843957288297,"10":0.39025003007426173,"11":-0.03205245540383069,"12":-0.05713755179185746,"13":0.35892457192915517,"14":0.20482009443120192,"15":-0.09555960522696108,"16":-0.17764460751363456,"17":0.6122412112645739,"18":-0.09620058248535952,"19":-0.19950443522192637,"20":0.3811021289443784,"21":-0.4876720861082414,"22":-0.15409574411827903,"23":-0.34790071449168086,"24":0.4083949179440152,"25":0.1116748069094917,"26":0.010634628514124873,"27":-0.724788210618187,"28":0.3522792898238588,"29":0.10519406189577206,"30":0.7014999213209194,"31":0.12897114422812045,"32":-0.3285723975581062,"33":-0.4335809188254344,"34":-0.00004253580080496433,"35":0.41942187093601097,"36":-0.3736598280706911,"37":-0.4747534314575496,"38":-0.10448069353025476,"39":0.8848263801840438,"40":0.32108184770741993,"41":0.026900126016372754,"42":0.6962708604285616,"43":-0.29762247629658994,"44":-0.30720745033516844,"45":0.39600396353869594,"46":0.7779099128820506,"47":-0.4286034582086076,"48":0.7917209160386293,"49":-0.34385925481098994,"50":0.020320286984998756,"51":0.5112569584468621,"52":0.7611738908183838,"53":0.15951173841370994,"54":-0.04240817203360314,"55":-0.3397272499295739,"56":-0.41169212275345807,"57":-0.00024652890041819333,"58":0.07723368050460254,"59":0.4699800243041843,"60":1.2047721434844214,"61":0.6792264129577666}},{"sx":1,"sy":1,"depth":62,"w":{"0":0.5596299992541538,"1":-0.046531732163836236,"2":0.08504212572028694,"3":0.3232485820995121,"4":0.537340385811152,"5":-0.06827352559607738,"6":-0.17756875511996487,"7":0.04434903055474586,"8":0.13226712027079318,"9":0.16293076926572453,"10":0.696395222659597,"11":-0.12119294882949033,"12":-0.23043986976106096,"13":0.40411152418080903,"14":0.6746601727591427,"15":-0.08428628073127704,"16":-0.11581485706964233,"17":0.05961516307280024,"18":0.2558641569851417,"19":0.09325313488597678,"20":0.17284451209926194,"21":-0.07237879297920091,"22":0.5385377181667217,"23":-0.05203850118693408,"24":-0.1885936364347292,"25":0.40824856126076386,"26":0.20720824865467094,"27":0.44084167935926305,"28":0.24218219142512823,"29":-0.28373909339239284,"30":-0.008776866149964292,"31":0.027304919060200376,"32":0.12960378334306633,"33":-0.34141502695756637,"34":0.8626620468920988,"35":0.1290606814666504,"36":0.298788638512439,"37":0.30097682361889855,"38":-0.030338277078621658,"39":-0.18165187901997354,"40":0.15389303899930212,"41":-0.28473307237589024,"42":-0.3517706465609952,"43":0.16662375824741368,"44":0.10311974901806079,"45":0.16966945468370243,"46":-0.16699187781890146,"47":0.4616010833850781,"48":0.5168549537931952,"49":-0.11975796530805255,"50":-0.37333348625600093,"51":0.01978712863360045,"52":-0.13442312900499936,"53":0.43903017836508557,"54":-0.38272146063095186,"55":-0.46456273041837215,"56":0.24795133106888337,"57":0.10305684516884393,"58":0.31887745723715427,"59":-0.00429386992218785,"60":-0.2518544220620399,"61":0.2204136845719894}},{"sx":1,"sy":1,"depth":62,"w":{"0":-0.012225057315512954,"1":0.032868529486089905,"2":0.10703815667712495,"3":0.06463081945446056,"4":-0.02385148702640363,"5":0.09794913145242724,"6":-0.22912082460718905,"7":0.08611012398267116,"8":-0.06291372896549366,"9":0.01171394186516038,"10":-0.14499976647414958,"11":-0.04559640828604942,"12":0.06427191841636264,"13":-0.21682121432153914,"14":0.24210088474923294,"15":0.02477760303847683,"16":-0.14564946874781304,"17":0.05243913673698858,"18":-0.005240493538171806,"19":-0.15946578247736998,"20":-0.11360331328045542,"21":-0.05508672275000282,"22":0.7635795361342873,"23":-0.13698474305691305,"24":0.24530090144489075,"25":-0.08587117522435762,"26":-0.09186481566108956,"27":-0.17769982188632455,"28":-0.07601019856413492,"29":0.11923749795730483,"30":-0.1627249186210865,"31":0.24345104007197044,"32":-0.05620303416373562,"33":-0.09566566118843951,"34":0.42197112672447906,"35":0.12153143115997038,"36":-0.069858579143626,"37":-0.20612468163676198,"38":0.3717847437995693,"39":0.11251172200876303,"40":-0.004074707363246426,"41":-0.0543513706106509,"42":-0.17913723559827865,"43":-0.2328105202370415,"44":-0.25027541009161747,"45":-0.02504647018085817,"46":-0.05218274579929825,"47":-0.06023243700399528,"48":-0.05099573919824671,"49":0.09717738092131903,"50":-0.17759081596100582,"51":-0.009215018346459726,"52":-0.09040431236066225,"53":-0.06850296149671542,"54":-0.16598052440565264,"55":-0.12356873998344159,"56":0.1609129956220144,"57":-0.046050073094393025,"58":0.21196682998777955,"59":-0.12642352484464003,"60":-0.02924705030158813,"61":-0.04350247565430311}},{"sx":1,"sy":1,"depth":62,"w":{"0":0.05696888941476077,"1":-0.19952168937955342,"2":0.04370788578261611,"3":-0.19422464624446892,"4":0.1831406998586763,"5":-0.21154111111059803,"6":0.1186221633233222,"7":0.1444521702943507,"8":0.221699485925832,"9":0.23478977840580856,"10":0.18577412371918411,"11":0.2122754676685094,"12":-0.16665549142561706,"13":-0.01088077968003854,"14":0.204080388833898,"15":-0.12893025718313322,"16":0.19441311185346813,"17":0.12521589744837283,"18":0.31108859924029447,"19":0.2531142590380882,"20":0.2207967392820518,"21":-0.10684066780636334,"22":-0.1773666115759743,"23":0.6247967391770479,"24":0.10680105833559991,"25":-0.166333088448812,"26":-0.09119978371012262,"27":0.14409303614394858,"28":-0.3780978564248069,"29":0.057177828747640665,"30":-0.07275131283429595,"31":-0.11822670599831063,"32":-0.23909039171132943,"33":-0.19908405815009242,"34":-0.2291073825765429,"35":0.4582802996802779,"36":-0.15044357231216005,"37":0.35627281416756335,"38":0.33629596727384903,"39":-0.06747913886845644,"40":-0.14181627491939378,"41":0.14305842336460028,"42":-0.10328707422007914,"43":0.24927685515974732,"44":0.08351048635542793,"45":-0.1370266502334754,"46":-0.10984329315340938,"47":0.14597724950603236,"48":-0.022849605337934082,"49":0.37940052428117277,"50":-0.12709293086364304,"51":-0.13628165471557127,"52":0.23655992431571657,"53":-0.21225882713708874,"54":0.20071281611076325,"55":0.13835929740479494,"56":-0.033468134270925015,"57":-0.16615493379603788,"58":-0.16984991130315688,"59":-0.12597385965469307,"60":0.0882662163734005,"61":-0.040351951495198476}},{"sx":1,"sy":1,"depth":62,"w":{"0":-0.23207575722855764,"1":0.13066894740061846,"2":-0.11482842415408957,"3":-0.1478159133652351,"4":0.041223232006828175,"5":-0.0875262541475173,"6":0.3377853646244505,"7":0.3749811360164675,"8":0.19565988207693696,"9":0.1607898088152962,"10":-0.34634290401814094,"11":0.22331288703425312,"12":-0.15992719300507127,"13":-0.030464729624900336,"14":-0.058162938155613464,"15":-0.17619010660585302,"16":0.2251262926794453,"17":0.23299745456817267,"18":0.34090565011970975,"19":0.42114174084113165,"20":-0.18793086991948807,"21":-0.0019400625353025855,"22":-0.3026352849171006,"23":-0.3151334410303369,"24":-0.10644269017590074,"25":-0.1692365848526286,"26":-0.0532810371239388,"27":-0.09098717687752853,"28":-0.10545566971601295,"29":-0.12383474215992536,"30":-0.1444910291706895,"31":0.3252802923360979,"32":-0.3254092550992767,"33":-0.20490972898332593,"34":-0.28352854354330465,"35":0.20361444209861065,"36":-0.390340132377855,"37":-0.05021298152492803,"38":-0.22946438800809452,"39":0.13828123540435122,"40":-0.17844377289616928,"41":-0.22809485121173065,"42":-0.09870083390639468,"43":-0.05240014453148401,"44":0.5884694269877462,"45":0.28234835558378474,"46":0.7221105886178179,"47":-0.40934438151801156,"48":-0.061326836557417344,"49":0.7954204456581966,"50":-0.16976121715437933,"51":-0.18958055519748773,"52":0.46170128809613736,"53":0.33194703814759535,"54":0.3236803096818573,"55":0.3432729504245815,"56":0.0446982461682226,"57":-0.2528299696761355,"58":-0.2875675517664017,"59":-0.33822040552177013,"60":0.6497551102528769,"61":0.04320611673470844}},{"sx":1,"sy":1,"depth":62,"w":{"0":0.35197028381601353,"1":0.17843465591499116,"2":-0.07149558535217415,"3":0.08434321371631896,"4":-0.04311855987353436,"5":-0.16942285289572778,"6":-0.16140431924866608,"7":0.29262162697407634,"8":0.3527908923931995,"9":0.15394225517125762,"10":0.42725329762641523,"11":0.15345036333318837,"12":0.029025771797575487,"13":-0.022402658284584157,"14":0.163261839168955,"15":-0.06991672142502758,"16":-0.09145762346424077,"17":0.24529798731611296,"18":0.27154859343617826,"19":0.09624458926097186,"20":-0.032850215403777576,"21":0.466207484801663,"22":0.14545994910308566,"23":0.02189224474831612,"24":0.05294105054241597,"25":0.29760452965510953,"26":-0.14564918272497732,"27":0.344121020568228,"28":0.13910983303881694,"29":-0.1177952723636836,"30":0.0975283985873296,"31":-0.15006721031504502,"32":0.12879898201832582,"33":-0.2846418685585969,"34":0.2492171806882643,"35":-0.11182459420126681,"36":0.02587192428871491,"37":0.425155813399022,"38":0.11511149787869619,"39":0.20572694162708974,"40":0.0039337129603651865,"41":-0.02502197646473372,"42":0.45196400365816336,"43":0.2847195472110638,"44":-0.36583291416225217,"45":-0.21783772264526718,"46":-0.10734642917703736,"47":-0.2715345704702371,"48":-0.13137078835978055,"49":-0.043381091406040864,"50":-0.48015713558157447,"51":0.13557634207395738,"52":0.41700721830895404,"53":-0.2690160184492356,"54":-0.11398975361619346,"55":0.1984844554188638,"56":0.14250024770121367,"57":0.35599511971530495,"58":0.1855872825206878,"59":0.8217658436182089,"60":-0.13805046543802726,"61":-0.19309491588170663}},{"sx":1,"sy":1,"depth":62,"w":{"0":-0.22270454752125154,"1":0.19169175236983008,"2":0.07764183711007698,"3":0.017318281820839804,"4":0.14341588413514136,"5":0.46842573719347214,"6":0.4552957308989066,"7":0.045532664457246574,"8":0.3798488711674131,"9":0.5400677291900781,"10":-0.19430554866492972,"11":0.08850317780180315,"12":0.3811866498780067,"13":-0.1715998900528002,"14":0.2577965754135367,"15":0.5130836210743402,"16":0.7223947344480802,"17":-0.021875447800191516,"18":0.46489641994230974,"19":0.40383726797187136,"20":-0.4253187333198585,"21":0.9069052124205047,"22":0.6095998761238939,"23":1.2397893019870578,"24":0.2901034543295197,"25":-0.2543803958395042,"26":-0.3276164265488696,"27":-0.4480681941401576,"28":-0.11842068141736449,"29":-0.06254126967579789,"30":-0.3513455726180302,"31":-0.4596811025639998,"32":0.09554631062791692,"33":0.2680231037395411,"34":-0.32110007159738,"35":-0.24106154733277063,"36":-0.40314053454440407,"37":0.1480267872996306,"38":0.51495021739701,"39":-0.22316018125329135,"40":-0.2490051669244953,"41":-0.23496637229373196,"42":-0.045457841627825984,"43":0.4012390093704447,"44":-0.2964771007015675,"45":0.056252873825408924,"46":-0.0018521745049916805,"47":0.4475363541574963,"48":-0.3104827473843203,"49":0.7814234509770909,"50":-0.3109337200247443,"51":-0.23357717735874226,"52":-0.39762763496437886,"53":-0.23029575921342443,"54":0.11321148493158534,"55":-0.09028629163596395,"56":0.20780722749158317,"57":0.12371186232801065,"58":0.21031255992506936,"59":-0.42280165393578206,"60":-0.33614386033646954,"61":-0.03389752360617011}},{"sx":1,"sy":1,"depth":62,"w":{"0":0.07051070565389934,"1":0.171485513069772,"2":-0.0362776657000944,"3":-0.13535444592896817,"4":0.21013129550009635,"5":-0.06613854501095023,"6":0.40251124108018405,"7":0.4968639749805749,"8":0.22887566991585231,"9":0.4357406122549632,"10":0.009564720465999953,"11":0.3753763469445322,"12":-0.04990235127149636,"13":-0.04938834699935881,"14":0.15939494141551142,"15":-0.16656398280335183,"16":0.5023329557754257,"17":0.5057800703462073,"18":0.28998626178515013,"19":0.4505252063074162,"20":-0.3021119313206674,"21":0.6251919235817669,"22":-0.26018050468216286,"23":-0.29900965743228325,"24":0.0816238784665563,"25":0.014295573240965349,"26":-0.26673390184598617,"27":-0.5944078339148402,"28":-0.2331586480258307,"29":-0.048919510127311154,"30":0.1340828517871315,"31":0.06678754512262003,"32":-0.3546172176575592,"33":-0.30755576080520663,"34":-0.26515562880963633,"35":0.6720902271843634,"36":-0.39826619905060384,"37":-0.40970885936490004,"38":-0.27093550432179775,"39":0.14799774782350614,"40":0.1804690046479521,"41":-0.006728176665073637,"42":0.7068802233812712,"43":0.19576569508487454,"44":1.1099391675575885,"45":0.40802749802877325,"46":0.8187086439379768,"47":-0.5515913257854638,"48":-0.0291899563292528,"49":0.39670460582481926,"50":-0.07535257578925489,"51":-0.3096892569340247,"52":0.2372889203021533,"53":0.584095568874172,"54":0.9272158949602168,"55":0.025177797600643065,"56":-0.01730845100562668,"57":-0.1716001206669174,"58":-0.3507693218808801,"59":-0.2747674973961633,"60":0.5274198451552645,"61":0.15862271855465335}},{"sx":1,"sy":1,"depth":62,"w":{"0":0.27120936936171697,"1":0.02055006154576505,"2":0.17433780762439266,"3":-0.12850694887459285,"4":0.006083859503535548,"5":0.11770836361106171,"6":0.21041221527870568,"7":0.25795965403629545,"8":0.47520974234762964,"9":0.32668008030003937,"10":-0.02803728130577053,"11":-0.014289283912124362,"12":0.15212249876543565,"13":-0.17062822527649285,"14":-0.04439208907128301,"15":0.37998185952111263,"16":0.21639966532402377,"17":0.16701959284488138,"18":0.3607473282126476,"19":0.45449046832210865,"20":-0.05692717305947241,"21":0.7185619832807497,"22":0.8345219613337775,"23":-0.32314351910339023,"24":0.4994429555229889,"25":-0.2568239238355388,"26":-0.20365032292598714,"27":0.5413038473768309,"28":-0.0874490921265992,"29":-0.20327105044282803,"30":-0.23805409930524532,"31":-0.32411700604465327,"32":0.06061721259520028,"33":0.2077610969708644,"34":-0.1977749867184671,"35":-0.2789220262189914,"36":0.19655538334038702,"37":-0.09575499525687664,"38":-0.28331729164810243,"39":-0.2519716715318027,"40":0.1246193535551503,"41":-0.25226124417503487,"42":0.5801411179435338,"43":-0.2622270691726899,"44":0.48434207594331197,"45":-0.3917557069248659,"46":-0.2764305788046664,"47":0.36978382669707677,"48":-0.2610867337582978,"49":-0.19684186363129508,"50":-0.05699278521864745,"51":-0.2620522012730239,"52":-0.2860943607918536,"53":-0.37601670886704686,"54":0.42738152335833396,"55":-0.3299876846700889,"56":-0.2372172234596113,"57":-0.06371959520854614,"58":0.6358190141241417,"59":0.2963840078053684,"60":-0.219090066999164,"61":-0.16469659071757234}},{"sx":1,"sy":1,"depth":62,"w":{"0":1.1107696656288546,"1":-0.024126646491395967,"2":-0.21479311106691176,"3":0.7400564812286032,"4":0.8977787620345707,"5":-0.07708687733687823,"6":-0.15241072476066808,"7":0.3225029348782987,"8":0.140204184562826,"9":-0.3562327529712868,"10":1.1458254432758321,"11":-0.15196611887491393,"12":-0.2839996228403238,"13":0.7821034150020773,"14":0.872766497082506,"15":0.04100256275258165,"16":-0.3956460076687346,"17":0.30292674984402007,"18":0.132038350264588,"19":-0.5731272223826711,"20":0.16259923091363163,"21":-0.3930901148482903,"22":-0.0442614082714414,"23":-0.45953924854857603,"24":0.9220889212445481,"25":0.10565050216782365,"26":0.07469463790359929,"27":-0.5971261598500938,"28":-0.5503093922679932,"29":0.289723807241384,"30":0.22064699209300476,"31":0.3640770873794368,"32":-0.12657120815202555,"33":0.20515314047393524,"34":0.0777949283990171,"35":0.4149648458320539,"36":1.3234513533214018,"37":0.43233175466108087,"38":0.48891154387543395,"39":0.4527046612701795,"40":0.10652370226421026,"41":0.5088416510198602,"42":0.3241235829094299,"43":0.019337625103807016,"44":0.33220122846454153,"45":0.0369377916882424,"46":0.2984830747582074,"47":-0.5199972353111784,"48":-0.5241741950226576,"49":-0.17496406762462577,"50":0.03303180332366537,"51":-0.20513192021407015,"52":0.05351586039637367,"53":0.22039846833004043,"54":-0.5379583536983839,"55":0.08069051487336637,"56":-0.14739133382695457,"57":0.07483141603439722,"58":0.3688638086030628,"59":0.12823589514162018,"60":0.8905546575412524,"61":0.4225726344948156}},{"sx":1,"sy":1,"depth":62,"w":{"0":0.9161524438683737,"1":0.029906186507374095,"2":0.005946099536100964,"3":0.613500858265161,"4":0.8221532168052881,"5":0.07997280254184959,"6":-0.06072562151117176,"7":0.35769031585346606,"8":0.595826406762051,"9":0.6731129371480863,"10":0.5918592582491062,"11":-0.0860790608131835,"12":0.4247396464829331,"13":0.38328359743411833,"14":0.6109045586709043,"15":0.5918283428268752,"16":-0.1874462973103743,"17":0.18135196239501578,"18":0.7618102759092011,"19":0.4315313091624284,"20":0.43653823301376105,"21":1.0383012266526648,"22":-0.6692405057197387,"23":0.008757326814230047,"24":0.23593347594342873,"25":0.10520598171494105,"26":0.17754997489436522,"27":-0.3767047640590236,"28":-0.01706452313116658,"29":-0.24372840395729362,"30":-0.17963688506588,"31":-0.35281321174168057,"32":0.7403802851271039,"33":0.27797577255500555,"34":0.26211951620087515,"35":0.3349729238854006,"36":-0.2063330769797454,"37":-0.07169979292752178,"38":-0.2736603474294131,"39":0.036548739968158495,"40":0.3748225969189289,"41":0.3681651389396851,"42":0.08312612569094448,"43":0.9944316003442857,"44":0.15306574726696487,"45":-0.645985615892238,"46":0.01795081708993558,"47":0.7872938674003936,"48":-0.6767040422430495,"49":-0.30911771274317135,"50":-0.8200241841265202,"51":-0.30569409572468065,"52":0.16633725937010438,"53":0.9816582573309037,"54":0.60719812208993,"55":-0.6701570004559814,"56":0.30082044581525963,"57":0.7743693415730162,"58":0.2971334246025991,"59":0.49943859745575103,"60":-0.19347415242742833,"61":-0.01992646745934029}},{"sx":1,"sy":1,"depth":62,"w":{"0":0.12195781167662467,"1":0.008013383407720948,"2":-0.0866612216877576,"3":-0.11634214297869874,"4":0.43330838660820403,"5":-0.07229693990542932,"6":0.09474090814853081,"7":0.25013622775829125,"8":-0.0674821965776583,"9":0.10452211236191833,"10":-0.028255659094553645,"11":-0.18020022941881153,"12":0.17375330645908812,"13":-0.14507760708487483,"14":0.4822037466414618,"15":0.05268751493317539,"16":0.04783036546723944,"17":0.34012391697672584,"18":0.1610075246358783,"19":-0.15622058441352543,"20":-0.18772092124174347,"21":-0.1400822384510708,"22":-0.06337142744996793,"23":-0.11960718678204911,"24":0.30596169325321276,"25":-0.0306695880964839,"26":0.6816610635407162,"27":-0.1955365173649422,"28":-0.2242442244382292,"29":-0.1026816586200079,"30":-0.056305524625931254,"31":0.4730787209575064,"32":0.009028251161801457,"33":-0.22429451435573913,"34":-0.13977799701814758,"35":-0.1858795639297396,"36":-0.4223827846994131,"37":-0.1981327089739218,"38":-0.20349689749245012,"39":-0.13816897630549926,"40":-0.17669219043830484,"41":-0.20843309561207915,"42":-0.18178589159811476,"43":0.26416962156522755,"44":0.33536665873946575,"45":-0.19267382029133362,"46":-0.14274117158229946,"47":-0.17220669855209042,"48":0.2782998940239987,"49":0.46535559243686164,"50":-0.2945768059952293,"51":0.5767941763765811,"52":0.49544172736048814,"53":-0.16268807635361504,"54":0.3128868477055274,"55":0.08950385587176439,"56":-0.13985195470732012,"57":0.3235055799622474,"58":-0.18864131557456673,"59":0.5835459211814402,"60":0.1272658061639879,"61":0.1486624209716886}},{"sx":1,"sy":1,"depth":62,"w":{"0":-0.3093484066921559,"1":0.1992776688647212,"2":-0.17080103148909498,"3":-0.23414289095988042,"4":-0.061548110865051846,"5":0.15189659319373236,"6":0.12778755331436903,"7":-0.06520830237692046,"8":0.48115322934247046,"9":0.5265857641165033,"10":-0.15825504861583098,"11":0.10436922068655823,"12":-0.007352618874482325,"13":-0.12964281598450725,"14":0.10080509101588661,"15":0.034720938048107525,"16":-0.03088682887151112,"17":0.02375136065140848,"18":0.23218635431431658,"19":0.14202011768602224,"20":-0.18494255961793735,"21":0.18890340291288243,"22":-0.23386267424522292,"23":0.6372675940109477,"24":-0.13390854694429824,"25":-0.17458356521634452,"26":-0.2166317082152276,"27":0.8229408867173235,"28":-0.08251508562489845,"29":0.2642997401772554,"30":-0.18053787497968796,"31":-0.19745170621489583,"32":0.24291711881679098,"33":0.3381457817683893,"34":-0.12025772940094712,"35":-0.2005630441589819,"36":-0.36084566603754753,"37":0.5398671561052871,"38":0.9586648244475847,"39":-0.09418033855908624,"40":-0.24666661781743304,"41":0.01252747227444985,"42":-0.21381340963072223,"43":-0.3115547807914348,"44":-0.029570099262893206,"45":-0.07179192111459605,"46":0.20730457805859914,"47":-0.20196728980974607,"48":-0.1933226661584552,"49":-0.09437179066392318,"50":-0.14985250958016874,"51":-0.19321133159206538,"52":-0.2063053862240364,"53":-0.1993881467724098,"54":-0.1646999177415774,"55":-0.1560861978187472,"56":-0.25170679504840454,"57":-0.0621145234212545,"58":-0.12820873418441303,"59":-0.19349500892087607,"60":-0.033522941857985475,"61":-0.08394055339219558}},{"sx":1,"sy":1,"depth":62,"w":{"0":-0.23513754267156228,"1":0.30858396721799264,"2":0.0398508773843837,"3":-0.4026616350979071,"4":-0.0994199296126546,"5":-0.09872224246986189,"6":0.07693595445544617,"7":0.12520504896743365,"8":0.17851611030715941,"9":0.04255422495737691,"10":0.04258122596235966,"11":-0.008641174173694718,"12":0.2010335438384533,"13":-0.20757478165206825,"14":-0.2813719135356302,"15":-0.08193977061071465,"16":0.30043111954804347,"17":0.199647439090531,"18":-0.010396344797844976,"19":-0.09513660428095527,"20":0.38314516066987164,"21":0.06711064264602262,"22":-0.13690096812434815,"23":0.26809342246596884,"24":-0.07650729630845692,"25":-0.09157950617008634,"26":-0.17169967524615085,"27":-0.14931739926686152,"28":-0.2042288310818829,"29":0.4063925626001188,"30":0.07881488784633872,"31":-0.20760594183745532,"32":-0.12399450673076652,"33":0.2991482590120655,"34":0.013620079232714046,"35":-0.09267184873755349,"36":-0.22680410675502882,"37":-0.027225849913732992,"38":-0.21981284562505185,"39":-0.12346369548162182,"40":-0.1459328443076646,"41":0.3069477586038351,"42":-0.07755420137877056,"43":-0.08043033626504743,"44":0.011849454500141526,"45":-0.13027504019317557,"46":-0.14287346068002746,"47":0.975304458067257,"48":-0.17139538298191812,"49":-0.13300533340076015,"50":-0.03805888247386617,"51":-0.1291457392783479,"52":-0.2557598868374083,"53":-0.10632010648489179,"54":-0.1397403318395674,"55":-0.13772514652686907,"56":0.25077873202165996,"57":-0.23211884572430289,"58":0.19328321352869585,"59":-0.13365913752584824,"60":0.05031808581767545,"61":0.0381140396355617}},{"sx":1,"sy":1,"depth":62,"w":{"0":-0.28272750366515637,"1":0.06268462951986828,"2":-0.10957012677495975,"3":-0.5218232306087711,"4":0.004792751179353098,"5":0.19783857335265767,"6":0.08936594076205637,"7":0.5084867037035353,"8":0.07866929442343198,"9":0.25198380838097956,"10":-0.40128774071494394,"11":-0.03413404416142772,"12":-0.29699096037446365,"13":-0.16335162515024074,"14":-0.04299303825877171,"15":0.2555482392114453,"16":0.5055166848652466,"17":0.2233285304688247,"18":-0.003264170330205389,"19":0.13321469472462505,"20":-0.11157919899101212,"21":-0.034244506364636065,"22":-0.16167803859034371,"23":-0.23906283127710792,"24":-0.08038382479277185,"25":0.13117978259111882,"26":-0.1884235581721732,"27":0.15068592439401443,"28":-0.13154767913161908,"29":-0.14813095860922576,"30":0.27653816623883665,"31":-0.16330964928739478,"32":-0.2706306465954372,"33":-0.21981917029344272,"34":-0.27310578229556115,"35":-0.130929915539696,"36":-0.3390150278390306,"37":-0.10887949813068007,"38":-0.17605810387029272,"39":0.43972653016863467,"40":0.004514298202461339,"41":-0.10545440562853806,"42":0.37588602291612294,"43":0.08919873968393444,"44":-0.012730152223704135,"45":0.3376960232965863,"46":-0.19175808420955598,"47":-0.5164339875370212,"48":0.23953188054055158,"49":0.09432721111350757,"50":-0.07349756139552252,"51":-0.2588659552830857,"52":-0.12309798323609364,"53":-0.33534976547568185,"54":0.43627067229190336,"55":-0.03037841769211017,"56":-0.12625770618681956,"57":-0.2611363150179131,"58":-0.23937715424271386,"59":-0.14316514928834004,"60":0.5031862575824579,"61":-0.1234645626029549}},{"sx":1,"sy":1,"depth":62,"w":{"0":-0.3510459510794334,"1":0.214391720375232,"2":-0.24284738325144162,"3":-0.04370666842888447,"4":0.036003953641500705,"5":0.12265408074942953,"6":0.2813667183708381,"7":0.447842029469788,"8":0.11552980622355476,"9":0.08803208163449198,"10":0.08094665996197146,"11":0.06945711753960264,"12":-0.2631209967790475,"13":-0.20180022274294918,"14":0.023218498538511784,"15":-0.17614984626135866,"16":0.2113385375633619,"17":0.386461388987134,"18":0.184129867996032,"19":0.2733217399474172,"20":-0.17398387229126597,"21":-0.15146906696394177,"22":-0.15714982114222695,"23":0.53312564976611,"24":0.017168241065847217,"25":-0.1996164248236655,"26":-0.1426603801760127,"27":-0.23907587345023906,"28":0.1484659816036727,"29":0.40132694432484717,"30":-0.19595726961631058,"31":0.0713315383309069,"32":0.4321327438934439,"33":-0.21083208465917871,"34":-0.12591675137109742,"35":0.33243545316706297,"36":-0.4066227521749455,"37":0.5051606552920804,"38":0.66431988749946,"39":-0.11571176385097916,"40":-0.16332581827914708,"41":-0.16465622336203656,"42":-0.07646990614418842,"43":-0.26848581604809085,"44":0.21388685783444447,"45":0.6156071205695972,"46":-0.1919296523882315,"47":0.3283369635118271,"48":0.4710057221875978,"49":-0.14966528748887903,"50":-0.1544995586090453,"51":-0.18614620378448166,"52":-0.1357202378469477,"53":-0.22449531247003673,"54":-0.08585523823575199,"55":-0.13766715330801294,"56":0.3868181430227335,"57":-0.07886715494631194,"58":0.3250580130604419,"59":-0.007648214756284634,"60":-0.0940730889947635,"61":-0.1787665486908774}},{"sx":1,"sy":1,"depth":62,"w":{"0":0.4340825418167958,"1":0.4253831998134315,"2":0.25185101810228233,"3":-0.10957807833246055,"4":-0.0063176452204129,"5":-0.18586194507425063,"6":-0.021954012785545197,"7":0.9125872597955639,"8":0.5646707658655153,"9":0.13872735425564725,"10":0.49288349489918926,"11":0.531781952211176,"12":0.12089667109467923,"13":0.09787932323190991,"14":0.06869464947320598,"15":-0.1588890872697383,"16":0.06832594165446174,"17":0.8980545540475701,"18":0.75960880260132,"19":0.1754705536513236,"20":0.7363507535820567,"21":-0.4527121489103389,"22":0.04010681692386718,"23":0.19960868815042965,"24":0.08579628976619132,"25":0.07954718116960377,"26":-0.02634737390427964,"27":0.10871008851493988,"28":0.6552440096830747,"29":-0.013071091705032558,"30":0.6273967405437265,"31":-0.2355656093476246,"32":0.14163668382612987,"33":0.14186716110127845,"34":-0.3769022679928189,"35":0.4772455667557586,"36":-0.47107739416316824,"37":-0.33404194149358324,"38":-0.3873779372507221,"39":0.9488231332114246,"40":0.6791604132641329,"41":0.10041035003754009,"42":0.5911831265735932,"43":0.23861139926049882,"44":-0.02138105666101467,"45":0.6045416429047739,"46":0.9370145549447892,"47":0.47237992300796183,"48":0.3890342125717898,"49":-0.17585447179701197,"50":-0.5240287525950035,"51":0.48335051388194444,"52":-0.15932070428565298,"53":0.49662731846841457,"54":-0.6344615717399407,"55":-0.6120625571446485,"56":-0.43980809775608376,"57":0.34214434786951187,"58":-0.6211047664449458,"59":0.3854792256574857,"60":0.5699023448795322,"61":-0.5158116638447818}},{"sx":1,"sy":1,"depth":62,"w":{"0":0.33861550016891945,"1":0.2412055273383314,"2":0.21582973398619504,"3":0.030405202432430542,"4":0.21080619545288928,"5":0.21322130941033204,"6":0.2793602093000342,"7":0.670209472225712,"8":0.2754329955102003,"9":0.17814605800463232,"10":0.30073749508560915,"11":0.04054805363197767,"12":-0.12649856281106475,"13":0.1558969994999978,"14":0.14575438777322744,"15":0.2143042604566035,"16":0.12783512943838493,"17":0.47018847152998394,"18":0.36838043192955633,"19":0.19511704682281167,"20":0.5615956473517411,"21":0.08686948325837848,"22":-0.05188665482594762,"23":-0.1588124208899771,"24":0.07391260096468691,"25":0.1408510574833669,"26":-0.24906518619712953,"27":-0.18200405096980476,"28":0.08228381598691466,"29":0.05125813043424077,"30":0.1293224506842054,"31":-0.28118435562132627,"32":0.021690533010570494,"33":-0.40786149110717335,"34":0.05596116317327306,"35":0.5487325472838724,"36":0.13688299240672366,"37":0.025505893382139367,"38":-0.266615678598011,"39":0.42950715249417204,"40":0.530398991312077,"41":0.21988020846334944,"42":0.4164567652322869,"43":-0.0032215426839509714,"44":0.6167679048487451,"45":-0.4454306762609749,"46":0.26135548137646497,"47":-0.34386892509977895,"48":0.02199379283277466,"49":-0.33780840059830364,"50":-0.3738230634364868,"51":-0.03151799989041509,"52":0.556502444568842,"53":-0.03313436152292742,"54":0.2682114206104016,"55":-0.37604086631521244,"56":-0.3389859424040424,"57":0.05102964784304426,"58":0.47222756433421625,"59":-0.004108105318564209,"60":0.6254549098787728,"61":0.11830320617022566}},{"sx":1,"sy":1,"depth":62,"w":{"0":-0.13770497959424635,"1":0.14987300363906866,"2":-0.03242090637205072,"3":-0.3542915209836278,"4":-0.44807791824960724,"5":-0.05025326790249271,"6":0.17080304667572727,"7":0.369944049357383,"8":0.28425707553443363,"9":0.1945243595413791,"10":0.09161886497852999,"11":0.2787668052537881,"12":-0.07188216807114146,"13":-0.43465974764447607,"14":-0.06343008870061023,"15":-0.05019998688602661,"16":-0.10301240405249819,"17":0.31845778696446364,"18":0.1676251824713893,"19":0.2975583503854906,"20":0.0756416738538426,"21":-0.0052215509071130576,"22":-0.20721838196300463,"23":-0.15586031708122372,"24":-0.07127005832246258,"25":0.38195236584325193,"26":-0.06458589374747663,"27":0.35618601776118375,"28":-0.1670524823268378,"29":-0.11249582704653822,"30":-0.13714124989323315,"31":-0.16633620774328914,"32":-0.12860416969153546,"33":0.23344009696905213,"34":-0.19903890721144085,"35":-0.140095347656625,"36":-0.30826761185580065,"37":0.2529389702618045,"38":-0.1964589888976519,"39":-0.15423936312479775,"40":0.724054938623513,"41":-0.017791349509539773,"42":-0.06347688637020318,"43":0.4298778223992213,"44":-0.18439483886007393,"45":-0.18745904937690713,"46":0.12174456891420884,"47":-0.11986598267773553,"48":0.36525419164788886,"49":-0.13487041440259137,"50":-0.22896472582462438,"51":0.11959264984876589,"52":0.7370391341456869,"53":-0.1550913134329973,"54":-0.09338402154152223,"55":0.02364088881935834,"56":-0.13435404522220504,"57":0.06555923111918861,"58":-0.1945728421397847,"59":0.6649338522200718,"60":-0.2134909284059435,"61":0.30338664982560215}},{"sx":1,"sy":1,"depth":62,"w":{"0":-0.02209448664143807,"1":0.17936265836580031,"2":0.2807042086534419,"3":-0.32475496852556063,"4":-0.14972797754805078,"5":-0.1886657795587362,"6":0.1112953589946108,"7":0.2014937072332615,"8":0.1979904780136886,"9":0.20241653356000913,"10":-0.023257180600230933,"11":0.12816439772871058,"12":-0.18650244191891036,"13":-0.03323410328340643,"14":-0.08330933383382061,"15":0.196382966276373,"16":-0.15716977529662582,"17":0.4471700531169395,"18":-0.022643100969168956,"19":0.017794786266187964,"20":-0.3835257239698083,"21":-0.12665854775287902,"22":0.4669592487677377,"23":-0.18951875573586285,"24":-0.1336553008857131,"25":0.5106718212228772,"26":-0.047521320675229524,"27":-0.1326660109818863,"28":-0.18149734391352676,"29":-0.061824613030032734,"30":-0.11308471416371327,"31":-0.19532626312483703,"32":-0.13909530039453097,"33":0.13865529151818942,"34":-0.14010285968495279,"35":-0.12455878557395515,"36":0.5558740020417082,"37":0.28097445457087583,"38":-0.172412794381056,"39":0.17302546464927576,"40":0.1563534548021417,"41":-0.12287831224165609,"42":0.3734203721789975,"43":-0.12240053798518402,"44":-0.1843837914907809,"45":0.1738206797699748,"46":0.31655327576998127,"47":-0.2676969773751444,"48":0.3693573794307285,"49":-0.20686113538023776,"50":0.3390514368047634,"51":0.1932545447335734,"52":0.0510806769426156,"53":-0.1398699645913086,"54":0.13068007260074085,"55":0.293850413900852,"56":-0.09874829931074658,"57":-0.23451988220299264,"58":-0.13246887933909318,"59":-0.059851700700709054,"60":0.0915660843187459,"61":-0.13368682136620716}},{"sx":1,"sy":1,"depth":62,"w":{"0":-0.43150194729117375,"1":0.10852216118146372,"2":0.1404740368876268,"3":-0.4446530256916817,"4":-0.0713386064827355,"5":-0.15543534744200554,"6":0.23854560458703494,"7":0.40697835708910046,"8":-0.10717927555150704,"9":0.17702655293841948,"10":-0.40181229143830405,"11":0.05875819061072479,"12":-0.18928843892015948,"13":-0.3655239072461614,"14":0.08517697925750436,"15":0.0066692882308682306,"16":0.4957655021769009,"17":0.17833635437834594,"18":-0.009207805244108757,"19":0.43155660151617575,"20":-0.07859339754263743,"21":-0.1020041601110575,"22":-0.2504162242537343,"23":0.4200557840036407,"24":-0.04205128329084402,"25":-0.06923387057909448,"26":-0.1749690276608586,"27":0.452146404004796,"28":0.010254204628447342,"29":-0.20731330222725655,"30":0.08441874978418176,"31":0.042621010230741545,"32":-0.37422446181228985,"33":-0.20746194744086127,"34":-0.26042501377700467,"35":-0.08689424666202705,"36":-0.5823193451408855,"37":0.37825037237595466,"38":0.7370309070942226,"39":0.0980239994341435,"40":-0.16184024350133994,"41":-0.24359725499113566,"42":-0.00834640422230565,"43":-0.08052890005135793,"44":-0.05077738021411097,"45":0.26243974390487773,"46":-0.07390758372931286,"47":-0.4143605386124633,"48":-0.03293393423355996,"49":0.4133441416673662,"50":-0.04913265887714264,"51":-0.30196262190966616,"52":-0.1086600129921482,"53":-0.3303747217324337,"54":0.05304226249108319,"55":-0.07103013505391091,"56":0.0032127646139864115,"57":-0.27928667361090137,"58":-0.1318593467524337,"59":-0.27811075719518924,"60":0.36653136084545174,"61":-0.09113471021144269}},{"sx":1,"sy":1,"depth":62,"w":{"0":-0.13658587278666656,"1":-0.0036835629928011105,"2":-0.118308413243372,"3":-0.12549559974760438,"4":0.2899800911744289,"5":0.032866603927612384,"6":-0.052371686753409016,"7":-0.1521677237848334,"8":0.030337742114961815,"9":0.2172427565869929,"10":-0.045873015943762606,"11":0.06385079736728833,"12":-0.10605665359364123,"13":-0.1233343740224472,"14":0.023001576553672406,"15":0.2882387387439485,"16":-0.12050293216145079,"17":0.04799987371250342,"18":0.28152992255802933,"19":0.25817296190665484,"20":-0.19995317306039018,"21":0.8437861822732878,"22":-0.23422828202055473,"23":-0.23630791488945233,"24":-0.1867293166433845,"25":-0.17473302984733105,"26":-0.1665261980349361,"27":-0.24161080882462296,"28":-0.1781774438174143,"29":-0.06435281610069868,"30":-0.007791544528931905,"31":-0.21875764742246967,"32":0.5891862836148288,"33":0.5237431515317683,"34":0.5908175578126654,"35":-0.17935862820063642,"36":-0.1767347210873845,"37":-0.170551397198112,"38":0.05696416031965865,"39":-0.18636035259478226,"40":-0.060477882326397094,"41":-0.1196301654860926,"42":0.6141013699313591,"43":-0.18773916558793907,"44":-0.22975659149064853,"45":-0.2245607855917451,"46":0.12483432261093975,"47":-0.17125678904843344,"48":-0.05807732531483187,"49":-0.12715318301685843,"50":0.1352700283869434,"51":0.032030023649651206,"52":-0.19532102777649113,"53":0.13514002260971536,"54":-0.06842355144364987,"55":0.20370325775827558,"56":-0.22453405441196064,"57":-0.19602981046714904,"58":-0.2937234641811261,"59":-0.180174004028764,"60":-0.1725313197568465,"61":-0.21050516966466376}},{"sx":1,"sy":1,"depth":62,"w":{"0":0.0697233562053251,"1":0.0002544895514175499,"2":-0.013698240689113413,"3":0.029316153157214288,"4":-0.023495325007725346,"5":-0.17001893202573914,"6":0.11913024827558884,"7":0.11520549087111012,"8":0.0739123781498475,"9":0.21442778954410252,"10":-0.033317999729349186,"11":-0.20976984029226442,"12":0.07641367330100697,"13":-0.058905337823424095,"14":0.013497901806582316,"15":0.005944488455873642,"16":0.2029411449026767,"17":0.1284765063885982,"18":-0.011360784463436103,"19":0.2169000054802976,"20":-0.07958225928665139,"21":-0.0911936155432468,"22":-0.18923532128364096,"23":-0.15036167124308902,"24":0.029283401256730093,"25":0.1211282727870393,"26":-0.10797711122432768,"27":-0.08756390016481341,"28":-0.09823348390921711,"29":-0.07360212876640668,"30":-0.16917078609958494,"31":-0.11628297003503557,"32":-0.23734079815013653,"33":0.08771138823556786,"34":-0.09886271337462502,"35":-0.11374079427638756,"36":-0.10475600282089774,"37":-0.05008519287093525,"38":-0.18928102423911267,"39":-0.04009553782291836,"40":-0.07999219582203897,"41":0.46390442383622305,"42":0.3353981275284446,"43":0.27818435444361445,"44":-0.08834719575560471,"45":0.778073940244172,"46":0.4024726228613081,"47":-0.069575532881397,"48":0.03074153908548811,"49":0.837707636414449,"50":-0.09552261743445004,"51":-0.11369404168075392,"52":-0.24576003534595978,"53":-0.0524168840178395,"54":-0.3127803189921922,"55":-0.039199948962345306,"56":-0.06505645283729526,"57":-0.1222195220155859,"58":-0.11178469560893012,"59":-0.20971876674337647,"60":0.17867070686431422,"61":-0.07564198667672463}},{"sx":1,"sy":1,"depth":62,"w":{"0":-0.103686892178675,"1":0.04228527635629298,"2":-0.19408007958123774,"3":-0.08407127043231441,"4":-0.12629060984039744,"5":0.05838834659471055,"6":0.11608931147388415,"7":0.023484215150855376,"8":0.12354119895918451,"9":0.07865998006468013,"10":0.2780050407665578,"11":0.019834975670170233,"12":-0.13083980382604857,"13":-0.030289220744594857,"14":-0.20740956262926394,"15":-0.24845754864750894,"16":0.09830372513092198,"17":0.018993660907400036,"18":0.03119400008158446,"19":0.19526211873285407,"20":-0.041507047216152025,"21":-0.037292795075197435,"22":-0.02386888742030176,"23":0.05435407117231598,"24":-0.12636490826185132,"25":-0.10732446705111308,"26":-0.10610876689718457,"27":-0.05554150431125465,"28":-0.029182409119198265,"29":-0.08050124142179249,"30":0.07074731541482618,"31":0.21810577488882185,"32":0.2888381515493693,"33":-0.04732669742700995,"34":-0.015074775914210966,"35":-0.10656198242479846,"36":-0.06112689371201827,"37":-0.20095064909578195,"38":-0.04458644817354689,"39":0.16163112433639315,"40":-0.3538472487615201,"41":-0.01386288121723872,"42":-0.07612665802344488,"43":0.3430558524105545,"44":-0.011161158055811174,"45":0.5346945684140918,"46":-0.15759090336788983,"47":-0.061999501222999076,"48":0.32046882624394313,"49":-0.036583114633069215,"50":-0.208564652198965,"51":-0.042044215195290564,"52":-0.20929076971837707,"53":0.22648269596017392,"54":-0.10785979320967905,"55":-0.19377197773628396,"56":0.1734549562979439,"57":-0.0603598969266118,"58":-0.16421216307281683,"59":0.009232790786075223,"60":0.026124172277460167,"61":-0.12749803814079375}},{"sx":1,"sy":1,"depth":62,"w":{"0":2.3088811256370803,"1":0.08995142738538978,"2":-0.31803722469125434,"3":1.1339174794488256,"4":1.771632761452716,"5":-0.34138262672664316,"6":-0.6366263331099715,"7":0.7414901264899033,"8":0.16212681536417808,"9":0.6482291223418352,"10":2.0286123871495874,"11":-0.1727877210416551,"12":0.0812750186152993,"13":1.0270701347303346,"14":1.7427305259072414,"15":-0.16955169513204346,"16":-0.4450961076828517,"17":0.4936733502498549,"18":0.7276262786676428,"19":0.10308323643523257,"20":0.8342576273784751,"21":0.10807153232968766,"22":0.29458659885983757,"23":0.16252817065396058,"24":0.563664842525427,"25":0.41644293475631194,"26":0.5956956369885194,"27":-1.4657272642900017,"28":0.34709775807292353,"29":0.2554561607992011,"30":0.03856804705476894,"31":0.2734032270306858,"32":1.0256173507432973,"33":0.38322116207546897,"34":0.5067758828946717,"35":0.8351211297498944,"36":-0.48329420510452614,"37":0.045672224926629854,"38":0.07891934923475359,"39":0.21614651162045245,"40":-0.24849457945752834,"41":0.9849836895200219,"42":0.3911746936673349,"43":1.1773736469715792,"44":0.17799350341143402,"45":-0.3091354608071025,"46":0.7873226036358022,"47":1.0942638354937775,"48":0.42112977600391416,"49":-0.2051043341127375,"50":-1.1334603524839464,"51":0.6870509359850404,"52":0.45979455409211717,"53":0.1289863163462391,"54":0.323286615616528,"55":-0.35804235978996135,"56":0.823553000584452,"57":0.6691018934615187,"58":-0.21894946785486769,"59":-0.22128011809099193,"60":0.29840633564668345,"61":0.20765978512729524}},{"sx":1,"sy":1,"depth":62,"w":{"0":-0.8166152051995724,"1":0.19573796557860626,"2":-0.09701213798492492,"3":-0.9543542922296742,"4":-0.32594669674197896,"5":-0.1504472796689765,"6":0.5401711510324742,"7":0.30817386989114787,"8":0.0798179612598818,"9":0.40366815403070044,"10":-0.8348622618432779,"11":0.33267418747483296,"12":-0.553270084952641,"13":-0.7989433886374658,"14":-0.1997197704177574,"15":-0.12289296634729771,"16":0.3056351103701939,"17":0.5513352358742483,"18":0.3131788272313257,"19":0.8562853921986006,"20":-0.4047212328203745,"21":-0.16121643497570964,"22":-0.47297553327006725,"23":0.5246117381237996,"24":0.2608770873002599,"25":-0.45302890757489006,"26":-0.6132321165114,"27":0.7353770095452338,"28":-0.2216499476225716,"29":-0.13147082532490015,"30":-0.28798630612165277,"31":-0.1730468092186455,"32":-0.8398603769987304,"33":-0.3283922204603098,"34":-0.43324237140578525,"35":0.0019774170125123687,"36":-1.37465323926851,"37":0.04093911864348124,"38":0.12075147633532983,"39":-0.09567817546994836,"40":0.029172851891502018,"41":-0.15562941985991383,"42":0.2837471475971142,"43":-0.26358114812941036,"44":0.7614211556401693,"45":-0.056247548342957775,"46":0.15911393236122934,"47":-0.6320993357705786,"48":0.07831471490700662,"49":0.33511137841665056,"50":0.11746001548525717,"51":-0.3099084283462131,"52":0.023520593708073037,"53":-0.2820077395724447,"54":0.8334915442437157,"55":0.17165670094940505,"56":-0.2796430587586655,"57":-0.38012237565110896,"58":-0.36183102634188935,"59":0.2077365512178245,"60":0.4210789451585765,"61":0.1364147307234913}}],"biases":{"sx":1,"sy":1,"depth":50,"w":{"0":0.19720562605030945,"1":0.12959566115352308,"2":0.6642085317895707,"3":-0.1281161308306456,"4":0.023611285975512458,"5":0.5519875664522119,"6":0.06744350861914931,"7":0.2071835467689091,"8":0.34501568934343696,"9":0.25100599308166777,"10":0.3115940156908065,"11":0.054997489980172044,"12":0.17693030432217766,"13":0.8114291619676575,"14":0.22646153695795437,"15":-0.14698393101783314,"16":-0.174330129333551,"17":-0.067802744649575,"18":0.171829044488534,"19":-0.03427932687814342,"20":-0.06220870261948922,"21":0.48523678076894916,"22":0.1615483130947479,"23":-0.2046059989843792,"24":0.3269274933819206,"25":0.45959127555224577,"26":0.18701620680275416,"27":0.13890072758094454,"28":0.004518964894140958,"29":0.28185287851550667,"30":0.16522936689614703,"31":0.2864973496781305,"32":0.2025106053109761,"33":0.6597135215827421,"34":0.4942888154289177,"35":0.3054437000995409,"36":0.059115040377463964,"37":0.11950996886353164,"38":-0.11341138771923512,"39":0.18415378063673413,"40":0.5707457190433537,"41":0.415834186111968,"42":0.17050613191111272,"43":0.1328521439658121,"44":-0.1250718492660318,"45":0.06393923360998864,"46":0.02453873573076905,"47":0.07258734683367384,"48":1.193607987303191,"49":-0.32127334724181417}}},{"out_depth":50,"out_sx":1,"out_sy":1,"layer_type":"relu"},{"out_depth":50,"out_sx":1,"out_sy":1,"layer_type":"fc","num_inputs":50,"l1_decay_mul":0,"l2_decay_mul":1,"filters":[{"sx":1,"sy":1,"depth":50,"w":{"0":-0.08033853886007956,"1":-0.17765314457793424,"2":-0.25546267441013176,"3":0.4218244284684376,"4":0.007608104480179023,"5":-0.08161561630520116,"6":-0.16557644151719514,"7":0.0504117969296152,"8":-0.10415827631975186,"9":-0.044785165240626784,"10":-0.21787728631408507,"11":-0.12311786138560783,"12":-0.3069149540333124,"13":-0.14775917031472488,"14":-0.2418349086677625,"15":-0.14335526456968697,"16":0.1750272033669103,"17":0.06807233677617208,"18":0.004152928313544257,"19":0.0757315723971611,"20":-0.0031332613052043284,"21":-0.1021685544303007,"22":0.14981906722168728,"23":0.06518295754764493,"24":-0.3365310943159265,"25":-0.20582134119901696,"26":-0.40189235965948455,"27":0.02792563507558878,"28":0.11338590494627558,"29":-0.11853417981677011,"30":-0.12025995952692502,"31":-0.11625336169324785,"32":-0.5811766978220004,"33":-0.14546998974047315,"34":-0.39735502128119343,"35":-0.25173648728914083,"36":0.026224890937464617,"37":-0.11108354228835753,"38":0.11294044019163212,"39":0.18889697777966652,"40":-0.29978015881920084,"41":-0.03371119180014154,"42":-0.07763231125544433,"43":-0.2987693390450603,"44":0.18307907843816715,"45":-0.12073734227908586,"46":0.08972037156527221,"47":0.30666498608190335,"48":-0.09589268537241893,"49":-0.17943209958980888}},{"sx":1,"sy":1,"depth":50,"w":{"0":0.5048988679243946,"1":0.22471075938356655,"2":0.048157062450909886,"3":-0.4130455914086313,"4":-0.4671044243960389,"5":0.11060865691274088,"6":-0.3838211535638944,"7":0.4444109659493907,"8":0.13708050786789228,"9":0.7547393040617761,"10":0.27933303231458323,"11":-0.2955832909110411,"12":0.4207490698382778,"13":-0.24719550900549772,"14":-0.02453361173587821,"15":0.3737544032225535,"16":-0.2717071516170718,"17":-0.5703386273035668,"18":-0.3149840047767025,"19":-0.33297217427742887,"20":0.2879490564426566,"21":-0.02546693900012507,"22":-0.04468330122249489,"23":-0.2453740009530068,"24":-0.20620429893451492,"25":0.4063955267356169,"26":-0.27707210710421015,"27":0.352718969941011,"28":0.37026082528322496,"29":0.518775973119994,"30":-0.292131975318854,"31":0.5295263774159334,"32":0.07134416409999281,"33":-0.30024471025237603,"34":0.5611573886715695,"35":0.09512450768805361,"36":-0.5567953301401529,"37":-0.2573465745186333,"38":-0.31055715026971,"39":0.15578056680052138,"40":-0.484841101253249,"41":0.3986964585930679,"42":0.4401293927446261,"43":-0.057183766186556885,"44":-0.13496575746950376,"45":-0.03862426397953961,"46":-0.25595805977933456,"47":-0.04352858060576158,"48":-0.0011200732953052994,"49":0.4327179758593923}},{"sx":1,"sy":1,"depth":50,"w":{"0":-0.13133358730668862,"1":0.07156766948945463,"2":-0.1716504576752966,"3":0.030426146876916402,"4":-0.21328033733086288,"5":0.038230587444261506,"6":0.008903464549971244,"7":0.14844734487896918,"8":-0.20916487232224107,"9":-0.0705982826345485,"10":0.07926951571276934,"11":0.07842848723003419,"12":-0.024832442439222082,"13":0.10848861923561785,"14":-0.0924906320640309,"15":-0.14987353080168192,"16":-0.29511260943473205,"17":0.045824474269695416,"18":0.22026145481026127,"19":-0.21372727669860503,"20":-0.11179539545341766,"21":-0.18105120463161067,"22":-0.03100597178059393,"23":0.04436306688825574,"24":-0.1615191822993233,"25":-0.16930254150669585,"26":-0.1180039807833566,"27":0.04287540561302307,"28":-0.03526465037642337,"29":0.014017310252536021,"30":-0.006622986663796382,"31":-0.30466847664474755,"32":0.3424682241188169,"33":-0.07287066998864222,"34":0.05510644839427844,"35":-0.07857870442248042,"36":-0.09026265330397258,"37":0.16845525791804195,"38":0.1897721407894431,"39":-0.009573672840629866,"40":-0.0705571435892928,"41":-0.03797176675502352,"42":0.10529210215251175,"43":-0.15951686946431687,"44":-0.08441809163614623,"45":-0.39781189993164073,"46":-0.3290757074641782,"47":-0.0016029802134712228,"48":-0.0437420327985724,"49":0.01069927140309703}},{"sx":1,"sy":1,"depth":50,"w":{"0":-0.039602732985786065,"1":-0.09769131636085147,"2":0.16004408693366118,"3":0.04500875196028619,"4":-0.1806247750311226,"5":-0.028157356418753422,"6":-0.4174380011539968,"7":0.1558357045535189,"8":0.14229925789136255,"9":0.922693091654104,"10":0.27937848567393003,"11":0.06083091660525902,"12":-0.019840538672258858,"13":0.545538684735672,"14":0.20012842206702633,"15":-0.136057957289818,"16":-0.031467355613408264,"17":-0.40985824506141505,"18":0.16886651238140918,"19":0.34299286575618093,"20":0.4372070967164731,"21":0.08501698703720871,"22":0.0678910170589367,"23":-0.0849722151821904,"24":0.22700235390081905,"25":-0.15870431162434406,"26":0.22133928540933565,"27":0.20944327379062277,"28":0.5000528311505406,"29":-0.12403357561976429,"30":-0.1442723256700872,"31":0.8819367729045411,"32":0.045914075757250726,"33":0.6891379462264864,"34":0.14391051396136875,"35":0.23779742360116027,"36":0.17876284837088205,"37":0.3505164446729546,"38":-0.3125658982115953,"39":0.3799015171573673,"40":0.7209699020382939,"41":0.6737773481062674,"42":0.25082705390630305,"43":0.13220865730044018,"44":-0.3397879551328111,"45":-0.2633549705909621,"46":-0.02898181334131722,"47":0.03847545641278466,"48":0.5964838856226732,"49":0.03685723726263185}},{"sx":1,"sy":1,"depth":50,"w":{"0":-0.3226912057045242,"1":-0.12269134695991886,"2":1.1559852703059081,"3":-0.13631505544846975,"4":-0.07617776694186099,"5":0.10650788321476143,"6":0.05483995200005259,"7":0.44848982381985325,"8":-0.1255250998112235,"9":0.08665164991957877,"10":-0.1698774582539554,"11":0.26097110587313105,"12":0.3684580695871633,"13":-0.8161268491482506,"14":0.1886848076532471,"15":0.3527560383694558,"16":-0.2676276430341691,"17":-0.2477144683648717,"18":0.011958650651370866,"19":0.032649518125145355,"20":-0.31374528027136794,"21":0.02947825441307933,"22":-0.10929443145815797,"23":-0.3079433302602315,"24":0.746629907203865,"25":-0.46616006262810195,"26":0.03929277872203084,"27":-0.2125333635392543,"28":-0.34260583243200227,"29":0.10304357965686578,"30":-0.057039890063087385,"31":-0.33748970994393357,"32":-0.07724418731939936,"33":-0.08059928652925469,"34":0.15612637559126963,"35":0.6893708596288309,"36":-0.33163456224369814,"37":-0.03917314926313442,"38":-0.02073230968858409,"39":-0.7257378262298803,"40":0.19578436032199648,"41":0.3123193451850645,"42":0.5984926697910226,"43":-0.24124564006459592,"44":-0.2167923813658565,"45":-0.3755119737811491,"46":0.2002853547769419,"47":-0.09203238839791976,"48":0.30687391463504493,"49":-0.49605075445637287}},{"sx":1,"sy":1,"depth":50,"w":{"0":0.7035400698103595,"1":0.2328422789266062,"2":0.7924778957170757,"3":0.3920195355426015,"4":0.11613200038054276,"5":-0.0214274434292904,"6":-0.11978756833970537,"7":0.5707437382645185,"8":-0.17905820816020185,"9":0.009729529836657574,"10":-0.17746521579137034,"11":0.045601533029128304,"12":-0.1429916831414587,"13":0.12581136850157298,"14":-0.14787675326595603,"15":0.06427668658050331,"16":-0.12536431375702023,"17":0.7318460677902593,"18":0.1646284049027866,"19":-0.08980262755131177,"20":0.3894392386772959,"21":-0.2897172505144274,"22":0.7894239982463525,"23":0.39258745581542975,"24":0.7128794232825072,"25":-0.21354293678217984,"26":-0.31922898531490995,"27":-0.025251558888865825,"28":0.6648601829549975,"29":0.07241904330494865,"30":0.561295215879944,"31":1.0780371777157993,"32":-0.2568316484129303,"33":-0.3801398020595701,"34":0.43653518188045287,"35":0.281433528465568,"36":-0.2613750110635294,"37":0.19165887099956014,"38":0.32539765683560035,"39":-0.0677002830836143,"40":1.0689616671361546,"41":0.16236935932221613,"42":-0.5627351637678579,"43":-0.41066724101721264,"44":-0.21162237902084663,"45":0.11173713537638828,"46":0.7323988583205884,"47":0.07821134902920521,"48":1.0674968948061816,"49":-0.16582137577749062}},{"sx":1,"sy":1,"depth":50,"w":{"0":0.417877009668847,"1":0.01427909876984357,"2":-0.448579740116769,"3":-0.43744305359986035,"4":-0.2437134501129251,"5":0.2582879790750852,"6":-0.07387338961454024,"7":-0.12464317487266814,"8":-0.05342046933305739,"9":0.5170548092418246,"10":-0.27845736715551506,"11":0.024934210970327202,"12":0.22590487064105166,"13":0.030107924893600087,"14":-0.17690479766648837,"15":-0.19471134965631906,"16":0.3016451976985312,"17":0.08620667560655192,"18":0.08655125586377517,"19":-0.3450298379069652,"20":0.16377786407795744,"21":0.26137531881376086,"22":-0.42880774785875275,"23":0.22941451763870946,"24":-0.22294413125114337,"25":-0.03801994817082607,"26":-0.08057349846852079,"27":0.1467835561267,"28":-0.02593214051381977,"29":-0.09381311532487342,"30":-0.13019303229310952,"31":-0.3025603446335423,"32":-0.06898987885634304,"33":-0.1473356197662976,"34":0.15415394665870866,"35":-0.41320023478706003,"36":-0.2536852681286332,"37":0.10945605133621476,"38":0.3578361333083536,"39":-0.6245366482027769,"40":0.5265377604533367,"41":0.27211950942391006,"42":0.15437377908240918,"43":-0.3062395241429087,"44":0.2866067620042965,"45":-0.21180460038347532,"46":0.11258222123955348,"47":0.17328052389997195,"48":-0.7557614739317197,"49":0.09060757667515028}},{"sx":1,"sy":1,"depth":50,"w":{"0":-0.05824134313444709,"1":-0.05942586308845164,"2":-0.11889698825779094,"3":0.1660600239448917,"4":-0.03164259905455872,"5":0.21023701153511096,"6":0.4002665247273232,"7":0.014345331488223818,"8":0.40296167166156627,"9":0.1859485527280214,"10":0.07298140956081954,"11":-0.1412103028596853,"12":0.28189413828552295,"13":-0.19176387319978663,"14":0.1380513569807729,"15":0.5355998473008389,"16":-0.4386828743766827,"17":-0.16896920387380454,"18":0.004268584475648101,"19":0.19194055547414518,"20":0.24222962831441677,"21":0.20811478863216779,"22":0.3136581166096236,"23":-0.03773213379366311,"24":-0.28860610839996953,"25":-0.23538643117933963,"26":0.3021801167410266,"27":-0.023349124755291554,"28":-0.17510354519258367,"29":0.02908006277285036,"30":0.8780420986718065,"31":-0.35885247561899747,"32":0.18173707638145198,"33":0.35445815422391364,"34":-0.24012707017393894,"35":0.02684927476759617,"36":0.05308241201642189,"37":-0.13031682429975963,"38":-0.10270428905096055,"39":0.2518595013859191,"40":-0.17348803115710684,"41":0.1288310013514596,"42":-0.23788998779253392,"43":0.14760359371261453,"44":0.3699633223950448,"45":-0.05756555203747346,"46":-0.029928118006570355,"47":-0.08264463151975587,"48":-0.394703005975942,"49":-0.07065883978047355}},{"sx":1,"sy":1,"depth":50,"w":{"0":0.32467027065615256,"1":-0.06086617408667977,"2":-0.9263652672995485,"3":-0.18950418129214008,"4":-0.42931203710149163,"5":-0.3470662796081822,"6":-0.20303884829960595,"7":-0.2802204745071239,"8":-0.7126456784281212,"9":0.2085967673323788,"10":0.1659803220939926,"11":0.02883640496291622,"12":-0.27771922941577687,"13":0.0021709168216135035,"14":-0.31912433396983075,"15":-0.29715850615406314,"16":0.23887763229312212,"17":0.42477928836535267,"18":0.022726646719350378,"19":-0.17193210723165972,"20":0.37096134628990646,"21":0.22093363020020768,"22":-0.18467843315278,"23":0.18016943389938983,"24":-0.5472817660164466,"25":-0.16530586531035107,"26":-0.03367663271348652,"27":-0.18832250983561857,"28":-0.21145684584934038,"29":-0.12520816699935333,"30":0.5833263796837396,"31":-0.4258822943676478,"32":0.5946872460374621,"33":-0.7257386107257865,"34":0.1917128076330759,"35":-0.6588155584221247,"36":0.24581037201761188,"37":0.21713672302560655,"38":0.030552094506300982,"39":0.020043220245436647,"40":-0.3165058850269072,"41":-0.16909736766047118,"42":-0.3094400760894988,"43":-0.3432316274426586,"44":0.021109472728155325,"45":0.49766490371395,"46":-0.29489022942680376,"47":0.023152983682060715,"48":-1.0505496836880293,"49":0.03554430558357217}},{"sx":1,"sy":1,"depth":50,"w":{"0":0.18671149751351754,"1":-0.003266630128225846,"2":-0.44687530367291906,"3":-0.049595335160976424,"4":-0.22365290535244906,"5":-0.2845223675303704,"6":0.4771185872028578,"7":0.10552137433881774,"8":-0.17409561475811935,"9":0.008495775419008571,"10":-0.02529544674552957,"11":-0.1331822697835286,"12":-0.1206088389060994,"13":0.010249313779254771,"14":-0.053538515909667336,"15":0.26767715320264174,"16":0.16451878484665458,"17":-0.09415313743281714,"18":0.0498896180494128,"19":-0.10486211776935335,"20":-0.11777670975788637,"21":-0.09856703451410917,"22":-0.17802638242204416,"23":-0.18197097349200933,"24":-0.037305908264848475,"25":-0.19493499040450876,"26":-0.03179180168500119,"27":0.006303767119913144,"28":-0.18536308417831882,"29":-0.11195214135284383,"30":-0.05934424589302913,"31":-0.38433322771925116,"32":-0.41370568212183184,"33":-0.1848793307588205,"34":-0.6064694337590121,"35":0.3145050347443322,"36":0.3866177045267912,"37":0.15725576346603146,"38":-0.06236309884931087,"39":-0.11076982932289842,"40":-0.39922506681712566,"41":0.030836114327620644,"42":-0.1398952259401009,"43":-0.3191424559596895,"44":0.26501218051730585,"45":0.13316639667363644,"46":-0.19070908633758824,"47":0.12085778560804691,"48":0.005194298993852825,"49":0.1865786217221013}},{"sx":1,"sy":1,"depth":50,"w":{"0":-0.3887480826453515,"1":-0.15804589151204332,"2":0.23548406056909982,"3":0.33366790222937237,"4":-0.28053305184989336,"5":0.2036419764855018,"6":0.04642965363206223,"7":-0.09286526846775421,"8":-0.13258013472118452,"9":0.022329594189291525,"10":-0.07979050531268812,"11":-0.3255104723059515,"12":0.06953761784566813,"13":-0.21077706549955127,"14":-0.20656639116983275,"15":0.3765311973350413,"16":0.050261531975066706,"17":-0.5348680011546112,"18":-0.07917019147315722,"19":-0.19807697481366277,"20":0.3322984355089182,"21":-0.3372112614019151,"22":-0.2506604629505773,"23":-0.13741214724438464,"24":-0.13945387722918293,"25":0.29114063073342594,"26":-0.23923202884007727,"27":0.006793163518447225,"28":-0.32786996899470616,"29":-0.31844408151656145,"30":0.009281580580656739,"31":-0.25369697621318593,"32":-0.13627315722888728,"33":-0.25472601403347406,"34":0.0006113635392940363,"35":-0.1359387757330712,"36":-0.2271384872455259,"37":-0.19987387595547215,"38":-0.10466924893454864,"39":-0.3265888198146926,"40":-0.31179693159289806,"41":-0.0718096539612085,"42":0.18663656619334645,"43":-0.10209915132414979,"44":-0.18670493056695722,"45":0.05788827017349436,"46":-0.05778771617669337,"47":0.004271098644517151,"48":-0.2568252141969262,"49":-0.1869442870371814}},{"sx":1,"sy":1,"depth":50,"w":{"0":0.4554242886693231,"1":0.20095398557487545,"2":-0.6309905965392917,"3":-0.1022060916891775,"4":-0.056307107549563376,"5":-0.3554873548609135,"6":-0.2630261499760827,"7":0.18451602749257842,"8":-0.17716288898233004,"9":0.0621501830060304,"10":0.35770146738564995,"11":0.023869199629533513,"12":0.04648666991104794,"13":0.34895175389233646,"14":-0.1773113736164293,"15":-0.2131488785596365,"16":0.23665034135751345,"17":0.45490301850588144,"18":0.20494053368651918,"19":-0.19148721439683253,"20":-0.3785823120318664,"21":-0.24077366177240672,"22":-0.5828388800953797,"23":0.35341880571855583,"24":0.27847994491207395,"25":0.07954932949120569,"26":0.03214661553594195,"27":-0.023675863406584244,"28":0.03943666433616626,"29":-0.03216681365308239,"30":-0.3514138889001247,"31":0.24357813080562812,"32":-0.259667737497193,"33":0.028095262232454673,"34":-0.15676255136905165,"35":-0.4154293414034219,"36":-0.12503953723022207,"37":-0.16608490036589713,"38":0.12046396569708974,"39":-0.5105177706005367,"40":0.3058575389773405,"41":-0.2553652067710786,"42":-0.21785993098135026,"43":0.1520841164855854,"44":0.1652498095605329,"45":-0.26625034710965856,"46":0.469997732133593,"47":0.11077162999073363,"48":-0.6088999671010861,"49":-0.651534785943084}},{"sx":1,"sy":1,"depth":50,"w":{"0":-0.0835899471274397,"1":-0.08624717454134481,"2":-0.2379570591694045,"3":0.08328607568800155,"4":0.08265745920289705,"5":-0.10989202673227902,"6":-0.16523420130136326,"7":0.06058631482192798,"8":-0.07808426033935999,"9":0.07028082663109876,"10":-0.035031665772798634,"11":0.00988593724545203,"12":0.07119624505327335,"13":-0.019186515662252955,"14":-0.23572835010334312,"15":0.0401339145293489,"16":-0.1792905420066269,"17":-0.06284134349016009,"18":0.0733232121873039,"19":-0.09387139876113146,"20":-0.07844919629125346,"21":-0.07493797815250561,"22":-0.07877364926739717,"23":-0.16272058644548731,"24":-0.23702940502698963,"25":-0.12878443839627757,"26":-0.07209980892465434,"27":-0.07862910291017171,"28":0.027347514862690967,"29":0.0773819469499004,"30":0.054971382525686244,"31":0.025131807434867138,"32":-0.07918936826551799,"33":-0.2691969215765399,"34":0.1616067121949406,"35":-0.17136181502753312,"36":0.06395419211184594,"37":-0.07956475473932285,"38":-0.11638276367263736,"39":0.01198620445601639,"40":0.16471338391392903,"41":-0.23567196180569613,"42":0.10158902691751451,"43":0.14070494613947482,"44":-0.06264496391501413,"45":0.28613091680234176,"46":-0.18676242315952568,"47":-0.0656282440914582,"48":0.00371778199609976,"49":0.22030163807446598}},{"sx":1,"sy":1,"depth":50,"w":{"0":0.34863763397652375,"1":0.2029033471981902,"2":0.04585654686149366,"3":-0.09526391366310143,"4":0.14721982753670512,"5":-0.10735585943849327,"6":-0.4124593528646198,"7":-0.09394529005117473,"8":-0.1612805948067218,"9":-0.3227961274544893,"10":-0.07754558572972461,"11":0.202401137836353,"12":-0.2084503335256567,"13":-0.25577028948577896,"14":-0.005661458395524495,"15":0.15580404860508926,"16":-0.07254071871114846,"17":0.3427507048126522,"18":-0.12508499533277423,"19":-0.07869150853979971,"20":-0.08678721314563347,"21":0.2087312206650393,"22":-0.05110668030638849,"23":-0.4142180276557313,"24":-0.16619502755473323,"25":-0.18495900844416832,"26":-0.02732991479364975,"27":-0.0069568576967086355,"28":0.18863039726956074,"29":-0.21232124452818998,"30":-0.5016544708209987,"31":0.029265339495475683,"32":-0.2686382506757199,"33":-0.14683344961490044,"34":-0.549371877708784,"35":0.5254810825009513,"36":-0.2864997764664739,"37":-0.19050039221047327,"38":-0.04744624443889998,"39":0.3013351711242004,"40":0.07046495360009312,"41":-0.22924854893605742,"42":0.2527432236912061,"43":-0.054891784861704256,"44":-0.114335307188941,"45":0.037209350785669684,"46":-0.36098260376429975,"47":0.061067977399719836,"48":-0.34281319704601526,"49":0.6927239345637073}},{"sx":1,"sy":1,"depth":50,"w":{"0":-0.16616676363822963,"1":0.02524212689021149,"2":-0.10171655891099457,"3":-0.10098772382271194,"4":-0.26944786568018336,"5":-0.001969991177886938,"6":0.30789843506182113,"7":-0.20903530156565497,"8":0.18553849708051184,"9":-0.13626281970435286,"10":-0.42262579273375667,"11":-0.2944663542705137,"12":-0.2737990355022286,"13":0.018660290377772795,"14":0.23081494577067757,"15":0.31651451819961995,"16":0.11751892588278628,"17":-0.15733163684877402,"18":0.06205704706854421,"19":-0.24756995179553934,"20":0.6415555082498094,"21":0.11752756429054129,"22":0.29041505947618196,"23":0.41177994579097477,"24":-0.6400837065531307,"25":0.047855460002635714,"26":0.10665810844515417,"27":0.34916449319515175,"28":-0.1409119116341599,"29":-0.05035898977163426,"30":0.08958407372706345,"31":-1.0749718678884084,"32":0.16055936868729873,"33":-0.4886891705443579,"34":-0.005001138232533883,"35":-0.12132508472700089,"36":0.993601892532614,