{"layers":[{"out_depth":62,"out_sx":1,"out_sy":1,"layer_type":"input"},{"out_depth":50,"out_sx":1,"out_sy":1,"layer_type":"fc","num_inputs":62,"l1_decay_mul":0,"l2_decay_mul":1,"filters":[{"sx":1,"sy":1,"depth":62,"w":{"0":-0.12617069389581756,"1":0.11295077977801923,"2":-0.21337559815658083,"3":0.008656101470623408,"4":0.1837047340342406,"5":-0.0960182603097163,"6":-0.10706333694996137,"7":0.2393135026746189,"8":0.054518130186061914,"9":0.304581525001645,"10":-0.006673057284221665,"11":0.05546621857640171,"12":-0.12530637512072812,"13":-0.2520645168861916,"14":0.10451198929498742,"15":0.11824795329319729,"16":0.28922329221850374,"17":0.26623998170437646,"18":0.1620401182359849,"19":0.13497363122529846,"20":0.16524317227724697,"21":0.14360478482027944,"22":-0.13338838702466527,"23":-0.15772790148143145,"24":0.14883120574852582,"25":-0.07260550181622084,"26":0.0884602556811144,"27":0.39595262970037776,"28":-0.11344314670278993,"29":0.0514207562481514,"30":0.02501088564583176,"31":0.15523223741046882,"32":-0.15546088766757118,"33":-0.1335959632313048,"34":-0.11413785784774755,"35":0.604398325458584,"36":-0.16054149383861027,"37":0.002305918340289576,"38":-0.07514154341471108,"39":0.24034884886940286,"40":-0.038734335357629324,"41":-0.2145814757007773,"42":0.1057146951291,"43":0.034186582560587105,"44":-0.23465240082234387,"45":0.1040641052464169,"46":-0.16876498839576368,"47":-0.20364212374434648,"48":-0.12314196473383371,"49":-0.02248051809321745,"50":-0.15755686675763494,"51":-0.1720894350294479,"52":-0.09894261352392093,"53":0.12085246162032882,"54":0.14248011105381236,"55":0.14242904285940902,"56":-0.17369347261604437,"57":-0.02925918240148841,"58":-0.13548227370052407,"59":-0.1620622319768492,"60":-0.1682839284431127,"61":0.032004029368626515}},{"sx":1,"sy":1,"depth":62,"w":{"0":-0.0855818936406822,"1":-0.0890825337627132,"2":0.19210918982837635,"3":-0.0780544887105403,"4":0.0018908895020719788,"5":-0.18897326791088162,"6":-0.010435334747893444,"7":-0.07779134306470396,"8":-0.14203539471887192,"9":0.07139051936421728,"10":-0.1294790068209906,"11":-0.01735808806690968,"12":0.09228820389175854,"13":0.08708953288647302,"14":0.3447148872907867,"15":-0.058643129756161996,"16":0.3028038514639074,"17":0.20026221560577936,"18":0.09238612992239487,"19":0.021702259294245036,"20":0.19440096283428163,"21":-0.003908239792613409,"22":-0.024888751439927203,"23":-0.0425279512375365,"24":-0.07587496929252668,"25":0.004990214696211368,"26":0.10167859468809375,"27":0.37729464426380366,"28":0.01247904692735815,"29":-0.1786679265129867,"30":0.17841112649077825,"31":0.05580589228638562,"32":-0.11207173807826037,"33":-0.11676064866279033,"34":-0.10532619239029238,"35":0.2112408446605711,"36":-0.16620510792658885,"37":0.21256226955508756,"38":-0.1263186960076244,"39":0.1331068854567335,"40":-0.0771636100059212,"41":-0.044245770996943753,"42":0.28320110375451885,"43":-0.15193875231562406,"44":-0.12013889831887425,"45":0.35630354129380243,"46":0.09311244998603835,"47":-0.18683482839986754,"48":0.06102110595944522,"49":-0.10240439574567485,"50":-0.25230209843118245,"51":-0.11118845065440627,"52":0.11442909720057186,"53":0.0028146361782381336,"54":0.3036741832384659,"55":0.058512478468327085,"56":0.11285073374364159,"57":-0.10147791433403745,"58":-0.17878067108543855,"59":-0.11197856881188059,"60":-0.20617248203009847,"61":0.0814296263593069}},{"sx":1,"sy":1,"depth":62,"w":{"0":0.09077138930667368,"1":-0.1002434930163144,"2":0.0713292500480563,"3":0.11016810446891472,"4":0.3353913055323464,"5":0.07005416189216926,"6":0.18027316458945997,"7":0.38718861459785536,"8":0.13964436441308886,"9":0.3442634256487749,"10":-0.24295410621472355,"11":0.14365262999889664,"12":0.06276814941070658,"13":-0.035753363529603364,"14":0.12208608199078089,"15":0.022488004247384966,"16":0.34210954224386353,"17":0.42286318532049666,"18":0.19246362178899368,"19":0.45948608826515314,"20":-0.242133498097562,"21":-0.19093562689517637,"22":-0.2621006950730594,"23":0.15072193820222463,"24":-0.2338076035157123,"25":-0.16220936284300944,"26":0.13308690190373448,"27":-0.22866601181679452,"28":0.11929578025030138,"29":-0.031335517516511015,"30":-0.25768078628472074,"31":-0.23878586518015915,"32":0.03344843966944648,"33":0.24152051723579104,"34":-0.17176434696203596,"35":-0.12434656089118597,"36":-0.24352810717045098,"37":-0.1719034865026127,"38":0.07209494898722117,"39":-0.24250285430222004,"40":0.33208885219757656,"41":-0.12668508823794022,"42":0.02289474985782863,"43":-0.11554358560461805,"44":0.5119680543321607,"45":-0.2293054482308742,"46":-0.05340342206522478,"47":0.16869600514187408,"48":0.3414817216099983,"49":0.513516587068537,"50":0.5109206646560237,"51":0.3837356753020058,"52":0.43025256618118846,"53":-0.19134379103634847,"54":0.33592230364520087,"55":0.35582383573696524,"56":-0.11734491371261051,"57":0.11877848338378194,"58":0.1256008510740247,"59":0.31234317137231576,"60":0.3129928011150946,"61":0.35338598553814154}},{"sx":1,"sy":1,"depth":62,"w":{"0":-0.3955378479500468,"1":-0.03854065340430702,"2":-0.32292020930277776,"3":-0.1442979681881142,"4":-0.016889969383158874,"5":-0.05217802020638889,"6":0.5923796710334538,"7":0.5316319225028459,"8":0.08490543995715387,"9":-0.006511571302209873,"10":-0.7101937424263817,"11":0.13200913375094261,"12":-0.34564662900691484,"13":-0.25182285735936905,"14":0.213158845696684,"15":-0.32196464604976793,"16":0.42334406826838566,"17":0.487695734909443,"18":0.2703812061301261,"19":0.16985962452390008,"20":0.13386883847644906,"21":-0.11160419225567043,"22":-0.41514336965599563,"23":0.07785583837925036,"24":-0.2846437313402821,"25":0.146442330268458,"26":0.012855796757142242,"27":0.10621236136750899,"28":-0.125672274017319,"29":-0.23129846787269798,"30":-0.3630886952169379,"31":-0.030856315833578785,"32":0.11720989042135817,"33":-0.2786811709799822,"34":-0.4073134213300844,"35":-0.12707206154778536,"36":-0.5260429318826303,"37":0.3442751155386151,"38":-0.279713495403535,"39":-0.09388233132992803,"40":-0.08976065787481734,"41":-0.04677010641263779,"42":0.501285122492616,"43":-0.08993136434089712,"44":0.3480836510673945,"45":-0.02183832922632394,"46":0.25645129676957784,"47":-0.3546222270495151,"48":0.2879250603315757,"49":0.38824875609407905,"50":-0.041483524597539526,"51":0.01196760027074801,"52":-0.16310676928630072,"53":-0.4515108331903183,"54":0.43301956788908796,"55":0.32209960570312784,"56":-0.14084526574891149,"57":-0.3935565345539216,"58":-0.32886322661978673,"59":-0.36409064530309754,"60":0.46004310191140046,"61":-0.0713280639762367}},{"sx":1,"sy":1,"depth":62,"w":{"0":0.04542651579328689,"1":0.11140250243790979,"2":0.004913337567940037,"3":-0.0018473663903583596,"4":-0.08976607126745545,"5":-0.12376431119140295,"6":0.07029330900694201,"7":0.1528241948235106,"8":0.11186255249769507,"9":0.0972902711557261,"10":-0.09556429862221555,"11":0.08069628585340814,"12":-0.06911953388620026,"13":-0.2201374890516191,"14":-0.04358300392679845,"15":0.12557436991120272,"16":0.251859593865709,"17":0.3057381637184511,"18":0.1188940898411537,"19":0.15085234472375209,"20":0.11877438925365902,"21":-0.05723247896598255,"22":-0.020027604407326573,"23":-0.15720575507727838,"24":0.05257394220659812,"25":0.4261877614322405,"26":0.19866019258533313,"27":0.15347493019540703,"28":-0.15057869085532039,"29":0.13209932583328826,"30":0.10136124039195357,"31":0.38060431519391086,"32":-0.07852227689981267,"33":-0.02867835117481929,"34":-0.005079591776764408,"35":0.058123327408243955,"36":0.09919610976026087,"37":-0.1708544506168372,"38":0.2093533287291371,"39":0.009944662693115943,"40":-0.14085457139888416,"41":-0.02791635330937264,"42":0.30821180466542375,"43":-0.17295679297110372,"44":-0.23771675721801386,"45":0.3991462759610719,"46":0.15587657804130747,"47":-0.41581999824198557,"48":0.3932778095189405,"49":-0.06525108260611459,"50":-0.08887902734105713,"51":-0.15699827780075137,"52":-0.08167147021576956,"53":0.09983547558987231,"54":0.1624649029723897,"55":0.22391908991242343,"56":-0.05052926482746112,"57":-0.13488837986048952,"58":-0.10999396509433143,"59":-0.03491553625412649,"60":0.11560999846442745,"61":-0.006698242548429148}},{"sx":1,"sy":1,"depth":62,"w":{"0":0.004779919669210347,"1":-0.1476709257291663,"2":-0.10070233852229664,"3":-0.12535562082116025,"4":0.0004324963854570247,"5":0.31200865921798654,"6":0.015219873675674941,"7":0.1206991504874672,"8":0.19840868744832374,"9":0.053295957239195106,"10":0.04554389099331555,"11":0.14791447404895147,"12":0.01971940635754307,"13":0.11567538525738337,"14":0.06852843697220323,"15":-0.045157273119940604,"16":-0.10251735406439057,"17":-0.22683096338323472,"18":-0.026504863445555683,"19":0.09435672958475037,"20":-0.2628388309342458,"21":-0.02221880304936231,"22":0.007957737355901127,"23":0.30111251135556816,"24":-0.10553070208099707,"25":0.11819285016821027,"26":0.1274756898622858,"27":-0.27996378530101307,"28":0.04914803306787271,"29":0.2861799491401306,"30":0.15339493064179813,"31":-0.12759711180821387,"32":0.07217937408953629,"33":0.3505690654373926,"34":0.11086836611322001,"35":0.029767094471761363,"36":-0.3008569965904811,"37":-0.1380325481038872,"38":-0.09925774235680732,"39":-0.029361570407402983,"40":0.40867859153607916,"41":-0.25258818609275985,"42":-0.028289769379018243,"43":-0.09408543748364356,"44":-0.19844227716339258,"45":-0.06362416750923106,"46":-0.09174922658527282,"47":-0.09433648682468679,"48":-0.13631839964743098,"49":0.025184093075632904,"50":-0.06940318124257618,"51":0.17261043944527837,"52":-0.0754794219277342,"53":-0.03175743164740051,"54":-0.29370433350483877,"55":0.1767688608255371,"56":0.01591011830621547,"57":0.12050348889043515,"58":0.019648007179917406,"59":0.07551572740780152,"60":-0.24891031740996503,"61":-0.05509886551713701}},{"sx":1,"sy":1,"depth":62,"w":{"0":-0.1666801203598101,"1":0.10730938239994224,"2":-0.2628750596905395,"3":0.021112759792335747,"4":0.03176285952704163,"5":-0.14917910856463304,"6":0.12609763572198554,"7":0.5490872929294408,"8":0.14141391408574794,"9":0.04649075064409786,"10":-0.09830077995348349,"11":0.2562528724784159,"12":-0.002937156148233678,"13":-0.23549044221745474,"14":0.20921973685258813,"15":-0.10107737961259047,"16":0.32720228770818743,"17":0.16048755851637667,"18":-0.01034929259008889,"19":0.1420308788617323,"20":0.4826890407046111,"21":-0.06141607102214969,"22":-0.23717610875913456,"23":0.7731939977660852,"24":-0.1507865437432796,"25":-0.07502137904922908,"26":0.11276157090333185,"27":0.10961769299743947,"28":0.01420676138450605,"29":-0.3659677562607626,"30":-0.06453132448702004,"31":-0.06512012543808614,"32":0.13999278347646835,"33":-0.14076764281472642,"34":-0.1753296954687942,"35":-0.16560148519263163,"36":-0.5029674900270447,"37":0.5621258541744918,"38":0.2751869998376181,"39":-0.0495637119307783,"40":-0.18443228099588138,"41":-0.17023865601581925,"42":-0.08259374828838219,"43":-0.02315260706148615,"44":-0.01630346239326921,"45":-0.2240572623295215,"46":0.2929378760609283,"47":0.23844531509446865,"48":-0.09557409098121246,"49":0.40158523457627776,"50":0.5620196635986073,"51":-0.06536351484592164,"52":0.00034105954384346706,"53":-0.2489740524913093,"54":0.4010711232760525,"55":0.1920468884650646,"56":-0.03207202384449013,"57":-0.2222324969728099,"58":-0.1961363973984172,"59":-0.2911591196086881,"60":0.7805711919691077,"61":-0.2839354588099706}},{"sx":1,"sy":1,"depth":62,"w":{"0":-0.30600503268275653,"1":-0.0363787141923547,"2":-0.06334410867338476,"3":-0.11818758913576548,"4":-0.043158919557076014,"5":-0.0931548105721707,"6":0.10247114109697077,"7":0.15867694168679122,"8":-0.05144741595449799,"9":-0.031883231678580634,"10":-0.032420003797230965,"11":0.021868283683655947,"12":-0.05616692152811598,"13":0.009165905174790547,"14":0.10206640473609735,"15":0.12215155727370174,"16":-0.042423972704939805,"17":0.18994963299306056,"18":0.010003965311596261,"19":-0.007469431985883314,"20":-0.0204927040692495,"21":-0.11807750976426183,"22":-0.0851547630613608,"23":0.014223623357797862,"24":0.1181614855926321,"25":-0.1900991662438023,"26":-0.07903781267969513,"27":0.005793957099883194,"28":0.005278101650559304,"29":-0.051941555002484714,"30":-0.14728829242053687,"31":0.33229625556182335,"32":-0.18321676558453281,"33":-0.05774843845671234,"34":0.00049908221201083,"35":0.01776618003165593,"36":-0.02976948866816734,"37":0.0036530809764315072,"38":-0.0670378059176705,"39":0.22168651964429395,"40":-0.060091695795018295,"41":-0.011354838817511806,"42":0.09786645384745529,"43":-0.0957061665910053,"44":0.25519767296100565,"45":0.19709739343665417,"46":-0.102666035722833,"47":-0.0880606353748045,"48":0.0564397618674655,"49":0.253084724788022,"50":0.14084506867696212,"51":0.10780261012743816,"52":0.22446361033989692,"53":0.1859938718782487,"54":0.1297905002924283,"55":-0.23950105174267805,"56":-0.1109344947284578,"57":-0.15213659339961377,"58":0.19943586994072085,"59":-0.2570776057297244,"60":0.022578015590913537,"61":0.07410802658551113}},{"sx":1,"sy":1,"depth":62,"w":{"0":-0.0034901229941704678,"1":-0.003640016764634341,"2":0.12203106327982816,"3":0.20273429854600888,"4":-0.08988256352068746,"5":-0.10025363030513038,"6":0.18348680609198445,"7":0.12658584453559407,"8":-0.2134335791457623,"9":-0.16461960348700921,"10":0.2682724049077692,"11":0.2101538433868902,"12":-0.07974206964074614,"13":-0.03995240333706699,"14":-0.053212447070203485,"15":0.051433636762535415,"16":-0.09115820014872038,"17":-0.02382539345339686,"18":0.08737794092328204,"19":0.056601846798620806,"20":0.005557778118356009,"21":0.059580500707645506,"22":-0.19586769718878172,"23":-0.016469735095804027,"24":0.08149494332372081,"25":0.06776078943352001,"26":0.036086481779634735,"27":-0.08332503713882758,"28":-0.04914407340747503,"29":-0.26325560038078444,"30":-0.19616582683350142,"31":-0.09911420998060118,"32":-0.0428199081722488,"33":0.1861760721264816,"34":-0.026647858071002395,"35":-0.1469450052914646,"36":0.1559955740571064,"37":-0.20382126866673847,"38":-0.23514921764463428,"39":-0.14787865720363058,"40":0.31625944324776717,"41":0.2662968991327813,"42":0.08438589498231937,"43":-0.2267802958193689,"44":0.02921922029804974,"45":0.013049865817148978,"46":-0.09448336426247615,"47":-0.18428228662858864,"48":0.09036939560605797,"49":0.003952642325672748,"50":-0.10679607072435568,"51":-0.2211419795707639,"52":-0.20148159278876573,"53":0.0747126043876322,"54":-0.01259031190271281,"55":-0.05913474429441823,"56":0.03469812318298724,"57":-0.2379655446329369,"58":0.42444869478316,"59":0.09214309481021546,"60":-0.162090677116262,"61":-0.07051405565951681}},{"sx":1,"sy":1,"depth":62,"w":{"0":0.025547623667950773,"1":-0.02823440950477806,"2":-0.04864995030058773,"3":-0.21994799570171228,"4":-0.06481067943527571,"5":-0.07029407481420308,"6":0.15013792659662636,"7":0.17838260745400797,"8":-0.007094223632473492,"9":0.32291933882239093,"10":-0.11617690530658036,"11":-0.10063162278264404,"12":0.1745276754176769,"13":0.15501816362639498,"14":0.10466447890191174,"15":-0.08023412119959902,"16":0.07211740970761135,"17":-0.027670754132239718,"18":0.07637793722782056,"19":-0.25049955891134246,"20":0.22836320486904854,"21":0.24617833350949933,"22":-0.09251136054529319,"23":-0.03816319032415711,"24":0.07494563845027072,"25":-0.14966258805537955,"26":-0.047654887680507144,"27":-0.04703156795135387,"28":-0.06906415731835994,"29":0.05988410102200239,"30":0.2688749006161108,"31":0.28497646925577774,"32":-0.11765916997401529,"33":-0.11143338159685333,"34":-0.06822618793901403,"35":-0.010490456035557484,"36":-0.2785135401077197,"37":-0.19038375410912567,"38":-0.23279577651206224,"39":0.2876787742836292,"40":0.5747991736689931,"41":0.04985277039102953,"42":-0.16387478524458593,"43":-0.014222036255830559,"44":0.3830446807114337,"45":0.2687909749468157,"46":0.20196781561127566,"47":-0.2369958685852945,"48":-0.04970568848880921,"49":0.36678773228641576,"50":-0.059709579625082304,"51":-0.07006493097065253,"52":0.3006691483210426,"53":-0.13561255941413747,"54":0.20582660706866762,"55":-0.028183435238715863,"56":0.06613600918758283,"57":-0.06785094240653679,"58":0.27956547875067156,"59":-0.10256852642389394,"60":-0.2504108920343569,"61":-0.08656087994099819}},{"sx":1,"sy":1,"depth":62,"w":{"0":0.19800154771474757,"1":0.09656292345525552,"2":0.03558754881919346,"3":-0.03751984666589428,"4":-0.0679844639970364,"5":0.11835736255799553,"6":-0.12430792220294641,"7":-0.03362615766802952,"8":-0.07457506526190906,"9":-0.15774311755811757,"10":-0.0757043240254842,"11":0.18423115179864313,"12":0.08706271017232756,"13":0.10972257468100223,"14":-0.29830068776544155,"15":0.3168651365693459,"16":-0.10497080416293546,"17":-0.051449658734882005,"18":-0.15565012697933342,"19":-0.014157158378579004,"20":0.068694960976685,"21":0.1593134381519773,"22":0.24772919296082502,"23":-0.11950769199784053,"24":-0.13571072027786538,"25":-0.12625582364857205,"26":0.05102713262015193,"27":-0.10626875058470263,"28":0.06417867995651697,"29":-0.0540347230121648,"30":-0.007208270116002805,"31":-0.08035498568505121,"32":0.0736916851764376,"33":-0.10893760084871584,"34":-0.08184997424084661,"35":-0.13653336845111605,"36":0.35244546186757236,"37":-0.013290425768723146,"38":0.0003177845801230835,"39":0.014326982173162892,"40":-0.11485375036368721,"41":-0.3800071041949427,"42":0.10080269015555349,"43":-0.07374651595256267,"44":-0.032575554782539456,"45":-0.30394459311827127,"46":-0.028175226649937515,"47":-0.17193684342015575,"48":-0.11694718681794601,"49":-0.09143882608817502,"50":-0.04051098620939171,"51":-0.10309191859883808,"52":0.08948519295245849,"53":0.16061155697855828,"54":-0.15636498168950505,"55":0.04856736353669976,"56":-0.061033183908415535,"57":-0.024025340247346202,"58":0.15036351593821468,"59":-0.11846447017723326,"60":-0.01454926854104639,"61":-0.04899057916399544}},{"sx":1,"sy":1,"depth":62,"w":{"0":-0.3086487619851232,"1":0.06500866249308423,"2":0.010951203161043442,"3":-0.2491353401788486,"4":0.06891801876714318,"5":-0.330674697060363,"6":0.1883221128160239,"7":0.07751142194556544,"8":0.07004433740493453,"9":0.0904648459927149,"10":-0.04139060551038678,"11":0.06676484799319708,"12":-0.004732078236133215,"13":0.020076479348896094,"14":0.09382373307045407,"15":-0.15042513310830197,"16":0.131803882100832,"17":0.25914796174055327,"18":0.21672715021395475,"19":0.061328933792525804,"20":-0.04277792111274639,"21":0.1286360861180048,"22":0.1734225513617877,"23":-0.16767507992316738,"24":-0.19647925086574872,"25":0.09804146528419858,"26":-0.2942569798931381,"27":0.11434210548332951,"28":-0.047518422660694046,"29":0.05269140873792907,"30":-0.1713103602220702,"31":0.38629089234867786,"32":-0.16187776758963776,"33":-0.13914102310535906,"34":-0.21988325785200546,"35":-0.09691930256844031,"36":0.1007678264678001,"37":-0.247790105307404,"38":0.1087989884203717,"39":0.15262890674218044,"40":0.009260207717169615,"41":0.10702346770213861,"42":-0.011510431090127315,"43":0.08020648548883212,"44":-0.229741578244597,"45":-0.21333541776726977,"46":0.1626169837843827,"47":-0.21394453669290628,"48":0.19095781313211344,"49":0.05277553824150634,"50":-0.037929942240163377,"51":-0.13867596594566042,"52":-0.12258865446193487,"53":-0.013375934497866216,"54":0.2590006363285434,"55":0.21542889584135572,"56":-0.019055613869431942,"57":-0.11918168946919912,"58":-0.09581980501043126,"59":-0.07406087220216058,"60":0.04344201891999072,"61":-0.0864334523387457}},{"sx":1,"sy":1,"depth":62,"w":{"0":-0.2783548794401688,"1":-0.07318316874982933,"2":-0.0655265396461584,"3":-0.05739590558418224,"4":0.07835645259392539,"5":0.02538339699726957,"6":0.18927403776050555,"7":0.19202001487959888,"8":0.11579019578507384,"9":0.014970796120808394,"10":0.05860544338615411,"11":0.06171490154001636,"12":-0.015418954189372466,"13":-0.3179515112215098,"14":0.08963875390936714,"15":-0.25932032247208003,"16":-0.002419718495875404,"17":-0.02294962866009745,"18":0.014967816692482568,"19":-0.0291629200224965,"20":-0.13481216802234708,"21":-0.02858516698581962,"22":-0.10351830639493488,"23":-0.05069723933917215,"24":-0.033411877925582534,"25":-0.03684954692496737,"26":0.019312287677621283,"27":-0.3236609757396723,"28":0.0520753631032487,"29":-0.15160288847498088,"30":0.18198135788934552,"31":0.13591518476349157,"32":-0.15677844814083475,"33":-0.05890085858355787,"34":-0.03984317572356435,"35":-0.1092270906328333,"36":-0.2603100867224307,"37":0.017495287536204055,"38":-0.06736156721545512,"39":0.10966190764483506,"40":0.022652489939791787,"41":-0.12995569318981182,"42":-0.04801359804618001,"43":-0.12770813549647278,"44":0.4300917156359808,"45":-0.2121746432352303,"46":-0.14441329638157993,"47":-0.13112512053432834,"48":0.28026890389092635,"49":0.3135271608003595,"50":0.49700002309445324,"51":-0.04260325244552606,"52":-0.1378117946728577,"53":0.26849591165601155,"54":-0.005388631641080274,"55":0.12396940632813161,"56":-0.004656711616865333,"57":-0.017428511799613113,"58":0.21195481691636386,"59":0.0647882701059662,"60":0.20961063307147096,"61":-0.13941350032576114}},{"sx":1,"sy":1,"depth":62,"w":{"0":-0.02122108421279138,"1":0.04467975513612738,"2":-0.09230982478751971,"3":0.11070381556542869,"4":0.23037928505428312,"5":0.09628446999162805,"6":0.4302571472889034,"7":0.028502247548153406,"8":0.1176419206099093,"9":0.4401090876697765,"10":-0.1845816586475075,"11":0.1456725070177082,"12":-0.005111208938229402,"13":0.09027087199987484,"14":0.12830262530806594,"15":0.14257401917629606,"16":-0.010652125180226726,"17":0.014812521344653653,"18":0.16160187891390196,"19":0.127924712657216,"20":0.33405239860205743,"21":-0.11322589830964734,"22":-0.11986522974897046,"23":0.4763307684430877,"24":-0.051455229832766146,"25":0.1202620801291152,"26":-0.06781370165258746,"27":0.22442378553736855,"28":-0.07986926650366347,"29":0.1472521985672347,"30":-0.12515055509833806,"31":-0.1252555839379376,"32":0.05258842372429918,"33":0.27104300148253035,"34":-0.0934910495809765,"35":0.025748162864624533,"36":0.08745725458932892,"37":0.17533848297684268,"38":0.011961007221631995,"39":-0.16065271258009314,"40":0.002577950709538681,"41":0.13924616099155465,"42":0.07277105076586014,"43":-0.12484482309644687,"44":-0.1237527520458587,"45":0.10467512038272406,"46":0.06765930375527802,"47":0.24463714254556515,"48":-0.10989246143260785,"49":-0.060010977178898674,"50":-0.0654737785321844,"51":0.08418578179236666,"52":-0.07644875337804323,"53":-0.10907260625987886,"54":0.06856391981650535,"55":0.24376703893532634,"56":0.03624084178739419,"57":0.0447050805903794,"58":-0.12427911976971905,"59":-0.1673796398381375,"60":0.33426235627167494,"61":-0.03494817715188082}},{"sx":1,"sy":1,"depth":62,"w":{"0":0.05039077658474191,"1":0.19863383463279127,"2":-0.03356925588375216,"3":0.05097901618865858,"4":-0.1467187363805614,"5":-0.17398638210798228,"6":-0.21563226819187897,"7":-0.028687049143479592,"8":-0.10312283082074925,"9":0.07132602701637693,"10":0.16428199074053046,"11":-0.4272200905615344,"12":-0.06216155816025332,"13":0.015382451958434287,"14":0.19409843889347878,"15":0.16160354225198698,"16":-0.03030579032770182,"17":-0.1116546684539035,"18":-0.14264085611277097,"19":0.022364317180691408,"20":-0.11664699066726295,"21":0.0063958063193071905,"22":-0.051216206790073736,"23":0.012497894292664877,"24":0.10935798297719425,"25":-0.0015304553127740955,"26":0.2297604975253229,"27":-0.09884202945259114,"28":0.004991848614478767,"29":0.26698780767574426,"30":0.04846066753841963,"31":0.1773319913026248,"32":-0.040746875344307695,"33":0.08957461632646453,"34":-0.050464963722824115,"35":-0.013675021629616356,"36":-0.21766929591674355,"37":0.14042646118410382,"38":0.318713722035888,"39":-0.05970636508049597,"40":0.0681808599674566,"41":-0.007966852197347354,"42":0.0698604591242458,"43":-0.1451458183283572,"44":-0.004200196274337952,"45":-0.03468617493783736,"46":0.021428092139188556,"47":-0.024611420485664944,"48":-0.05527920923383161,"49":-0.2844867657060618,"50":-0.20632993416300696,"51":-0.0989028762865437,"52":0.11016420376526137,"53":0.037621261352199044,"54":0.010131983078904894,"55":0.30507171306098235,"56":-0.04023994427940984,"57":-0.020737341173382867,"58":-0.017303331970078877,"59":-0.20579062448381194,"60":-0.24766690222203006,"61":-0.06811326029826066}},{"sx":1,"sy":1,"depth":62,"w":{"0":-0.3672281137963875,"1":-0.048287038357270134,"2":0.07439150180752686,"3":-0.3234587725622098,"4":0.06224714116395633,"5":-0.22268448401151128,"6":0.4674750207954899,"7":0.36393605561151465,"8":0.03475952332482951,"9":0.1682765548489572,"10":-0.3063534010899419,"11":0.07502164805769139,"12":-0.0824621598476662,"13":-0.4999839716599263,"14":0.08912477803163636,"15":-0.23605882161631267,"16":0.3973111793780529,"17":0.4992608579161074,"18":-0.07102765344142367,"19":0.209338793228368,"20":-0.05078078521730529,"21":-0.003248243527707228,"22":-0.30334903087812065,"23":0.18315028156346083,"24":-0.23202017423206686,"25":0.07530129882256169,"26":-0.39157812821153437,"27":-0.2682500971539489,"28":0.02857729264562518,"29":-0.055841869188930776,"30":0.07567428913395084,"31":0.15589242107640183,"32":-0.24283937563356978,"33":-0.23716801694179182,"34":-0.27607523655650845,"35":-0.17452036844131813,"36":-0.7833578162869014,"37":-0.05354925119786418,"38":-0.15013041054859427,"39":-0.05481817062202904,"40":-0.01463030315362389,"41":-0.14466408720865415,"42":0.17359513119133166,"43":0.019229008273469923,"44":0.5238957049595045,"45":-0.15504460401595305,"46":0.42217280175530614,"47":-0.27566491331600596,"48":0.14487970248793325,"49":0.09919866208715387,"50":0.7953486797185669,"51":0.0005557820755251832,"52":0.6057542386404072,"53":-0.36171095988069674,"54":0.4082267310516387,"55":0.19200084181920882,"56":-0.02208824361107567,"57":-0.29229100385885837,"58":0.26848253354345225,"59":-0.176859102710395,"60":0.4672018208549671,"61":-0.3286377622053101}},{"sx":1,"sy":1,"depth":62,"w":{"0":-0.28139891230517844,"1":0.062464674334577766,"2":-0.20101207221930664,"3":-0.23482474553575267,"4":0.27925509612060134,"5":-0.11277030855694314,"6":0.37942959309958946,"7":0.2845908533875606,"8":-0.09135905613628001,"9":0.269525862599011,"10":-0.28628953918875366,"11":0.033464801825835895,"12":-0.16874160564597102,"13":-0.4009398464199436,"14":0.07083057017276158,"15":-0.393035147936502,"16":0.5780315668643684,"17":0.23888167817604242,"18":-0.09529379805792657,"19":0.12273892504301034,"20":0.14790757116665035,"21":-0.06970646645614695,"22":-0.3560820532703884,"23":-0.21416744944885902,"24":-0.09367039002630585,"25":-0.3569150455428233,"26":-0.013635963339720987,"27":0.7676077004374735,"28":-0.0509014979638874,"29":-0.3125870763721017,"30":0.04140618272399912,"31":-0.022283103483553515,"32":-0.18881389943251373,"33":-0.2590079977582466,"34":-0.3166319612722317,"35":0.1153597212474975,"36":-0.37409834267061287,"37":0.6245717386103026,"38":-0.5051006040058198,"39":0.23054959322368557,"40":0.17567822880519343,"41":0.11756830106399163,"42":0.2121518610104638,"43":-0.13678710556888454,"44":0.01445848171317214,"45":0.1777701167081066,"46":0.268943540043322,"47":-0.5829108671979095,"48":-0.023500465733919906,"49":0.2285389722920345,"50":-0.18615734137308879,"51":-0.2991243129437119,"52":-0.20275875695306028,"53":-0.4544199266652117,"54":0.5631257680609241,"55":0.056489443442027075,"56":-0.14525186327485504,"57":-0.3492071666042106,"58":-0.33522198365524075,"59":-0.4870445037607114,"60":0.22095718394202415,"61":0.1374595188150978}},{"sx":1,"sy":1,"depth":62,"w":{"0":-0.05751736902193346,"1":0.0644071209987791,"2":-0.2174535379898909,"3":-0.040553087284778605,"4":0.2486010537018879,"5":-0.13661359383125593,"6":0.20808008444490345,"7":-0.016641106524064062,"8":-0.005637338168717759,"9":0.21513104488171358,"10":-0.044260717854767984,"11":0.06892962491733193,"12":0.10805265532156022,"13":-0.061145960161534174,"14":0.038896844122633445,"15":-0.020234326751105206,"16":-0.03630122108125341,"17":0.11973271845099533,"18":-0.0065540888513285975,"19":0.11468173197362488,"20":-0.001409451347055762,"21":0.12611459840984818,"22":0.2426072801635975,"23":-0.22224780813445563,"24":-0.21108930454865873,"25":-0.124465097913458,"26":-0.014194634656867273,"27":0.6163071709725437,"28":-0.15111958285819962,"29":-0.10409697139822294,"30":-0.11082797942879379,"31":0.08516317273530433,"32":-0.311295035034316,"33":-0.13581109590958934,"34":-0.15247632945509654,"35":0.3643088401482171,"36":-0.04071557055261952,"37":0.13709444681177732,"38":-0.2042794801359123,"39":0.19781010305329763,"40":-0.1062355491146003,"41":-0.12758634319480375,"42":0.4462120337194089,"43":0.10402074475443765,"44":-0.17252885205339485,"45":0.47588911214719254,"46":0.4748645892694334,"47":-0.44801290138175504,"48":0.22636050177233352,"49":0.050419024237325354,"50":-0.19233698590384304,"51":-0.1720684795042784,"52":-0.25754277667597536,"53":-0.05145511817883246,"54":0.4607699410360421,"55":0.04188369509402186,"56":-0.24184575832551305,"57":-0.16692814273842174,"58":-0.23168506117639817,"59":-0.22536796127083455,"60":0.14166231855314249,"61":-0.028501118866489095}},{"sx":1,"sy":1,"depth":62,"w":{"0":-0.046388290443147,"1":-0.07419078827790221,"2":0.08528886363097614,"3":0.12749343241848543,"4":-0.060536196876300116,"5":0.11653925821346793,"6":-0.13666259912630674,"7":0.05325189825860504,"8":-0.021784599722838475,"9":0.020594873805040718,"10":0.16568941940133847,"11":-0.1942112879206508,"12":-0.0631958300849923,"13":-0.00624323819908741,"14":0.06588226789344588,"15":0.004237308082026636,"16":-0.03055687142220441,"17":0.06071756064817132,"18":-0.23608469721447511,"19":-0.029734280355416236,"20":-0.11438498850050972,"21":0.07110481649209574,"22":-0.03406780592597303,"23":-0.008059164994188165,"24":0.1089522252994333,"25":-0.05931530746198539,"26":0.02611106762810282,"27":-0.20196538724213212,"28":-0.16284283766118954,"29":-0.16681657004874656,"30":0.35939735871585593,"31":0.014595924252837377,"32":0.055125078845563204,"33":0.25796602903081134,"34":-0.21198951387247236,"35":-0.11742785489168835,"36":0.03240493927621081,"37":0.039693083982529846,"38":-0.025675844565359398,"39":0.2500642368140428,"40":-0.01438752270162729,"41":0.13781731482325785,"42":-0.05246931669369814,"43":0.010092433894696246,"44":0.0325281573450652,"45":0.19665351309601065,"46":-0.04567618974601031,"47":0.19293804093082953,"48":-0.10563250712044589,"49":0.01032197550994227,"50":-0.028092418684045436,"51":-0.1674068713837872,"52":-0.05583878646127338,"53":0.02797444431401048,"54":0.008286093817398092,"55":0.08819049213561198,"56":-0.20584768976797213,"57":-0.03140003015431625,"58":-0.017644859193520927,"59":-0.15413204053584859,"60":-0.19561339086907562,"61":-0.12388714772936198}},{"sx":1,"sy":1,"depth":62,"w":{"0":-0.3841011240164917,"1":-0.016970788757230848,"2":-0.08334113804382541,"3":-0.2982253493321798,"4":0.038421883227662726,"5":0.025947099355011313,"6":0.2633099204217041,"7":0.18097970013626016,"8":-0.022940090849917757,"9":0.05176245944970973,"10":-0.14868614492563123,"11":0.21529471093656705,"12":-0.13702070168727376,"13":-0.5025495164442395,"14":-0.08687922632552694,"15":-0.07902286762529558,"16":0.3062089651134167,"17":0.40169903638102183,"18":0.19571396406725683,"19":0.29878945423578357,"20":0.07080409095972338,"21":-0.2761196270570586,"22":0.24239295634060729,"23":-0.24781263514286433,"24":-0.14641177027385022,"25":-0.02010617759597553,"26":0.03596446541399702,"27":0.39934710362363235,"28":-0.1624142175192682,"29":-0.15170164144172757,"30":0.2155911618462882,"31":0.393340675144178,"32":-0.28736137368157916,"33":-0.24735394900754828,"34":-0.32908491841633375,"35":-0.1547036854587215,"36":-0.34711965745271467,"37":0.19588825633820894,"38":0.22413743120685523,"39":0.15549798671678405,"40":-0.09038237655398888,"41":-0.19882194743401518,"42":0.17836862328674297,"43":0.06655179417190897,"44":0.5474378663368362,"45":-0.14527589850498204,"46":0.33765525671451424,"47":-0.49411698155714756,"48":0.27665455892689855,"49":0.1786308176457624,"50":0.012948380071964126,"51":-0.26926921506332313,"52":0.08633363899667895,"53":-0.4016407391424326,"54":0.3913751797567916,"55":0.1390049662094261,"56":-0.0007993567728666123,"57":-0.34005237032922553,"58":-0.2461167298471038,"59":-0.3236140042231442,"60":0.3136457415180649,"61":-0.12090435135804219}},{"sx":1,"sy":1,"depth":62,"w":{"0":-0.12129176973063475,"1":-0.03629715792300242,"2":0.03581072107720638,"3":-0.09763481537397174,"4":0.07082405794024889,"5":-0.15428104103377244,"6":0.2806061275660064,"7":0.41598433689704056,"8":-0.03136122712554262,"9":0.3789385555533171,"10":-0.43804918812814675,"11":-0.10965261716598779,"12":-0.07551097491305474,"13":-0.1280768369100361,"14":0.21221280369810905,"15":-0.03320985842814818,"16":0.40106950624625387,"17":-0.018095672540374686,"18":-0.030292123844186256,"19":-0.0022150930468601074,"20":-0.1165856524042316,"21":0.0052034714140990765,"22":-0.24838543349537953,"23":0.4306020701915363,"24":-0.1942610269370726,"25":-0.054863774100308856,"26":-0.04597960067408451,"27":-0.08833774218329343,"28":0.07989689324280899,"29":-0.01391436867619477,"30":0.07997658483080762,"31":-0.25911338868092104,"32":-0.27632892599817643,"33":-0.24689389739642864,"34":-0.22810995874647363,"35":-0.18490515443677702,"36":-0.7043575504061752,"37":0.2734690683901351,"38":-0.22449223935338192,"39":-0.12738276790039657,"40":0.8352156196764476,"41":-0.2008240193475858,"42":-0.11139119032284607,"43":-0.030465501463121724,"44":0.1997539918144428,"45":0.05864597307071357,"46":0.36944983825165667,"47":0.1402979396275985,"48":0.20075627112338076,"49":0.1732578556829669,"50":-0.3069341868466274,"51":-0.1426745350323312,"52":0.4961408634204815,"53":-0.07050911147160378,"54":0.41832204967358844,"55":0.1584628965438242,"56":-0.036686069829374945,"57":0.0026011077035896072,"58":-0.20152319052120085,"59":-0.24054366939046,"60":0.4716767681914559,"61":-0.19704513425521528}},{"sx":1,"sy":1,"depth":62,"w":{"0":0.11284518110154401,"1":-0.07476418031689329,"2":0.017349722385366768,"3":0.21842412558568966,"4":-0.06894311866182774,"5":0.14478861324665182,"6":-0.015302299580042611,"7":-0.2330297083534403,"8":0.2018905528699343,"9":-0.06368235291284907,"10":-0.06832752306621313,"11":0.0036414991289375953,"12":0.018126307836020285,"13":0.004513774935059156,"14":-0.0681498604211205,"15":0.216267595157003,"16":-0.17925337933388474,"17":-0.048710369167135815,"18":0.12479187893013358,"19":0.15944349100467683,"20":-0.17196617164775677,"21":0.035412553916303546,"22":0.1099702941440648,"23":-0.17658006080927638,"24":-0.06032330538545031,"25":0.04562969994092351,"26":-0.0734787799488035,"27":0.20947952679307355,"28":-0.07585194804537458,"29":-0.06329582386856447,"30":0.017544042816494545,"31":-0.16186835358323576,"32":-0.08953473111167588,"33":0.22331193017412,"34":0.18803666491414747,"35":0.16372286813008669,"36":-0.09902346800467522,"37":0.0898033884808578,"38":0.20658713856613736,"39":0.2242299262279861,"40":-0.08585737494340977,"41":-0.028243761883072396,"42":-0.12065240422292606,"43":-0.20235056366658763,"44":0.06829597793147493,"45":-0.040533717404798365,"46":0.03222341102020509,"47":-0.1312019250380589,"48":-0.05622912599119328,"49":-0.10883020122112844,"50":0.25601292555127847,"51":0.15655147806327946,"52":0.12362019863456797,"53":-0.2491310351437727,"54":-0.20559550167438587,"55":0.2459958125137491,"56":0.07717754375205527,"57":-0.15511671785772957,"58":-0.015303036003599904,"59":-0.20286615181740572,"60":-0.06803450305910626,"61":0.06849702214033247}},{"sx":1,"sy":1,"depth":62,"w":{"0":-0.33118978689256945,"1":0.17260651927413106,"2":0.13684729607933308,"3":-0.14056817528362084,"4":0.16966045262129467,"5":0.011679999278467537,"6":0.2815002248699622,"7":0.3478150292600567,"8":0.0908483518575184,"9":0.2557119177453045,"10":-0.03275054590846433,"11":-0.05341078381081663,"12":0.06620926255834167,"13":-0.38966787654459445,"14":0.17248458612541132,"15":-0.20741827478311062,"16":0.35626436188710275,"17":0.19887516691194687,"18":0.06449622844918146,"19":0.04135709593053866,"20":-0.22499727038776263,"21":-0.1146895978378349,"22":-0.3146669638530468,"23":0.41020980974888627,"24":-0.09440877301469308,"25":-0.34446607547555785,"26":0.0555446096958558,"27":0.3885418439055398,"28":-0.0396221038801501,"29":0.0622955567798759,"30":-0.173169400821356,"31":0.058172958339664224,"32":0.0012374281590760681,"33":-0.16649492484745285,"34":-0.3114819129477832,"35":0.22822516410614554,"36":-0.5504746115277357,"37":0.700207416560578,"38":-0.13791630541540678,"39":-0.11698130494450965,"40":-0.2082688752643813,"41":-0.32311985799712345,"42":0.5216777757670377,"43":-0.045356724221662245,"44":-0.019603484933149604,"45":-0.3030878837862948,"46":0.47925414001644373,"47":-0.3207886093196518,"48":0.18048343368749004,"49":0.28254940468803835,"50":-0.0999939110128472,"51":-0.20715169583111714,"52":-0.12508475854863002,"53":-0.2402022133996708,"54":0.40667942942246466,"55":-0.0037114812540406197,"56":-0.07327270035431158,"57":-0.134094892295145,"58":-0.12590007104172815,"59":0.042368260367413015,"60":0.5216466574029245,"61":0.23135371122002477}},{"sx":1,"sy":1,"depth":62,"w":{"0":-0.5065125562351293,"1":0.1807295122759936,"2":-0.0895585542771627,"3":-0.2711576704235001,"4":0.025509708480996245,"5":-0.13450796956302177,"6":0.5886326678527191,"7":0.4524567726847038,"8":-0.2869355874989399,"9":0.22150079425579644,"10":-0.44983085065039946,"11":0.17486791794405465,"12":-0.1382822067513457,"13":-0.2513013215516377,"14":0.24837301825132782,"15":-0.3857815705870427,"16":0.4451225490538797,"17":0.30495748036204146,"18":0.009064821070518902,"19":0.19595832957858791,"20":0.2314531115910122,"21":-0.07534931443077778,"22":-0.2472155263844338,"23":0.3158377528596345,"24":-0.06744751378668422,"25":-0.1696154379329994,"26":-0.09827116468129611,"27":0.5871475394911831,"28":-0.20442462692314808,"29":-0.22873044135257484,"30":-0.19647594933827564,"31":-0.23506789803274647,"32":-0.009713906018839579,"33":-0.1874784221579733,"34":-0.43877970039473263,"35":0.11772131043000685,"36":-0.6267706539434945,"37":0.7289044388193522,"38":-0.36865986776728416,"39":-0.10343127824611337,"40":0.07730388334678838,"41":-0.13961050234598968,"42":0.37093891819420977,"43":0.0395174929197767,"44":-0.0024299778704547983,"45":0.37421131061882124,"46":0.39836680236126154,"47":-0.43592003951282543,"48":-0.05534624626519893,"49":0.2806907899156456,"50":-0.16001210526462015,"51":-0.361459356959746,"52":-0.017254840295246588,"53":-0.2672857607550609,"54":0.44657407415759187,"55":-0.1780000461175758,"56":-0.08506058342043932,"57":-0.398569788989756,"58":-0.37541167093449423,"59":-0.2712530462896245,"60":0.7264046869482003,"61":-0.0753110457480488}},{"sx":1,"sy":1,"depth":62,"w":{"0":-0.15775959433630166,"1":0.10809810889781388,"2":0.07320054585530077,"3":-0.07741740103642983,"4":0.07725843559118092,"5":0.3536825707845591,"6":0.11452810116834,"7":0.21787286347824758,"8":0.29969459059988884,"9":-0.13472058406311502,"10":-0.13439373472732113,"11":0.12753848536863252,"12":0.053645172472687054,"13":0.187961646114922,"14":0.17789028217568625,"15":0.08196665307381333,"16":0.1428335096083908,"17":0.43970037949754637,"18":0.1927657088078752,"19":0.33426922851002155,"20":0.42266113913060127,"21":0.0015608898908952983,"22":0.23561652711322836,"23":-0.2326360119422994,"24":-0.11805532566747691,"25":0.039147815268601824,"26":0.026948930114725166,"27":-0.1292378245953365,"28":-0.10462801855379121,"29":0.16343657911099294,"30":0.7983791480258308,"31":0.5625491849621874,"32":-0.20701736359646944,"33":-0.16274528694215012,"34":0.10019044640041525,"35":-0.22729322189548598,"36":0.052623989587012136,"37":-0.4748080312458604,"38":-0.15314605090996777,"39":0.16545351102564862,"40":0.24429092945840497,"41":0.08678564758618326,"42":0.1752666184343021,"43":0.02104513126879233,"44":0.7209511282644432,"45":0.6038202817753859,"46":0.11215251733918696,"47":0.2843209654349488,"48":0.14516014350977582,"49":0.27246514034045266,"50":0.5097515720248961,"51":0.034806500519970016,"52":0.3419544262025465,"53":0.08941135255368718,"54":0.37130576670368276,"55":0.07615222868209992,"56":-0.08081252241337604,"57":-0.2081375689440006,"58":0.1827483564828373,"59":-0.035012464588753595,"60":-0.21771754693223086,"61":0.21487079874555873}},{"sx":1,"sy":1,"depth":62,"w":{"0":-0.006799738706855908,"1":0.08256624265390292,"2":0.15384679215790945,"3":0.007103648642265421,"4":0.008731694037798512,"5":-0.0522096810522332,"6":0.08073182260360844,"7":-0.10049813947983506,"8":-0.08352006650391482,"9":0.020352340348912947,"10":0.15255314076299537,"11":0.022833902277636254,"12":-0.2019226817381755,"13":0.09093550847115525,"14":0.1382306169882276,"15":-0.09878696074282065,"16":0.10670168763756868,"17":-0.04871686222876488,"18":-0.023658873358812053,"19":-0.020532494425872256,"20":0.0160425721154931,"21":0.006822137276042993,"22":-0.02794766723398178,"23":-0.0029130937513330954,"24":-0.16196131952595613,"25":0.1205441741220058,"26":-0.16652678890990427,"27":0.23552615489148335,"28":0.11185697612658715,"29":-0.11328513593828878,"30":-0.04658688415448743,"31":-0.05296176720397693,"32":-0.09786334111874259,"33":-0.19272676998898358,"34":0.21762152989718994,"35":-0.03637639865826311,"36":-0.0342098396449998,"37":-0.021698679148384664,"38":-0.01592927756086783,"39":-0.24939963188185385,"40":0.3251485273574772,"41":0.13674731587739963,"42":-0.16428411681463312,"43":0.10651336470659689,"44":0.06844551213786969,"45":-0.17836743295749288,"46":-0.019868154208524044,"47":-0.091834718615287,"48":0.13650432020686623,"49":-0.13951443114243092,"50":0.06512187450745274,"51":-0.031207766134798247,"52":-0.08123241013064064,"53":0.26127230925800377,"54":-0.06642405961641529,"55":-0.17830004886334513,"56":0.03581268290984138,"57":0.0009713016683468199,"58":-0.0525291078391884,"59":-0.08440136722013628,"60":-0.17942539087164122,"61":0.3954687962878688}},{"sx":1,"sy":1,"depth":62,"w":{"0":-0.08264447602414504,"1":0.04824458838046965,"2":0.07520435919629066,"3":0.050165298889508984,"4":-0.06337981395812692,"5":0.06451636620779282,"6":-0.18113463464072382,"7":0.08754346338292272,"8":-0.08884126346010507,"9":0.03160094945576483,"10":-0.2208178826795987,"11":-0.0030807892996678908,"12":0.021547901416959007,"13":-0.23469411209316315,"14":0.18742647185327754,"15":-0.007097527241983083,"16":-0.09288753704030717,"17":0.05561040637836075,"18":-0.03832408072394735,"19":-0.1173503716537247,"20":-0.11361637841373413,"21":0.04293041680275076,"22":0.6518004026940677,"23":-0.1370004972094417,"24":0.09896355303078044,"25":-0.02643726054089962,"26":-0.051871739914968,"27":-0.1777202585425233,"28":-0.041006549443982056,"29":0.13787842478510268,"30":-0.16274363306424985,"31":0.05744665896156112,"32":-0.011702798767411152,"33":-0.09567666337294921,"34":0.2290168702674135,"35":0.014439594051151592,"36":-0.060531874125966244,"37":-0.20614838734005408,"38":0.10844903497592757,"39":-0.019875368923969954,"40":-0.024996582762611977,"41":-0.049242026082612814,"42":-0.17915783756657247,"43":-0.2328372949884792,"44":-0.2503041934210364,"45":-0.03511226576184579,"46":0.03645266511874304,"47":-0.060239364133094234,"48":0.0031144746888368807,"49":0.026666938349631047,"50":-0.17761124008080145,"51":-0.053511977748767155,"52":-0.09041470945521746,"53":-0.062478173727880226,"54":-0.16599961326503984,"55":0.1612849120702086,"56":0.14179674076018206,"57":-0.012688031639425095,"58":0.16461221584647767,"59":-0.12643806438714067,"60":0.0061825366090745276,"61":0.0005395134129574154}},{"sx":1,"sy":1,"depth":62,"w":{"0":-0.09609669308208357,"1":-0.24548546603744392,"2":0.0372277631524181,"3":-0.24767220105480106,"4":0.17524031170032314,"5":-0.13444008174303015,"6":0.13952888242528483,"7":0.08888955850694054,"8":0.07362720250123868,"9":0.09044083279918207,"10":0.03408492261620812,"11":0.16151524772108106,"12":-0.18637426821295344,"13":-0.07146111149482119,"14":0.1836674172474368,"15":-0.054852453816696456,"16":0.1978725922484144,"17":0.08747427485597362,"18":0.1566503198653489,"19":0.10306086826439514,"20":0.15977381706894828,"21":0.02536605941906903,"22":-0.1773870099107809,"23":0.3232221833902419,"24":-0.009563979923056092,"25":-0.1663522178553979,"26":-0.11452811509299525,"27":0.3090889975590823,"28":-0.3781413401819609,"29":0.12905669098474779,"30":-0.08435060430350028,"31":-0.03444572782176813,"32":-0.23911788868957037,"33":-0.06725969073511205,"34":-0.22913373144262839,"35":0.35149567014836686,"36":-0.15697742611018903,"37":0.23342144987983296,"38":-0.00364418213225383,"39":-0.03716652385225418,"40":0.09185394910617498,"41":-0.050128985513557135,"42":0.09235535213006464,"43":0.08027257529100176,"44":0.03428648333360246,"45":-0.1083253701260494,"46":0.08198522206070771,"47":-0.07990202245556614,"48":0.03210075014606152,"49":0.19706375289239464,"50":-0.05482401038749983,"51":-0.09022129999815381,"52":0.1537060353489644,"53":-0.09798227476177855,"54":0.1901035806626978,"55":0.05624203189723595,"56":-0.12050274401336078,"57":-0.11174460798264012,"58":-0.16986944516765848,"59":-0.13665403565590906,"60":0.06989518795149466,"61":0.07077177804834821}},{"sx":1,"sy":1,"depth":62,"w":{"0":-0.276708404732501,"1":0.012476695213455765,"2":-0.17755034112162962,"3":-0.21718557569505761,"4":0.14598425842735363,"5":-0.13285338332056865,"6":0.24227318437851775,"7":0.30214983923828986,"8":0.1104084665146082,"9":0.19783357638090193,"10":-0.3638228625247881,"11":0.11790119508522916,"12":-0.2004929345239759,"13":-0.09163894575409967,"14":0.02601347561172874,"15":-0.19708100442151322,"16":0.15364218527765808,"17":0.17214609961087163,"18":0.253975087705473,"19":0.41729739634185636,"20":-0.18795248321395797,"21":0.12318998750834846,"22":-0.3026700899788378,"23":-0.3151696834627868,"24":-0.11528774693881688,"25":-0.1692560481805272,"26":0.05356498632919384,"27":-0.014878708654783291,"28":-0.13188571966148468,"29":-0.12969094457618213,"30":-0.144507646595826,"31":0.4130000252485444,"32":-0.3254466793183885,"33":-0.20493329495901802,"34":-0.2835611512032643,"35":0.16703856348039908,"36":-0.390385024077809,"37":0.21487653984776195,"38":-0.22949077793216877,"39":0.24669564305043176,"40":-0.02151200302768491,"41":-0.22812108363000466,"42":-0.01161647591602095,"43":0.0007948470025778544,"44":0.39421748581784305,"45":0.047744782010649064,"46":0.48119044606407335,"47":-0.4093914588324578,"48":0.002078652666678915,"49":0.3459132788861329,"50":-0.09305452694347728,"51":-0.18960235821668836,"52":0.24853906410451562,"53":0.05271182740011745,"54":0.23108261154314066,"55":0.32084362215573814,"56":0.08122693640208418,"57":-0.2528590467968224,"58":-0.287600623939052,"59":-0.33825930310801244,"60":0.36656434298556295,"61":0.0987854680636701}},{"sx":1,"sy":1,"depth":62,"w":{"0":0.02041246246987926,"1":0.19471355932140805,"2":-0.12565804824421326,"3":0.02856075907042943,"4":-0.14995990312488267,"5":-0.10794642624336306,"6":-0.038426443521977556,"7":0.026068925555101586,"8":0.06166830847794671,"9":-0.03840469215260234,"10":0.1101998906712312,"11":0.16985788435735194,"12":-0.02700702568488895,"13":-0.0831265445775703,"14":0.06401900801856014,"15":-0.015923517928011378,"16":0.008921228941485605,"17":-0.018715209278338547,"18":-0.02352678758777482,"19":-0.089268511354544,"20":-0.0050401188010893595,"21":0.2645010615215759,"22":0.089679786397481,"23":-0.06322902724210144,"24":-0.04057880081390911,"25":0.1166377309168708,"26":-0.049326890004586746,"27":0.11399910578329958,"28":0.020087714886340664,"29":-0.0084897670722466,"30":-0.0035150490080443717,"31":-0.019346481438487585,"32":0.05165998814570478,"33":-0.1027964518545316,"34":0.03624878566672319,"35":-0.0231558463821939,"36":-0.14590450438859864,"37":0.2380014266210254,"38":-0.003957714632795543,"39":0.13911460161251582,"40":0.15003697623935602,"41":0.022075119131846357,"42":-0.12585898234794735,"43":-0.09347477042797961,"44":-0.09192227263960592,"45":-0.0009794019107195625,"46":-0.08292138382675279,"47":-0.27156579874387204,"48":-0.051209769088862975,"49":0.13177356687057504,"50":-0.024012078717408764,"51":0.03331774928747511,"52":0.27753284599676664,"53":-0.26904695707271115,"54":0.05017340736797505,"55":0.4185527209803696,"56":-0.009996936934346378,"57":0.12889305336164275,"58":-0.05502056079204843,"59":0.22492210757367342,"60":-0.0016896366736627345,"61":-0.1931171230756571}},{"sx":1,"sy":1,"depth":62,"w":{"0":-0.2358030932218083,"1":0.11865697964695392,"2":-0.02201770489758623,"3":-0.08586231829189254,"4":0.0658019239013774,"5":0.22375784825990214,"6":0.32811573318829196,"7":0.27067897073422836,"8":-0.009084788753240633,"9":0.1478929226384941,"10":-0.26837205210276355,"11":0.038455891293223306,"12":0.15965419562926098,"13":-0.2955019139219674,"14":0.12033461345488401,"15":0.20041110951709645,"16":0.5765516903905181,"17":0.2323909825988959,"18":0.03206457712112442,"19":0.0632893815400709,"20":-0.21150518814199903,"21":0.0017566431857042868,"22":-0.11743546774633709,"23":0.5331205386498665,"24":0.10604155707017847,"25":-0.2352813971940317,"26":-0.16055151831650505,"27":-0.012243414150067966,"28":-0.15371161908490777,"29":-0.12629443056413167,"30":-0.25031195817324053,"31":-0.23995170727284307,"32":0.10888488234922082,"33":-0.024403329878593224,"34":-0.32158456833854343,"35":-0.07386942257707083,"36":-0.30014699390051536,"37":0.49810901304401894,"38":0.21735625343190115,"39":0.013728962357429651,"40":-0.06318785065026354,"41":-0.3074028571021154,"42":0.009832755951038967,"43":-0.004697555494235534,"44":-0.2956380088747176,"45":-0.23034856712977614,"46":0.12323147192607584,"47":0.06356095029746912,"48":0.1687264483341624,"49":0.4518271777712639,"50":0.2654541461812148,"51":-0.17537434163828147,"52":-0.14281181484474242,"53":-0.21078602684130274,"54":0.02598979124560165,"55":0.22514482435335756,"56":-0.02175925051439135,"57":-0.2545970431926832,"58":-0.003541005788529723,"59":-0.12184776363732494,"60":0.4657820507101867,"61":-0.11043760123332529}},{"sx":1,"sy":1,"depth":62,"w":{"0":-0.018624542764976035,"1":0.017726902186437448,"2":-0.08615357309661742,"3":-0.15085226443435737,"4":0.32619316691850025,"5":-0.07085727982202626,"6":0.33691118802659986,"7":0.3571321575840283,"8":0.03686065052334024,"9":0.3623018110012676,"10":-0.009874208313628355,"11":0.2296905676098124,"12":-0.05010003191712389,"13":-0.04923834993421576,"14":0.2613310098651124,"15":-0.1504752828227044,"16":0.44236374949766377,"17":0.3780756692141985,"18":0.09047874121768003,"19":0.3029891969201154,"20":-0.3021466761932758,"21":0.1298262093080691,"22":0.20842987696377896,"23":-0.34277913156302886,"24":-0.25980252076688326,"25":-0.04955892580291216,"26":-0.1562603571258906,"27":-0.060126136623990405,"28":-0.2280341667004787,"29":-0.24373569184352853,"30":-0.06720462065612288,"31":0.6911543456892546,"32":-0.3546580009857726,"33":-0.29753237619788053,"34":-0.2324172937229627,"35":0.5069023236151448,"36":-0.17461722169463945,"37":-0.40975597859671264,"38":-0.20159320006260903,"39":0.33923545896936397,"40":0.3379650884534185,"41":-0.10807468435253048,"42":0.17091673678521738,"43":0.24208730713232468,"44":0.7654040593009558,"45":0.24071541892102702,"46":0.3921706831611374,"47":-0.5516547624404232,"48":0.2727601993967188,"49":0.5584280240209377,"50":-0.1430600418180625,"51":-0.3097248732492536,"52":-0.003305748038066166,"53":0.2899091925569821,"54":0.3476228600294949,"55":0.13179123647199095,"56":0.09084897240910947,"57":-0.06017705873419767,"58":-0.30071160638306493,"59":-0.2596996114326751,"60":-0.03364893491745354,"61":0.1746832865335062}},{"sx":1,"sy":1,"depth":62,"w":{"0":0.2009567516107892,"1":0.02704566366455606,"2":0.10886241110781766,"3":-0.040246385952552456,"4":0.13123921296949298,"5":-0.03963714871820002,"6":0.2172196376022244,"7":0.16771669169543563,"8":0.1745259521463558,"9":-0.029678592754917386,"10":-0.13264478217805814,"11":0.007429563105376433,"12":0.031615435182226675,"13":-0.0865263715876674,"14":0.05881246356196061,"15":0.15644257661810088,"16":0.21796844705709467,"17":0.10523730946181808,"18":0.02389961133087654,"19":0.12303704684462097,"20":-0.07663554619142729,"21":0.2278327423585819,"22":0.4906688547760784,"23":-0.11625936884428809,"24":-0.06805642096468348,"25":-0.2130413574624844,"26":0.11139103833043713,"27":0.21258163501126437,"28":0.021690126167990507,"29":-0.09500758489391915,"30":-0.06440965304149557,"31":-0.07504458447834278,"32":-0.12082625822997675,"33":-0.07898369956553682,"34":-0.11765563728246914,"35":0.07151445580625558,"36":-0.2597138288496676,"37":0.01671014323401084,"38":-0.00703587414024923,"39":-0.23913056263695684,"40":0.3556085047255527,"41":-0.16399244575604124,"42":-0.12885420690185753,"43":-0.059475658656008235,"44":0.10680078410656,"45":0.009176769893293012,"46":-0.10479208914114385,"47":0.2572421726761836,"48":0.08564128512107155,"49":-0.09318966041239694,"50":0.3708357374366827,"51":-0.09355164317978405,"52":-0.09233054251076785,"53":-0.376059953278451,"54":0.1707525979424537,"55":-0.13857563133825024,"56":-0.12314353591004452,"57":-0.21986097077746902,"58":-0.09102596729846961,"59":-0.09879170238929227,"60":0.2900320794540348,"61":-0.21975770813903386}},{"sx":1,"sy":1,"depth":62,"w":{"0":-0.0217854188200663,"1":0.3530341715700149,"2":-0.07097224385715323,"3":0.01909296442704261,"4":0.2030635179110128,"5":0.017187002195027622,"6":0.28972384606808876,"7":0.21694776055119688,"8":0.29059136128978685,"9":0.1399532607052964,"10":0.05733834706423952,"11":0.2732922766738843,"12":-0.11668609617572569,"13":0.10162728441308268,"14":0.20647972141187287,"15":0.165055108699939,"16":-0.017659731013542734,"17":0.2621030016589483,"18":0.213445888090877,"19":-0.03771219370408041,"20":0.17187293338062218,"21":-0.1554089342516446,"22":0.4402899536218229,"23":-0.1999600372219298,"24":0.023311667068147565,"25":-0.0007205955424258587,"26":-0.03889003467618858,"27":0.05316602723655893,"28":-0.12708388110070232,"29":0.1405536513451498,"30":0.407272025467328,"31":0.3637563428806709,"32":0.09001369894231433,"33":0.07580348895488923,"34":-0.11940083926468416,"35":-0.19525409399804164,"36":0.10390015821569228,"37":-0.3421843464266461,"38":0.15720433379150794,"39":-0.17729062501124473,"40":-0.09356919851726805,"41":0.09782095636869574,"42":0.05676859192992399,"43":0.08393468544668971,"44":0.4996045638293701,"45":0.5837751830905815,"46":-0.12879637943870037,"47":-0.02438226446246227,"48":-0.09025851169503046,"49":-0.1792271164451896,"50":0.6561242177768731,"51":-0.20523485818192092,"52":-0.12361829813123756,"53":0.3552589701734301,"54":0.08588282157529525,"55":0.17241638058476305,"56":-0.13304560708206195,"57":-0.21113599995982982,"58":0.18173763905810297,"59":-0.1526776189630266,"60":-0.028424895289153717,"61":-0.09453738997662693}},{"sx":1,"sy":1,"depth":62,"w":{"0":0.23973021659350902,"1":0.11207804570499545,"2":-0.001508111553166818,"3":0.20734808759292594,"4":0.45158432189418485,"5":-0.015394677744301356,"6":0.2604258143940547,"7":0.06416475990027608,"8":0.03866654360813685,"9":0.12043912506932515,"10":-0.09312884702160049,"11":0.06649013461941673,"12":0.28390926619388107,"13":-0.024981053045965543,"14":0.20369977744731438,"15":0.3932019025577646,"16":0.04763155151192456,"17":-0.01792466955837562,"18":0.08718840911081481,"19":-0.040873731916045666,"20":-0.17939736188413904,"21":0.1294471724264571,"22":-0.27875003117608055,"23":-0.1886057891232041,"24":-0.161523952055643,"25":-0.1041409731231706,"26":0.19142974038960636,"27":-0.1374054421501302,"28":0.19636522328545658,"29":-0.17096489583977073,"30":-0.18393170841275122,"31":-0.18733111655387372,"32":0.11830021251998668,"33":0.2717539544107646,"34":-0.07391802234030705,"35":0.11633313075972482,"36":-0.3658828617212394,"37":-0.02499789441050554,"38":0.0013916942843934185,"39":-0.003914173566646893,"40":0.8083652385032305,"41":0.056670296224801985,"42":-0.3802047700211556,"43":0.1382724892270299,"44":0.04374062545502279,"45":-0.1893351334010748,"46":0.09473472149031277,"47":0.21014955080941855,"48":-0.02703258976717449,"49":0.35550120689184933,"50":0.17473132462221233,"51":-0.035169570233731025,"52":0.1933673431461215,"53":0.1148963288077771,"54":0.1800185100097669,"55":-0.1969890047712505,"56":0.05178968530045582,"57":0.18619615674946818,"58":-0.17048239892702582,"59":0.3741232910360808,"60":0.5831343191386975,"61":-0.18814219249973846}},{"sx":1,"sy":1,"depth":62,"w":{"0":-0.057200088940466166,"1":-0.001180686520686355,"2":-0.190542804771124,"3":-0.2310096126381042,"4":0.21941845305885227,"5":-0.11246334209826664,"6":0.11031268712166205,"7":0.2002805424367493,"8":-0.026912669821042408,"9":0.09105101181545688,"10":-0.17293986251703672,"11":-0.18654392219125285,"12":0.08577090222434448,"13":-0.26651173459101546,"14":0.26855847129247523,"15":0.024597270835358946,"16":0.05963357559455893,"17":0.2898952176388535,"18":0.2004596810483465,"19":-0.20084191228019557,"20":-0.17561984268009193,"21":-0.0631797168005924,"22":-0.19910756523523665,"23":-0.149647304308047,"24":-0.015905002845380954,"25":-0.07908708055355994,"26":0.3856601931681957,"27":-0.14933631104898976,"28":-0.22427001400892607,"29":-0.054387627231822784,"30":-0.09844702907810744,"31":0.37459699184919876,"32":0.04178253317912331,"33":-0.13324023284553563,"34":-0.1450569836119952,"35":-0.1451508112245535,"36":-0.4224313615165619,"37":-0.18025094902968194,"38":-0.1947733041804406,"39":-0.04664051933761695,"40":-0.18136194841048994,"41":-0.14531124260713857,"42":-0.17548380898516003,"43":0.19619667435643282,"44":0.5554426371270815,"45":-0.19230862740833007,"46":0.1666693721819319,"47":0.019458322989921232,"48":0.0874844423489363,"49":0.08071475864033564,"50":-0.020875482774060337,"51":0.14810556845872477,"52":0.30477447219764536,"53":-0.003289949852337112,"54":0.20583602122609015,"55":0.16528098975714878,"56":-0.15556399020913794,"57":0.030967399151789525,"58":-0.1120267385278045,"59":0.25648196570615167,"60":0.10242489850744631,"61":-0.11670990349956818}},{"sx":1,"sy":1,"depth":62,"w":{"0":-0.18569593956331434,"1":0.24452070450562066,"2":-0.09257462196426174,"3":-0.06026905877008065,"4":-0.018668871735733297,"5":0.11408070244184282,"6":0.26034040181733775,"7":0.04907481783683728,"8":0.318344963609092,"9":0.2845330028644057,"10":-0.11124462967450435,"11":0.16471071647245836,"12":-0.04673433125740237,"13":0.025617840458386665,"14":0.11082209806605639,"15":-0.07446606551502784,"16":0.08796258504703934,"17":0.14134158335998956,"18":0.0346581455442909,"19":0.01207573433900105,"20":0.12327120292677186,"21":-0.07290861100023427,"22":-0.17829876242536313,"23":0.5535740822354476,"24":-0.01709400478265378,"25":-0.17460364348239116,"26":0.0030640541268757327,"27":0.17025773929376614,"28":-0.09456766620428096,"29":0.19629096782165947,"30":-0.1805586380307853,"31":-0.18955820876012788,"32":0.22038963732586384,"33":0.36512765614451165,"34":-0.1401775442356591,"35":-0.05799712633630313,"36":-0.3608871656785675,"37":0.5136025313065271,"38":0.2732906755134863,"39":-0.052308985180837694,"40":-0.16757520265348755,"41":-0.1348063746304361,"42":-0.12494465929696995,"43":-0.3115906116542603,"44":-0.06390493738333015,"45":-0.0074461145792373085,"46":0.4466938987550968,"47":-0.20678333506604307,"48":-0.007588173327141948,"49":-0.14755233872746254,"50":-0.08891832145341146,"51":-0.1510195424183872,"52":-0.11605213725537428,"53":-0.16697000860981662,"54":0.3326330081693232,"55":0.0541367650062578,"56":-0.2517357429965719,"57":-0.15838949813310688,"58":-0.17627684432196597,"59":-0.1755844271797409,"60":0.44960594909216306,"61":-0.09330687326339697}},{"sx":1,"sy":1,"depth":62,"w":{"0":-0.2156453759566098,"1":0.31256608519159956,"2":0.07695252549317246,"3":-0.33282562504479934,"4":0.017078239082673162,"5":-0.05110212079904082,"6":0.14649527136073764,"7":0.11066166050892015,"8":0.09421437435255225,"9":-0.03457095547300752,"10":0.054932927058139236,"11":-0.03197709646724241,"12":0.20773347439901632,"13":-0.11621870260487549,"14":-0.15029062204381324,"15":-0.060759765914020034,"16":0.35317001043431345,"17":0.19919625195526924,"18":-0.12505907010422362,"19":-0.14048377246725263,"20":0.1656882868961161,"21":-0.08752820256854013,"22":-0.06884669664018649,"23":0.319499250434238,"24":-0.09816169439274615,"25":-0.09159003841971149,"26":0.04795949400149231,"27":0.055401671771226464,"28":-0.20425231874980726,"29":0.4486280126037162,"30":0.2959195432950556,"31":-0.20762981789547888,"32":-0.09375582512908617,"33":0.13353550491290073,"34":-0.05928131696886751,"35":-0.062048039519432635,"36":-0.2268301907291429,"37":0.07410351858059773,"38":-0.21983812555784207,"39":-0.09826416004394134,"40":-0.01723684718185955,"41":0.0742971764837615,"42":0.00841306870305216,"43":-0.04576742482448702,"44":0.06164443069456382,"45":0.03901576130582228,"46":-0.14288989207407637,"47":0.45321788465310536,"48":-0.17141509458589652,"49":-0.11103205613582652,"50":-0.10461645912021501,"51":0.007018209978146924,"52":-0.2557893009179696,"53":-0.10725166610477102,"54":0.12927746735272716,"55":-0.008500501191490902,"56":0.05143139726712621,"57":-0.23214554092859155,"58":0.04598756321098791,"59":-0.100576085575037,"60":0.3170303449837916,"61":-0.10333080927409495}},{"sx":1,"sy":1,"depth":62,"w":{"0":-0.16988237607725462,"1":-0.01872793970796708,"2":-0.12307612152567392,"3":-0.4230704971367687,"4":0.19355711114661056,"5":0.024195297998543988,"6":0.025646092982599965,"7":0.45499108205480243,"8":0.04331462161511669,"9":0.2592877310891088,"10":-0.2898086993831678,"11":-0.10781423440645661,"12":-0.303134065480442,"13":-0.05883021248292497,"14":0.14080115527571274,"15":0.09894614186028021,"16":0.46768754503353227,"17":0.15688473872987546,"18":-0.041550643671701366,"19":0.12050835950837877,"20":0.012490851871374681,"21":-0.08413472906117425,"22":-0.10210175720499005,"23":-0.2390903250857165,"24":-0.07535782848090705,"25":0.01997962145473891,"26":0.09813929057216496,"27":0.2979922674750187,"28":-0.1315628079857935,"29":-0.1481479946503504,"30":0.22250932412772956,"31":-0.06887363402281457,"32":-0.27066177091184124,"33":-0.21984445095361155,"34":-0.2731371912689602,"35":0.0884257751479079,"36":-0.3390540168121012,"37":0.12532699746184064,"38":-0.1760783517180485,"39":0.28716998962183266,"40":0.03772415052663901,"41":-0.10256503435731623,"42":0.30425969930710317,"43":-0.08395711260337735,"44":0.13927584275363816,"45":0.19126178638739072,"46":0.15008547243444886,"47":-0.5164933808652795,"48":0.23858581325476746,"49":0.061815764305757186,"50":-0.1298535837067384,"51":-0.25889572658208626,"52":-0.1163962520674416,"53":-0.3353883329193089,"54":0.21650701754562063,"55":-0.08783747967071895,"56":-0.10264379774231822,"57":-0.2611663474233167,"58":-0.2394046842005447,"59":-0.1431816142285105,"60":0.3873575927374451,"61":0.020161753050377824}},{"sx":1,"sy":1,"depth":62,"w":{"0":-0.4166496605335847,"1":0.1314067649606238,"2":-0.24369344938694618,"3":-0.028065418616968353,"4":0.05672083653446358,"5":0.0772074407660657,"6":0.29388259333791483,"7":0.32882448094973693,"8":0.01883936464871532,"9":0.026238048457943187,"10":0.008606199169631424,"11":-0.00873178402403843,"12":-0.2711491410218108,"13":-0.18905761471003077,"14":0.04274734365516793,"15":-0.21977114367687037,"16":0.22041932957221524,"17":0.26774072786140535,"18":0.08030926053747967,"19":0.22198177190710902,"20":-0.1740038815886552,"21":-0.02177918826880535,"22":-0.09199247991035811,"23":0.2808442086588722,"24":0.11753757291294915,"25":-0.19963938203432807,"26":-0.1426767870643925,"27":-0.23910336875878382,"28":-0.03185201393591552,"29":0.18857300665670226,"30":-0.19597980599989426,"31":0.2787781279362132,"32":0.38191626022662606,"33":0.1472211399436108,"34":-0.14755438748188868,"35":0.18375524749649072,"36":-0.40666951648399546,"37":0.3199146454316256,"38":0.050397009998239435,"39":0.004029772540025838,"40":-0.16334460182975014,"41":-0.16467515991803372,"42":0.220970582712623,"43":-0.2685166936947796,"44":0.3438829643922898,"45":0.30932392278322,"46":-0.19195172556916415,"47":-0.02956300626878478,"48":0.15434892991265917,"49":-0.13129209865992555,"50":-0.09587364955909217,"51":-0.18616761183052824,"52":-0.051843877847677876,"53":-0.2245211309175201,"54":0.18823902726359026,"55":0.10244626461824734,"56":0.14908833926399828,"57":0.14841413754722516,"58":0.011670492978039324,"59":0.24501201949374277,"60":0.16060470848219702,"61":-0.17878710802772257}},{"sx":1,"sy":1,"depth":62,"w":{"0":-0.02221552841376638,"1":0.0853109262112515,"2":0.11003607145205418,"3":-0.18682657100520866,"4":0.10863163482638467,"5":-0.02901542742621167,"6":0.09137462675757503,"7":0.27772904941725635,"8":0.1380740066295009,"9":0.001018671749877569,"10":0.10002691001469334,"11":0.24445508723181736,"12":0.02524347223109414,"13":0.020669473882565386,"14":0.17516413540379913,"15":0.03000178262401733,"16":0.2115573589214611,"17":0.2628840003646475,"18":0.3442724169157886,"19":0.04788990856928819,"20":0.44701220196233427,"21":0.013803056065936148,"22":0.5284592319309878,"23":-0.2597383217276304,"24":-0.1704586312977435,"25":-0.14371568605540377,"26":0.0853814895064032,"27":0.10519209081179605,"28":0.03146520479553117,"29":-0.1518965122929726,"30":0.7211994917414962,"31":0.5456229377810853,"32":-0.24435091470057146,"33":-0.30424956524024804,"34":-0.1403091506560689,"35":-0.12220561264862946,"36":-0.25211506388193344,"37":-0.2961172681519003,"38":-0.332725096071513,"39":0.05775361476889741,"40":0.29263325603964124,"41":-0.16235028212465774,"42":0.45741619914714804,"43":0.0960896002099653,"44":0.4645958785434905,"45":0.8479271693924395,"46":0.24940408011918358,"47":0.15297492821945322,"48":0.04017537278859222,"49":-0.08105894461712804,"50":-0.19347808414825685,"51":-0.25784434047528026,"52":-0.09029632065091253,"53":0.025686668600619165,"54":-0.17366504682032366,"55":-0.19611513194641905,"56":-0.08470946434727425,"57":-0.2882035079270321,"58":-0.029785565150164305,"59":-0.16461088326609635,"60":0.10216245199526756,"61":-0.15925959660943223}},{"sx":1,"sy":1,"depth":62,"w":{"0":-0.11227030524729578,"1":0.09671190501817785,"2":0.12099395852165279,"3":-0.13374421907476888,"4":0.19989662177034234,"5":0.09263944189012181,"6":0.2866858844201661,"7":0.23469010923824674,"8":0.026228289914529846,"9":0.09921089866512349,"10":-0.10414030368090856,"11":-0.08986621293029003,"12":-0.21714494358890787,"13":-0.015775728012662003,"14":0.15019173692070242,"15":0.08345213400726308,"16":0.12772744794615976,"17":0.07048622600906333,"18":0.10329001945061736,"19":0.08824670323726701,"20":0.18005043660316336,"21":0.02114296683422989,"22":0.031222536058686468,"23":-0.14798170456999868,"24":-0.1399849134611543,"25":0.0961622819782207,"26":-0.15354310805859184,"27":0.10383281305555192,"28":-0.045973312016762684,"29":0.04734457779802643,"30":0.14690204963037595,"31":0.2993610157215046,"32":-0.16618648178274417,"33":-0.3679495238103622,"34":-0.1720561293087277,"35":-0.17819798140657156,"36":-0.18257428100797407,"37":-0.18951288157835966,"38":-0.053926088966019414,"39":0.18280279523619763,"40":0.5190027466488871,"41":0.3003200197085711,"42":-0.09278345363072833,"43":0.0069800340840333675,"44":0.23414350222970873,"45":0.12025796702451008,"46":0.02421257228367407,"47":-0.11373623051361063,"48":-0.18998546355053178,"49":-0.030665957310907294,"50":0.04947361424644734,"51":-0.1456910273120059,"52":0.13026741727945282,"53":-0.08026676071163998,"54":0.26825600645347264,"55":-0.16505888397924443,"56":-0.14381662788713723,"57":-0.14999967801983058,"58":-0.12592420207674399,"59":-0.11389973330589861,"60":0.08903857243984492,"61":0.11308282962722847}},{"sx":1,"sy":1,"depth":62,"w":{"0":-0.15328846083320696,"1":0.03592386253452417,"2":-0.05801090593384574,"3":-0.1426434207725077,"4":-0.1600041601474061,"5":-0.013476833778892364,"6":0.21467067397232026,"7":0.11498712220842133,"8":0.06058798832931457,"9":0.11844019565085251,"10":0.121283093042984,"11":0.14643461599929122,"12":-0.03908910118759558,"13":-0.21132488473796254,"14":0.2460198523862777,"15":0.03049640836744363,"16":-0.04825422816397808,"17":0.05947583780843019,"18":-0.03285405280262889,"19":0.12498857486407475,"20":-0.03329433862076548,"21":-0.03916122390187246,"22":-0.08200263625702885,"23":-0.06665466424158333,"24":-0.06758267583542582,"25":0.25175322525584914,"26":0.006282525454039641,"27":-0.07012300661619392,"28":-0.16707169446848336,"29":-0.06008892694790203,"30":-0.06827060635068644,"31":-0.06269405855126682,"32":-0.11666461791485037,"33":0.044190141861607475,"34":-0.02442701557449574,"35":-0.13732125893769587,"36":-0.3083030646724316,"37":-0.09436029586099201,"38":-0.10511497217700236,"39":-0.16006176957706988,"40":0.6423395880790984,"41":0.039416461865003624,"42":0.012877423994430204,"43":0.04908220506709955,"44":0.18919020220938212,"45":-0.14068617643856487,"46":0.09738452245224674,"47":-0.08867418320109832,"48":0.22616113919320652,"49":0.14263612167973017,"50":0.10728046577010143,"51":-0.004815996088254251,"52":0.4658213042088124,"53":-0.03104192582149767,"54":0.08073082759313213,"55":0.02181595503578029,"56":-0.03471787087122602,"57":-0.08579632062589032,"58":-0.06791488148784892,"59":0.20643319311653074,"60":-0.21351548127639128,"61":0.19160477772045637}},{"sx":1,"sy":1,"depth":62,"w":{"0":0.04398722283082903,"1":0.0666740938334418,"2":0.27769154190237094,"3":-0.18152810210184486,"4":-0.0029708094174846237,"5":-0.19972234185387386,"6":0.15322272519039726,"7":0.08884409535587937,"8":0.1569593682787504,"9":0.21716163804323232,"10":0.04052345339673601,"11":0.010878287390286068,"12":-0.1876339179812463,"13":0.10374535164064719,"14":0.0778440458752784,"15":0.18786017902626592,"16":-0.11606993801918183,"17":0.3326819268321086,"18":-0.06331908500343136,"19":0.047731377059031195,"20":-0.11990958438433444,"21":-0.009845888914761347,"22":0.5471119884358532,"23":-0.18954055164771613,"24":-0.09721079732206155,"25":0.3912517695948671,"26":0.1276797964597881,"27":-0.09708839990773158,"28":-0.18151821730990486,"29":-0.11164210091119378,"30":-0.11017082080302251,"31":-0.19534872693849595,"32":-0.12765382969594416,"33":-0.09860249226201993,"34":-0.08926679993330841,"35":-0.08347976894986493,"36":0.03668685723420147,"37":-0.028555610630425346,"38":-0.17243262299408263,"39":0.10333926041738466,"40":0.01671032613639776,"41":-0.10182093694155958,"42":0.2937616989413169,"43":0.059026753746412634,"44":-0.1139402050645378,"45":0.04829475253574171,"46":0.24273015833159553,"47":-0.26772776430016204,"48":0.2723802619087891,"49":-0.20688492578058687,"50":0.38732432891728696,"51":0.13241746404271626,"52":0.19515455714473018,"53":-0.037271794829057396,"54":0.3621750594346081,"55":0.193855489163112,"56":-0.044427026307078676,"57":-0.12014739923602881,"58":-0.07970525593449669,"59":-0.09927997209397806,"60":0.050141814337874006,"61":-0.10359475648575917}},{"sx":1,"sy":1,"depth":62,"w":{"0":-0.3573499508867987,"1":0.03508320520498859,"2":0.1206463765333503,"3":-0.3188657396015763,"4":0.03359637449088509,"5":-0.20532627320160166,"6":0.2525072121357656,"7":0.35008006026628863,"8":-0.1441869040363834,"9":0.1487940834332079,"10":-0.33514519523727687,"11":-0.02816882586211103,"12":-0.22110063314999553,"13":-0.2407592581795484,"14":0.1855672198646215,"15":-0.04700369778478553,"16":0.5193976753501472,"17":0.11775275918666925,"18":-0.03574489293501184,"19":0.3932634946410934,"20":0.10360867577629661,"21":-0.0798097008338777,"22":-0.25044502377771405,"23":0.17105833663877598,"24":-0.02899045550039644,"25":-0.06924183293265965,"26":0.04617280868926878,"27":0.5125505786725667,"28":-0.039458199042640404,"29":-0.2073371446297872,"30":0.06414148373659798,"31":0.16337756369297768,"32":-0.3742675001034151,"33":-0.20748580693857532,"34":-0.26045496437805543,"35":0.09286102155497462,"36":-0.582386315721543,"37":0.31364944096820613,"38":0.10223801766820238,"39":-0.02838222817939429,"40":-0.1618588562010064,"41":-0.24362527028849698,"42":0.15494773415677376,"43":-0.059048271966609174,"44":0.11970648772968666,"45":0.18599355542747809,"46":0.30833510135653086,"47":-0.41440819281819075,"48":0.040556522985968194,"49":0.11242024642716722,"50":-0.06934662950293462,"51":-0.30199734961070357,"52":-0.08642205258503857,"53":-0.3304127170130879,"54":0.33418998858219773,"55":-0.06552833532824621,"56":0.058143193558943373,"57":-0.27931879342772986,"58":-0.1318745114504484,"59":-0.2781427417738435,"60":0.26604386368880917,"61":-0.058670818240603904}},{"sx":1,"sy":1,"depth":62,"w":{"0":-0.0971911293966478,"1":0.1534432973631242,"2":0.03767193303514169,"3":-0.01119359809818557,"4":0.14173963128346742,"5":-0.01627358788020131,"6":0.0993334268744416,"7":0.0043408312009312515,"8":-0.06776287188758964,"9":0.006018731371834067,"10":-0.05502661046785401,"11":0.24764788004772334,"12":-0.018263265827734416,"13":-0.021818369083858043,"14":-0.16050050011637845,"15":0.1865509485250653,"16":-0.006910158959131786,"17":0.2230582891881146,"18":0.16980099350754652,"19":0.09261539626890691,"20":-0.13996468523514957,"21":0.0861916005030661,"22":-0.07188418019286992,"23":-0.11061827430465256,"24":-0.18675079175127143,"25":-0.08075101929436151,"26":-0.06181360155008017,"27":-0.06359199297672133,"28":0.03319245469731605,"29":-0.09179735573113929,"30":-0.07160322735364337,"31":-0.07475356386446749,"32":0.4114718140853645,"33":0.2586997640378646,"34":0.04972675970882836,"35":-0.02170106805595031,"36":-0.07696358287047071,"37":0.0329301841514731,"38":0.2823503318415163,"39":0.05273529318300407,"40":-0.0649426540270656,"41":-0.07052978840375614,"42":0.017262817430787832,"43":-0.1323450772402447,"44":-0.10517733540505575,"45":-0.06912071601762591,"46":0.2298960042227258,"47":-0.16349301937807342,"48":0.14714021724643134,"49":-0.08909966756682731,"50":0.5604560803960982,"51":0.24401302683810633,"52":0.05975621439059441,"53":-0.08205421444376863,"54":-0.14489524676598098,"55":0.23101336226094277,"56":-0.22455987731502378,"57":-0.19605235519341094,"58":-0.2937572443244671,"59":-0.09080564970365249,"60":-0.07735911124978777,"61":-0.16761114283423115}},{"sx":1,"sy":1,"depth":62,"w":{"0":0.024433874212943917,"1":0.007197525294354852,"2":-0.004911679351991578,"3":0.0853162578067672,"4":-0.04462869260169645,"5":-0.14780764413323588,"6":0.12806648272862303,"7":0.16799832235636397,"8":0.08951371910962182,"9":0.20755876502149778,"10":-0.06791716001776847,"11":-0.19000072336207238,"12":0.09394343292124827,"13":-0.0001368261636800959,"14":-0.007798832783908612,"15":0.04659677676258615,"16":0.20718414429161716,"17":0.18063341053426682,"18":0.003768544914792109,"19":0.20932169755957045,"20":0.14825353622777854,"21":-0.08929965129780904,"22":-0.1892570845986555,"23":-0.1503789638309376,"24":0.024727239508036764,"25":0.16080501885007664,"26":-0.08333668344983007,"27":0.11462621308308267,"28":-0.027881771126279473,"29":-0.07311062070283932,"30":-0.16919024186019122,"31":-0.08631725204608515,"32":-0.23736809391353259,"33":-0.0720097765660125,"34":-0.09871372640394199,"35":-0.11375387522089123,"36":0.048227442833716376,"37":0.07311945351883929,"38":-0.18930279281026946,"39":0.08717878084093315,"40":-0.05126396853264753,"41":0.14362076427363932,"42":0.4925920555645522,"43":0.283847018606077,"44":0.14973666191079435,"45":0.16010700119551333,"46":0.33252688237836064,"47":-0.09347212848022891,"48":0.13102037058029029,"49":0.5265831359835015,"50":-0.09553360316798083,"51":-0.11370711724839949,"52":-0.24578829937738336,"53":0.1672842164069304,"54":-0.31281629080002615,"55":0.12833605868534234,"56":-0.05636401556662718,"57":-0.12223357806992353,"58":-0.0963457941451777,"59":-0.20974288579025485,"60":-0.024708027895728152,"61":-0.0020067965205932525}},{"sx":1,"sy":1,"depth":62,"w":{"0":-0.09112384831022793,"1":0.0380015225913249,"2":-0.20316949953746405,"3":-0.07549430574469117,"4":-0.12763589280208548,"5":0.051074049144015365,"6":0.12155222451814383,"7":-0.01410740304998255,"8":0.06617027337113753,"9":0.08426600564680439,"10":0.2881250386348732,"11":0.014575140674363302,"12":-0.1364502871488227,"13":-0.024842545816683513,"14":-0.2025321601811903,"15":-0.2476238971458318,"16":0.1071138362326267,"17":-0.03172330889047425,"18":-0.017210187139080044,"19":0.20447462541550115,"20":-0.027540664325869935,"21":-0.0055005246971509564,"22":-0.03661771892698165,"23":0.008675787932028415,"24":-0.12637944106305676,"25":-0.10733681007549863,"26":-0.10612097010800225,"27":0.17026245528590994,"28":0.05066539180125037,"29":-0.0805104995976142,"30":0.11069082795656356,"31":0.10830047571628212,"32":0.2079015750985683,"33":-0.020726138781351,"34":-0.04514161519620585,"35":-0.10657423775840294,"36":-0.061133923709561486,"37":-0.20097375975107068,"38":-0.016199991503546805,"39":0.18065675808126477,"40":-0.3538879435382119,"41":-0.016182329995100088,"42":-0.07613541309320843,"43":0.309892563659016,"44":0.1644218269182945,"45":0.2847617926317271,"46":-0.15760902736530297,"47":-0.06200663157618421,"48":0.03278723974575366,"49":-0.03642945523791326,"50":-0.20858863851502857,"51":-0.042049050558443844,"52":-0.20931483954276348,"53":0.02205366438054335,"54":-0.10787219780011773,"55":-0.19379426279683112,"56":0.07148727158654183,"57":-0.06036683871444582,"58":-0.16423104855894022,"59":0.1319648776840544,"60":0.16524900535275244,"61":-0.1275127012594387}},{"sx":1,"sy":1,"depth":62,"w":{"0":0.2565510090144031,"1":0.342148033896135,"2":-0.152408051081101,"3":0.06628294857710759,"4":0.2250643455138234,"5":-0.010349031497995438,"6":0.2444122949223665,"7":0.18236229062126025,"8":-0.12253316857128381,"9":0.4270070353424973,"10":0.05242149161255424,"11":0.1821552893178614,"12":0.14268142377941084,"13":-0.04055939702539741,"14":0.20073061887023463,"15":0.10987383088269644,"16":0.2787056309498008,"17":0.06727478701332593,"18":0.30120910444116966,"19":-0.014415536294567504,"20":-0.014837654089243662,"21":0.15120589381525204,"22":-0.1924484638310651,"23":-0.14550167177157894,"24":-0.07861885844949866,"25":-0.03812304168433389,"26":-0.09981755688274158,"27":-0.08084617557754509,"28":0.11726731896595408,"29":0.4253093824374755,"30":-0.06926592162496377,"31":0.43102790963128895,"32":0.02789512346264219,"33":0.047867736547909066,"34":-0.3657387536563009,"35":0.14787462203952623,"36":-0.30174939344513513,"37":-0.21847257658921201,"38":0.34534674893969536,"39":0.045758739418487286,"40":0.34222463365700806,"41":0.26629459335327177,"42":-0.22625158590213726,"43":0.09992126311631248,"44":0.32067382822291,"45":-0.14717226133704062,"46":0.1623560033144967,"47":0.5177920248187052,"48":-0.15982437802108412,"49":0.11506178851622306,"50":0.18677242983879108,"51":0.22028917595791814,"52":0.3280183117579847,"53":-0.022317162792756327,"54":0.2976389700716041,"55":-0.22159386306650905,"56":0.25540586128415727,"57":-0.07334111156164115,"58":-0.15735245803196843,"59":0.07801378546897801,"60":0.07691233789013316,"61":-0.2243507513775385}},{"sx":1,"sy":1,"depth":62,"w":{"0":-0.42784028677071057,"1":0.1199935349684652,"2":-0.11050972980305779,"3":-0.5149700229613908,"4":-0.01979925343541788,"5":-0.3572718516558528,"6":0.6059488385955225,"7":0.21998524817477966,"8":-0.19736722672247742,"9":0.017142353651285712,"10":-0.45711502780936775,"11":0.24808588310052718,"12":-0.5689251985232252,"13":-0.3456648338525048,"14":0.09032358324188505,"15":-0.33078285461689355,"16":0.4061030726165715,"17":0.47060958924198465,"18":0.05944901593393257,"19":0.4228992411022313,"20":-0.40476777844210843,"21":-0.16123497593326497,"22":-0.4730299285883136,"23":0.11099271785662587,"24":-0.06261622749212578,"25":-0.4530810088991005,"26":0.03223840192010851,"27":0.6351199805919342,"28":-0.22167543883425636,"29":-0.13173210973920202,"30":-0.28801942645382617,"31":-0.15280516363821392,"32":-0.8399569665034214,"33":-0.32842998774019005,"34":-0.43329219714731465,"35":0.33552540589366125,"36":-1.3748113334936212,"37":0.6727352675568089,"38":-0.12595539821252955,"39":0.13739401541499302,"40":0.12129047476045281,"41":-0.18253262233828596,"42":0.09083239772378388,"43":-0.2636114617068108,"44":0.4054846760682978,"45":-0.09959937243921249,"46":0.5395321975473606,"47":-0.6321720313797867,"48":0.16063569067845945,"49":-0.052370911857311436,"50":-0.14317612966044024,"51":-0.3099440698676057,"52":0.1328841373822474,"53":-0.2550311062305193,"54":0.5450552210466229,"55":0.08776477441475652,"56":-0.15788784436529513,"57":-0.38016609224138004,"58":-0.36187263930586905,"59":0.002541244302546039,"60":0.9474517394976127,"61":0.31650093080763314}}],"biases":{"sx":1,"sy":1,"depth":50,"w":{"0":0.14517258493357327,"1":0.10460280183421711,"2":0.2874759386640094,"3":-0.09977485806474283,"4":0.09486260624700642,"5":0.2275148476699835,"6":0.12409951902452958,"7":0.14236865798670195,"8":0.14617028073551266,"9":0.163986005261915,"10":0.13197713410599338,"11":0.08866543036197996,"12":0.1666096784860797,"13":0.2164791719731276,"14":0.14684038467737615,"15":-0.014240255975075162,"16":-0.09543971423119027,"17":0.04887550754452743,"18":0.12982222834618276,"19":-0.029153831879013836,"20":0.027136700955226762,"21":0.1483726490844925,"22":0.016150582677883173,"23":-0.11462960164523507,"24":0.31765965833706233,"25":0.13625484776642996,"26":0.13742708747716856,"27":0.09054386484955297,"28":-0.07441464463826193,"29":0.10765470667581432,"30":0.11763087778680842,"31":0.138470677399877,"32":0.17487579532993885,"33":0.3422471223522918,"34":0.22569072916762725,"35":0.1618900698355483,"36":0.13766996908495424,"37":0.15674687834381207,"38":-0.0501715078287023,"39":0.14616902083988062,"40":0.2141361307390745,"41":0.13546620711999122,"42":0.12359042419413013,"43":0.1131058006081618,"44":-0.08870942439009899,"45":0.180468739462363,"46":0.054987122478914366,"47":0.046987635175577164,"48":0.31345824232282254,"49":-0.27588283441556966}}},{"out_depth":50,"out_sx":1,"out_sy":1,"layer_type":"relu"},{"out_depth":50,"out_sx":1,"out_sy":1,"layer_type":"fc","num_inputs":50,"l1_decay_mul":0,"l2_decay_mul":1,"filters":[{"sx":1,"sy":1,"depth":50,"w":{"0":-0.0630248371521325,"1":-0.14798690666525066,"2":-0.23813319210406567,"3":0.4629805626408709,"4":0.03490873243411326,"5":-0.06942978714947909,"6":-0.08976237335591966,"7":0.05718224862719006,"8":-0.09961685072131116,"9":-0.036866803882978125,"10":-0.2162102716103207,"11":-0.11278698227200817,"12":-0.3011527528001799,"13":-0.0698446095058715,"14":-0.24006690770182065,"15":-0.12102847022517296,"16":0.24426193898251986,"17":0.1356649718429844,"18":0.0033026599148668697,"19":0.10002139370995346,"20":0.045474363035978876,"21":-0.09280494218247468,"22":0.24413516291453793,"23":0.17780022750089217,"24":-0.31428352597203807,"25":-0.1916659592092412,"26":-0.40069093103664716,"27":0.057245498857339316,"28":0.15975040751969116,"29":-0.11076405154217955,"30":-0.051966795695989706,"31":-0.07712465093187644,"32":-0.5559740163950384,"33":-0.12177067356772393,"34":-0.3377831890995585,"35":-0.25010889261561164,"36":0.10845339027790452,"37":-0.07922433419569519,"38":0.1718072710976002,"39":0.21987456276668713,"40":-0.25127521897445104,"41":-0.02214218630480439,"42":-0.07483448032676228,"43":-0.2830771424018948,"44":0.24334587936649246,"45":-0.10949872810672714,"46":0.1269195834955781,"47":0.3315200236558253,"48":-0.05388859044389514,"49":-0.0594791756295971}},{"sx":1,"sy":1,"depth":50,"w":{"0":0.21941055419359776,"1":0.10925045746000799,"2":0.23573446705763715,"3":-0.36718965005971865,"4":-0.43792075423288285,"5":0.09355379299878672,"6":-0.1724664002759285,"7":0.22710002174415153,"8":-0.013114067965590554,"9":0.22206546376651892,"10":0.07949940226139347,"11":-0.21486551067614343,"12":0.2638183266262108,"13":-0.24121337570123402,"14":-0.06471029795906134,"15":0.42445489748709697,"16":-0.14751838910856158,"17":-0.42990249186189106,"18":-0.2745835487987428,"19":-0.2836669845570167,"20":0.16859234577797164,"21":-0.07806103756804095,"22":0.11935367461329577,"23":-0.08297059101095669,"24":-0.31597547178091556,"25":0.11570295151679606,"26":-0.23677630494162852,"27":0.22015001491761577,"28":0.20081517874540467,"29":0.40422930034183047,"30":-0.07133658069565346,"31":0.01311688243742799,"32":0.1142505556702583,"33":-0.3074346469318115,"34":0.40981069133344866,"35":0.22205096464142546,"36":-0.36048581811665775,"37":-0.2608952218660115,"38":-0.18652173691339224,"39":0.2507032977304103,"40":-0.7170848402708085,"41":0.00829417829535695,"42":0.10058147633413267,"43":-0.031699566652385575,"44":-0.061400177662876386,"45":0.06544990352973823,"46":-0.20821824380103135,"47":0.020720591918729214,"48":0.13363850194553636,"49":0.45461663278521247}},{"sx":1,"sy":1,"depth":50,"w":{"0":-0.11491321093122234,"1":0.08276881445346619,"2":-0.12433186997806758,"3":0.03609989279842529,"4":-0.20614487999926429,"5":0.09399810937016599,"6":0.09539262698997025,"7":0.17029083830258204,"8":-0.1903828293067782,"9":-0.03758516311339356,"10":0.08199488384276281,"11":0.08209575989494744,"12":-0.0201977644126554,"13":0.1969535940161807,"14":-0.09226269594060851,"15":-0.11660417207070758,"16":-0.2960482561496336,"17":0.04699175102695512,"18":0.19130081343238758,"19":-0.21454113355973395,"20":-0.05696290040235561,"21":-0.18428193793596173,"22":0.03928341866911711,"23":0.08724825147786976,"24":-0.20943467734937665,"25":-0.14756437845088222,"26":-0.12934764382851122,"27":0.09907484183612715,"28":-0.02165096415760637,"29":0.02899460206111873,"30":0.0982064377489547,"31":-0.29696564899550904,"32":0.3409604430087344,"33":-0.06263587410203861,"34":0.10467733852279591,"35":-0.07450377154634578,"36":-0.015589409902253052,"37":0.1592482367472181,"38":0.200320179100781,"39":0.04050624045020823,"40":-0.08350740655579639,"41":-0.033350290263883246,"42":0.10604769237007837,"43":-0.16290654214501427,"44":-0.06111510809914338,"45":-0.3769116382573119,"46":-0.32820360351572037,"47":0.0045571975988652,"48":-0.0369903580097703,"49":0.04077695645950356}},{"sx":1,"sy":1,"depth":50,"w":{"0":-0.1214115429638266,"1":-0.09779050673128346,"2":0.028540945453002363,"3":0.012822197494181245,"4":-0.31595476487442226,"5":-0.005733611595724557,"6":-0.3582988453029785,"7":-0.045718192975916276,"8":-0.05682813529861341,"9":0.1924217020215659,"10":0.15033150023924735,"11":-0.06764099252500874,"12":-0.06647133878681719,"13":0.011171474490447962,"14":0.015370284661420361,"15":-0.22335244413189614,"16":-0.09451931222862398,"17":-0.3716786140825332,"18":0.1151260753500932,"19":0.0639159550794755,"20":0.11433228256412299,"21":-0.057072339964373414,"22":-0.12499217405775553,"23":-0.10568188902251845,"24":-0.27977574425334917,"25":-0.24231900268220463,"26":0.11854193724994574,"27":0.0627506225093728,"28":0.10863707782305777,"29":-0.10708830614443467,"30":-0.15704519696926494,"31":0.16985150309052938,"32":-0.2244737392397003,"33":0.14979860801517594,"34":-0.16667539962277705,"35":0.007047096432317822,"36":0.12439016810741221,"37":0.11402386980924889,"38":-0.3590508443585173,"39":0.08369309240847991,"40":0.2544322633876891,"41":0.10077716487811873,"42":0.029406889837124674,"43":0.08764038829308106,"44":-0.34856307804181597,"45":-0.0922394872799573,"46":-0.007971884882872728,"47":0.03845288747107558,"48":-0.026344858482445555,"49":-0.2620334423725172}},{"sx":1,"sy":1,"depth":50,"w":{"0":-0.317281333117969,"1":-0.00027759354626653637,"2":0.39405710646396636,"3":-0.041268222366470125,"4":0.058743255329584354,"5":0.1423594143339078,"6":0.22377057806141384,"7":0.26129156186362956,"8":0.02988880603485075,"9":0.14179077690974337,"10":0.03455643246327168,"11":0.33641299957518206,"12":0.3555492599650645,"13":-0.14292724585046296,"14":0.06142970351715117,"15":0.49674935502335227,"16":-0.17848876025440083,"17":-0.0029779191893905517,"18":-0.01598513605518474,"19":0.10024134376372303,"20":-0.028090448685249424,"21":0.16784773494139618,"22":-0.2156576182448456,"23":-0.16186241971264576,"24":0.6376653413691515,"25":-0.1815922569087318,"26":0.15210206976163398,"27":-0.3240169189430243,"28":-0.13017666442515285,"29":0.052227451377758076,"30":0.03244712179817038,"31":-0.02046720692693268,"32":0.16759252967390825,"33":0.22963858040796048,"34":0.04973319680575558,"35":0.4745565471247729,"36":-0.3236141809606755,"37":0.08445651229813524,"38":0.03400083153173838,"39":-0.40650407674777334,"40":0.37966382389571834,"41":0.047309622297292346,"42":0.18688275676073948,"43":-0.021003005420029,"44":-0.13455734376505066,"45":-0.22477369724861884,"46":0.19332527494844282,"47":0.02087203330152359,"48":0.09384077259564631,"49":-0.33902319721900703}},{"sx":1,"sy":1,"depth":50,"w":{"0":0.3065912972802565,"1":-0.05918970296969361,"2":0.19432946456168818,"3":0.08352429952121042,"4":0.010110071484746734,"5":-0.3210683923004557,"6":-0.02738001160605984,"7":0.22963830536060462,"8":0.16997768216044204,"9":0.02616455652560318,"10":0.22149475479924702,"11":0.09367301044374579,"12":0.002205751416070364,"13":0.13750792818319993,"14":0.03453171751593777,"15":-0.025933947282947574,"16":0.1300829494791605,"17":0.37574356029716216,"18":-0.0756369827144175,"19":0.006433862666379135,"20":0.07323101231434623,"21":-0.2036016775679746,"22":0.2065411327574013,"23":0.047991634609559186,"24":0.06755673009440527,"25":0.0008951647473925533,"26":-0.20740896419239685,"27":0.06809380028932138,"28":0.27557567210643813,"29":0.024024040758807496,"30":0.08697813661341394,"31":0.4384950353114617,"32":-0.02389452185829496,"33":-0.09088368277280473,"34":-0.0823066152793898,"35":-0.027520843726480906,"36":-0.33980997862532336,"37":-0.03547403404753717,"38":0.16671749865149688,"39":0.022091454468569634,"40":0.2603955296245668,"41":0.019495589289610215,"42":-0.11530617838343594,"43":-0.2568679965498138,"44":-0.08181337939345858,"45":-0.13939632468555366,"46":0.16589115697051166,"47":-0.07151046378110427,"48":0.19645401213763408,"49":0.04795564448421175}},{"sx":1,"sy":1,"depth":50,"w":{"0":0.274742260461633,"1":0.09275863858443482,"2":-0.33303214693103556,"3":-0.3854361538948894,"4":-0.23982280607743386,"5":0.23748761973181423,"6":-0.027677437822826778,"7":-0.15749821989707682,"8":-0.03858336698073702,"9":0.2484266490532881,"10":-0.2592150306412667,"11":0.021747682706871854,"12":0.039849523014023634,"13":0.18798566401210667,"14":-0.08848223369682072,"15":-0.06929597373847907,"16":0.2780614643741472,"17":0.13042210329836726,"18":0.05160863043499324,"19":-0.3729126884700329,"20":0.13253180544266846,"21":0.30450392332317644,"22":-0.289467090426154,"23":0.327198699610595,"24":-0.29124862090215364,"25":-0.055454415537638094,"26":-0.0394831074854917,"27":0.19830915724464301,"28":0.039699754465963376,"29":-0.06818887651822109,"30":0.009240285408573762,"31":-0.3641794247177267,"32":-0.03894178154730192,"33":-0.21670540095742438,"34":-0.02163478651658238,"35":-0.31693127921445935,"36":-0.14290318007413824,"37":0.07925611722838727,"38":0.3282299585566973,"39":-0.5627760363121584,"40":0.2738433628813029,"41":0.14151210231352468,"42":0.03049814747674221,"43":-0.265820974592028,"44":0.26835246484775355,"45":-0.2015191209176895,"46":0.1373586116670609,"47":0.1296940322569968,"48":-0.4449036498415209,"49":0.23559269655459505}},{"sx":1,"sy":1,"depth":50,"w":{"0":0.07232355847162417,"1":0.05041459900464645,"2":-0.10157194478834926,"3":0.23758372644076076,"4":0.0779845056790709,"5":0.056651468866041416,"6":0.1244897078090901,"7":-0.10252826449328707,"8":0.16614326350650221,"9":0.00482670633125475,"10":-0.06909562744170815,"11":-0.08144497736398436,"12":0.09534769504146916,"13":-0.2082733690223303,"14":0.09371031811498577,"15":0.2661924874433349,"16":-0.1713116509313894,"17":0.011133079865239044,"18":0.05677665360453039,"19":0.30107412854166243,"20":0.14535405247225774,"21":0.20968530084856069,"22":0.2836979233627007,"23":0.08252163599445221,"24":-0.3339538561062734,"25":-0.12581259814220833,"26":0.16307727525098412,"27":-0.09221711150294588,"28":-0.10831133802936772,"29":0.03721627356423923,"30":0.47017454033059375,"31":-0.29735572217081413,"32":0.11270509610410416,"33":0.18292045978678417,"34":-0.08715303358341768,"35":0.041259196184346515,"36":0.026460528416127768,"37":-0.09496474688722184,"38":0.07208038511107487,"39":0.08811909078895507,"40":-0.05018679192381806,"41":0.14712101127512184,"42":-0.2041185822846445,"43":0.09806056224120671,"44":0.3330761660863655,"45":0.04085704209228079,"46":-0.03756575113716951,"47":0.0014583041817996809,"48":-0.1338936584973079,"49":0.09277757882123196}},{"sx":1,"sy":1,"depth":50,"w":{"0":0.08273106546114337,"1":0.05273656627263614,"2":-0.2627778661669206,"3":0.008394083189200008,"4":-0.3660763739806326,"5":0.0036870082363323264,"6":0.11511858289186072,"7":0.01233710077233176,"8":-0.5050164405022515,"9":0.1609097618281806,"10":-0.06596334039580873,"11":-0.0693919432196852,"12":-0.09385863541041689,"13":0.14907078703298007,"14":-0.04844251119618707,"15":-0.1915416878396881,"16":0.3417527045804121,"17":0.17317412441959565,"18":-0.06991912830059063,"19":-0.1610816012976206,"20":0.3779614583899847,"21":0.22625327065296547,"22":-0.029013224725811866,"23":0.2684180857764961,"24":-0.45713197664784583,"25":0.18181728975036895,"26":-0.12809956109920695,"27":0.052460747580735316,"28":-0.039001349380049434,"29":0.0360365319191402,"30":0.2738246714350035,"31":-0.26872881196869913,"32":0.11272888111899709,"33":-0.3974739870819989,"34":0.15862794340435676,"35":-0.3742764347833236,"36":0.09368606763002751,"37":-0.04794596341815203,"38":-0.11215989030620366,"39":0.062475576432024046,"40":-0.15303451698425996,"41":0.015384801711355022,"42":0.03423459867027844,"43":-0.37647431024732597,"44":0.028779836456118917,"45":0.10018300564473362,"46":-0.0028214213327619384,"47":0.023695227451839378,"48":-0.27543588288959286,"49":0.05061499168738957}},{"sx":1,"sy":1,"depth":50,"w":{"0":0.23781518601298576,"1":0.08332729500314826,"2":-0.37214638440913217,"3":0.0002957314390963885,"4":-0.19652157233777795,"5":-0.3080173997987932,"6":0.5722686192220344,"7":0.1258782107405553,"8":-0.13182957569707818,"9":0.08438642430597891,"10":-0.029652350540296513,"11":-0.11944989358810801,"12":-0.10595559471029982,"13":0.11427117661255642,"14":-0.08723531940846717,"15":0.30282346568160934,"16":0.2767917805803861,"17":-0.025694517933122395,"18":0.05102596088736736,"19":-0.06908663196777026,"20":-0.020763515421138908,"21":-0.13030926240746918,"22":-0.02392915259884205,"23":-0.018242180201319947,"24":0.09493315831448543,"25":-0.12431603687758822,"26":-0.07779786777557275,"27":0.06434491967470417,"28":-0.14467097212528232,"29":-0.08620420619787256,"30":-0.052776324116639246,"31":-0.34427231967695043,"32":-0.3198028339640657,"33":-0.05286178323622515,"34":-0.5749178269549605,"35":0.3180699452574641,"36":0.3561771228183823,"37":0.2773768019427192,"38":0.011312243572647394,"39":-0.1668776073494135,"40":-0.21287238039083237,"41":0.12394679310344037,"42":-0.12478585216480899,"43":-0.30729758217208974,"44":0.26474947295255397,"45":0.06726266706386155,"46":-0.154298034847411,"47":0.13335518245966954,"48":0.17935609656172385,"49":0.3443246241590199}},{"sx":1,"sy":1,"depth":50,"w":{"0":-0.37863048033333885,"1":-0.11693186426748471,"2":0.36248315644003515,"3":0.38228433499517356,"4":-0.2610002939395289,"5":0.15111198298207548,"6":0.31617834505864933,"7":-0.017259782352312528,"8":-0.21914887625889587,"9":0.11463373208350472,"10":-0.07458209400016627,"11":-0.32980937988243625,"12":0.1566409174181467,"13":-0.08243405611727801,"14":-0.1553563027736738,"15":0.5956621668578441,"16":0.03389824244440456,"17":-0.5163805888742907,"18":-0.027910877100358188,"19":-0.08559110541020508,"20":0.48787954875582945,"21":-0.3402863861403691,"22":-0.21501313503037087,"23":-0.06799522610829517,"24":0.15368134799382516,"25":0.1541828160926812,"26":-0.2661268782337769,"27":0.027180418022153967,"28":-0.19904146861208388,"29":-0.24642636301353582,"30":0.16709817483436215,"31":-0.16487206918712646,"32":0.011309833365140043,"33":-0.03541834696079178,"34":0.21600973426173972,"35":0.010132555434122045,"36":-0.11095786676802359,"37":-0.08587563477343782,"38":-0.06191836335645399,"39":-0.22376262414944492,"40":-0.08367250886472234,"41":-0.02983676579761937,"42":0.2088395667411226,"43":0.041654687967908846,"44":-0.15539354481449288,"45":0.21858751469779525,"46":-0.022919456580282056,"47":0.05202290770755181,"48":0.16259213319707172,"49":-0.15676256281212328}},{"sx":1,"sy":1,"depth":50,"w":{"0":0.36901594246036584,"1":0.26238736827798315,"2":-0.3798466897278167,"3":-0.020953034668498943,"4":-0.04052819389621635,"5":-0.21940991483358033,"6":-0.2498725500914816,"7":-0.03460731213800058,"8":-0.2798840084640307,"9":-0.08981985919229553,"10":0.07799385525916472,"11":0.09751341110447088,"12":-0.1466130696449485,"13":0.11053303087904222,"14":-0.15190781950152024,"15":-0.11504831744518261,"16":0.33820916505066784,"17":0.6005392067274804,"18":0.20446706193966374,"19":-0.08356563853569661,"20":-0.2637988909671789,"21":-0.015630197657249826,"22":-0.3071011542129176,"23":0.3336516746089218,"24":0.20378957582272456,"25":0.0970008404395422,"26":0.10554793022375371,"27":0.17609843491333557,"28":-0.03735927296623508,"29":0.06596929322407422,"30":-0.29584373000026865,"31":0.24322299161271338,"32":-0.030788707268131182,"33":-0.26868445542589847,"34":-0.2736887628100258,"35":-0.33628188837715917,"36":-0.06580426935239715,"37":-0.15191442672883718,"38":0.13985838107702794,"39":-0.4586655512172772,"40":0.20250448415713984,"41":-0.17340313786812522,"42":-0.06870660854006676,"43":0.20687824592916304,"44":0.1759681695312371,"45":-0.2802017361913358,"46":0.4195310174295113,"47":0.03645596715404575,"48":-0.23885903883443338,"49":-0.3856673894322081}},{"sx":1,"sy":1,"depth":50,"w":{"0":-0.04522413393598936,"1":-0.07420773756516116,"2":-0.2244873859455358,"3":0.07786072936674691,"4":0.1028950435909684,"5":-0.08627174832467356,"6":-0.1406016996837778,"7":0.06602254331101702,"8":-0.07194674158124208,"9":0.08430827634891196,"10":-0.04254327782217465,"11":0.009764721668669046,"12":0.09446585144003464,"13":0.03311152581540741,"14":-0.2401940404756367,"15":0.026976248270129767,"16":-0.17493144926700602,"17":-0.03131018652302036,"18":0.074518040889403,"19":-0.09569669225145419,"20":-0.1033347991437488,"21":-0.03271995364292157,"22":-0.053463137112310335,"23":-0.15507598987549762,"24":-0.20646754448710242,"25":-0.0832445111498431,"26":-0.05444410896126987,"27":-0.04903997240190105,"28":0.012731174473148761,"29":0.04664570515609221,"30":0.07064669247931828,"31":0.07395375086826096,"32":-0.08267268925381831,"33":-0.232478524625972,"34":0.16069981577386036,"35":-0.19180150299749826,"36":0.07697300605441953,"37":-0.05066529067470465,"38":-0.10963438285000476,"39":0.03206482209943147,"40":0.20978629051171846,"41":-0.23498079536503103,"42":0.09631129516987709,"43":0.14180352672553173,"44":-0.044863338729095,"45":0.26863180744341236,"46":-0.1802379320507729,"47":-0.076950265191793,"48":-0.008872351426706997,"49":0.2082084974337934}},{"sx":1,"sy":1,"depth":50,"w":{"0":0.2879934171705268,"1":0.11442773199904813,"2":-0.1933755619926878,"3":-0.2542821043596405,"4":0.05450322794567483,"5":-0.1592051335896514,"6":-0.42944299686719456,"7":-0.05212423983299629,"8":-0.07433116727002563,"9":-0.30131771069110336,"10":-0.042494372968525915,"11":0.2775000942851605,"12":-0.2076544000488359,"13":-0.08620745218352478,"14":0.05079305825679361,"15":0.05064854346514759,"16":-0.005086903482257023,"17":0.268558404837331,"18":-0.07471603843593137,"19":-0.028129408279397364,"20":0.0004013459298848448,"21":0.20380174037768195,"22":-0.020847026101238134,"23":-0.3013743135693355,"24":-0.19363932772684114,"25":0.037052588225386235,"26":-0.030975811804931162,"27":-0.05704687056687476,"28":0.30228781342233313,"29":-0.1987071730339294,"30":-0.4950963839350276,"31":0.16014113864617055,"32":-0.14664924796537268,"33":-0.008424793978965468,"34":-0.031017590475828253,"35":0.5039497233704665,"36":-0.22412936845760964,"37":-0.18313517633450818,"38":-0.07447023945367477,"39":0.2650706410492603,"40":0.2321112411945414,"41":0.04948547810041658,"42":0.19425497673787967,"43":-0.19444819159948162,"44":-0.09419551585568314,"45":-0.018761759573213875,"46":-0.37163514076901266,"47":0.11436718668264342,"48":0.2322874168415799,"49":0.6598429836656156}},{"sx":1,"sy":1,"depth":50,"w":{"0":-0.27916304775036926,"1":-0.0852357875463879,"2":0.0699034642487433,"3":-0.10935620878522632,"4":-0.2813361105101868,"5":0.1145362983748974,"6":0.18666226543437808,"7":-0.20014082538005448,"8":0.25348920355452415,"9":-0.16424041673268738,"10":-0.4113186054523855,"11":-0.28797531082613587,"12":-0.2655649331761035,"13":-0.025215983544619295,"14":0.217658866050399,