{"layers":[{"out_depth":43,"out_sx":1,"out_sy":1,"layer_type":"input"},{"out_depth":50,"out_sx":1,"out_sy":1,"layer_type":"fc","num_inputs":43,"l1_decay_mul":0,"l2_decay_mul":1,"filters":[{"sx":1,"sy":1,"depth":43,"w":{"0":-0.009501319624967084,"1":0.07083921739832474,"2":0.20579310496556907,"3":-0.2625192748017118,"4":-0.06558315714117736,"5":-0.04694531649459034,"6":-0.044936766017218986,"7":0.171282049431551,"8":-0.1764475132211326,"9":0.09905290188676172,"10":0.09330293971493969,"11":-0.0027486171241647784,"12":0.05177673491238754,"13":0.007413162911270456,"14":0.23394954709978416,"15":-0.09155410944655946,"16":0.2012765343664806,"17":-0.1448118313157468,"18":0.10119784168165055,"19":0.13502267969030476,"20":-0.09890251755434334,"21":0.19648378226289348,"22":-0.0856375589198485,"23":0.2700198265288662,"24":-0.1971876330420184,"25":-0.11552794995824862,"26":-0.08430564434197438,"27":-0.1148876110083378,"28":-0.027244834440409118,"29":0.09981841102502673,"30":0.012099489142292294,"31":-0.10565888000587334,"32":0.1654247568790895,"33":0.07418821519687434,"34":0.07874578260732433,"35":-0.0024171031249154177,"36":0.07283367953210801,"37":0.26194871036159595,"38":-0.11441195299565865,"39":0.08764090725018792,"40":0.26262080996222087,"41":0.1482091434541985,"42":-0.18254524424472562}},{"sx":1,"sy":1,"depth":43,"w":{"0":0.1300137557092022,"1":0.12612254192054512,"2":0.05022645131236524,"3":0.044215345768645956,"4":0.24885940777152454,"5":-0.12156017601598222,"6":-0.14199447333428905,"7":0.021426222098011483,"8":0.03268666056815681,"9":0.28699891524203175,"10":0.03624286528496576,"11":0.17834936629603773,"12":0.08465623064281855,"13":0.3550975315932362,"14":-0.2897390820742487,"15":0.07935087047526343,"16":-0.029206403428494034,"17":-0.09136965380316257,"18":-0.06748682974393898,"19":-0.08287312277449577,"20":0.10298330030595747,"21":0.02616646809350025,"22":-0.08502713022757181,"23":-0.018032282775017002,"24":0.05396490807405598,"25":-0.017640073127542375,"26":0.04555655333987901,"27":-0.01991436789665122,"28":-0.14383321139202113,"29":-0.15978844355362945,"30":0.2025381176149019,"31":0.21447740455787673,"32":-0.1526905674261717,"33":0.08054080189966428,"34":-0.26336270075860946,"35":-0.029686406588166857,"36":0.11756147205333609,"37":-0.08258948652700385,"38":0.05288954508050319,"39":-0.04330835696007109,"40":0.16193237471378202,"41":0.27903616004892695,"42":-0.1919444699334351}},{"sx":1,"sy":1,"depth":43,"w":{"0":-0.10764164628975308,"1":0.05540093837361974,"2":0.024713597588273867,"3":0.04540336168189993,"4":0.05239214858919381,"5":-0.014013125008839231,"6":0.1993363334067377,"7":0.22953982283013202,"8":0.17552747308275093,"9":0.08616479651784617,"10":0.07004690284739128,"11":0.08088014756741536,"12":0.1586981706468806,"13":-0.3695020582073961,"14":0.18686375877785413,"15":0.16347182676712332,"16":0.11604224275609899,"17":-0.0027915479976101643,"18":0.03459030315909097,"19":0.10104971260575193,"20":0.11907464644245122,"21":0.11528572283409651,"22":0.09499109275866062,"23":0.3142722144347099,"24":0.15700762122450249,"25":0.1310854707635094,"26":0.12952486544567873,"27":0.4532390987629283,"28":-0.09935986394798207,"29":-0.11387470693179635,"30":0.04899638962830724,"31":-0.030636784106802522,"32":0.4024919620806779,"33":-0.15045534352463824,"34":-0.13243617272210498,"35":-0.0632765489029046,"36":-0.18626050963800725,"37":-0.04442629549817826,"38":-0.22982459641436015,"39":0.2307526844564247,"40":-0.2892740808988192,"41":0.12706165151431645,"42":-0.1390136709549013}},{"sx":1,"sy":1,"depth":43,"w":{"0":0.18613595479717226,"1":-0.11185141567797802,"2":0.036293984414802805,"3":-0.46324486490002514,"4":0.06113230755340372,"5":-0.25315335740202166,"6":-0.18245930488533965,"7":0.01753229719681667,"8":0.01578767709467581,"9":0.17015362735763287,"10":-0.0835930551608602,"11":-0.10570668794390888,"12":0.104445007213226,"13":0.2689290820814848,"14":0.18044855023537787,"15":0.008927499164295815,"16":-0.1780225031754466,"17":-0.19766126480574575,"18":-0.10240128711314453,"19":0.00441144893982359,"20":0.12017656500111347,"21":-0.030170771012116362,"22":-0.018147421265076204,"23":0.07301111834284457,"24":0.07821350048874372,"25":0.17017654133659274,"26":-0.2899050866497468,"27":-0.26401654273370917,"28":-0.19930385445355242,"29":-0.24775868317750432,"30":0.18037469951700366,"31":-0.09937404044730527,"32":0.14845506921773835,"33":-0.02270384271202984,"34":0.10128251642353035,"35":-0.18215905159632761,"36":-0.06028131683076494,"37":-0.014096936684397869,"38":-0.0032471105789297974,"39":0.3124368069055787,"40":-0.24379239145754308,"41":-0.12020267606884116,"42":-0.09285763703812645}},{"sx":1,"sy":1,"depth":43,"w":{"0":0.0830182590937222,"1":-0.05869019679716153,"2":-0.11435359225219656,"3":0.14431547614336512,"4":0.22137592247098703,"5":0.12650433064287495,"6":0.16945937729875907,"7":0.01999629598634719,"8":-0.18276503148879772,"9":0.09601282816245836,"10":0.24356893275121141,"11":0.2893562395483961,"12":-0.050667246333225814,"13":-0.07335011375870486,"14":0.2120204512781497,"15":0.03142564800692887,"16":-0.1265081127312451,"17":0.17918458025407763,"18":-0.13826762560304218,"19":0.15494698519631703,"20":-0.03302091021845675,"21":0.0434847419126481,"22":0.17625064052937914,"23":0.35660481398348504,"24":-0.09583810678020199,"25":-0.13448183157576443,"26":0.1816039573765358,"27":0.15644048500976804,"28":0.10328607686711093,"29":0.020996593756548602,"30":-0.43349834804118403,"31":0.08140342991688497,"32":-0.10906120472989289,"33":-0.05101000771901472,"34":-0.010699355322050708,"35":-0.031703924623877465,"36":-0.029461203760008218,"37":0.3361702230776394,"38":-0.15658316134762607,"39":0.07635158518628793,"40":0.21622549446216163,"41":0.10074479294112497,"42":-0.033910517981999816}},{"sx":1,"sy":1,"depth":43,"w":{"0":-0.03758991649206897,"1":-0.07290780771530998,"2":0.04549656358374035,"3":-0.011468107406200228,"4":-0.13623139544477628,"5":0.026366084593917077,"6":0.013771543167783916,"7":-0.330714561842874,"8":0.11828011492286299,"9":-0.004633924156842853,"10":0.01259136520789334,"11":0.13004699537099176,"12":0.08247529490567033,"13":0.21042259273971836,"14":-0.12917900612403688,"15":-0.15561139228023282,"16":0.06348958822594983,"17":-0.06749970990449022,"18":0.21229084849580954,"19":-0.031609774025325256,"20":0.043959948791226645,"21":-0.14837862050269895,"22":0.19622726026360438,"23":0.3047464702533658,"24":0.029399118539112354,"25":-0.1378874032235961,"26":0.25110831686980556,"27":-0.031916598117849235,"28":0.09830810556549957,"29":0.08619112061201122,"30":0.25229428640737284,"31":0.19246186502670962,"32":0.1751002266865076,"33":0.2208212029927088,"34":0.0010323381357077773,"35":0.07194389388075352,"36":-0.024602841489780647,"37":-0.04456283309714189,"38":-0.11842183897128476,"39":0.2681898692114011,"40":-0.0631026733558142,"41":-0.10874436375779775,"42":0.23804229237112146}},{"sx":1,"sy":1,"depth":43,"w":{"0":0.04161160772602082,"1":0.047743639619890164,"2":-0.2482266553169581,"3":0.012235871639563288,"4":-0.27813222939965365,"5":0.09426519936169116,"6":0.1964504560726556,"7":0.010532764181188871,"8":-0.13924008361769055,"9":-0.18657537307467026,"10":-0.15943589785523024,"11":0.024763919172737712,"12":0.03334718160061186,"13":-0.1212197416580941,"14":0.03772182034187785,"15":0.1775497073879747,"16":-0.10849450922950767,"17":-0.09047344330920185,"18":0.03502656748184257,"19":-0.16333232512704374,"20":0.1606029891233127,"21":0.18053695287907223,"22":0.1721168324422206,"23":0.20780546588523519,"24":-0.06925523226249579,"25":-0.11606880889882058,"26":-0.0021391360244597513,"27":0.06492148806490992,"28":0.15107024566121652,"29":0.20783615294392568,"30":-0.328231792446611,"31":-0.04290124631931444,"32":-0.10436300262535404,"33":0.031060490080554646,"34":-0.08594430326387015,"35":0.2984067701898991,"36":-0.24524034779630013,"37":-0.044960255317619706,"38":0.19376717360164267,"39":0.19399100118970605,"40":-0.026204206530611576,"41":-0.026174963130594964,"42":0.026680807935079248}},{"sx":1,"sy":1,"depth":43,"w":{"0":0.2404130671612994,"1":0.1550271271867976,"2":0.05879404788821842,"3":0.18947879734542963,"4":-0.09395550000277979,"5":0.01773146818294104,"6":0.12871902039683303,"7":0.3511454728653581,"8":0.1523344325226984,"9":0.11297193849139994,"10":-0.004979913635134909,"11":-0.3210970968734852,"12":-0.12806696465966366,"13":0.06104649006820686,"14":-0.02223895764442876,"15":-0.15278727592927482,"16":-0.04191711399044261,"17":0.2119258829419667,"18":-0.019281701932582603,"19":-0.11273757003497001,"20":0.11514768566257436,"21":0.048165932274684534,"22":0.19228221040312066,"23":-0.2105805240874001,"24":0.18074504453967977,"25":-0.07735016914181547,"26":-0.25800200845001336,"27":-0.00489447915709647,"28":-0.2437613925375884,"29":-0.12260557452339184,"30":0.07089693700229652,"31":-0.18473024018281042,"32":-0.07163314499293393,"33":-0.12940948303206273,"34":0.013914008976234168,"35":-0.10074590788706149,"36":-0.1843874313886222,"37":0.07060529946688034,"38":0.00042017035619431746,"39":-0.13627152914438795,"40":-0.1902080496327252,"41":-0.08556608532934266,"42":-0.04050119913855885}},{"sx":1,"sy":1,"depth":43,"w":{"0":0.11329769520712035,"1":-0.1920314471942567,"2":0.17149891854375485,"3":0.1305952939261451,"4":0.0029585254571739394,"5":-0.02113340729533724,"6":0.22129515609365502,"7":-0.3034788864757998,"8":0.2938718064529412,"9":-0.053866208851848514,"10":0.10410642003869479,"11":-0.08706105140364588,"12":0.041762348082239255,"13":-0.10359655332261714,"14":-0.0294485608215587,"15":-0.22642824164787712,"16":-0.1494677972005717,"17":-0.056658615104306524,"18":-0.123990578981732,"19":-0.08938722765580838,"20":-0.22265763904081445,"21":-0.1290260981919121,"22":-0.06691096187446698,"23":-0.24935899003592513,"24":-0.2841191677615846,"25":-0.11769041684340449,"26":0.13185564376879233,"27":-0.006518327992696598,"28":-0.025529842399881725,"29":0.00576427375144465,"30":0.08713257849123014,"31":-0.12030640337826334,"32":0.0578723427542431,"33":-0.028443599721012576,"34":-0.13286111615751708,"35":0.061373791537030875,"36":-0.03836285371163769,"37":0.1617388979098289,"38":0.11776702996273822,"39":0.0030048268745653767,"40":-0.07829216392433265,"41":-0.13227201917593487,"42":-0.2390525765697072}},{"sx":1,"sy":1,"depth":43,"w":{"0":-0.007906846839416119,"1":0.03244699737025097,"2":-0.24191445038700057,"3":0.02315606358785181,"4":0.015701019423517593,"5":0.04723767695374177,"6":0.009409687641977704,"7":0.10862264581223835,"8":-0.24198139012323322,"9":-0.03747353250142528,"10":0.05573910806189297,"11":-0.05882812627022435,"12":-0.16957141651169713,"13":-0.001997863673617217,"14":-0.09037910143548604,"15":-0.03156054143600264,"16":-0.005063917256138685,"17":-0.03457722831214798,"18":0.08007483869085581,"19":0.05692100855420725,"20":-0.055352249380475504,"21":0.14236161635073424,"22":-0.02762234122359103,"23":-0.47622154167066166,"24":-0.09528069987847543,"25":0.02669840793921148,"26":0.16406847038248912,"27":0.02669146233637277,"28":-0.02646299378555036,"29":0.1737039593582489,"30":-0.053616579515223375,"31":-0.07897638150731992,"32":-0.10293417394380447,"33":-0.11156651793416507,"34":0.010396060602745026,"35":-0.1491815733617423,"36":-0.06863638283719731,"37":-0.12592006231608063,"38":0.05602676117635742,"39":0.09086976445774404,"40":-0.1347814568215862,"41":-0.046111407153118476,"42":-0.07896643089242943}},{"sx":1,"sy":1,"depth":43,"w":{"0":0.15133408705103396,"1":-0.029598363907127345,"2":-0.17303322227934115,"3":0.10878883190050957,"4":-0.2176382850932993,"5":0.04002310594397749,"6":0.05307455190236692,"7":0.1504103665037769,"8":0.01684745654794062,"9":0.22486964499820866,"10":-0.08942478988992277,"11":-0.18054132130851303,"12":0.048735345104491,"13":0.014690983616642658,"14":0.0006167488351643176,"15":0.031014731971834256,"16":0.059439974914431065,"17":0.12920171332176789,"18":-0.16459672521797283,"19":-0.22574114175076868,"20":-0.1501108161775394,"21":-0.09463787205222703,"22":0.06647915711095041,"23":0.41044300991278293,"24":-0.0735160419299972,"25":-0.04394261582391668,"26":0.07087869320343114,"27":0.027315487629380908,"28":-0.00023021290140358324,"29":0.10451461385772029,"30":0.26574836836128074,"31":0.1604656788502478,"32":-0.10792252620413817,"33":-0.2408280473974955,"34":-0.16933076862913987,"35":-0.03001889718925226,"36":-0.10208623005419049,"37":0.005222222555815696,"38":0.15499762012370014,"39":-0.027879121797616077,"40":-0.00968568062943465,"41":0.053898583207889074,"42":0.13043928428892912}},{"sx":1,"sy":1,"depth":43,"w":{"0":0.047019716973088786,"1":0.19096645049442076,"2":-0.26961752272416073,"3":0.023614230537521205,"4":0.20428128261673273,"5":-0.11694543899232009,"6":-0.061029521912916544,"7":0.07280187206489092,"8":-0.14756013960227582,"9":0.10030738170522056,"10":0.04101618305030284,"11":0.11476150078447135,"12":-0.1965173680453195,"13":-0.08867424882127432,"14":0.0627651887410986,"15":0.07074325612914559,"16":0.142075845263668,"17":0.18360580834742052,"18":0.005176044565548706,"19":-0.19173144501530393,"20":0.10989335366070258,"21":-0.07508340260707819,"22":-0.15729934381485536,"23":-0.08788380729566447,"24":-0.14795568097840253,"25":-0.03797347587254003,"26":0.012133613941512694,"27":0.10576828100145219,"28":-0.2299511400055694,"29":-0.18753703671847813,"30":0.0003994779021465518,"31":0.08621781073430848,"32":-0.04058744071847099,"33":-0.04117245056644009,"34":0.0919192008697817,"35":-0.019411069601801046,"36":0.14258962258590688,"37":-0.4073428964761517,"38":0.10563176098966237,"39":-0.3751533259148392,"40":-0.1950447082777362,"41":-0.14226237256249846,"42":0.17089763743321607}},{"sx":1,"sy":1,"depth":43,"w":{"0":-0.10652497461361753,"1":0.14476401112195358,"2":0.0786312779868767,"3":-0.021609377437431593,"4":-0.1350510213113131,"5":0.2629961878121281,"6":-0.09832405496227715,"7":-0.18289583853658697,"8":0.24158810781861495,"9":0.021536436790407086,"10":0.30723765801109837,"11":-0.034387714530737655,"12":0.13372975151912186,"13":0.18158138470664847,"14":0.1419726197841675,"15":-0.25254967584909127,"16":0.06579502056946206,"17":0.02563957358196675,"18":0.0053762253367739465,"19":0.2943973567717218,"20":0.0332627690301541,"21":-0.2926591410832738,"22":0.0027701680148309996,"23":0.05562838405094634,"24":-0.3143975831443323,"25":-0.06442618807605861,"26":0.10140284597470771,"27":-0.01703380002465234,"28":-0.15169024116098462,"29":-0.12418704055678036,"30":0.14320547350849386,"31":0.10158826837177912,"32":0.0399680072775435,"33":0.20437961396993656,"34":0.08749042217061877,"35":0.15338786810774668,"36":0.06103580836587795,"37":0.17235045725350073,"38":0.08764554524418833,"39":0.031346659266934855,"40":0.06010809692897594,"41":0.2305661117902868,"42":-0.09678037514262643}},{"sx":1,"sy":1,"depth":43,"w":{"0":0.01625567788888971,"1":0.018858147583944447,"2":0.18592570838218944,"3":-0.15977991038802125,"4":-0.14591648440070004,"5":0.025691698923989474,"6":-0.01738364415621375,"7":0.011015724573970584,"8":0.03424383699221602,"9":-0.02592631882489404,"10":0.02581283065489669,"11":-0.031217782776251146,"12":-0.3193541177465053,"13":0.045970178210234844,"14":0.3046388520390594,"15":-0.05768865536950549,"16":0.09666232915986638,"17":0.2629535164187121,"18":0.23442260492081463,"19":-0.12425246661812608,"20":0.021876749243516434,"21":-0.006603605470420952,"22":-0.043952810192943496,"23":0.27121844282831864,"24":0.3704145887629271,"25":0.06662432305299568,"26":-0.4085835629861975,"27":-0.10702478339871513,"28":-0.006676778666526237,"29":0.16974194912127732,"30":0.07239521353974496,"31":-0.13601352973338168,"32":0.2420773826273091,"33":-0.13741197275267655,"34":0.005612133269580265,"35":0.3085008467499014,"36":0.14658008406989798,"37":0.07194903941216374,"38":0.055743655918469595,"39":0.37773695718870093,"40":0.18707540144261378,"41":-0.018128384025619105,"42":0.13251024497153246}},{"sx":1,"sy":1,"depth":43,"w":{"0":0.1089442376729009,"1":-0.12476894523769759,"2":0.06840446080282027,"3":-0.042448930564421665,"4":0.147919170378179,"5":0.03437883628872461,"6":0.2074216542316008,"7":-0.02763128117702423,"8":-0.04007924387874862,"9":0.007070880273812041,"10":0.11941705506260786,"11":-0.12288939248057756,"12":-0.1737425768899432,"13":-0.14470897019719475,"14":0.15969179444018347,"15":0.062314774505796255,"16":-0.042133654027995134,"17":0.21768203114106643,"18":0.14840479872632034,"19":-0.04110681835550482,"20":0.04225353137183115,"21":-0.1486542843306394,"22":-0.08622425535558335,"23":0.3104745925854087,"24":-0.06673560156142173,"25":0.08440117130488786,"26":0.01570867967006707,"27":0.16978959247163666,"28":-0.2914751144406503,"29":-0.03809220867259173,"30":0.08703240696338252,"31":-0.22698192647225776,"32":0.13782119472540535,"33":-0.20436155187599045,"34":0.23537172878052537,"35":0.05405012051817248,"36":0.2575316805359946,"37":-0.08429004834657061,"38":0.058768562472286706,"39":-0.2147948200569509,"40":-0.07172362791428168,"41":-0.05008561658233305,"42":-0.07423958989965725}},{"sx":1,"sy":1,"depth":43,"w":{"0":-0.06359862763176818,"1":-0.058611925526349445,"2":-0.03164670265085748,"3":0.0703128829562853,"4":-0.09627371738428446,"5":-0.03221562775575232,"6":-0.15942135330281243,"7":0.27995440138753463,"8":0.1245733897446225,"9":-0.17837429977869496,"10":0.05769216419694416,"11":0.2932358172511594,"12":-0.18262262866576817,"13":-0.12683827074059814,"14":-0.023086533047257236,"15":-0.22686609402729233,"16":-0.06054025949110084,"17":-0.1684429213365092,"18":0.16204878317789168,"19":-0.05650659769363879,"20":-0.13227137231852945,"21":0.13445417746116164,"22":0.12829854322177536,"23":-0.025065335093616175,"24":-0.14113563586552083,"25":0.07964968564600916,"26":0.11969439337792144,"27":0.04953028747917998,"28":0.050133921983005786,"29":-0.2319765902189501,"30":0.02775903790416097,"31":0.024759883715783786,"32":0.0959447855620311,"33":0.1160486734232858,"34":-0.1886155290174251,"35":0.19281395576049554,"36":-0.08227495760578953,"37":-0.13049506469927893,"38":0.14764926331346176,"39":-0.29440041036896863,"40":-0.006175442842316563,"41":0.3317221442036142,"42":-0.06243249059905992}},{"sx":1,"sy":1,"depth":43,"w":{"0":0.1970121964150437,"1":0.07940221022766068,"2":0.042714711573188534,"3":0.16804605426170746,"4":0.10503713652014926,"5":-0.32924847765224774,"6":0.160465801988593,"7":0.011829347554538195,"8":-0.07756572995488371,"9":0.1715949380573498,"10":-0.014978040250152664,"11":-0.034383419287122484,"12":0.053899521597031354,"13":-0.09125654261686468,"14":0.14616671224356856,"15":-0.047980878068748456,"16":0.10214188315855499,"17":0.060379924545681085,"18":0.21858236396723013,"19":0.13318311283472647,"20":0.18124687942781442,"21":-0.17760963999800772,"22":-0.11922609482905938,"23":-0.05742873886261038,"24":-0.05214258647819283,"25":-0.051830597568260584,"26":0.1636217941571556,"27":0.03520389038276789,"28":-0.13561719049814744,"29":-0.08374173104427193,"30":0.11166573595204803,"31":0.09669913945172944,"32":0.27902161699013334,"33":0.006325752163085965,"34":0.016951072801098994,"35":-0.13463941817717215,"36":0.06821512595866379,"37":-0.07520968491514866,"38":0.05086129381066639,"39":0.1651265763302937,"40":0.22931969558924797,"41":0.09329085091675586,"42":0.19251500016375017}},{"sx":1,"sy":1,"depth":43,"w":{"0":0.1498309791144039,"1":0.028788928343823104,"2":0.09770054737757575,"3":-0.0019768967008143997,"4":0.06679337203553681,"5":0.29313817184729096,"6":0.02045057064191138,"7":-0.04464883299222216,"8":0.07633171173023251,"9":0.06304005745144982,"10":-0.06192262381291008,"11":-0.2635978593524332,"12":0.06542606048573554,"13":0.20103105227886803,"14":-0.09588544830173333,"15":0.23981394656174243,"16":-0.25544193864907755,"17":-0.030342391188698168,"18":-0.16606026478012337,"19":0.24502926982661896,"20":-0.4376476073529649,"21":-0.03227954649944445,"22":-0.15909919815970552,"23":0.009633032384946475,"24":0.015761599081519116,"25":-0.0374302040258523,"26":0.06605582043511325,"27":-0.22597082743177146,"28":-0.11883925506436335,"29":-0.13678049251376262,"30":-0.3243701657111611,"31":-0.3980933469794252,"32":0.23176787705530366,"33":0.15630127924663553,"34":0.054556529472925074,"35":0.248490618639146,"36":-0.0888180764748376,"37":-0.20995032777479222,"38":0.17239631539071873,"39":0.09118923832853164,"40":-0.028247915505398104,"41":-0.012757266254977627,"42":0.06193397329684608}},{"sx":1,"sy":1,"depth":43,"w":{"0":-0.09473407506609455,"1":0.1895898819770187,"2":-0.04028899057160327,"3":0.17833989022436358,"4":0.13974728893779018,"5":-0.231912666870534,"6":-0.09320774701865008,"7":0.06939562720720023,"8":0.1167124009096833,"9":-0.19796988538641397,"10":-0.11930676055137607,"11":0.13311033354256466,"12":0.38011730031311614,"13":-0.08923311197331951,"14":-0.1479640846073612,"15":0.44129716362968363,"16":-0.12338811249127363,"17":-0.19571427244894463,"18":-0.27989395878537826,"19":-0.09734273376380585,"20":0.04769578842546216,"21":0.10295126308329489,"22":-0.0440847227446058,"23":-0.04810580328739097,"24":0.12230379234227264,"25":-0.0009057478233564983,"26":-0.24149793255231872,"27":0.2886477813338391,"28":-0.21753728216729099,"29":0.23875874673423564,"30":0.20648535543724214,"31":0.047104306448490986,"32":-0.1702313888471234,"33":0.1769831329045968,"34":-0.005249796285049394,"35":0.03792536076063937,"36":-0.287202807408956,"37":0.01414820723334642,"38":-0.6170302695496518,"39":-0.013233026499168413,"40":-0.014529280665209764,"41":0.13313567596645437,"42":-0.09620821650860678}},{"sx":1,"sy":1,"depth":43,"w":{"0":-0.1595694246533258,"1":0.4698926462712817,"2":-0.009909847154159133,"3":0.05948246296458383,"4":-0.17492298214614369,"5":0.09167016848953621,"6":-0.04617514144900061,"7":-0.16739868626174098,"8":0.38521752734070136,"9":0.08373368052291597,"10":0.035789131826358705,"11":0.1474448199283304,"12":0.10486341823333885,"13":-0.09792681996949698,"14":-0.1166350242592776,"15":-0.20501077659854092,"16":-0.07221315032808473,"17":0.014314516278342569,"18":0.22427118033646426,"19":-0.10091976911921906,"20":-0.1262508156996842,"21":-0.0372049498632471,"22":-0.04184183985622694,"23":-0.03245600196021976,"24":0.06111867690610555,"25":0.23991312403165688,"26":0.06326527275385514,"27":0.2832364443972487,"28":0.032395225625202535,"29":0.02549923635272247,"30":-0.11958713465974517,"31":0.21182690028361845,"32":-0.12665384310224015,"33":0.030014798267614586,"34":-0.04219557729025276,"35":0.054406823358742105,"36":0.06055785816376852,"37":0.04272499504580639,"38":-0.09992739803996348,"39":-0.0436435864115342,"40":0.18562808854821883,"41":0.0882032613336361,"42":0.07410608722127933}},{"sx":1,"sy":1,"depth":43,"w":{"0":0.19431493733223662,"1":0.24781884089102618,"2":-0.017173814261309713,"3":-0.10617895516040489,"4":0.18542964292933797,"5":-0.12212263038607205,"6":-0.10478955796613657,"7":0.25807847249230187,"8":-0.09055252500374893,"9":-0.14781916483140264,"10":-0.10251796639207271,"11":-0.027601218295861502,"12":0.09177325466451364,"13":-0.25297918545467807,"14":-0.286892870666267,"15":-0.11872396598592563,"16":-0.1296462758290897,"17":-0.2118785786027574,"18":0.2441924352965423,"19":0.12819407558151932,"20":-0.2606701657538988,"21":0.13340440019409147,"22":-0.07308607419553875,"23":-0.17013765180127885,"24":0.20965558314436278,"25":-0.01828965164018071,"26":0.050325652815358696,"27":0.23337459568754193,"28":0.09844024930695665,"29":0.01391522011727965,"30":0.05829417447603122,"31":0.2203330679506597,"32":0.0964985018593495,"33":-0.13675597875408,"34":0.2160591180604284,"35":-0.05053968152324856,"36":-0.12048440619534322,"37":-0.006652784034355086,"38":-0.19995206740557092,"39":-0.09528776444145264,"40":-0.04077663971307026,"41":-0.19008379522675012,"42":0.12435025509118945}},{"sx":1,"sy":1,"depth":43,"w":{"0":0.15438557814204656,"1":0.026227509812120974,"2":0.005206623196393351,"3":0.32302320757887315,"4":0.1219287914096904,"5":-0.10154518561090195,"6":0.051490616080950936,"7":0.03911163573686956,"8":-0.21055830892359453,"9":0.06285051642561391,"10":-0.10050334754295383,"11":0.09206941573436843,"12":0.022693761068888076,"13":-0.008200626441702262,"14":-0.2882646922449021,"15":0.07085035175117335,"16":0.2628170847430717,"17":0.07189778057438542,"18":-0.012042268323534024,"19":-0.09180102164225867,"20":-0.0371395781303719,"21":-0.04913266775837328,"22":-0.12166261277040709,"23":0.014006537455461331,"24":-0.16612780112557907,"25":-0.10967644655037369,"26":-0.1918559574688017,"27":-0.022951314638272654,"28":0.00859971968295509,"29":-0.13588346187947722,"30":0.24070588974851134,"31":0.022038143197504894,"32":-0.2372281387948249,"33":0.020695354975659226,"34":-0.14753418710819546,"35":-0.22237909169870246,"36":0.009207777633931349,"37":0.10535022392622567,"38":-0.05108740282420624,"39":-0.12714124828463896,"40":-0.12338227042481051,"41":0.1524431866252662,"42":0.40714839076303916}},{"sx":1,"sy":1,"depth":43,"w":{"0":-0.11262329661793898,"1":0.17372613597624134,"2":-0.09281439134486247,"3":0.13063227474998645,"4":-0.025575516284582725,"5":0.17523622401617106,"6":0.05668944151304694,"7":0.18659449650597448,"8":0.07699021788143026,"9":0.0716476668579019,"10":-0.07077590710801028,"11":-0.18343988708128497,"12":-0.07384730131435611,"13":-0.04558150084674806,"14":0.28621613086333564,"15":-0.04071128019794761,"16":-0.5008331195971266,"17":0.14134311906332875,"18":0.037777145146340806,"19":-0.07273771332637112,"20":0.02146742534901974,"21":0.08846888481340318,"22":0.05667496086192604,"23":0.2516937556423387,"24":0.18855156626825745,"25":0.026935259484962382,"26":-0.3109443154793971,"27":-0.11619505788043556,"28":0.09405477422083376,"29":-0.018828782085646284,"30":0.20900627017466555,"31":0.12723240694898838,"32":0.20670739217898396,"33":0.0542597940941018,"34":0.02189091457482101,"35":0.009139454020517227,"36":0.05965152535732471,"37":0.06962704338592744,"38":-0.06284690551188346,"39":0.0639549353078077,"40":0.06438334578019037,"41":-0.020820783553205446,"42":0.03512486986923987}},{"sx":1,"sy":1,"depth":43,"w":{"0":0.1711436958621592,"1":0.27458809076238994,"2":-0.018875408917792668,"3":-0.04956672219186918,"4":-0.057258799805025344,"5":-0.004101283639815053,"6":0.08670287471923548,"7":-0.04143600056639466,"8":-0.05976516825617896,"9":0.028182196611806102,"10":-0.10769610292363198,"11":-0.15799173320237675,"12":0.13687400594718274,"13":-0.14853844538686511,"14":0.3421395161013789,"15":0.13448449599380663,"16":0.01078530721298202,"17":0.14664058072202948,"18":0.20271157448207675,"19":0.28284709778207623,"20":0.042464527736117405,"21":0.14234119397653727,"22":0.03386387709825378,"23":-0.059408774632808435,"24":0.2997196119476905,"25":-0.3723432926009481,"26":0.11328883339256002,"27":-0.11645878057581148,"28":-0.1989189544380919,"29":-0.24896375527127676,"30":-0.05920718940054102,"31":-0.04110656038556626,"32":-0.04275485640287431,"33":0.028601258273851727,"34":-0.03946275854064737,"35":0.0959792994068309,"36":-0.06293156882200858,"37":-0.2739236339569093,"38":-0.014055991204128086,"39":-0.09495108617184664,"40":0.01874215863905641,"41":0.09743963222699578,"42":0.12681509966592422}},{"sx":1,"sy":1,"depth":43,"w":{"0":-0.09150828201075036,"1":-0.3458220273954806,"2":-0.09012090869410114,"3":-0.04993568004692702,"4":-0.21729551389195478,"5":0.11844304593190944,"6":0.08530882862922799,"7":-0.20070079443345,"8":0.053058400526599145,"9":-0.17162586598215393,"10":-0.03629051426860846,"11":-0.07745029604234588,"12":0.18370510248777783,"13":0.269683543062285,"14":0.219641849094139,"15":0.13544236604586934,"16":-0.0642751372885544,"17":-0.08542627510447763,"18":-0.020059071024854824,"19":0.23401989798602538,"20":-0.15964588375489663,"21":0.1120003720776713,"22":0.31681970107803475,"23":-0.11426282885728672,"24":0.040286040882809585,"25":-0.05905326319440905,"26":-0.18292951753551717,"27":-0.13202356689848255,"28":-0.2019232731915644,"29":-0.11765713203423765,"30":-0.18919390860750285,"31":0.02901236914441349,"32":-0.019593263507017417,"33":0.03592625827052307,"34":-0.0339381802431191,"35":-0.174929004898501,"36":-0.14856536328503048,"37":0.06583818724507884,"38":0.03516737914751559,"39":0.11728245908991561,"40":-0.1696183810659283,"41":-0.12820136805348892,"42":0.09616647361123201}},{"sx":1,"sy":1,"depth":43,"w":{"0":-0.19324307050753775,"1":-0.16471263238532932,"2":-0.08118047826837092,"3":-0.18654965845197863,"4":0.09588185238955817,"5":-0.03089263872382176,"6":0.040728550345625565,"7":-0.06693163356631995,"8":-0.05515753769541968,"9":0.16877573114206826,"10":0.22154812588362813,"11":0.08302655095259498,"12":-0.362050306614623,"13":-0.23640090866675445,"14":-0.3191532322289364,"15":0.053518913249981634,"16":-0.11282732944211851,"17":-0.09368769284505211,"18":-0.013637980399705993,"19":-0.2666558101497275,"20":-0.07071304763247016,"21":-0.16896817172523745,"22":-0.09486188147837422,"23":0.18956574344943175,"24":-0.08605680713491981,"25":0.3023284134240784,"26":-0.13872783006007425,"27":-0.1349013768813898,"28":0.09197061580283444,"29":0.04659131605188003,"30":0.15025218572330892,"31":0.17420737352900006,"32":0.14172770685117922,"33":-0.0062885958267506654,"34":0.14117110424566048,"35":0.17444463005378955,"36":-0.2996270119022412,"37":-0.18095693128670032,"38":-0.04662959198761343,"39":0.038060529634048344,"40":0.028184662155225908,"41":-0.12693177010822126,"42":-0.17999615627504054}},{"sx":1,"sy":1,"depth":43,"w":{"0":-0.022284423329961663,"1":-0.21050811426638485,"2":-0.31514166913685,"3":0.06623887767625801,"4":-0.12954176447340948,"5":0.18098822767013029,"6":-0.08890829919701451,"7":0.15486445059433346,"8":0.21344202416943048,"9":0.17211324878346881,"10":0.09277363036784543,"11":0.02924723113058951,"12":0.10661054599402488,"13":-0.126695679683613,"14":0.16410712686987772,"15":-0.10721870788675006,"16":0.058434014250671906,"17":0.008021745428734251,"18":0.16095515436539218,"19":-0.0994237278768848,"20":0.23676280902987915,"21":0.01741286590062536,"22":0.08470987617777467,"23":0.1012415294794029,"24":-0.033936447498774586,"25":-0.18191193849473758,"26":0.11748763300343144,"27":0.043403292784445206,"28":0.32492792648617247,"29":0.09589074362113624,"30":0.14952732627967014,"31":0.045820767841682174,"32":-0.033239120026791885,"33":-0.07405892781560396,"34":0.3473443971858454,"35":0.12408927906287276,"36":-0.026534825182907493,"37":0.09319940850839717,"38":-0.06690175688833534,"39":-0.07457755618802268,"40":0.07790486015415461,"41":0.11138449200545543,"42":-0.03542720360953472}},{"sx":1,"sy":1,"depth":43,"w":{"0":0.28870921615041306,"1":0.040484576313889555,"2":0.1297631568979156,"3":-0.31052975003758493,"4":0.17372027415373567,"5":-0.11941573112073794,"6":-0.19607812976637515,"7":-0.2324135270726804,"8":0.28734388470018735,"9":-0.015160800898336522,"10":-0.12093130003077313,"11":0.1442436190672781,"12":-0.2790163547303851,"13":-0.023281407488928676,"14":0.2924790069594282,"15":-0.123306867223378,"16":-0.25350080067479425,"17":0.22125003377582497,"18":-0.04545553221242533,"19":0.08071884602327517,"20":0.21612710771318636,"21":-0.04401165854795987,"22":-0.020433523978458976,"23":0.07577730680547193,"24":-0.35241587100544763,"25":-0.023603316587083922,"26":-0.08743851089554945,"27":0.08701311608662017,"28":-0.0999295679346865,"29":-0.21483148504262,"30":0.005952718309290266,"31":0.337157262398377,"32":0.1493628866729575,"33":0.062490727652342704,"34":0.05968500709052196,"35":-0.049390766671187136,"36":0.08564495484113673,"37":-0.20125845798065106,"38":0.17881084418152038,"39":-0.2669748305953122,"40":0.12871798615661137,"41":-0.10176576066603384,"42":-0.1302977135969703}},{"sx":1,"sy":1,"depth":43,"w":{"0":0.11554548918989041,"1":-0.09316178532791278,"2":-0.17377700465272078,"3":-0.06867295513953837,"4":-0.07077043676384295,"5":-0.009943687601428898,"6":-0.18424954388393358,"7":-0.10905713571043107,"8":0.01681306408744588,"9":-0.16356224615339185,"10":-0.1375360446436529,"11":-0.020802564096670396,"12":-0.13538858119722835,"13":-0.01892028338257452,"14":-0.027568957770621804,"15":0.11287313572339529,"16":0.14310682903850047,"17":0.14210648403225784,"18":-0.13754343739148542,"19":-0.0416156672194443,"20":0.09404335072850312,"21":0.07884415377429073,"22":0.19479939730920098,"23":-0.0073527633982065944,"24":0.2770706744412313,"25":-0.4194140797082358,"26":0.05694269173145912,"27":-0.1788578743560243,"28":-0.3151066106332878,"29":0.19160642344694204,"30":0.07527433319961324,"31":-0.07097997286447041,"32":0.10369859673341142,"33":-0.0970830967880298,"34":0.05189678512573391,"35":-0.0027258247246130726,"36":-0.08158163142482998,"37":0.05484695931630939,"38":0.1067767888188432,"39":0.1468523296770066,"40":-0.12796894256181465,"41":-0.14822847095042418,"42":-0.020058872909251454}},{"sx":1,"sy":1,"depth":43,"w":{"0":-0.025569762936332653,"1":0.015695889977666588,"2":0.33027526287202985,"3":-0.20481208080213503,"4":0.052005394424886366,"5":0.21513654900797283,"6":0.0065392903256405645,"7":-0.03769832325814837,"8":0.046395049880728984,"9":-0.13170840629675448,"10":-0.09238397220019484,"11":0.04948814331244185,"12":0.0808666711015814,"13":0.10965180562737367,"14":-0.20696460111726778,"15":-0.16830561866038152,"16":-0.0899836614202639,"17":-0.1580285497625894,"18":0.14120459472766117,"19":0.27171161254026094,"20":-0.2799704500182663,"21":-0.004520299794622907,"22":0.07812723556105534,"23":0.09973225676258328,"24":-0.027759619300101894,"25":-0.07425544188765701,"26":0.4538419119264965,"27":0.16765107153766826,"28":0.08733534273451582,"29":-0.10919135618411442,"30":0.05489175300912713,"31":0.09913311210514132,"32":-0.15629361090005756,"33":-0.16430684537441478,"34":0.0837346935475714,"35":0.01955679620554193,"36":0.05969098299080193,"37":0.14231821923062019,"38":0.19874800584240424,"39":0.04430603407434041,"40":-0.16987143117538195,"41":-0.05707053526938093,"42":-0.11864980936507206}},{"sx":1,"sy":1,"depth":43,"w":{"0":-0.011769776391220094,"1":0.06199425530625178,"2":0.11377219128064237,"3":0.10414131998645693,"4":-0.10519286159996755,"5":-0.044267202946950204,"6":0.07566710146760114,"7":0.05735016445806468,"8":-0.2202035410847174,"9":-0.12544867711710345,"10":0.07897193706483256,"11":-0.11780415698106685,"12":-0.02580137952543348,"13":0.04071164722873076,"14":0.008472593348293499,"15":-0.07630688362352303,"16":0.1430974855466908,"17":-0.034341421068282266,"18":0.23863469902578222,"19":-0.07684314848364922,"20":0.011547068282508382,"21":0.013998040972285661,"22":0.15062790274051263,"23":0.02192617741203686,"24":-0.2757327151244796,"25":0.09584289955443694,"26":-0.1302286691706778,"27":0.09207823049692797,"28":0.0538944530486545,"29":0.03750830872624683,"30":-0.024229178081876353,"31":0.22626149974738738,"32":-0.13526737695849042,"33":-0.13730419225121432,"34":0.11288028968052537,"35":0.0607961932638206,"36":-0.1537574865577283,"37":0.3078194299723173,"38":-0.08269873411995579,"39":0.13120684693285384,"40":0.1022240376392496,"41":0.12621211407530442,"42":-0.16581503573119363}},{"sx":1,"sy":1,"depth":43,"w":{"0":-0.09995686932321908,"1":-0.2159843195289557,"2":-0.03546210799172333,"3":-0.18860334254114233,"4":-0.0010856197231968786,"5":-0.10358524957144827,"6":-0.05368516495297534,"7":-0.3460156557143334,"8":0.048912927539824756,"9":0.060892125176792905,"10":0.08382234714123753,"11":-0.16465963216962404,"12":0.01974175480557888,"13":0.16947524034112005,"14":0.20718905309281435,"15":-0.2553247678732477,"16":0.19427850235117425,"17":0.2423842333822204,"18":0.09150699792309705,"19":0.18573065831396796,"20":-0.06490140997846984,"21":-0.060541027052802426,"22":0.18451624671196543,"23":0.15498834558135124,"24":0.025633406710231392,"25":0.04942362117792868,"26":0.02188472195529868,"27":-0.24628498487159933,"28":0.2104515274341703,"29":0.0637340766580439,"30":0.2892522231579339,"31":0.07121550019998507,"32":-0.09628955726651875,"33":-0.03456188148474662,"34":0.1268665441513558,"35":0.07889362068818667,"36":-0.3111671449060296,"37":0.1603288545489772,"38":0.09691906452654211,"39":0.07599580506733163,"40":-0.10276375194171872,"41":-0.09577531515569239,"42":0.06771859125545109}},{"sx":1,"sy":1,"depth":43,"w":{"0":0.08400940856502066,"1":0.07208811783408864,"2":0.022918547685597777,"3":-0.060385536340415186,"4":-0.08428941441009766,"5":-0.12738698064550588,"6":0.2501589838265969,"7":-0.3738280078911594,"8":-0.05690658928366615,"9":0.2627731236309365,"10":-0.12344854109369595,"11":0.12713694119409788,"12":0.10853941218650782,"13":0.13683299939059,"14":0.03696583548886071,"15":0.12071876185008071,"16":-0.000041735546846451726,"17":0.02851013847307517,"18":-0.26382542102784406,"19":0.06769958655758655,"20":-0.12136912615000421,"21":-0.09397911396693481,"22":0.06998763013265442,"23":0.06357354209674054,"24":-0.10060298396037735,"25":-0.17930326800051521,"26":0.02874325178285715,"27":-0.11291887153837521,"28":-0.2445245281085548,"29":0.1049895372239363,"30":-0.058386188429711515,"31":-0.15005745234957113,"32":0.25191143712718084,"33":0.09297683594819504,"34":0.12236366446907014,"35":0.0610830118187522,"36":0.07416783123309983,"37":0.05043710718558933,"38":0.11698170233055405,"39":-0.22295719113357748,"40":-0.10919525364152911,"41":-0.04670565810897444,"42":0.0053678325211962315}},{"sx":1,"sy":1,"depth":43,"w":{"0":0.052820879638071985,"1":-0.10699102397472414,"2":-0.07784474734815322,"3":0.0005282266744764901,"4":0.09299573728224121,"5":-0.013865621580786709,"6":-0.1784614373108224,"7":-0.0787620169252715,"8":0.10929549027562033,"9":-0.11326191057792338,"10":-0.052292136276376834,"11":0.04623514679632547,"12":-0.19594833797128022,"13":0.12761765657702606,"14":-0.25411765100410466,"15":0.09640466976584869,"16":-0.04275889308379433,"17":-0.22126580749595437,"18":-0.1415390391668319,"19":0.07139425384026159,"20":-0.005594856145105409,"21":-0.141811054939566,"22":-0.10414772958052781,"23":0.303254721536658,"24":-0.09852112373475234,"25":-0.3176235657908135,"26":-0.232452423677621,"27":0.21595325110369054,"28":0.17648939726121726,"29":0.1852774790256991,"30":-0.1078669413182514,"31":-0.10171506998936992,"32":-0.17202562427413387,"33":0.2343171943197187,"34":0.028148619772961042,"35":0.15166599812618958,"36":-0.05154211266538256,"37":0.06967647759199151,"38":-0.052836604147818725,"39":-0.1804039161985558,"40":0.011928460628951185,"41":0.3883885170680032,"42":0.060414347978624536}},{"sx":1,"sy":1,"depth":43,"w":{"0":-0.14974114434491667,"1":0.13229456078775345,"2":-0.012270586175898372,"3":-0.0014067075037484768,"4":0.05073393952448431,"5":-0.039342749097402305,"6":-0.09137151838668087,"7":0.06928052395104366,"8":-0.2507744869381356,"9":-0.06091011798324502,"10":0.3016421794267727,"11":-0.11239031282983715,"12":-0.16925554086677913,"13":0.06280175530789713,"14":0.036540581115267874,"15":-0.09126991782031417,"16":0.031298086533112224,"17":-0.04325894582271126,"18":0.06401735548130527,"19":0.24118358351303837,"20":0.15219603938845527,"21":-0.13654884365448938,"22":0.05053115346647259,"23":0.03359953183729581,"24":0.3084357067736786,"25":0.0620165039806686,"26":-0.02391206917590182,"27":0.042168198062904304,"28":-0.0649562826779793,"29":0.2671552466164065,"30":0.06182238390655441,"31":0.09579969436541505,"32":0.12314427908090006,"33":-0.27237398162532844,"34":0.06476371030680851,"35":0.17648880251453372,"36":0.26920212562604173,"37":0.028303200615379203,"38":0.22807596992746207,"39":-0.08618980400616194,"40":-0.23330189617627606,"41":-0.16227645430987797,"42":0.043437071336192734}},{"sx":1,"sy":1,"depth":43,"w":{"0":0.13930673271077046,"1":-0.256221649562553,"2":0.07738924388760299,"3":-0.21304261826555665,"4":0.033521445481800596,"5":0.09351403783047181,"6":-0.09601582012042088,"7":0.02618418494611463,"8":0.11846201500410852,"9":0.19339626642279503,"10":0.11848350071363514,"11":0.05007048651672468,"12":-0.20897861715969251,"13":0.04446997903284341,"14":-0.04534350712016593,"15":-0.22537416227504192,"16":-0.06470703090038939,"17":-0.32544490129214304,"18":-0.2496008774375867,"19":-0.03530379230786366,"20":-0.009695431224785665,"21":0.17843846330937158,"22":0.1490813019600281,"23":-0.06256328949379379,"24":0.10658632074740676,"25":0.2126788073687747,"26":-0.059208859456044205,"27":-0.045710112876271025,"28":0.11279271028298014,"29":0.18591916752133986,"30":0.16337114207477652,"31":0.20641475783658006,"32":0.1884960766886204,"33":0.19710410831110525,"34":0.1132581168655961,"35":-0.008169407736993187,"36":0.14540665370011258,"37":0.007120405644219226,"38":0.09704755895570319,"39":0.13503195110240696,"40":0.10226213210168478,"41":0.04713762810156066,"42":-0.1849502045442853}},{"sx":1,"sy":1,"depth":43,"w":{"0":-0.01089263318266054,"1":-0.29038118178925604,"2":0.148238822730716,"3":-0.10854300675323883,"4":-0.03752365216297753,"5":-0.027474947895158308,"6":-0.1081026376797409,"7":-0.1136182916422671,"8":0.15180784303269546,"9":0.001356409046274356,"10":0.25868414828521225,"11":0.11520543573025031,"12":0.17444432779089217,"13":0.0884314980102237,"14":0.10497651377916994,"15":0.11752974753897916,"16":-0.0645353980761798,"17":0.04012837757130822,"18":-0.26996732938861606,"19":0.1202242342142066,"20":-0.182362608622246,"21":-0.053397263513130955,"22":-0.15087905771802743,"23":0.11732675877705485,"24":-0.029798333496421834,"25":0.1755945110421831,"26":0.007514530665356352,"27":-0.1856957641877787,"28":-0.2793714291452788,"29":-0.041152832148251876,"30":0.10993427870322058,"31":-0.13956009901411207,"32":0.0924585768618376,"33":-0.09839846424164313,"34":0.12921319197143877,"35":0.020402280529912723,"36":-0.1341547404513013,"37":0.022741734762352778,"38":0.11928668005056912,"39":-0.2463873264037769,"40":0.08922756254469834,"41":-0.008458807811218686,"42":0.17936719790496122}},{"sx":1,"sy":1,"depth":43,"w":{"0":-0.14218109177227536,"1":0.01850086998612242,"2":-0.05115757039666038,"3":-0.23233189275570246,"4":0.14628821259272665,"5":-0.24165646513852673,"6":-0.19845954657687517,"7":-0.2261272308902051,"8":0.23174057283186592,"9":0.1618652410232333,"10":0.05530358161243238,"11":0.015050543060149591,"12":-0.042937730631885294,"13":-0.2119677160927147,"14":-0.16147919928577195,"15":-0.07383719473294122,"16":-0.20722323938083198,"17":-0.04124028725416912,"18":-0.003254601619514332,"19":-0.034867706275762946,"20":0.11582994731550578,"21":0.08745241630245901,"22":-0.3766908531708154,"23":-0.03047392602381512,"24":-0.18720163130752446,"25":0.07305157331745843,"26":0.042545836950018935,"27":-0.324642418812743,"28":-0.1086055418761042,"29":0.17406438936519958,"30":0.3554641212013585,"31":0.1419036357905666,"32":0.07915580118521112,"33":-0.08044562236750577,"34":0.0046525574296132155,"35":0.11553226565174754,"36":-0.3811547075567176,"37":-0.04329775716579263,"38":-0.22750254168734005,"39":-0.27637585021622524,"40":0.32602493728246096,"41":-0.042721375582098264,"42":0.061821848992385256}},{"sx":1,"sy":1,"depth":43,"w":{"0":0.0007972100842294762,"1":-0.15735263272719927,"2":-0.11177592971961914,"3":-0.019113443526729987,"4":-0.15388607463367326,"5":-0.3943777444520995,"6":0.010871621341013956,"7":0.2727727010142873,"8":0.18491439016503966,"9":-0.22684562089925384,"10":0.19735476782790526,"11":0.027188897359069677,"12":-0.27637986847849055,"13":-0.022355431465768343,"14":-0.3102557334666351,"15":0.13614148217530594,"16":0.24947183046538945,"17":-0.09334313927502833,"18":0.07241839831022671,"19":0.13760309507143623,"20":-0.16139254942271072,"21":0.052543528136191495,"22":-0.27883825217268887,"23":0.05207992601756509,"24":-0.0006356026632505936,"25":-0.16726578119658678,"26":-0.11162886840190901,"27":0.25618216235238706,"28":0.11398841661634522,"29":-0.1831138939616847,"30":0.11602060650178664,"31":0.09359230983597194,"32":-0.11588600993193025,"33":0.08331994744374492,"34":0.0195122347637328,"35":-0.04103326882466321,"36":0.08711852218571112,"37":-0.19989108698495756,"38":-0.2540210958227091,"39":-0.09085146817790099,"40":-0.1459112437213563,"41":0.012503584938637355,"42":0.014523495739972019}},{"sx":1,"sy":1,"depth":43,"w":{"0":0.09207595701788986,"1":0.05460972168922243,"2":-0.17087867700820628,"3":-0.09555161539652385,"4":0.14284033356582373,"5":0.15556817283478733,"6":-0.05005549449939472,"7":-0.29371119045851624,"8":-0.13560383924974143,"9":-0.17849610867886215,"10":0.206861710044735,"11":-0.10925802218648042,"12":0.03657861826904846,"13":0.2060872037236158,"14":0.008189769974858065,"15":0.05985164457185879,"16":-0.2630103276780586,"17":-0.0981185160211978,"18":-0.011029767541029458,"19":0.005711166220224478,"20":-0.22350206992588328,"21":0.029860759823811988,"22":0.022738864422292046,"23":-0.018350719188433822,"24":-0.1435849076456181,"25":-0.19251427461488899,"26":-0.07857436364819227,"27":0.05451092611544102,"28":-0.07182051231122714,"29":-0.37439690391066793,"30":-0.04611421474105323,"31":-0.132280171936244,"32":-0.027756388404524907,"33":0.2064548374114986,"34":-0.06459862518471039,"35":-0.04889825724934409,"36":-0.2517396845435123,"37":-0.3418164794326118,"38":0.010461145259369762,"39":0.06984154158060445,"40":-0.2782006986561097,"41":0.11004860837983431,"42":-0.0963700610332453}},{"sx":1,"sy":1,"depth":43,"w":{"0":0.03795147252866502,"1":-0.11595913226344519,"2":0.039067052386221976,"3":0.07168156081896977,"4":0.049998369522954084,"5":-0.12914653664326717,"6":-0.05858208262643696,"7":-0.1252655887154698,"8":0.029146527448089786,"9":0.26918047273604295,"10":0.17366463068694746,"11":0.13728557419,"12":-0.1183203764850102,"13":0.005773794901614554,"14":0.037244392338325036,"15":-0.023574576075561456,"16":-0.13950007376187434,"17":0.19146654552139733,"18":0.009877464567741271,"19":-0.07651858074782333,"20":0.29765296428971516,"21":-0.05008501539187119,"22":-0.16887319202058398,"23":-0.2528111015025132,"24":0.025804379792203114,"25":-0.0738413132977198,"26":-0.05005951346972882,"27":-0.27242061965155084,"28":0.1191342514615211,"29":0.01649929370314864,"30":-0.11221464108645465,"31":0.2195126342503366,"32":0.0045496173827643096,"33":0.015672565274388407,"34":0.08029237991887103,"35":0.2871587239946225,"36":0.06562031243017863,"37":-0.16747001356386446,"38":-0.32198652494341806,"39":0.07627971230710007,"40":-0.25720096141091536,"41":-0.12441816603528628,"42":0.023965340346269147}},{"sx":1,"sy":1,"depth":43,"w":{"0":0.21249082983096773,"1":-0.22933447084339567,"2":-0.16359531032732372,"3":0.08041338068739429,"4":0.13156219589504756,"5":-0.18587381411111253,"6":0.08534852397161019,"7":0.11346114820598013,"8":-0.36330661870221853,"9":-0.0744683330377314,"10":-0.1215670960157292,"11":0.058853451996770834,"12":0.12008703623889884,"13":0.11145016039314745,"14":0.03592231230938312,"15":-0.0632380848920391,"16":-0.2669747946146833,"17":-0.1822984549642904,"18":-0.11224358642004824,"19":-0.12887397610402745,"20":0.051098319629342664,"21":-0.28010187215404786,"22":0.010273963358345255,"23":0.11946797442357905,"24":0.14827667707138928,"25":-0.10083127019850607,"26":-0.06495041235039357,"27":-0.16808167664140938,"28":0.20561509883343662,"29":0.10189738785996763,"30":-0.16280608760704993,"31":-0.1914899469333724,"32":-0.2674292538263274,"33":-0.13906260340143287,"34":-0.06217287765487434,"35":-0.11271303499527799,"36":0.014793827878063624,"37":-0.23805193546283734,"38":-0.029308456004298575,"39":0.05844669349916899,"40":0.02648437251817837,"41":0.07368282776307991,"42":-0.11525140601895507}},{"sx":1,"sy":1,"depth":43,"w":{"0":0.041557689268435526,"1":0.14038455092786772,"2":0.07942940230011208,"3":-0.025160031252818356,"4":0.004059335344141636,"5":0.028745509814457667,"6":0.019531494699863882,"7":0.018663666863432488,"8":0.14549008634879085,"9":-0.01563724727296762,"10":-0.1640805232128135,"11":-0.13957267173480203,"12":0.21838009748115633,"13":-0.056753654307408676,"14":-0.15331206932545263,"15":-0.036423469564511646,"16":-0.10691310280968301,"17":-0.0986252323544956,"18":0.14393520542853094,"19":-0.3629228382024429,"20":0.09070736549291206,"21":-0.16399871046743925,"22":0.22489882295057873,"23":0.04061667947174209,"24":-0.045008859076883644,"25":-0.12271359001807128,"26":0.05613111237544557,"27":0.0012824397921170415,"28":0.10368898568767566,"29":0.023244688698786712,"30":-0.0816859206933429,"31":-0.16138147885271212,"32":0.002264224163675233,"33":-0.0901762267488729,"34":0.07368209552951581,"35":0.03592590422864137,"36":-0.03355964198648132,"37":-0.045669408175038215,"38":0.012349969285552605,"39":-0.15653344048462714,"40":-0.16363342258047664,"41":-0.12236172885772953,"42":0.04984000329146573}},{"sx":1,"sy":1,"depth":43,"w":{"0":0.019748220362195062,"1":-0.11033360189817548,"2":-0.17281486479847444,"3":0.03664867292094063,"4":-0.1368982891911983,"5":0.013515459206250411,"6":-0.04166210343498975,"7":0.0022651435619814994,"8":-0.1910581074297157,"9":0.07472684987422984,"10":0.13679406079336365,"11":0.06460113514985719,"12":0.00041362108564521073,"13":-0.16540183390976612,"14":0.06860292868043406,"15":0.04824038014450511,"16":-0.09015090507299008,"17":-0.14176031090098168,"18":0.08189876573579843,"19":0.0034206691586226557,"20":0.08809700319490162,"21":0.03152693558730103,"22":0.08453395690026906,"23":-0.3132320044698973,"24":-0.09474703103793684,"25":-0.10074906723969636,"26":0.3043914830113842,"27":0.18071471773676911,"28":0.31988695256079647,"29":0.07146472521801903,"30":-0.03185036969804046,"31":-0.10180214624817563,"32":-0.022407454637215257,"33":0.06512924076969086,"34":0.06443162097238354,"35":0.10236400167257126,"36":0.0986547993349261,"37":-0.10778502916861178,"38":0.20117570007051175,"39":0.06967934031533433,"40":-0.052536571786045934,"41":-0.167683158137126,"42":-0.0010076348229638421}},{"sx":1,"sy":1,"depth":43,"w":{"0":-0.15927805995935687,"1":-0.013975878465182095,"2":0.028359029241457293,"3":-0.12083934637286062,"4":0.050385679984383404,"5":-0.0984815780642911,"6":-0.011985847219363141,"7":-0.03431890220591964,"8":-0.17821575282291802,"9":-0.17708529285214633,"10":0.02215217064542655,"11":-0.1771744365914456,"12":0.2377249021357198,"13":0.1135300223602521,"14":0.08035026267459736,"15":-0.3083743522040378,"16":-0.07067872147829933,"17":0.03564947504226301,"18":-0.2862924317080379,"19":0.0696957885561681,"20":0.02482772721259693,"21":-0.10643730393676173,"22":0.09825738540995718,"23":0.059619140693858444,"24":-0.3050636663742006,"25":0.06419171044293615,"26":-0.03677750024674051,"27":-0.08959323203174417,"28":0.04437369823919388,"29":0.16670638419928324,"30":0.15391478854254528,"31":-0.32106000111816324,"32":0.2034108899296851,"33":-0.02934984171338657,"34":0.04106489345299722,"35":-0.29384721643478223,"36":0.1971260711035481,"37":0.14960142113020009,"38":-0.1356481045736119,"39":0.24320976177055403,"40":0.006795631427061176,"41":0.043567006539036196,"42":0.09923100997411559}},{"sx":1,"sy":1,"depth":43,"w":{"0":-0.002350482121832913,"1":-0.050209674851596116,"2":0.07443694164078933,"3":-0.05878558816353722,"4":0.30922579368411834,"5":0.03642261289498243,"6":0.06190146487914448,"7":-0.2139281480122619,"8":0.19110030258128308,"9":-0.09228322503922845,"10":-0.15475969430724476,"11":-0.09492577283137948,"12":-0.04559101653718975,"13":-0.11810146778026707,"14":0.021445333597411565,"15":0.10300916090429704,"16":-0.342747411433619,"17":0.313659613423106,"18":0.4122721935589276,"19":0.022176627392861015,"20":-0.015312469100743563,"21":-0.2529012606990761,"22":0.23100720633541877,"23":-0.4157478385938935,"24":0.16951971488872,"25":0.03988072957430364,"26":0.04406980660745151,"27":-0.05238086777493325,"28":-0.165069059468908,"29":-0.1257081118957963,"30":0.024095808520579545,"31":-0.21731107255140408,"32":0.05288488672298144,"33":0.07717594494304127,"34":-0.26312980999931035,"35":-0.30208557446371526,"36":0.10024697573138627,"37":0.25658408854593356,"38":-0.024031982303846077,"39":-0.08667434820602933,"40":-0.1148354367758779,"41":-0.25006369000318196,"42":-0.18932148764086776}},{"sx":1,"sy":1,"depth":43,"w":{"0":0.0928323233822815,"1":0.18476548942872523,"2":0.20760615308732347,"3":0.05521905336944122,"4":-0.007481901524758903,"5":0.04419894597617445,"6":-0.05729322409418012,"7":0.21607808572263656,"8":0.04073602826078448,"9":0.029227005243269866,"10":-0.04037075735253747,"11":-0.07843415589608255,"12":0.0467218231841805,"13":0.13873037780118874,"14":0.24553306748025794,"15":0.006431321947253972,"16":0.03142154885293359,"17":0.13037790287063225,"18":0.054889535621026074,"19":0.04179168895423988,"20":0.029072299662954902,"21":0.07707045096670655,"22":-0.14804840258975724,"23":-0.06505965357124682,"24":-0.10084389998824587,"25":0.11730074834170165,"26":-0.08400482323324138,"27":-0.1253880827621922,"28":-0.48233751195169133,"29":0.00561937628777516,"30":0.014107510781332338,"31":0.3186106376000867,"32":-0.058719847775815785,"33":0.0934146452401237,"34":0.22164901021067948,"35":-0.06246337830973054,"36":-0.07826134789391612,"37":0.10020213969612994,"38":-0.210443657916308,"39":-0.04827504284931305,"40":0.12955014212973212,"41":-0.10810568686560616,"42":-0.14417303150786648}},{"sx":1,"sy":1,"depth":43,"w":{"0":-0.03476495684127744,"1":-0.35586258144440425,"2":-0.23140154770213162,"3":-0.24770062016395544,"4":0.02706029772281971,"5":-0.09383792784721345,"6":0.01674785337036569,"7":0.2600673157651088,"8":0.18496413002616455,"9":-0.35768030724064215,"10":0.12430636163288065,"11":-0.15088164145765776,"12":0.07776370481830029,"13":-0.10071707835504241,"14":0.01877089945192462,"15":0.12321692837305685,"16":0.15022464362270427,"17":0.09297564950511956,"18":-0.040067076391801425,"19":0.11359758545943562,"20":0.055424075754910325,"21":0.046297435857115474,"22":-0.07802654150058899,"23":-0.11263643157286854,"24":-0.1813678672175744,"25":-0.0572338943015867,"26":-0.04007327532015954,"27":0.18809509551488096,"28":0.19681951901284744,"29":0.1562985961637358,"30":-0.19738274761689964,"31":-0.101105518705302,"32":-0.0921820990199332,"33":0.09619714617763471,"34":-0.2078160299821401,"35":0.05563721454634503,"36":-0.2003336536876371,"37":0.031755002987483565,"38":-0.030193903979607837,"39":-0.02550256304227169,"40":0.2418470015637511,"41":-0.31182363901477844,"42":0.09089607204971077}},{"sx":1,"sy":1,"depth":43,"w":{"0":0.2961238138289973,"1":-0.12447323581009678,"2":-0.30851916872269725,"3":-0.2773640865642577,"4":0.13326966997861966,"5":-0.1291934374347991,"6":-0.20733512690387468,"7":-0.06772476752261684,"8":-0.027809242927926168,"9":0.18820582694751592,"10":-0.02581553670568518,"11":-0.27742444816180056,"12":-0.13124875392838117,"13":0.049272520599793285,"14":-0.16869164758737504,"15":-0.04046567748585044,"16":-0.07316024195206326,"17":0.025527354865447417,"18":-0.10818820565335475,"19":-0.08013917220027934,"20":0.2777728797067579,"21":-0.032267016186136616,"22":-0.14205773568021784,"23":0.009992190090685108,"24":0.3598353702613274,"25":0.17492567655948785,"26":0.1884750662833755,"27":0.014670117103894468,"28":0.2198504642819129,"29":-0.03997182655509964,"30":0.051633525918174474,"31":-0.13446165937856627,"32":-0.21295338343865045,"33":0.23142087646391782,"34":-0.25552231171796375,"35":0.011161088550927154,"36":0.19596800053337277,"37":0.14362409422692463,"38":-0.023023079304093058,"39":0.10519977966533092,"40":0.18391630472994192,"41":0.018251300350896393,"42":0.07304242808880386}},{"sx":1,"sy":1,"depth":43,"w":{"0":0.003732094527186577,"1":-0.15581141692885725,"2":0.08054778550782273,"3":-0.09405634916082826,"4":0.04278879381692894,"5":-0.10129245623815684,"6":0.048651738158540805,"7":-0.05403728481801854,"8":-0.01989045742335175,"9":0.1296550239500983,"10":0.1259709503204802,"11":0.020134134711046216,"12":0.07488998151849505,"13":0.07080296008762549,"14":0.020942112538743608,"15":0.16568951369394874,"16":-0.09866733489951689,"17":-0.28109082809689406,"18":-0.14699639513357843,"19":-0.09515049896867749,"20":-0.026525225779013572,"21":-0.028377166990967408,"22":-0.04033900388321918,"23":-0.07591379393239452,"24":0.2910436391420768,"25":0.015623297575155813,"26":-0.12623557900936289,"27":0.06561308860279029,"28":-0.1533944994922771,"29":-0.0511874112774877,"30":0.08034499286172485,"31":-0.14187218614571787,"32":-0.3221149582770217,"33":-0.15894171740793592,"34":0.012408886018744555,"35":0.21812284428787826,"36":-0.0013189946431764188,"37":-0.13452023139419803,"38":-0.012866937618020394,"39":-0.12583840377867878,"40":0.04664560680478172,"41":-0.03150138086743519,"42":0.058904013996622547}}],"biases":{"sx":1,"sy":1,"depth":50,"w":{"0":0.12009775366032846,"1":0.07162688943317327,"2":0.09949906874049277,"3":0.09046577279467503,"4":0.11345528154457897,"5":0.09897147851277782,"6":0.1,"7":0.10392923078308161,"8":0.09804264772909162,"9":0.10141921127137285,"10":0.0919849980430676,"11":0.10825761636780279,"12":0.10475524473386917,"13":0.1065411459783883,"14":0.11202347476283009,"15":0.09935722537537707,"16":0.10143456190479613,"17":0.11076842040921236,"18":0.09572057535446382,"19":0.09833328473906823,"20":0.10091826190310668,"21":0.11395362948171006,"22":0.08245324660995679,"23":0.08166619585725637,"24":0.09701753055268812,"25":0.1,"26":0.09648965519551855,"27":0.09974622545340897,"28":0.10000412553701553,"29":0.09933275977289469,"30":0.0860269102722384,"31":0.11279362444431877,"32":0.10298800763471899,"33":0.1,"34":0.09682353774090362,"35":0.1,"36":0.10087836203729347,"37":0.1,"38":0.10231375487737496,"39":0.1,"40":0.10104194279700858,"41":0.09845816045916538,"42":0.10090722216482696,"43":0.09510895712128802,"44":0.0995703019283127,"45":0.09266714435655063,"46":0.10178944736445034,"47":0.10403580319246501,"48":0.09992293588579709,"49":0.09562819627925741}}},{"out_depth":50,"out_sx":1,"out_sy":1,"layer_type":"relu"},{"out_depth":50,"out_sx":1,"out_sy":1,"layer_type":"fc","num_inputs":50,"l1_decay_mul":0,"l2_decay_mul":1,"filters":[{"sx":1,"sy":1,"depth":50,"w":{"0":-0.0625272104372989,"1":-0.03224139749636095,"2":-0.130222444286884,"3":-0.08328225842655126,"4":0.05572731279992791,"5":-0.0630609086869929,"6":-0.03357685248307554,"7":0.09427365647486181,"8":-0.050307324824287195,"9":-0.011101629844683937,"10":-0.25850992488336244,"11":0.06714002063139457,"12":0.1900086712695131,"13":-0.23473761344496696,"14":-0.043457108704329464,"15":-0.08765357804566816,"16":-0.10085147027971693,"17":-0.11316205382986687,"18":-0.0524022006375534,"19":-0.11887222833373112,"20":-0.34093611978014077,"21":0.18797511885646273,"22":0.01575385112916624,"23":-0.03897961902026161,"24":-0.13119976207935533,"25":-0.0538129111026853,"26":0.014680604809959787,"27":0.09194236516375245,"28":0.10482426107627525,"29":-0.40083614430211933,"30":0.01663663611391077,"31":-0.14850036947567608,"32":-0.0797189773906173,"33":0.07530361613668417,"34":-0.18737112278799117,"35":0.03462133179957477,"36":-0.04496551460014684,"37":-0.1043712938530171,"38":-0.0171954362700074,"39":-0.13149932452731825,"40":0.17862990431405093,"41":-0.11404300347100109,"42":0.0903183439456718,"43":0.04607222365311534,"44":-0.020427893744297713,"45":0.1182777336258452,"46":0.06014845236543878,"47":-0.047553613728059205,"48":0.16061163147474594,"49":0.05613059917129137}},{"sx":1,"sy":1,"depth":50,"w":{"0":0.20307881244633608,"1":-0.20790099620772284,"2":-0.06380237456780197,"3":-0.19353518222530425,"4":0.19354611700574564,"5":-0.0849362378012261,"6":-0.020833533059709527,"7":0.2662866105632012,"8":0.01946551835678757,"9":0.09538447863713947,"10":-0.2202051520999069,"11":0.005798028575138504,"12":-0.14051524376428687,"13":0.05412201263746573,"14":-0.025028244050424468,"15":-0.04081457984094947,"16":0.10823553727251474,"17":0.21976879535633603,"18":-0.08052401971914169,"19":0.08972784501674844,"20":0.20711850150945726,"21":0.12858667472145954,"22":-0.2761431640224262,"23":0.06925425084892198,"24":0.01968810195527148,"25":0.02881909570240838,"26":-0.035958258004778004,"27":0.016186857505973817,"28":-0.042596470068149095,"29":0.09451206304129282,"30":-0.06503099158370487,"31":0.1589008621846513,"32":-0.004899689732922869,"33":0.10290584531506454,"34":0.13615927429447638,"35":-0.03936209538521828,"36":-0.02840299745408817,"37":0.29513340883295336,"38":0.18091966900509887,"39":-0.14250618163093215,"40":0.2009792114215196,"41":0.09646926207214562,"42":0.06018732976428095,"43":-0.1773735967858268,"44":0.06200086054184597,"45":0.19176866678991172,"46":0.09763049455686229,"47":0.13483243030148961,"48":-0.08021165220494232,"49":-0.21455035689489063}},{"sx":1,"sy":1,"depth":50,"w":{"0":0.14679763433628493,"1":0.14241907804489126,"2":0.1436749897762839,"3":0.22880436864738488,"4":0.07150665730354641,"5":-0.08865179121016804,"6":-0.11221366204700584,"7":0.012352851590669291,"8":-0.06933093630098808,"9":-0.019516668747546304,"10":0.13499626825355324,"11":0.20523393149589908,"12":0.16683167805281615,"13":0.16574456809601415,"14":-0.10442802189576407,"15":-0.03792741942976062,"16":-0.018565892521451587,"17":0.018032919975055243,"18":-0.1184011680098575,"19":0.1366435624235553,"20":-0.009256275464852224,"21":0.0581389396440913,"22":0.038447307720495545,"23":-0.048218894751197575,"24":-0.3762600713602271,"25":0.3131870223864442,"26":0.21660039832389108,"27":-0.04132673273903674,"28":-0.04257017376935307,"29":0.12733834097423422,"30":-0.19962339831168474,"31":-0.13493567232791964,"32":-0.012107561745899924,"33":0.4697123509261185,"34":-0.026917651141860902,"35":-0.16485556682851904,"36":-0.025504244835391255,"37":-0.28281979686205166,"38":-0.006027197331022351,"39":-0.0671316130005366,"40":-0.12945798755965512,"41":0.3861509745757184,"42":-0.20586096848688826,"43":-0.13420956594538455,"44":-0.11514058391887728,"45":-0.013610022352242662,"46":0.11118734234038397,"47":-0.0038867445467216308,"48":0.11024323155467593,"49":0.10764235493157737}},{"sx":1,"sy":1,"depth":50,"w":{"0":-0.2979603745114439,"1":0.006908541792405136,"2":0.0025261207478615177,"3":-0.2008456421531535,"4":-0.1427606312877241,"5":-0.1180071563747515,"6":0.03635797855982074,"7":-0.1031878918826083,"8":-0.03044495290040089,"9":-0.10897121820450219,"10":0.0863930384891751,"11":-0.16723675563477267,"12":-0.06484831393904635,"13":-0.16322849250846633,"14":0.061743358642647864,"15":0.02509882201280964,"16":0.1968875173921313,"17":-0.20523468084476024,"18":-0.07662202224038846,"19":0.014290688958409898,"20":0.027284707058732427,"21":-0.11064210674828802,"22":0.0627276099568344,"23":0.3178271787009056,"24":0.1419457668871393,"25":0.16116556513043767,"26":0.13183448057622277,"27":0.23775006490488898,"28":0.07081213252413109,"29":0.026917703557835362,"30":0.017167269042288723,"31":-0.1206455895051577,"32":-0.295415054511062,"33":0.01814713386246581,"34":0.16307694619111737,"35":0.06517961691974868,"36":-0.03257863561643534,"37":-0.1902066666699987,"38":0.10926668403578035,"39":-0.051004086486891025,"40":0.11947844294233692,"41":-0.3258689262940928,"42":0.02410652225798567,"43":-0.033780959662016115,"44":0.03317549060678295,"45":-0.062366203969513,"46":-0.15765229046781248,"47":-0.2409308700774223,"48":0.007751266365150605,"49":0.00884591347859629}},{"sx":1,"sy":1,"depth":50,"w":{"0":0.06376348145790901,"1":-0.06970328827212098,"2":-0.002027904788429012,"3":-0.11225039828016692,"4":0.1651303128007052,"5":-0.047125890537248,"6":-0.07024611353876474,"7":0.039629743934534126,"8":-0.057133609534241396,"9":0.07360178479341041,"10":0.2751398145272696,"11":0.10911958777175416,"12":-0.1339618740366617,"13":-0.0415355450643727,"14":0.20919091960938557,"15":-0.17875815963772315,"16":0.09141772815794774,"17":0.005473642456473094,"18":0.15336852153214586,"19":-0.011536833173671365,"20":-0.17771670706521944,"21":0.19062661645596082,"22":0.11011631656425971,"23":-0.2308634922474574,"24":0.09522982655006151,"25":0.07680229287665259,"26":0.09728479481300478,"27":-0.09997944468460739,"28":0.1710793245494212,"29":-0.08179495529955333,"30":-0.25318978764511524,"31":-0.11294940790035397,"32":-0.012435337477898488,"33":0.20774104635612295,"34":-0.003868407481545524,"35":0.01691363378634681,"36":0.10357514620158313,"37":-0.16159848991499548,"38":0.019489830735375066,"39":-0.1297331594965605,"40":-0.18215478364585205,"41":-0.05924325450910673,"42":0.30678125097231296,"43":-0.041498417526481084,"44":0.14883164571505644,"45":-0.3181007243036302,"46":0.04472541352113821,"47":0.0493918757322317,"48":-0.051376500365039865,"49":-0.018236248595287552}},{"sx":1,"sy":1,"depth":50,"w":{"0":-0.12814031208505533,"1":-0.03452956835009645,"2":-0.047261813182825775,"3":-0.01409499022276079,"4":-0.2841797791151588,"5":-0.01283408505313971,"6":-0.26667476399920276,"7":-0.010403615525351193,"8":0.03536847467253739,"9":-0.22933144228538974,"10":-0.052707049783399657,"11":0.08540961655842538,"12":-0.05073835844774099,"13":-0.13777602612013465,"14":0.044634272653490265,"15":-0.028598060967764252,"16":0.2533074768596604,"17":0.17945112750932715,"18":-0.12974780961947519,"19":-0.4197054522336528,"20":-0.1435207150351038,"21":-0.027752251653221423,"22":-0.053388789023659546,"23":-0.07962816448087379,"24":-0.18754616464517487,"25":0.09520700286187465,"26":0.04557280245374903,"27":-0.04057053405212939,"28":-0.1165940982790815,"29":-0.025190950811584702,"30":0.005709762099267327,"31":0.11273522013624701,"32":-0.0840746625959022,"33":0.18072808428850803,"34":0.17433749436743198,"35":0.21207647593433207,"36":0.11389987733382337,"37":-0.13809320529928099,"38":0.14084188760215252,"39":-0.17203667504947565,"40":-0.12661919702844218,"41":0.026876752662629663,"42":0.16297617389754712,"43":0.30247661383162344,"44":-0.06799653253142827,"45":0.25619346696670875,"46":-0.0916122634011169,"47":-0.09075422790979328,"48":0.05228874135062013,"49":0.12547282337119836}},{"sx":1,"sy":1,"depth":50,"w":{"0":-0.26530974061999646,"1":-0.13503077134290167,"2":-0.17980387861396777,"3":-0.3133143177486389,"4":0.1544415971435724,"5":-0.019773521306605105,"6":0.32982412006126627,"7":0.07878574407021965,"8":0.029334765985053076,"9":0.02726332033088811,"10":-0.16949611937848313,"11":0.3121426411833318,"12":0.07624505883723998,"13":-0.0022743698216119252,"14":-0.16625907709556992,"15":0.032866959172114386,"16":-0.23565313287925987,"17":-0.14819964307051658,"18":0.06100757032302562,"19":-0.12297130641393132,"20":-0.03643686773560538,"21":-0.05914909078838416,"22":0.09001977151181385,"23":0.05848955497983686,"24":0.04805163900102455,"25":-0.003234578690318006,"26":0.10613282718085398,"27":0.1272473179169323,"28":0.15152029844559922,"29":0.17368655845533468,"30":-0.07249174084094008,"31":-0.270561982690011,"32":0.15130437176011866,"33":-0.11465903297240787,"34":-0.09510288855184788,"35":0.22122973753462652,"36":0.14266845161440944,"37":0.21264203562648454,"38":0.14997093047580307,"39":0.048935414077505734,"40":0.07312360679093789,"41":-0.1549467242317615,"42":-0.14594396265504558,"43":0.0005481432358113765,"44":0.055366360097251814,"45":0.1364015741910223,"46":0.16850915477874354,"47":-0.05301476066545429,"48":0.22046508601157494,"49":-0.17991073580222258}},{"sx":1,"sy":1,"depth":50,"w":{"0":-0.021171958512514643,"1":-0.22301093789570037,"2":-0.06971407416187246,"3":-0.11651490668418597,"4":0.008825927092714972,"5":0.00010217087101041136,"6":-0.09175817571185692,"7":-0.14854397400406602,"8":-0.11833767562994492,"9":-0.2340425532442248,"10":-0.058835891623218,"11":-0.015737960855020147,"12":-0.08606250506481239,"13":0.2375502412676229,"14":-0.16180492197810706,"15":-0.3975184767523893,"16":0.05246806400337257,"17":-0.29615277742489904,"18":-0.012284767542027506,"19":0.19735448242837825,"20":-0.0005434353916020806,"21":0.033683325300994146,"22":0.025695360008499344,"23":0.001444941946444244,"24":-0.19116459350913173,"25":-0.20716654029178294,"26":0.27206919816083197,"27":-0.09878745552853463,"28":0.042108356991724154,"29":0.11609225737352734,"30":-0.013256738646173667,"31":-0.07572859325078299,"32":-0.1643507048478277,"33":0.02006600176666625,"34":-0.06770571747645954,"35":-0.052674994770953866,"36":0.10280083690782475,"37":-0.1187082726832287,"38":-0.3024352280230867,"39":0.12651605114367967,"40":0.10060321097590569,"41":-0.32049351471234094,"42":-0.005470678622117648,"43":0.19585100403298406,"44":0.12241981188907668,"45":-0.1146595943495001,"46":0.0015799700446640515,"47":0.16455427038144071,"48":0.01388410420916101,"49":0.21470118971869043}},{"sx":1,"sy":1,"depth":50,"w":{"0":0.24068866394812305,"1":0.22117169964619776,"2":0.1402678607704315,"3":-0.06355951150452172,"4":0.17283275966929268,"5":0.1300012468327156,"6":-0.18864988142584088,"7":-0.18311191722084802,"8":-0.07825047109544196,"9":0.040662746238263055,"10":0.0028122861150859236,"11":-0.026375771033585845,"12":-0.27417909562629433,"13":0.0851859045509858,"14":-0.004113474434393412,"15":0.05710414803711436,"16":-0.24128858305550477,"17":0.09878390096988228,"18":0.15597293843381185,"19":0.2067105855599672,"20":-0.10247167799508126,"21":-0.030057107471640303,"22":0.20247568612367745,"23":0.0034128564642876467,"24":0.1767013013568118,"25":0.10276452462525765,"26":0.07707576795240265,"27":-0.1187791828059994,"28":0.3371919133614611,"29":-0.23101741060592942,"30":-0.0029598358891517957,"31":0.2970239181873239,"32":0.2773721083532677,"33":0.02889711906709544,"34":-0.13492008673237296,"35":0.14374696599571976,"36":0.04161346425978249,"37":-0.005385274813575243,"38":-0.15616905784113413,"39":0.037851659421564106,"40":0.08328795994072942,"41":-0.10533709732067717,"42":0.09621590015720995,"43":-0.0664622474986929,"44":0.10391568412125206,"45":0.005682862494272024,"46":0.053675571124664465,"47":0.04732423181856895,"48":0.30327773957826987,"49":-0.01804579855776168}},{"sx":1,"sy":1,"depth":50,"w":{"0":-0.01857653380271273,"1":-0.07978774363186546,"2":-0.21116478000195307,"3":0.08493201261807631,"4":-0.0734500659427078,"5":-0.04992983395894728,"6":-0.24698387937415758,"7":-0.2728342450609554,"8":0.10726446919966155,"9":0.07860809666817391,"10":0.039288103931396264,"11":0.10430726960476631,"12":0.09800596210158799,"13":0.2309418873287728,"14":0.1639299788184964,"15":-0.14713595261201132,"16":0.051627777744190695,"17":0.006195764333146637,"18":-0.08668394029480223,"19":0.17926631438302718,"20":0.08194191683575262,"21":0.28493984433777164,"22":0.12241316893253985,"23":0.013633849675419314,"24":-0.02424881473137342,"25":-0.2013193230557889,"26":0.09008236882301784,"27":0.015325203364923363,"28":0.16216183104083903,"29":-0.1511906029489986,"30":0.09621433684707652,"31":0.034270229260310835,"32":0.013033834576508883,"33":-0.02219936533292615,"34":-0.008598983425107037,"35":-0.2512294178965104,"36":0.03908414887548771,"37":-0.34191845775758295,"38":0.21831471552798304,"39":0.12805889786335997,"40":0.01627104488546102,"41":0.12847033615175024,"42":0.04281417526589042,"43":0.08818078475802613,"44":-0.07829236816663332,"45":-0.04030097906580844,"46":-0.09470754336942391,"47":0.12614678478765942,"48":0.08972777273689919,"49":0.13486245475634845}},{"sx":1,"sy":1,"depth":50,"w":{"0":0.2503973071073079,"1":0.09352978534822845,"2":0.1082577979604919,"3":-0.19272475160762062,"4":-0.14172115338432234,"5":0.02525012749944716,"6":-0.17421850150748194,"7":0.0004874403728947433,"8":0.0705060713499653,"9":-0.18982548428499357,"10":0.022601447027791623,"11":0.08143834723416689,"12":0.02197147134624795,"13":-0.22121187318213145,"14":0.1889757741318736,"15":0.06478369078283522,"16":-0.2773538929206224,"17":0.013630970421465721,"18":0.13506220024483906,"19":-0.10357278556507642,"20":-0.13492985114325426,"21":0.30181746072530696,"22":-0.1878738135498941,"23":-0.12615115940815347,"24":0.2173820927615509,"25":0.23041068277715254,"26":-0.12958372971220306,"27":0.030250459611676817,"28":0.159586284394425,"29":-0.03487782522789022,"30":-0.08984342658217873,"31":0.1893593437731121,"32":-0.26445212330964135,"33":-0.03095636249607931,"34":-0.012744841714778597,"35":-0.02907006491174698,"36":0.17762192932200663,"37":0.11864686232078807,"38":0.211414162034669,"39":0.04121170813827014,"40":-0.22020595912394358,"41":0.18302000716800343,"42":0.13638082695749068,"43":0.1846206989061754,"44":0.07689055373981102,"45":0.0843645287704232,"46":-0.03460459890768637,"47":0.1443331824407809,"48":0.09754783216070576,"49":0.07291522471876904}},{"sx":1,"sy":1,"depth":50,"w":{"0":0.19418074383729508,"1":0.1402733897152283,"2":-0.04499499451338167,"3":-0.08574780470435865,"4":-0.06893943462742057,"5":0.20141037574622017,"6":-0.08043263804088163,"7":-0.23089844392259154,"8":0.027756349984154154,"9":0.3049896051972631,"10":-0.18439781786995466,"11":0.14731606497907201,"12":0.0668335705809733,"13":-0.02327437018388511,"14":0.3582940202454157,"15":0.1899323367231682,"16":0.18829789583205872,"17":-0.19922068029576634,"18":-0.18243997245560498,"19":0.0427444657449387,"20":-0.04427355916988542,"21":0.09264615174188538,"22":0.1408269664725608,"23":-0.22042150867675506,"24":-0.05012991473024103,"25":-0.1360928360133409,"26":0.058563465430264694,"27":0.26633486947644236,"28":-0.13429094597421917,"29":-0.08687981923830806,"30":0.16817607528795167,"31":0.012505018971519902,"32":0.14663450940231515,"33":0.29903818014705424,"34":0.04844923854749731,"35":0.24738731766455588,"36":-0.19920842397914343,"37":-0.03788731999617815,"38":0.07002073140220647,"39":0.22523812648563327,"40":0.09611542030018358,"41":-0.021133047892646726,"42":-0.12630213495836354,"43":-0.10692432804097358,"44":0.07150582546412658,"45":0.19963301692024488,"46":-0.3288622246775758,"47":0.1616723829357743,"48":-0.17062751596850545,"49":-0.012584114731036641}},{"sx":1,"sy":1,"depth":50,"w":{"0":-0.12638435425212022,"1":0.190338845788277,"2":-0.13721819356203155,"3":0.06696927738610596,"4":0.08675563635165419,"5":-0.11508209351907815,"6":0.060432477200051495,"7":0.015619975672563194,"8":-0.14725671296017406,"9":0.018100645417338374,"10":0.07386392148719237,"11":-0.23870378800783038,"12":0.14010815934252374,"13":-0.2570932089456217,"14":0.20802458834344378,"15":-0.0009338132442003191,"16":-0.012247240679888857,"17":-0.008650527067831556,"18":0.1488689139865909,"19":0.20588700975448604,"20":-0.07843759348405174,"21":0.011247419111079227,"22":0.15942168537241072,"23":-0.09414376493936849,"24":-0.17182235202031224,"25":-0.10270454933463191,"26":0.12630254748141623,"27":0.1177850950225031,"28":0.030580179591541173,"29":0.18173353619795093,"30":0.2777133484338556,"31":0.11605685885702095,"32":-0.3603924856252656,"33":0.14577934401641374,"34":0.054256537513393585,"35":-0.4188150183765996,"36":0.02295244468439065,"37":-0.15482904484922938,"38":-0.196953713857445,"39":-0.0022415656787438563,"40":0.05130281326507115,"41":0.05847417604988381,"42":-0.06200794704060759,"43":0.0006621830248580984,"44":-0.017843244829641086,"45":-0.020215332313459487,"46":-0.27299994756896234,"47":0.04275832295515378,"48":0.05618400476627733,"49":0.11847954826441756}},{"sx":1,"sy":1,"depth":50,"w":{"0":-0.10464673617443701,"1":-0.2522797399646685,"2":-0.008043546627044358,"3":-0.07444525453616495,"4":0.23889625485586702,"5":-0.35825022443032006,"6":-0.08910267399026305,"7":0.10001284143632135,"8":0.11638254533410398,"9":-0.10889491228490454,"10":0.060522402521593285,"11":-0.011729506813367244,"12":0.038789071351257164,"13":0.05434194253344226,"14":0.08050010407902532,"15":-0.031100353951322334,"16":-0.2075880214217899,"17":0.06121978471869635,"18":0.10843318494644714,"19":0.03997721203257216,"20":0.020922121214151934,"21":0.0005915673295207361,"22":0.20297051309179212,"23":-0.06155625384015046,"24":-0.06211438829431004,"25":-0.011719761784175563,"26":-0.0741004709339878,"27":-0.06159452606920548,"28":0.1346732629285659,"29":0.08722221946572357,"30":0.04647757737842879,"31":-0.030409983060199777,"32":0.004260559742447553,"33":-0.002659136245953106,"34":-0.08290092106754755,"35":0.08909053037222703,"36":-0.030531713791332894,"37":0.13250711254863254,"38":-0.06914094323293063,"39":0.16582711011686882,"40":-0.01940523785279968,"41":-0.1352030815622326,"42":-0.054501526668118534,"43":0.04614369808908524,"44":0.12629185443758847,"45":0.18832145193756442,"46":0.0811332207823073,"47":0.19138109654189198,"48":-0.0007693311239542163,"49":0.027583621660172326}},{"sx":1,"sy":1,"depth":50,"w":{"0":-0.07926497002306229,"1":0.032287561754681574,"2":0.045439010271859724,"3":-0.047355395067938566,"4":0.04008844026834253,"5":-0.031026279897491467,"6":0.08854904471696202,"7":-0.2603304586249088,"8":-0.2121186717876774,"9":0.10446470214966977,"10":-0.038623577518730245,"11":0.1156257613458711,"12":-0.041300216618838405,"13":0.19442580607165552,"14":0.034962808494761625,"15":0.0040327091406890106,"16":-0.2432905069177195,"17":-0.08074679213503144,"18":-0.37923608717042884,"19":-0.005098455875981566,"20":0.3550477711206854,"21":0.05122382964551089,"22":0.19969796899690928,"23":-0.121840731350424,"24":0.09244343010090596,"25":0.00016839303461155987,"26":-0.03143333141204337,"27":0.0028617236133101458,"28":-0.10272705026174582,"29":-0.028460186167576923,"30":-0.14012832340039016,"31":0.037297499855908245,"32":-0.0644588253002527,"33":-0.008646736761296351,"34":0.09603715623611624,"35":-0.06345627936864544,"36":-0.15477259859658443,"37":0.011516323798189771,"38":0.04276192090010845,"39":0.07528256995002135,"40":-0.04284211745631019,"41":0.05103599858390212,"42":-0.2369202057752094,"43":0.12017184178002766,"44":0.12778577798968904,"45":-0.19537709254218807,"46":-0.02640239400989854,"47":-0.10220626049250565,"48":-0.05328427833279982,"49":0.0963869420112298}},{"sx":1,"sy":1,"depth":50,"w":{"0":0.20051689653999716,"1":0.11660585092441055,"2":-0.048351851374563826,"3":-0.20355271597016275,"4":-0.07503373207865414,"5":0.07631926391952791,"6":0.24907791160006973,"7":0.1393174251647985,"8":-0.3766141551503336,"9":-0.0820479196477848,"10":-0.3272015573924205,"11":-0.20118625732268272,"12":0.03253284971010336,"13":0.011429942560612716,"14":0.30866700329214275,"15":-0.013279140434668017,"16":-0.11690891760315268,"17":-0.12725217534290673,"18":-0.16275981029931613,"19":0.19510020478727583,"20":0.02801800585497465,"21":0.11106722165064022,"22":0.40814293171540067,"23":-0.2779969626335661,"24":-0.22358538329923322,"25":-0.09274772335162752,"26":0.1435931396910115,"27":-0.07436204512810443,"28":0.07605061469282957,"29":-0.12789815484273998,"30":-0.13391837978511742,"31":-0.08077337801182828,"32":0.12386290258016967,"33":0.15657050992487714,"34":-0.06920872286134815,"35":-0.03202410116601083,"36":-0.046951986771708164,"37":-0.06006035731051819,"38":0.06672703770207904,"39":-0.06877527748214177,"40":0.10949030017744214,"41":-0.1696844376028618,"42":0.0940108112589647,"43":-0.0474316264489526,"44":0.21392976824025112,"45":-0.07358367881114301,"46":-0.034469605263876345,"47":0.08706039922733101,"48":-0.17328682312444188,"49":0.07317387181497056}},{"sx":1,"sy":1,"depth":50,"w":{"0":0.0675910962461415,"1":-0.19471142656530735,"2":0.13073623038236132,"3":0.11993254783887031,"4":0.08601889168678879,"5":0.016152133681957254,"6":-0.19110757017011315,"7":-0.10982538719290048,"8":0.05445909879621993,"9":0.1850959867684403,"10":-0.10253502911696202,"11":-0.008599031593091923,"12":-0.1062472842004233,"13":-0.26470600556593216,"14":-0.09211903460474827,"15":-0.10656989346281798,"16":-0.024912693453617615,"17":-0.10799914620964711,"18":-0.09416280613238809,"19":-0.04274271683732128,"20":-0.1899020020755532,"21":-0.08355557591171443,"22":0.14977039042950865,"23":-0.01058983782305247,"24":0.24229579095807047,"25":-0.00047717171459178264,"26":-0.33781466026788914,"27":-0.027665379148161674,"28":0.03323227353314441,"29":0.11505054186002522,"30":-0.19190262321996462,"31":-0.18432219882566273,"32":0.10438592035304028,"33":-0.03489017329867124,"34":-0.11728722503867806,"35":0.08210023339104829,"36":0.02012842885186549,"37":-0.10150501553969282,"38":-0.07860518452957911,"39":-0.06921954997738028,"40":0.06817395158416699,"41":0.031604271807892326,"42":-0.1401199932292229,"43":-0.07267560762886266,"44":-0.059250841797935175,"45":-0.11958715085057524,"46":0.15098962738850677,"47":-0.003717862914702254,"48":0.024561965547938023,"49":-0.070153187024509}},{"sx":1,"sy":1,"depth":50,"w":{"0":-0.12967929810159773,"1":0.04106104646585437,"2":0.030854342002917635,"3":0.23745537495315114,"4":0.06846227432662794,"5":0.10574774244155034,"6":-0.059874120018738104,"7":-0.08572205942158619,"8":0.23141556274742467,"9":-0.16077655007378625,"10":0.08738654842471139,"11":-0.07441641437193343,"12":0.20023516231857372,"13":-0.018923077023803286,"14":0.07075903067212728,"15":0.1289520433277988,"16":-0.02936757197206283,"17":-0.10607489899436229,"18":0.1625542065300603,"19":-0.3735395957853841,"20":0.11768114303996319,"21":0.1836490019624734,"22":0.31155300386306084,"23":0.2486879787594041,"24":-0.09168290696529256,"25":-0.13403650479573592,"26":-0.17362402234153837,"27":-0.2013728797499238,"28":-0.07162115407117664,"29":0.18012734679353617,"30":-0.046770609857500055,"31":-0.400385108836862,"32":0.1876827904056497,"33":-0.2249916836191014,"34":0.21759610881278366,"35":0.19428599406576608,"36":-0.01592741073205069,"37":-0.04561630114060782,"38":-0.02154019474465872,"39":0.17353173425741383,"40":0.16798032823984146,"41":0.07919726461759892,"42":0.0888361769483162,"43":0.27245764006412754,"44":0.06158266634184348,"45":-0.14731480344647652,"46":0.015292566410812438,"47":0.039768164648194354,"48":-0.033271662653105764,"49":0.06429667357553294}},{"sx":1,"sy":1,"depth":50,"w":{"0":0.21185502593181257,"1":0.013909964763074233,"2":0.33664477161521755,"3":0.2725065164284598,"4":0.053893550871345695,"5":-0.046747905081570076,"6":0.1744464151537768,"7":0.0429012693125755,"8":-0.05425573651077339,"9":0.019605596293465956,"10":0.016962614720302922,"11":-0.14326343113494172,"12":-0.04407915880159371,"13":-0.14132716879274174,"14":0.15607258509250857,"15":0.05171276910271337,"16":-0.18253743930830674,"17":0.011136929683496931,"18":0.02376797703425519,"19":-0.135193464137956,"20":0.1518794954119655,"21":-0.1500470490146612,"22":-0.002718451942272025,"23":-0.07993757933861981,"24":0.2942209686534333,"25":0.022686963272739828,"26":-0.033159263461763705,"27":-0.007542179040025455,"28":-0.026038850459767796,"29":-0.007282531608760659,"30":0.17824383410609157,"31":0.12616659014172665,"32":0.2806442340140007,"33":0.11737148412362343,"34":0.0004960434473665397,"35":-0.21169437602173685,"36":0.273375838118361,"37":-0.11194077759067073,"38":0.07107029537212252,"39":0.0005116721018167896,"40":0.0906277370023471,"41":-0.1120853880541568,"42":0.029662413059341062,"43":0.0603958022226005,"44":-0.13105000654270332,"45":-0.06386817642105358,"46":0.07890722369477512,"47":-0.027588877888375423,"48":-0.1473764440579749,"49":0.10672950695414916}},{"sx":1,"sy":1,"depth":50,"w":{"0":0.15039112522140244,"1":0.04996326858675559,"2":0.09227249663791624,"3":0.1862440059568325,"4":0.05214521684586591,"5":-0.15908925254180584,"6":-0.03902493501687815,"7":0.026141768776626176,"8":0.07174181282385686,"9":-0.21945207557961177,"10":0.24303643126183225,"11":-0.03985981123791902,"12":0.11434605844603299,"13":-0.20467486944197344,"14":0.08068382695232303,"15":-0.082740380044482,"16":0.054807661854120865,"17":-0.033198110670463195,"18":-0.057558959150508154,"19":0.21182327967621317,"20":0.12444240469968898,"21":0.24106307363382012,"22":-0.022629203076683688,"23":-0.12233063171479859,"24":0.28864015527347997,"25":-0.09193100353855604,"26":-0.10397051115854948,"27":0.18550772585423916,"28":0.1872645987990545,"29":-0.07862177915667198,"30":-0.16975552677539255,"31":-0.11969916363009643,"32":-0.30078357841020165,"33":0.07158661581883947,"34":-0.027697213109229585,"35":-0.01858163291087688,"36":0.23400708749510427,"37":0.17354622094626465,"38":0.11030412211172808,"39":0.10726314987959897,"40":0.18395876033283484,"41":0.18462006223677127,"42":-0.1260834329703382,"43":-0.1808192316319512,"44":-0.11866017677764831,"45":0.09352223130728249,"46":0.2746045998983933,"47":0.0010496667309485847,"48":-0.033550158009734314,"49":0.08790777249952189}},{"sx":1,"sy":1,"depth":50,"w":{"0":-0.022031010278944278,"1":0.37285498275270784,"2":0.07623125366688974,"3":-0.18440440069260183,"4":0.2527317016744192,"5":-0.07450625554625173,"6":0.07432638959674148,"7":0.012849685380601017,"8":-0.1794526916334927,"9":0.10650529262654701,"10":0.22580384830291664,"11":-0.16841872808532093,"12":-0.06314052269558477,"13":-0.03717153082601391,"14":0.1822191807951517,"15":-0.23581464409684655,"16":0.027567605893442836,"17":-0.18209917700266529,"18":0.15736091643446273,"19":0.05451912145093732,"20":-0.13284286312731322,"21":0.034708254781114625,"22":-0.21584642286621042,"23":-0.20627272378053105,"24":-0.09605292015415927,"25":-0.22372809400647087,"26":-0.046621147561710936,"27":-0.03222436312048232,"28":-0.05502306134616647,"29":0.008318832861095114,"30":0.008204642203444554,"31":-0.0760271731798533,"32":-0.029556655083884706,"33":0.06430778612282562,"34":0.018694058944312242,"35":-0.0008077475523254187,"36":0.07251367504800738,"37":0.09543588398463988,"38":-0.09806131245643152,"39":-0.033833225872199876,"40":0.0713391820049591,"41":-0.16482424455053765,"42":0.19979544253814258,"43":-0.11294332656836081,"44":-0.0712988463896498,"45":-0.08021219517016966,"46":0.19064946107737676,"47":-0.2101051636137167,"48":-0.034218138815625236,"49":0.04359127874501213}},{"sx":1,"sy":1,"depth":50,"w":{"0":0.10852730946404453,"1":-0.09325353614291974,"2":-0.29877517588885155,"3":-0.06029896176560555,"4":0.12625711430117445,"5":-0.0414639553217799,"6":0.10383822072770553,"7":-0.012497634641852697,"8":0.26736626087533916,"9":0.060722208182890466,"10":-0.2552474823170306,"11":0.1422403046732153,"12":0.061999710522832964,"13":0.17331946535777076,"14":-0.04968432528218307,"15":-0.04733822287694783,"16":0.13883141414260516,"17":-0.13624808252653894,"18":0.033076715723129285,"19":0.19142538154341227,"20":-0.14190703183009762,"21":0.06966831846468188,"22":-0.07180210356850476,"23":-0.05185203512362335,"24":0.15876347047251493,"25":0.12890699093969155,"26":0.03127590335871721,"27":0.05376426156286528,"28":0.2583098739696364,"29":0.13085375159268037,"30":-0.14908319072192272,"31":-0.16063991718891157,"32":0.07291528136811262,"33":-0.05780935645053331,"34":-0.07467304626572241,"35":-0.300229284040866,"36":0.09101387927753762,"37":-0.19508078487068528,"38":-0.17338239315895307,"39":0.010543956990991771,"40":0.09512262355848608,"41":0.17563832532382956,"42":0.00994417046590365,"43":0.04077576102368242,"44":-0.2649403666748413,"45":-0.0014944001495609512,"46":0.042834497961011596,"47":0.010441507502435008,"48":-0.0750805790940122,"49":-0.11862055469832758}},{"sx":1,"sy":1,"depth":50,"w":{"0":0.04004044969115539,"1":0.030497812588656675,"2":-0.05641246028837787,"3":-0.14512156879576243,"4":-0.11739682740601394,"5":-0.2440541334850428,"6":-0.03065172989417159,"7":0.17879787129519392,"8":0.07385746091283119,"9":-0.16273837652250253,"10":0.06534424436110879,"11":-0.005702144376583982,"12":0.03938767628164601,"13":0.19627929086027113,"14":0.10563024211847573,"15":0.14969300113993012,"16":-0.11517985533904819,"17":0.15646677588079974,"18":0.23486136470204844,"19":-0.25925685761363987,"20":-0.046948918796593166,"21":-0.11354322037339525,"22":-0.15822694977434873,"23":-0.04561001097159853,"24":0.05236393986092688,"25":-0.09321337750378979,"26":-0.08808015047885684,"27":0.18444954485583664,"28":-0.1626233323441479,"29":-0.03618969823427902,"30":0.032420519091318045,"31":0.2365955276811768,"32":0.26892774668340425,"33":0.08365825111066312,"34":-0.013434709284016291,"35":0.04576630637135285,"36":0.054510515336612574,"37":0.030774609990787717,"38":0.062135890543034956,"39":0.036468307890509095,"40":0.009879034291828345,"41":0.015038177566202633,"42":-0.24965899670075078,"43":-0.02427184773864145,"44":-0.06350228689214196,"45":0.12448249216202056,"46":-0.17464491574785374,"47":0.08778403102167888,"48":-0.00015048376488366457,"49":0.1257123453010147}},{"sx":1,"sy":1,"depth":50,"w":{"0":-0.06312471145362138,"1":-0.041054510946286066,"2":-0.09839528520091426,"3":0.0561376516657444,"4":0.0821715016660908,"5":-0.052592074323151196,"6":-0.1806625287860071,"7":-0.0817794180055866,"8":0.33083258210655037,"9":-0.16874587103608746,"10":0.015581197021417373,"11":0.05045388686223414,"12":0.2904248055827926,"13":-0.0604171590101022,"14":0.21207892152359997,"15":0.03631974984785681,"16":-0.02724614852859958,"17":-0.04283532279864507,"18":0.012168877815129302,"19":-0.14976811398932618,"20":-0.03928004930280762,"21":-0.28645827834905874,"22":0.1315365447779093,"23":-0.10363206042037516,"24":0.2508851997885984,"25":-0.17694021940881108,"26":0.19779060757185793,"27":0.19120052348973118,"28":-0.2075033589497532,"29":0.160328401353772,"30":0.07622245902147691,"31":0.24628459361847313,"32":-0.06292710566783147,"33":0.18343632413652117,"34":-0.17629966113972853,"35":-0.03344437228070125,"36":0.08614129597927361,"37":0.029851334964118688,"38":0.230638809264644,"39":0.3041390511280163,"40":-0.249955310472687,"41":-0.07441792125500525,"42":0.015279279135661534,"43":-0.05347660469433371,"44":0.1795343973630618,"45":0.22391496034133204,"46":-0.1193020269849947,"47":-0.22214426271920085,"48":0.13875030287207293,"49":-0.2832309294092888}},{"sx":1,"sy":1,"depth":50,"w":{"0":-0.10742463472176422,"1":-0.1309565119219882,"2":0.09460802198291582,"3":0.3045661747375839,"4":0.0077385704561680375,"5":0.04490321214197427,"6":-0.09117531133009404,"7":-0.10285622562576904,"8":0.059864548129004116,"9":0.06447686850744912,"10":-0.029385045771745534,"11":-0.19836209216440454,"12":0.016682848749594283,"13":0.07615893688582788,"14":-0.015563800853093215,"15":0.04864222541704772,"16":-0.10046778306114787,"17":-0.08865984822947609,"18":-0.0008222874747000839,"19":0.03185731631251565,"20":0.03294976873093832,"21":0.07844544052149677,"22":0.3982327146599626,"23":-0.10728898363026648,"24":-0.03694668506684709,"25":-0.1764268875433083,"26":-0.07581087475687706,"27":-0.009761368420986113,"28":0.1410539113414355,"29":-0.13602426245846197,"30":-0.03307722903754563,"31":0.19585283925534447,"32":-0.006526270042809388,"33":-0.29546513153513315,"34":0.0667654910772213,"35":0.100742328633306,"36":-0.3032947614560833,"37":-0.1369817091234885,"38":-0.22936444358654368,"39":0.01845174444280979,"40":0.4322174717397485,"41":-0.17603493548765567,"42":-0.07755194017726308,"43":-0.24481450454111728,"44":0.021569445659336006,"45":-0.3223097204730223,"46":0.11524649191188555,"47":0.05060387196651973,"48":0.17057634163368446,"49":-0.13795492194443854}},{"sx":1,"sy":1,"depth":50,"w":{"0":-0.04136199935794419,"1":-0.04050503871752562,"2":0.11417891784027202,"3":-0.2956716258167806,"4":0.08277318658312398,"5":0.0028812209188895654,"6":0.15242808249387796,"7":0.05441288100251905,"8":0.19145777342920411,"9":0.0664817405908363,"10":0.15352419821907207,"11":-0.061916658502264375,"12":0.12353044781145885,"13":0.01368914385485281,"14":-0.2565151847828356,"15":-0.09079285493201915,"16":0.09180358061846945,"17":-0.03467695954021093,"18":0.027339459321902078,"19":0.2678687727535502,"20":-0.07649382463762495,"21":0.03259584454522497,"22":-0.20468197270631228,"23":-0.02660651819441516,"24":0.11449356433595795,"25":0.14461496268130583,"26":0.11275054459252273,"27":0.16672214060079352,"28":-0.07630411761526891,"29":-0.12573013089655485,"30":-0.10105870670245891,"31":0.16041838803236136,"32":-0.08779326056807067,"33":-0.04766854673098159,"34":-0.1406869279884249,"35":-0.031987907302028815,"36":-0.04199978880212724,"37":-0.29611480836226123,"38":0.11287368578485162,"39":-0.015369484262178448,"40":-0.08604877350947128,"41":0.1379830736794317,"42":0.0549675397637081,"43":0.01688082141278371,"44":0.3683240738495057,"45":-0.07262155694016759,"46":-0.17050968049241688,"47":-0.11472140926286939,"48":-0.2439558441025469,"49":0.15279572162947094}},{"sx":1,"sy":1,"depth":50,"w":{"0":-0.02193571304827096,"1":0.018220765593383956,"2":-0.24422761784691982,"3":-0.19162422683959734,"4":0.054948815730912655,"5":0.10923930594003148,"6":-0.1529757013303126,"7":-0.06233043922901368,"8":-0.026644911326153344,"9":0.033474442613121796,"10":-0.21422587151166497,"11":-0.13671262623713915,"12":-0.007359885993985007,"13":0.002538390481778315,"14":0.10567528905251683,"15":-0.23795695277222018,"16":0.08559565140791565,"17":-0.04031182347170651,"18":0.3733260800586732,"19":0.17201821533423575,"20":0.0030683296035766017,"21":-0.05936730653126425,"22":0.043874456264535025,"23":-0.36689925838429316,"24":-0.019114215677396244,"25":-0.030005735927736286,"26":-0.1605676052821178,"27":-0.03149987747928784,"28":0.011645019923868634,"29":0.14060693866296084,"30":0.0409754567117174,"31":0.263519738333032,"32":0.06601917022140785,"33":-0.2067062344860566,"34":0.0027066190646297737,"35":-0.041289010093919214,"36":-0.03662785729895624,"37":-0.05133165888327995,"38":0.07687794096314396,"39":-0.153249833248163,"40":-0.09490780620015142,"41":0.016178515237080804,"42":-0.24540727455390554,"43":-0.1888858595106493,"44":0.2703582045638205,"45":-0.15602973235300027,"46":0.15727996469942387,"47":-0.06531026943806065,"48":0.10932479020135154,"49":-0.1282953446784686}},{"sx":1,"sy":1,"depth":50,"w":{"0":0.12098250184461112,"1":0.06391391041398208,"2":0.10188166677452477,"3":0.06706270794683004,"4":-0.11411154962498311,"5":0.01438700260627726,"6":-0.26987842394848166,"7":-0.000022213121774875908,"8":0.016825542156860274,"9":0.08585172331766792,"10":-0.08074909427469042,"11":-0.24066870229974224,"12":0.1340651939716414,"13":-0.006970334142141556,"14":-0.012185210183284834,"15":-0.0020326057606078374,"16":-0.07105498614245748,"17":0.1157005110553343,"18":-0.1498273033257685,"19":0.20172140660530616,"20":-0.24536832474227313,"21":-0.05087669537991489,"22":-0.21321431775904687,"23":0.028386857787485974,"24":0.2680367260783531,"25":0.019561387708757736,"26":-0.2613333160355066,"27":0.04375555892671711,"28":0.16685801689015103,"29":0.20842159619526107,"30":-0.08706734723891676,"31":-0.18431836399660423,"32":-0.05449876545254315,"33":-0.005362913700469511,"34":-0.34273501135725987,"35":-0.06854141781977398,"36":-0.03981031764907308,"37":0.1940288814209771,"38":0.194709308339195,"39":-0.014214829446143433,"40":-0.015467003520614472,"41":-0.07665562481425181,"42":0.11679694043422789,"43":0.2370720592861017,"44":-0.036540914026726844,"45":-0.030794916210560297,"46":-0.07819011991136139,"47":0.017225706952140908,"48":0.005630596563796304,"49":0.17163684243796143}},{"sx":1,"sy":1,"depth":50,"w":{"0":0.25596731542637596,"1":-0.08351632527530335,"2":0.09019271189670201,"3":-0.053663296787642624,"4":0.012985582249721449,"5":-0.0919842187644391,"6":-0.07677137294272611,"7":0.037091144296331056,"8":0.036024802092050535,"9":-0.005784444929717611,"10":-0.2565041522759448,"11":-0.10090713356788258,"12":-0.06237985830655879,"13":-0.16111733112740642,"14":0.30767429156581494,"15":-0.0649161394202071,"16":-0.1734332697056017,"17":-0.028579534517915804,"18":0.06601047732846739,"19":-0.14979118435662658,"20":0.12852028948533933,"21":0.009446516127542163,"22":-0.026596146931847062,"23":0.010876398655131111,"24":0.15644982755928055,"25":0.32479846675674967,"26":0.061316577552153216,"27":0.07224084522741707,"28":0.25791218492149204,"29":-0.04795457534954845,"30":0.17759530520889857,"31":0.00238040794366503,"32":0.009429405762923292,"33":0.24455582678908344,"34":-0.02599715211286534,"35":0.028555346123643133,"36":-0.061047153483077904,"37":-0.20510227213287963,"38":0.18414249039421676,"39":-0.09400294639403384,"40":0.05953335717728946,"41":0.061513486826548426,"42":-0.06907827786826708,"43":-0.1276319035473757,"44":0.13233371034513078,"45":0.18444987169810836,"46":-0.3038279231314288,"47":0.09427253556374096,"48":-0.11319606282369801,"49":-0.09973838184588986}},{"sx":1,"sy":1,"depth":50,"w":{"0":-0.0678675451325063,"1":0.027649183195674897,"2":-0.1207998252141117,"3":-0.10805340350992969,"4":-0.07168387809909584,"5":0.1361741088307806,"6":-0.143071712442507,"7":-0.11606527864511702,"8":-0.10672918939309929,"9":-0.1979010576962331,"10":-0.3049631978233425,"11":0.06253393606704621,"12":0.3542370945651064,"13":0.059826130439634306,"14":-0.21684209126513573,"15":-0.17138403540450098,"16":0.09301959202063427,"17":-0.005449715724959233,"18":-0.09564155575641649,"19":0.21237720369555657,"20":0.12162116293327717,"21":0.2786973740616968,"22":-0.13421143050776685,"23":-0.04574969185826428,"24":0.09998819620701267,"25":0.07976137142096386,"26":-0.20666180614571036,"27":0.124160675806203,"28":0.1598276553499704,"29":0.20819257173337358,"30":0.025201808368117164,"31":-0.190609463302168,"32":0.2448325779164469,"33":0.041720338134677175,"34":0.20641787796203503,"35":-0.0006195344760172041,"36":0.01905385534457402,"37":0.20512420942037793,"38":-0.30753652304470014,"39":-0.057199110321332916,"40":0.10080257005857951,"41":-0.22639140500348598,"42":0.2029558106037137,"43":0.15003729405476557,"44":-0.10985989922303759,"45":0.04778328726091422,"46":0.029906028177975184,"47":-0.08180488353714539,"48":-0.03263586510269,"49":-0.05794479416121622}},{"sx":1,"sy":1,"depth":50,"w":{"0":-0.12893476028807507,"1":-0.2032041717228759,"2":0.17051495015222723,"3":-0.12415206640378061,"4":0.043970833384541476,"5":0.036855204481056544,"6":-0.071859471036715,"7":0.05895151769693062,"8":0.03546023007042119,"9":0.060925408111348674,"10":0.18550581219810408,"11":-0.03307951005405393,"12":0.1236049311120093,"13":-0.05497815395052838,"14":0.08225738599111165,"15":0.20727964308220942,"16":-0.056450453101282945,"17":-0.16688418802631966,"18":0.007179809816600059,"19":0.09239434673574462,"20":0.10168765457410632,"21":-0.1876618961513277,"22":-0.1836086430290381,"23":0.0840960949231299,"24":0.22915581386282569,"25":-0.12902979830547254,"26":0.08111198011401007,"27":-0.1583756442346017,"28":0.13841171644806152,"29":0.08707467065566452,"30":0.05022590875601643,"31":-0.15239958023251624,"32":-0.014018820849778377,"33":0.09851029209881862,"34":0.09858632012668207,"35":0.12784529036776812,"36":-0.10300641057094553,"37":-0.19659441303431044,"38":-0.10169716294522828,"39":0.352549903708717,"40":-0.12542191513252843,"41":0.0727822840218719,"42":0.16111612242055556,"43":0.2965827530723997,"44":0.153746100174077,"45":0.13148271373926249,"46":-0.14576313849108016,"47":0.10817259896343612,"48":0.06705687950351748,"49":0.052969393375355826}},{"sx":1,"sy":1,"depth":50,"w":{"0":-0.13793180514414727,"1":0.056033261544618865,"2":-0.0268583433838866,"3":0.020347494857758105,"4":-0.1450800918717529,"5":0.5223567171746748,"6":0.12049107968680485,"7":-0.027126165664444923,"8":0.039273119468488334,"9":-0.17893748103639015,"10":0.30048658594172595,"11":0.06388332341706134,"12":0.2157115965921515,"13":0.23038417088247964,"14":0.008640589251032034,"15":0.360102381589448,"16":0.03539294555553908,"17":-0.08554125163385073,"18":0.1937747827665517,"19":0.09398302583294038,"20":0.17241235692465154,"21":-0.10984812547126095,"22":0.27214177871684164,"23":-0.3466098538486207,"24":0.2784024969254025,"25":-0.16662369900529783,"26":0.005157674197407308,"27":0.28619857630687906,"28":0.11910293625393406,"29":0.1626265282497007,"30":0.1477620220759586,"31":0.07818161432013601,"32":-0.11002544147917269,"33":-0.08537091023601427,"34":0.07533565839525785,"35":0.0323806941744339,"36":0.10503991425773715,"37":0.05431616060026216,"38":-0.21420066630626391,"39":0.191254752182037,"40":-0.08756568356561202,"41":0.14927699103218134,"42":0.06933218441902722,"43":0.01505188779181538,"44":-0.07258052584515567,"45":-0.024959825575907552,"46":0.37810144248906347,"47":0.17268155276518854,"48":-0.27212718834942323,"49":-0.2236542581732295}},{"sx":1,"sy":1,"depth":50,"w":{"0":0.11449770018385297,"1":0.0832598393701182,"2":-0.03703463440809476,"3":0.22498291863372818,"4":-0.0686238678724198,"5":0.12209022537569855,"6":0.31504899852792084,"7":0.16712666477957316,"8":-0.0756871318410115,"9":0.1983849858628825,"10":-0.09250512389836575,"11":0.17603510543558018,"12":-0.14544707834432713,"13":-0.009111890515491397,"14":-0.11927358468357976,"15":0.13569540378704567,"16":-0.04957250755700519,"17":-0.02665547143980049,"18":0.1443795131969142,"19":0.10908758273653742,"20":0.13802420625400405,"21":0.06905788752555227,"22":-0.01887830171382994,"23":-0.15867976089497882,"24":-0.025643761410527037,"25":-0.2924246024933279,"26":-0.08757990853928647,"27":-0.05620570543720121,"28":-0.02460735027452052,"29":0.07763143410340989,"30":-0.07185679039306377,"31":-0.029139823204069694,"32":-0.032515861290217316,"33":0.3604819542385507,"34":0.14170391227754978,"35":0.16067081119859067,"36":0.08711672522401416,"37":-0.0790760656251407,"38":-0.08172782471256587,