{"layers":[{"out_depth":62,"out_sx":1,"out_sy":1,"layer_type":"input"},{"out_depth":50,"out_sx":1,"out_sy":1,"layer_type":"fc","num_inputs":62,"l1_decay_mul":0,"l2_decay_mul":1,"filters":[{"sx":1,"sy":1,"depth":62,"w":{"0":-0.12923742765042842,"1":0.2301566246917953,"2":-0.2061347254636864,"3":-0.04612363046922475,"4":0.10081411870721736,"5":0.014274315855504077,"6":-0.06305708249446956,"7":0.35164614471497385,"8":0.2519740950392812,"9":0.5020355632718814,"10":-0.015370311082732211,"11":0.1649699585629251,"12":-0.1113769433255007,"13":-0.3192648054629465,"14":0.053995955584488664,"15":0.2425573356951251,"16":0.3273896227640999,"17":0.35497528463618144,"18":0.3735063824409442,"19":0.36564580471897934,"20":0.2621769271891798,"21":0.665791083317361,"22":-0.21239521504775555,"23":-0.20972385432081117,"24":0.03629088661354829,"25":0.010052437487079102,"26":-0.17715208014088663,"27":0.4158455922945796,"28":-0.04149081930798432,"29":0.11434005816858057,"30":0.16800611333936227,"31":-0.15732006080129654,"32":0.03502388246256551,"33":-0.2414604942774408,"34":-0.21177785627977289,"35":0.5620951788502581,"36":-0.21103636236512854,"37":-0.17357048467329525,"38":-0.2195196417763555,"39":0.0378943770920308,"40":-0.06020016908962199,"41":-0.21706598141114003,"42":0.29609553934324245,"43":0.1930369799864905,"44":-0.23462673711750848,"45":0.021348084426656123,"46":-0.09303504214225908,"47":-0.1979142544091538,"48":-0.16433473391276915,"49":-0.04437985656155952,"50":-0.14923916267352907,"51":-0.16110858804744946,"52":-0.2405609258459025,"53":0.7225194993400728,"54":0.19938115632143885,"55":0.5083066606480231,"56":-0.1317499533084937,"57":-0.14545139657823392,"58":-0.21412126535119708,"59":-0.10344182358396121,"60":-0.09445473443928636,"61":0.014515827147502424}},{"sx":1,"sy":1,"depth":62,"w":{"0":-0.09364712846755534,"1":-0.051704329407691534,"2":0.2112559444197494,"3":-0.206828888394068,"4":-0.06267110664212835,"5":-0.2671078408521085,"6":-0.1157579250354776,"7":0.11839854877948972,"8":0.07194435015802252,"9":0.12682796777806452,"10":-0.16564617143269084,"11":0.054717076776274236,"12":0.08136091523313396,"13":-0.04982231952248003,"14":0.2664051135051834,"15":-0.14888732292263027,"16":0.1888514728378775,"17":0.3997664448124294,"18":0.30756742541575494,"19":0.10699919960465465,"20":0.24457174604280424,"21":0.04395799895165236,"22":0.039799527821460665,"23":0.2460644113179914,"24":-0.1093723268271802,"25":-0.020416488185902575,"26":-0.03175950043410802,"27":0.6363691362800115,"28":0.37555305468496303,"29":-0.1786483857756513,"30":0.20797344571904494,"31":-0.1542426931152945,"32":-0.18122966832410786,"33":-0.09213873044586333,"34":-0.17532090884600957,"35":0.16217606242607474,"36":-0.2112397849865364,"37":0.11823538902296847,"38":-0.133259152402008,"39":0.20370688394010905,"40":0.13982791369307096,"41":-0.12821434877059662,"42":0.3091946649791649,"43":-0.18805883296686532,"44":-0.16653304415141537,"45":0.46605185187395937,"46":0.22631953393358667,"47":-0.18681439445641682,"48":0.26058456911536276,"49":-0.16736588108289602,"50":-0.25227450439608723,"51":0.09496634706796382,"52":-0.07490913495664403,"53":0.24462338379872783,"54":0.07738181276593435,"55":0.09750057570914829,"56":0.07965381859634535,"57":-0.13206182789454415,"58":-0.2095168056514184,"59":-0.19110264812192687,"60":-0.20614993314627908,"61":-0.10642823839565774}},{"sx":1,"sy":1,"depth":62,"w":{"0":1.1219581737448838,"1":-0.3368912141067298,"2":0.08945906662116834,"3":0.6148009319035415,"4":1.1273256210365414,"5":-0.035076449602877736,"6":-0.21468436612889746,"7":0.44659908860580416,"8":0.3036933132395614,"9":0.46428227566244057,"10":0.7210728240459404,"11":-0.11559199168967303,"12":0.07542877582263033,"13":0.44123917698106796,"14":0.9025831705946117,"15":-0.08138963371968658,"16":0.018069273666385572,"17":0.46182468879695715,"18":0.38267305902272036,"19":0.5596283195201136,"20":-0.34474480498634275,"21":-0.5298751943056978,"22":-0.5184430681623245,"23":0.25032008380931114,"24":-0.18258687107833133,"25":-0.01890091875726663,"26":0.42701186848929545,"27":-0.6648782428204597,"28":0.29526914960911,"29":0.13809854337410604,"30":-0.10703706542109986,"31":-0.20388999785041875,"32":-0.08955531456757912,"33":0.761386614828283,"34":0.1601166918835481,"35":-0.10338192147449433,"36":-0.19482582134135262,"37":0.17585017294458846,"38":0.2993665963493203,"39":-0.2540525848419386,"40":0.005135368662956136,"41":0.24477752796622587,"42":0.42346925381806283,"43":0.44698773176099416,"44":-0.05710797556862074,"45":-0.40420553555936223,"46":-0.20026495436431746,"47":0.11174258654116642,"48":0.28087090392125996,"49":0.6829181348702308,"50":0.3080601405935969,"51":0.7937628275342588,"52":0.40644212827535164,"53":-0.33234181872333984,"54":0.11810138243209492,"55":0.4660809780888161,"56":0.3477921820817178,"57":0.656144855390258,"58":-0.031675781581340184,"59":0.8442424638624116,"60":-0.22750959024945885,"61":1.2886073990352538}},{"sx":1,"sy":1,"depth":62,"w":{"0":-0.29257122880735886,"1":-0.1039921120253469,"2":-0.3709369938551219,"3":-0.1839475472855198,"4":0.10487186823438846,"5":-0.0771814071435952,"6":0.5634810581931865,"7":0.49117348234558644,"8":0.14209295934061827,"9":0.08784623178812292,"10":-0.6107353927821718,"11":0.06920227334201477,"12":-0.3809451881177823,"13":-0.28982090253644854,"14":0.3243286987916921,"15":-0.34683063389347685,"16":0.4144614012631361,"17":0.4454923977894134,"18":0.33267898926000405,"19":0.24690740488548404,"20":-0.1681822807564783,"21":-0.11159198621371871,"22":-0.4150979658294593,"23":-0.12752403949492358,"24":-0.28461260013225365,"25":0.21060819501817654,"26":-0.1235924850637844,"27":-0.10511416319739324,"28":-0.12565852936294905,"29":-0.2312731709842468,"30":-0.36304898455951223,"31":-0.11667091464039313,"32":0.13775086651775204,"33":-0.2786506918913806,"34":-0.40726887385738036,"35":-0.12705816380001483,"36":-0.5259853990788448,"37":0.3117949113339281,"38":-0.27968290341061536,"39":-0.09904741769274489,"40":-0.10997598566874654,"41":0.09536154014868017,"42":0.5233933096364451,"43":-0.034334478690373614,"44":0.45263085008704246,"45":0.364187896278139,"46":0.10176228086110517,"47":-0.35458344236147765,"48":0.0912394548522818,"49":0.8557682192028078,"50":-0.12089120302010736,"51":0.33866427300435514,"52":-0.163088930457595,"53":-0.4514614518896695,"54":0.16444663743174567,"55":0.35120037004313537,"56":-0.14082986163919436,"57":-0.3935134916585434,"58":-0.32882725916857125,"59":-0.36405082506336556,"60":0.26888058990924374,"61":0.04968647507826384}},{"sx":1,"sy":1,"depth":62,"w":{"0":0.23814993648631902,"1":0.15957492758393793,"2":-0.011451395102488751,"3":0.06197583459599377,"4":-0.1682245341310873,"5":-0.22408801694999453,"6":0.007655495918417764,"7":0.2028420487719612,"8":0.009692207930291706,"9":-0.05907381847128588,"10":0.0911226585219027,"11":0.1276014325383075,"12":-0.08933449536235805,"13":-0.15997319469238022,"14":-0.11547715067068416,"15":0.021192915103248475,"16":0.20212519791986408,"17":0.361059195456146,"18":0.015511962137650062,"19":-0.00930068259505933,"20":-0.08859664720483616,"21":-0.11780782353341428,"22":-0.12053689365126456,"23":-0.1729446261845605,"24":-0.029446583657522937,"25":0.5591592556783133,"26":0.38613478895568615,"27":-0.16505503179370015,"28":-0.15056222221036678,"29":0.23733859918955827,"30":0.27436940501063906,"31":0.1838638718841374,"32":-0.08321837178676277,"33":-0.10341469195194827,"34":-0.0964615801349603,"35":0.251639985576591,"36":-0.10778148348401766,"37":-0.17083576443176043,"38":-0.11881386740700896,"39":-0.03947843785987113,"40":-0.14083916627141715,"41":0.08346582647266954,"42":0.2734352056726806,"43":-0.17293787685488868,"44":-0.2376907583675001,"45":0.5185015387968414,"46":0.03103388552985821,"47":-0.41577452041323915,"48":0.6493494253762174,"49":-0.08223473002938726,"50":-0.11157012651816942,"51":-0.156981107051818,"52":-0.09101213940730012,"53":-0.0767492436469129,"54":0.17721762988240805,"55":0.34241527873456,"56":-0.10677478668632633,"57":-0.11185596447473496,"58":-0.11036805669254016,"59":0.2485364163168011,"60":0.446979425564801,"61":-0.09626235146671053}},{"sx":1,"sy":1,"depth":62,"w":{"0":0.8352574770612491,"1":-0.4407793376021914,"2":-0.02173249055692853,"3":0.2772537430408803,"4":0.6280511569325213,"5":0.39934430125585285,"6":-0.2785353478436398,"7":0.189774532975279,"8":0.5072715962326935,"9":-0.0632816676899811,"10":0.8529020286527612,"11":-0.18436793147939218,"12":0.11152732656257516,"13":0.5204876767363306,"14":0.7228233039151959,"15":0.03122482140093453,"16":-0.37500608273953456,"17":-0.16714669033455,"18":0.29767707145271527,"19":-0.04373618083573908,"20":-0.4012408094694649,"21":-0.38454432733557925,"22":0.338170436656229,"23":0.1614237570440527,"24":-0.07873618015166241,"25":0.22514133502248534,"26":0.28166778338254184,"27":-0.7356802182712973,"28":0.20258222589522448,"29":0.4392662804732818,"30":0.2312487392629674,"31":-0.23623202082413333,"32":-0.012889654285158841,"33":0.1890104426616199,"34":1.0603982340568217,"35":-0.005094391910749188,"36":-0.4257898531892179,"37":-0.37646263243601363,"38":0.6779622926956513,"39":-0.012175362065630206,"40":0.38953674511577174,"41":-0.30980173632303204,"42":0.06693621336334468,"43":0.10972421596135667,"44":-0.6942430088981397,"45":0.08718062911586859,"46":0.0027894709973578105,"47":-0.39909202657044995,"48":0.040566010340493716,"49":-0.11410378992916716,"50":0.027447544014862366,"51":0.2555594132976187,"52":-0.005880315472600145,"53":-0.017378877851154,"54":-0.4060116403082272,"55":0.21206431522878735,"56":0.38738324128473717,"57":0.7429128538009262,"58":0.714418545073742,"59":0.9355304267138509,"60":-0.3653786661715854,"61":0.2490253817982946}},{"sx":1,"sy":1,"depth":62,"w":{"0":0.0676730404601432,"1":-0.004760146843328247,"2":-0.3834048197207078,"3":0.14343790157301795,"4":0.16836752028016166,"5":-0.1721910453372625,"6":0.08026121159462687,"7":0.4626555630679875,"8":0.08008270897288323,"9":-0.0747288532505311,"10":0.14967189530456804,"11":0.15277419905288944,"12":-0.10397779180902329,"13":-0.1118773413300406,"14":0.35950406925372674,"15":-0.11942124379681,"16":0.2812824244654822,"17":0.07638352700768561,"18":-0.05119811891175078,"19":0.007840301767481442,"20":0.1763477185155816,"21":-0.0154675483612982,"22":-0.23715016903881667,"23":0.8963244229433107,"24":-0.15077005236565788,"25":-0.060197907145709426,"26":-0.041180418329838625,"27":-0.18188175336926415,"28":-0.10880282477551616,"29":-0.36592773072323115,"30":-0.10497813665279601,"31":0.029116782779466038,"32":-0.1929125345467727,"33":-0.1865050348558136,"34":-0.17531051983054108,"35":-0.16558337351927388,"36":-0.5029124809618872,"37":0.6571441210933364,"38":1.1894016712435165,"39":-0.11817184897096199,"40":-0.18441210981670308,"41":-0.17022003717959908,"42":-0.15107692837205314,"43":0.12310156064795896,"44":-0.30731993975070354,"45":-0.22403275740467712,"46":0.2746626455030677,"47":0.16720564951716937,"48":-0.1592469255747342,"49":0.956145943458363,"50":0.7839755188586632,"51":-0.07997825839420845,"52":-0.1677074912305402,"53":-0.24894682244135996,"54":-0.15776409551705925,"55":-0.008236438299263328,"56":0.23236694833778684,"57":-0.22220819162077773,"58":-0.19415246038416625,"59":-0.2911272758189822,"60":0.8102209596917924,"61":-0.2839044050650196}},{"sx":1,"sy":1,"depth":62,"w":{"0":-0.20063987109591047,"1":0.025801187313334847,"2":0.013553441413474799,"3":-0.1121655253992729,"4":-0.00810889099117065,"5":-0.08369938063597089,"6":0.11881503023784962,"7":0.20430962242329095,"8":0.02489630483750946,"9":0.08127130354917307,"10":0.05478377712845687,"11":0.07630105968099211,"12":0.010943881755856364,"13":0.023243587855327635,"14":0.13189920312835898,"15":0.11659608064135957,"16":-0.03279965517105349,"17":0.24630581786955671,"18":0.08533220977293904,"19":0.10958629913063787,"20":-0.12819269480495946,"21":-0.11806459574187088,"22":-0.09133194330442472,"23":0.3451467436032708,"24":0.11974626694305965,"25":-0.19007837528289656,"26":-0.1236213623591346,"27":-0.14737903380347236,"28":0.16125306788851257,"29":0.009244255836936645,"30":-0.1472721836432598,"31":0.27670667382314756,"32":-0.18319672734509257,"33":0.1536042504704242,"34":-0.0958457247775384,"35":0.02108263921575812,"36":-0.12440091565561212,"37":-0.09961918592313579,"38":-0.10807789543071694,"39":0.29756175782392125,"40":-0.11038358377535597,"41":0.1364942954406196,"42":-0.10171324633190548,"43":-0.10704418991606253,"44":0.11069732337492359,"45":0.1805153549557728,"46":-0.10212181768062122,"47":-0.09852171312238142,"48":-0.030463329503356014,"49":0.45196197596129173,"50":-0.02388613998701324,"51":0.3631134611027244,"52":0.6200915960803659,"53":0.3532800297941382,"54":-0.006927948132582443,"55":-0.23947485774560742,"56":-0.10859770797470122,"57":-0.15211995436837433,"58":-0.09641929765181963,"59":-0.25704948940204075,"60":0.6806953675203179,"61":0.14345410623011767}},{"sx":1,"sy":1,"depth":62,"w":{"0":0.38473384679856454,"1":-0.09514598774431753,"2":0.09766190082630817,"3":0.37603256107431,"4":0.1355430060330784,"5":-0.11468789474087294,"6":0.053131307866074645,"7":0.15544074874098535,"8":-0.14553353690372095,"9":-0.19333436318644187,"10":0.6397269664967699,"11":0.13475886718381608,"12":-0.09717638297713366,"13":0.11524725121069307,"14":0.1445914603179123,"15":0.06215493588833896,"16":-0.17623941605833307,"17":-0.017432834522456777,"18":0.16283277438838523,"19":0.030984919282962663,"20":0.012694848164490158,"21":-0.13163048448410344,"22":-0.19584627532925752,"23":0.1697295143710178,"24":0.21568708127326974,"25":0.049279063608471396,"26":0.20484423746887107,"27":-0.22829698392869296,"28":0.31090476612430656,"29":-0.2632268083718353,"30":-0.19485390135331782,"31":-0.1552890309771968,"32":0.12595215051575723,"33":-0.16721115025149896,"34":0.19874011869121685,"35":-0.13050726668573623,"36":0.6433286197241376,"37":-0.2075946256599653,"38":-0.23512349960342638,"39":-0.12294038846993112,"40":0.18767177407664676,"41":0.15058757414197207,"42":-0.2657496229350156,"43":-0.2267554930790006,"44":0.2984040779448578,"45":0.13878393275853798,"46":0.02722474583530336,"47":-0.2285230937370808,"48":0.30313601019453895,"49":-0.008703425489830845,"50":-0.15486866732259053,"51":-0.23022843355428263,"52":-0.22042391261002744,"53":0.10010778308001825,"54":-0.19868080246219844,"55":-0.23578054412181104,"56":0.124319185816548,"57":-0.2379395185727854,"58":1.2435759299292626,"59":0.4139171795537393,"60":-0.2057316685193535,"61":-0.1872123126459208}},{"sx":1,"sy":1,"depth":62,"w":{"0":-0.024008074065477808,"1":0.20319833127918835,"2":0.02980095288945606,"3":-0.41295056027674215,"4":-0.5446457578254953,"5":0.002919965201211238,"6":0.19971248166958422,"7":0.44605077701850937,"8":0.24306070879195232,"9":0.4032972925922539,"10":-0.17933002917251384,"11":0.11813317330443335,"12":0.24129763324804646,"13":-0.05088236802989446,"14":-0.3701883795066196,"15":-0.009556867299245646,"16":0.10265944210552908,"17":0.23430822383659106,"18":0.3493163864662492,"19":-0.14257381017498955,"20":0.27951264721690994,"21":0.379275183365339,"22":-0.22798393386956198,"23":0.026813218239830263,"24":0.4129589925535129,"25":-0.1728746656626803,"26":-0.44839854084107506,"27":0.36031884458626456,"28":-0.21414076564467333,"29":0.15633380506279843,"30":0.10908638549135397,"31":-0.20866817699345233,"32":-0.2200133145051472,"33":-0.12964596899123246,"34":-0.22165121894697484,"35":0.14849483638438538,"36":-0.2784830793527436,"37":-0.09912013265510664,"38":-0.2327703158644217,"39":0.5718835462323478,"40":0.7594567652738253,"41":-0.09128496140970468,"42":-0.1526215119081499,"43":-0.1703064823998978,"44":0.1917015905837687,"45":-0.19077962621583003,"46":0.551683926701497,"47":-0.23696994857766907,"48":-0.062142930483320986,"49":-0.12906015262508355,"50":-0.06502717091398565,"51":-0.0634894504933236,"52":0.6164735811999474,"53":0.5366398968227012,"54":0.23413776151350016,"55":-0.1316192953231596,"56":-0.173022772426991,"57":-0.04425405959754632,"58":0.6773420830951085,"59":0.33791620788555865,"60":-0.25038350483866556,"61":-0.183328318448254}},{"sx":1,"sy":1,"depth":62,"w":{"0":0.4082266483539557,"1":0.09255801852407991,"2":0.052030168992386834,"3":0.06653062446033153,"4":0.10137390821622469,"5":0.13988898745332703,"6":-0.23177093693596992,"7":-0.011532132054930552,"8":-0.009645497285519455,"9":-0.15888213919490718,"10":0.16469202441294262,"11":0.1668450916772942,"12":0.1623403983439579,"13":0.21670413927667334,"14":-0.11136671867737934,"15":0.3959237970689726,"16":-0.18156509910488955,"17":-0.045762987337172836,"18":-0.05028400080104234,"19":-0.07146391463869452,"20":0.2622716061782671,"21":0.1730501806999479,"22":0.7900646264254227,"23":-0.13527931994340067,"24":-0.1660687580060194,"25":-0.16211854518369206,"26":0.19837029047682517,"27":-0.13890901681187906,"28":0.10111737462875064,"29":-0.0012705331173204835,"30":0.03904287485796974,"31":-0.140510288839749,"32":0.09925800846423782,"33":-0.18169810339836076,"34":0.2636936382574584,"35":-0.04077087612343835,"36":0.9816692371069825,"37":0.19891677293456275,"38":-0.07500564337922036,"39":-0.05021032814669863,"40":-0.08024330862994572,"41":-0.37996554318758347,"42":-0.03888137677459669,"43":-0.14307055008682812,"44":0.33932692340041576,"45":-0.30391135099376326,"46":-0.17717457078939006,"47":-0.17952574202782468,"48":-0.1769780521680689,"49":-0.12099490994662886,"50":-0.0836121933765391,"51":-0.12421727463631811,"52":-0.07295974334786184,"53":0.4023327730073979,"54":-0.16934923220185055,"55":-0.06402235220610596,"56":-0.1477699701997743,"57":-0.03523311409708261,"58":0.6898528741726725,"59":-0.17351195175571232,"60":-0.07819354417277671,"61":-0.19019252484418778}},{"sx":1,"sy":1,"depth":62,"w":{"0":-0.2216921453152838,"1":0.041677003278531084,"2":-0.03689396453253397,"3":-0.2554164174328693,"4":0.0662072306511017,"5":-0.4003733063182485,"6":0.14964505873093792,"7":0.04021957196679066,"8":0.1138165408748078,"9":0.11560790865135016,"10":0.043592208138332984,"11":0.030827396090900256,"12":-0.0420589028738889,"13":0.022890997793169422,"14":0.08314650164771319,"15":-0.2109723017416125,"16":0.11123092757793909,"17":0.22240506222677234,"18":0.2643024579129886,"19":0.06815490695521598,"20":-0.10146740484376512,"21":-0.017398627551384705,"22":0.2966694014087548,"23":-0.16765674146277101,"24":-0.1964577621211937,"25":0.1259237768205174,"26":-0.294224797293466,"27":-0.06827677701840841,"28":0.020803118861393924,"29":0.11826371650326177,"30":-0.1712916241746033,"31":0.3904830241614096,"32":-0.16186006317565238,"33":-0.1391258053870021,"34":-0.21985920943397078,"35":-0.09690870259859025,"36":-0.09265270431636934,"37":-0.24776300474460775,"38":-0.08932047821270409,"39":0.04674679681322813,"40":-0.10052841738472279,"41":0.2878882460823861,"42":0.17182592287384232,"43":-0.08333195069763279,"44":-0.22971645163165014,"45":-0.2133120854801363,"46":0.04800522514879143,"47":-0.21392113778702848,"48":0.08839399904142474,"49":0.0620526571130431,"50":-0.09978183819273474,"51":-0.13866079909015266,"52":-0.12257524706003631,"53":-0.0629718832847126,"54":0.5476768164796915,"55":0.3145591666436076,"56":0.05326685546364844,"57":-0.11916865468374796,"58":-0.09580932529155956,"59":-0.023920122495926316,"60":0.2141240835503844,"61":-0.07645195034044144}},{"sx":1,"sy":1,"depth":62,"w":{"0":-0.3601750975556398,"1":-0.10572097761664817,"2":-0.00037702938434579225,"3":-0.17889886008491998,"4":-0.030118991718441856,"5":-0.022658638365682587,"6":0.16419066556126716,"7":0.19175222623077287,"8":0.19439366698308008,"9":0.06214770972204676,"10":-0.04269606660201498,"11":0.030112194276599516,"12":0.019634337458719897,"13":-0.4476944701021451,"14":-0.017150393114275922,"15":-0.3234695621608454,"16":-0.03768894955131735,"17":-0.019575380029775533,"18":0.0844530170620484,"19":0.04918470381696832,"20":-0.1347974237466601,"21":-0.03311307636953025,"22":-0.10911957468908938,"23":-0.04023529452975446,"24":-0.0818548532711374,"25":-0.03125675159235337,"26":-0.11023076121732196,"27":-0.323625577253574,"28":-0.07657475134498429,"29":-0.15158630781452992,"30":0.07169000235286731,"31":0.12368193716600957,"32":-0.15676130143445738,"33":0.24910787874808543,"34":-0.06986174799709416,"35":-0.10921514457217417,"36":-0.260281616861445,"37":-0.09789495048834204,"38":-0.10931598651288514,"39":0.2948883691588938,"40":0.13934065241415355,"41":-0.12994148006205344,"42":-0.08013485350901428,"43":-0.12769416818191315,"44":-0.015914504501036257,"45":-0.21215143790087837,"46":-0.1443975020398229,"47":-0.13111077950743893,"48":0.021429002995039283,"49":0.6155996987733726,"50":0.5633192457164907,"51":0.011570788966803833,"52":-0.13779672233092163,"53":0.5212788654619717,"54":-0.08105829943741513,"55":-0.061000881418376264,"56":-0.094322549335178,"57":0.01929349490649796,"58":0.176035748185752,"59":0.4209523839581112,"60":0.53992818201907,"61":-0.13939825280683552}},{"sx":1,"sy":1,"depth":62,"w":{"0":1.1107285952249344,"1":-0.08656000323705834,"2":-0.1706102411580623,"3":0.59808182548882,"4":0.9768325556482094,"5":0.04458707218093654,"6":0.004293138704325571,"7":0.09818753149868564,"8":0.7035299346602886,"9":0.9519025848350549,"10":0.9901506436794172,"11":-0.04689211417298819,"12":0.0751500878438975,"13":0.5860136677612034,"14":0.9012239658750334,"15":0.20369077121878054,"16":-0.30610035853156403,"17":-0.013272281680762917,"18":0.8728577755309163,"19":0.4731564143099793,"20":0.4473895819132218,"21":-0.5489713884972973,"22":0.6949993733245567,"23":0.6529109830545268,"24":0.18855969939672595,"25":-0.10599702548973922,"26":0.045960429389772364,"27":0.39072993836687125,"28":0.10783757281932205,"29":0.4311205064437518,"30":0.048704673170060074,"31":-0.10634954633296391,"32":0.0695615549304879,"33":0.17663439151392166,"34":1.0926660883976886,"35":-0.1954238850860251,"36":1.461989852270907,"37":0.32946014390048317,"38":0.46771092121369023,"39":-0.029778445455614373,"40":-0.6376844199275513,"41":0.38000223755065016,"42":-0.6390031963517782,"43":-0.1508294137818733,"44":0.6198655635169665,"45":0.7761789260859541,"46":-0.0642325506646656,"47":0.926109386331332,"48":0.1235058756616795,"49":-0.18135871886906046,"50":-0.22071940987191788,"51":0.05771824458829082,"52":-0.34741884415521623,"53":0.6899640349782268,"54":0.15287371365273072,"55":0.02502399939016994,"56":0.545041640060244,"57":0.07417232317836413,"58":0.16234455411976526,"59":-0.18452649562646023,"60":-0.23674694481432962,"61":-0.0547385286064691}},{"sx":1,"sy":1,"depth":62,"w":{"0":0.28862190384677633,"1":0.13445359290760184,"2":0.005968463702839325,"3":0.15298556595166618,"4":0.048326367573402744,"5":-0.1835354732949942,"6":-0.3868859268594064,"7":0.10759877900005518,"8":-0.0008995413978131171,"9":0.1232488118910063,"10":0.40127270900227047,"11":-0.5116840423180291,"12":-0.01704893761183803,"13":0.11201462594151382,"14":0.3897889008189075,"15":0.14869059972120802,"16":-0.19233388759740802,"17":0.02734555550793965,"18":-0.03448582646815705,"19":0.05625738548633545,"20":-0.07705600838282357,"21":-0.05043859667192136,"22":0.025136787477330346,"23":0.17667892126916807,"24":0.3035774840912481,"25":0.13711297466824662,"26":0.30070057110975146,"27":-0.34869780454090055,"28":0.005034818928904018,"29":0.3434466330331686,"30":0.03889197612056036,"31":0.2585719018742945,"32":-0.017399405041556754,"33":-0.13060383328039263,"34":0.019005571384361427,"35":-0.07858935207000653,"36":-0.2176454896375723,"37":0.33153958334200967,"38":0.5007530748719619,"39":0.03882045017011743,"40":-0.07146728962658658,"41":0.23603401385338021,"42":0.18063854305028382,"43":-0.16166024602338078,"44":-0.1607206072297691,"45":-0.07481987358383287,"46":-0.044305636147825594,"47":0.11770230365692137,"48":0.17520155377657154,"49":-0.284455651665212,"50":-0.20630736805880115,"51":-0.12829931339464312,"52":0.4842085339658837,"53":0.010762733068193763,"54":-0.046032855330909145,"55":0.3764814258692535,"56":-0.00829783578223187,"57":-0.15779813183749894,"58":0.050156681565943995,"59":-0.20576811736337813,"60":-0.2476398151338355,"61":-0.16767637320808965}},{"sx":1,"sy":1,"depth":62,"w":{"0":-0.44026622164813,"1":-0.03541617749875526,"2":0.06588187954777722,"3":-0.5705644675175708,"4":-0.05758269726070716,"5":-0.24006109494698843,"6":0.37002634215536623,"7":0.34410718425216824,"8":0.05701093378991648,"9":0.15824168341316894,"10":-0.4164047322383162,"11":0.07881101963044614,"12":-0.13100173663103942,"13":-0.7546555241761539,"14":-0.022923171849331597,"15":-0.2973487978823029,"16":0.2725402901864467,"17":0.48869992174526167,"18":-0.06044096140065207,"19":0.24215406286257307,"20":-0.6388220134584515,"21":0.2580436410938817,"22":-0.3033158538896761,"23":0.2527859340009417,"24":-0.23199479841129328,"25":0.16590452200308795,"26":-0.39153530169253364,"27":-0.26822075890174535,"28":-0.0633160212520409,"29":-0.039255768108171316,"30":0.03673730956664664,"31":0.02012137269336098,"32":-0.2428128165272626,"33":-0.23714207810646826,"34":-0.2760450424764202,"35":-0.17450128131837525,"36":-0.7832721412044938,"37":-0.13145106846572743,"38":-0.1501139909316219,"39":-0.033300785251895074,"40":-0.06313239094705468,"41":-0.14464826543814843,"42":0.5796533767113748,"43":-0.041638881141626984,"44":-0.057315393129097676,"45":-0.15502764693842094,"46":0.7220780489424816,"47":-0.27563476411257104,"48":-0.09547323930537188,"49":0.2543330005106985,"50":1.0729272844342432,"51":0.15456864399127965,"52":0.4976809324627653,"53":-0.36167139990484465,"54":0.10800039200075942,"55":0.019028254210060963,"56":-0.11522047331730857,"57":-0.2922590362760731,"58":0.49721317543041227,"59":-0.1768397598023595,"60":0.42760508665101493,"61":-0.3286018194129183}},{"sx":1,"sy":1,"depth":62,"w":{"0":-0.2870439112297515,"1":0.03827588110235842,"2":-0.22713660108659572,"3":-0.2028442001353944,"4":0.3463839263601894,"5":-0.050466347432223925,"6":0.39221362039692786,"7":0.21542738000144948,"8":0.03602051084590207,"9":0.34064881955369547,"10":-0.30094148288635486,"11":0.018580876863427846,"12":-0.188518368420429,"13":-0.37820389697699547,"14":0.11974277193765445,"15":-0.3395559853742314,"16":0.6065031886629645,"17":0.16321596435885696,"18":0.048845978530671026,"19":0.17834991896872074,"20":0.2297233651952565,"21":-0.10830098592341222,"22":-0.3560431089225775,"23":-0.21414402616322978,"24":-0.08130981202655616,"25":-0.3568760100914577,"26":-0.06549533848071384,"27":0.7879078628621574,"28":0.20019659001258608,"29":-0.31255288902760703,"30":0.0037567983098090413,"31":0.01721098281331381,"32":-0.18879324903998895,"33":-0.2589796703054645,"34":-0.3165973315426102,"35":-0.08420918496880009,"36":-0.3740574278987541,"37":0.4578879863877238,"38":-0.5050453616440628,"39":0.18398957363640248,"40":-0.12180329235073056,"41":0.48822586980063365,"42":0.14694374517212627,"43":-0.136772145296199,"44":-0.04877055725237919,"45":0.40010866484054775,"46":0.2032485013682286,"47":-0.5828471148033512,"48":-0.10595503490212009,"49":0.25515234318339014,"50":-0.18613698152573493,"51":-0.29909159800855833,"52":-0.20273658142503262,"53":-0.4543702271998388,"54":0.6767164791463396,"55":0.18923872425466354,"56":-0.1377050655884484,"57":-0.34916897415606696,"58":-0.3351853207529531,"59":-0.4869912361770753,"60":0.06368608879729391,"61":0.004545804505157999}},{"sx":1,"sy":1,"depth":62,"w":{"0":-0.14860405382538444,"1":0.10458730617596809,"2":-0.23507672959039783,"3":-0.09132600171503139,"4":0.2190409996417574,"5":-0.08180205263473973,"6":0.2042881428490049,"7":-0.05139037298545358,"8":0.10555409866917873,"9":0.29613958378223365,"10":-0.14750870618576575,"11":0.11225893248300091,"12":0.08101245382382655,"13":-0.12510623031009085,"14":0.022552873726068488,"15":0.015689773006106023,"16":-0.05785465481326983,"17":0.08807393182676253,"18":0.11522799173178394,"19":0.20449701719603394,"20":-0.1483580743804766,"21":0.33263969913003427,"22":0.2515569307365404,"23":-0.22222350110785674,"24":-0.21106621791674351,"25":-0.12445148528676431,"26":-0.04757025049869941,"27":0.5165623701817379,"28":-0.15395240477360325,"29":-0.09548302858033571,"30":0.03044164340465004,"31":-0.05270591763543854,"32":-0.31126098899912596,"33":-0.09608041739316163,"34":-0.1524596532672553,"35":0.04639774799545445,"36":-0.16181834463637243,"37":-0.12299815946175577,"38":-0.2042571382878688,"39":0.2877274701696132,"40":-0.14527151754958859,"41":-0.1387353595026605,"42":0.4042854979947205,"43":-0.096926187605497,"44":-0.17250998274066193,"45":1.1615118402615916,"46":0.49783747928664684,"47":-0.4479639026465055,"48":0.14527990066803412,"49":0.1279443201264284,"50":-0.19231595019477774,"51":-0.17204966054204318,"52":-0.2575146094729978,"53":-0.10853293673209859,"54":0.5255319008614031,"55":0.09905379737458539,"56":-0.2418193078901642,"57":-0.16690988596981865,"58":-0.23165972200661342,"59":-0.22534331299612198,"60":0.012049953419515867,"61":0.04261008565742091}},{"sx":1,"sy":1,"depth":62,"w":{"0":0.00027860193284354087,"1":-0.047576354907722655,"2":0.09515911932008622,"3":0.13414933651546723,"4":-0.04424428197160026,"5":0.15871988410778523,"6":-0.14644012884703925,"7":0.12471206673543779,"8":0.06804886728566395,"9":0.10474450420134442,"10":0.22348045605032898,"11":-0.16352179086548718,"12":-0.033245814348021624,"13":0.0006453966512483733,"14":0.08377850698415425,"15":0.0684433021390274,"16":-0.030229835187624392,"17":0.12780495266381725,"18":-0.13973528937383214,"19":0.031874445794430696,"20":-0.11437247832557774,"21":0.027167220776232827,"22":-0.07340269924568181,"23":-0.05651205713148943,"24":0.1400087887886758,"25":-0.039065473950191006,"26":-0.058871971239893066,"27":-0.20194329848417786,"28":-0.16282502769842908,"29":-0.16679832548274004,"30":0.2997565436854416,"31":0.1913518383010001,"32":0.3272175834992103,"33":0.28386292082267156,"34":-0.21196632878553864,"35":-0.11741501192141901,"36":-0.043328910828054346,"37":-0.00622378202224588,"38":-0.044256409206186106,"39":0.3437236859046656,"40":-0.041159778460084964,"41":0.16241796732105127,"42":-0.04121410239177688,"43":0.2300481095991308,"44":0.17930164258094702,"45":0.01285841768221032,"46":-0.03714537973563331,"47":0.5336450610640492,"48":-0.10562095419588906,"49":-0.026695316906388114,"50":0.00869616022261592,"51":-0.1673885622570978,"52":-0.0889456848712753,"53":-0.07867736235692954,"54":0.040906464103647656,"55":0.14083695988825579,"56":-0.2058251764063667,"57":0.05288422794673639,"58":-0.09489853299382364,"59":-0.1541151832644969,"60":-0.19559199682278613,"61":-0.1238735983125178}},{"sx":1,"sy":1,"depth":62,"w":{"0":-0.24613987551407707,"1":0.01573491309334771,"2":-0.11206248984208465,"3":-0.2448372289885117,"4":-0.017235624293525115,"5":-0.016767814462068015,"6":0.2783617223585781,"7":0.19966953638759335,"8":-0.08168684691892085,"9":0.002316477295795285,"10":-0.006449651203222357,"11":0.24203491514131056,"12":-0.1632105920962077,"13":-0.45263942473945945,"14":-0.13524362530335973,"15":-0.1314617600039891,"16":0.31818433644404603,"17":0.4120096278859729,"18":0.14144409213795134,"19":0.25019506021947036,"20":0.029189896806436973,"21":-0.2760894281220243,"22":0.0676445120978539,"23":-0.247785532116002,"24":-0.14639575736094765,"25":-0.007965078340110562,"26":-0.12345104899440604,"27":-0.05115560038049075,"28":-0.16239645443427567,"29":-0.1516850499807607,"30":0.12571659219774936,"31":0.4608907079356781,"32":-0.2873299452476513,"33":-0.24732689614674244,"34":-0.32904892671890196,"35":-0.15468676566712058,"36":-0.34708169331341665,"37":0.19743593116003302,"38":0.2048014113793591,"39":0.2533433418429356,"40":-0.14022788616255893,"41":-0.1988002024710151,"42":0.255314850353049,"43":0.08453451306804766,"44":0.4330108775686069,"45":-0.1452600098212701,"46":0.15757935855979585,"47":-0.4940629404634941,"48":0.3134750771028428,"49":0.5012075831027323,"50":0.018658920994025663,"51":-0.26923976535118516,"52":0.21081659883966014,"53":-0.4015968120854615,"54":0.4816218962664643,"55":0.20780304042267952,"56":-0.07172311069885073,"57":-0.34001517913224566,"58":-0.24608981229975402,"59":-0.32357861087427625,"60":0.6545492830412264,"61":-0.12089112816673583}},{"sx":1,"sy":1,"depth":62,"w":{"0":-0.3910054372751836,"1":0.037788579561478595,"2":-0.10839311872974762,"3":-0.5185682289981347,"4":-0.2217601119486677,"5":-0.24137308643290867,"6":0.11583617926345427,"7":0.4569381116529122,"8":0.20688165396146513,"9":0.6609225549322217,"10":-0.7347471080159889,"11":-0.029161592114765912,"12":-0.23302509297645357,"13":-0.5651188375486819,"14":-0.07144428627900594,"15":-0.12183290777331462,"16":0.22791465227404487,"17":0.006562441768353607,"18":0.20405220981297134,"19":0.317146843974482,"20":0.3120661476285128,"21":0.7157145682328172,"22":-0.24835826782211848,"23":0.6422584531481101,"24":-0.194239780797511,"25":-0.05485777370270059,"26":-0.6149731522491639,"27":-0.04630442304929373,"28":0.012707904786072928,"29":0.058965215094310616,"30":-0.06679953496052539,"31":-0.25908504970163615,"32":-0.27629870417232055,"33":-0.24686689485101992,"34":-0.22808501058216424,"35":-0.12691937157758418,"36":-0.7042805155060043,"37":-0.012766025956826398,"38":-0.22446768685552376,"39":-0.17586860185021178,"40":0.952375001715738,"41":-0.20080205541992796,"42":-0.05064742031487923,"43":-0.05392516465952344,"44":0.3280657888808277,"45":-0.12237721868523802,"46":1.074152077620384,"47":0.16995224772204848,"48":0.013907356831968226,"49":-0.19890601192497034,"50":-0.30690061775316196,"51":-0.07213158593037038,"52":-0.02163810964758013,"53":-0.14547400961170237,"54":0.564909909251841,"55":-0.0638553607128384,"56":-0.1136515907087536,"57":-0.18442940613674563,"58":-0.22609071512291457,"59":-0.24051736136331145,"60":-0.009442289325678926,"61":-0.08030106774751478}},{"sx":1,"sy":1,"depth":62,"w":{"0":0.5716097366995923,"1":-0.17023237175368117,"2":0.05698862046679103,"3":0.3345335999546853,"4":0.28050800742949994,"5":0.101879461091613,"6":-0.2660669519989739,"7":-0.08112316817772418,"8":0.5070705128425311,"9":0.28683482941787836,"10":0.39081228651909683,"11":-0.08116941119603113,"12":0.06505285884543213,"13":0.09914503697413787,"14":0.2601071220345857,"15":0.17959421109056278,"16":-0.3947628472434427,"17":0.10488587698262451,"18":0.45140562949230717,"19":0.49613412615266433,"20":-0.26179799431602296,"21":-0.13303618440527817,"22":0.6993319707492042,"23":-0.22325163518908936,"24":0.05029316059248616,"25":0.005063319259382011,"26":-0.16375234188923446,"27":0.6292539781952188,"28":-0.03594911773056622,"29":0.07061173854103962,"30":-0.017191079451009606,"31":-0.17601030494713782,"32":-0.14655280493623438,"33":0.27854011712452975,"34":0.5958716122811826,"35":-0.05856909777201713,"36":0.3489645265660422,"37":0.33418141371149906,"38":0.38298130732491986,"39":0.38162905468906966,"40":0.039624963648262373,"41":-0.11118811636197225,"42":-0.12644921614714177,"43":-0.10364196464422544,"44":-0.3129402427768816,"45":0.12217455694400184,"46":0.13822035420511647,"47":-0.08193341469733502,"48":0.18959033896488156,"49":-0.12672452881639684,"50":0.5462434001499193,"51":0.2541515827238713,"52":0.08870817390504249,"53":-0.26769316451374464,"54":-0.23875728280803094,"55":0.13694010757890782,"56":0.27748921661082676,"57":-0.28655083987969165,"58":0.26239075830314135,"59":-0.010941283470168763,"60":-0.19356189722529035,"61":0.216964344004045}},{"sx":1,"sy":1,"depth":62,"w":{"0":-0.1487160623434309,"1":0.2169516323251059,"2":0.19456453740639063,"3":0.020944548383959413,"4":0.3612646357426489,"5":0.16770838374232197,"6":0.27419012817372307,"7":0.3226151613787256,"8":0.3632776453646698,"9":0.5572399180696952,"10":0.17011476180327617,"11":-0.020656541290204576,"12":0.1818333514330649,"13":-0.23267916610389047,"14":0.3876963472809155,"15":-0.0296837245529152,"16":0.3559071128109731,"17":0.1565097165363114,"18":0.37709324476577477,"19":0.3225338990113029,"20":-0.30205461741689055,"21":0.24684647714520624,"22":-0.33838915516783813,"23":1.0366369575820273,"24":0.12880825061558965,"25":-0.3444284015559397,"26":-0.09111740677096543,"27":0.25913459941881983,"28":0.11054716431349475,"29":0.16185958152941265,"30":-0.08242418940861945,"31":0.05754034137795983,"32":-0.044338666821410064,"33":-0.015646487726614897,"34":-0.31144784647393764,"35":0.19757501725656512,"36":-0.5504144066549101,"37":0.29870146736121406,"38":0.12155676105389569,"39":-0.21777978720181396,"40":-0.27871166855097973,"41":-0.32308451869254773,"42":0.4051610094138829,"43":0.4162059036930294,"44":0.1121543969687899,"45":-0.3203749202330362,"46":0.27827907458258494,"47":-0.32075352498147613,"48":-0.02508718978690059,"49":0.7743254411197655,"50":-0.2649837696828952,"51":-0.16065363725596896,"52":-0.28016744960150597,"53":-0.1778758426447625,"54":0.020454568069613713,"55":0.1739643720040088,"56":0.30208668815644,"57":0.09736585127097488,"58":-0.14070157011652723,"59":-0.2973445323853247,"60":0.09120949562731853,"61":0.2511139528429534}},{"sx":1,"sy":1,"depth":62,"w":{"0":-0.581552916651407,"1":0.07376401518557686,"2":-0.16612274074986308,"3":-0.2866483710936644,"4":0.08967825186790773,"5":-0.1289382415109889,"6":0.5062170177186006,"7":0.3265650642403095,"8":-0.22318047376886863,"9":0.27095796103387115,"10":-0.5157328761404089,"11":0.06984120439606106,"12":-0.20731225131044023,"13":-0.27182807270298354,"14":0.31349932151415266,"15":-0.40207383197734364,"16":0.3572037162509663,"17":0.1729551599318969,"18":0.08650697447841614,"19":0.23949398792524498,"20":-0.0851619647987633,"21":-0.0753410735495495,"22":-0.24718848866277554,"23":0.8264236138451144,"24":-0.0331001275391461,"25":-0.16959688725753483,"26":-0.09826041685960164,"27":0.5978669791281651,"28":-0.20440226920054197,"29":-0.22870542532668642,"30":-0.1964544609548054,"31":-0.23504218888538492,"32":-0.057387624616740796,"33":-0.18745791782529905,"34":-0.4387317114856939,"35":-0.09572416492134898,"36":-0.626702104646722,"37":0.4301955241710022,"38":-0.36861954779613576,"39":-0.10341996606781748,"40":-0.09699493579826525,"41":-0.13959523328114476,"42":-0.08257763827196946,"43":-0.056689224082088895,"44":0.0033067448765704836,"45":1.0046554766563007,"46":0.557999848035823,"47":-0.4358723633621158,"48":-0.08651248166555797,"49":0.3120014384125342,"50":-0.15999460489630846,"51":-0.3614198245014608,"52":-0.13004788963807712,"53":-0.26725652797139127,"54":0.2362811491246528,"55":-0.17798057842566964,"56":0.28630697855033665,"57":-0.3985261977996162,"58":-0.37537061252520076,"59":-0.2712233796077951,"60":0.4328093875593962,"61":-0.09804623391698473}},{"sx":1,"sy":1,"depth":62,"w":{"0":0.4820303061415083,"1":-0.0023044907045295425,"2":0.02291606618017143,"3":0.16529426478782902,"4":0.18421325395497265,"5":0.26505135498216087,"6":-0.22072171719967523,"7":0.4004184503807027,"8":0.035209846974898804,"9":-0.6450429316121418,"10":0.4363849139851387,"11":-0.02138325223482451,"12":-0.020713277820641265,"13":0.4222123283944991,"14":0.27040178553606964,"15":-0.0324594606252444,"16":-0.1611509622037476,"17":0.6513546974796657,"18":-0.0738246894506201,"19":-0.18989642254835723,"20":0.3352083102824916,"21":-0.48767482927165523,"22":-0.15409661090934526,"23":-0.34790267143885617,"24":0.5636053391611864,"25":0.34576190507984605,"26":-0.002387923938345976,"27":-0.7247922875636565,"28":0.35365105326099233,"29":0.4932793232788839,"30":0.7015038672693831,"31":0.10383064285566271,"32":-0.32857424578318517,"33":-0.4335833577251527,"34":-0.0000425360400695355,"35":0.2577255305383134,"36":-0.3736619299132995,"37":-0.4747561019533209,"38":-0.10448128123585469,"39":0.5663479632165205,"40":0.2401305019945017,"41":0.026900277330018988,"42":0.5370759986565703,"43":-0.2976241504278584,"44":-0.3072091783820718,"45":0.39164699615246873,"46":0.2882984105690494,"47":-0.4286058691100291,"48":0.7691160543623827,"49":-0.3438611890248893,"50":1.143659244942611,"51":0.5131648692806309,"52":0.7167105306158544,"53":0.27250457169873626,"54":0.056818820907837464,"55":-0.3397291609008787,"56":-0.41169443852834264,"57":0.21307538579382782,"58":0.10043313785108207,"59":0.46998266794946275,"60":1.2209458588388022,"61":0.6792302336173835}},{"sx":1,"sy":1,"depth":62,"w":{"0":0.5742585108662239,"1":-0.021543258854024437,"2":0.11211502463929796,"3":0.36195262849524257,"4":0.55888222629078,"5":-0.05763655471138004,"6":-0.15942337453075583,"7":0.05385242293935702,"8":0.15624228318536904,"9":0.18830904208661917,"10":0.71488492582174,"11":-0.09799177835038402,"12":-0.20399782857521254,"13":0.4413572382414137,"14":0.6979064980855115,"15":-0.07108889045122414,"16":-0.09816542612497878,"17":0.06810301936103216,"18":0.2800499931758081,"19":0.11839211441928504,"20":0.15321268897490525,"21":-0.10443320913449596,"22":0.5388494265468541,"23":-0.05680746005138608,"24":-0.1796082768360036,"25":0.11210412761098033,"26":0.02948973997095568,"27":0.26539499628590824,"28":0.26783473117976697,"29":-0.072265465074847,"30":-0.008776915519979096,"31":-0.038137672368212326,"32":0.12960451236645498,"33":-0.34141694742264433,"34":0.8626668993801393,"35":0.1174046508104297,"36":0.2922919525909192,"37":0.4061372529093794,"38":-0.030338447731923523,"39":-0.13785427902903793,"40":0.2215118082875134,"41":-0.28473467400405206,"42":-0.35177262527660186,"43":0.1795462670942962,"44":0.36981770218305826,"45":0.14830691610181423,"46":0.03690834305142959,"47":0.46160367989867723,"48":0.45882092186995,"49":-0.1435870276757305,"50":0.021188816780632114,"51":0.011777398580815486,"52":-0.09172108768939936,"53":0.5512312697807843,"54":-0.3827236134453909,"55":-0.4645653435912845,"56":0.21231362247180907,"57":0.06433978493967368,"58":0.33344088883900547,"59":-0.004293894075275979,"60":-0.2518558387472591,"61":0.22041492440254898}},{"sx":1,"sy":1,"depth":62,"w":{"0":-0.013818959987131936,"1":0.04051891048272557,"2":0.1132699621011587,"3":0.07868391559312796,"4":-0.02137267285970118,"5":0.1015951664841656,"6":-0.22302072022299926,"7":0.091051911254006,"8":-0.054040834237033375,"9":0.011762624044990679,"10":-0.14593928021207656,"11":-0.038609277056783325,"12":0.07050361333040107,"13":-0.2027642861240619,"14":0.2445788424696084,"15":0.028423226479178106,"16":-0.13959882277822744,"17":0.057380776873696096,"18":0.003297833272583416,"19":-0.15941935650808986,"20":-0.11360395230093978,"21":-0.05508703261371399,"22":0.7689015272799895,"23":-0.13698551359832023,"24":0.31076268366546067,"25":-0.08587165825111451,"26":-0.09186533240217135,"27":-0.17770082145071203,"28":-0.07601062612273776,"29":0.18551900875204616,"30":-0.1627258339513996,"31":0.23044733045602625,"32":-0.05620335030671665,"33":-0.0956661993093392,"34":0.42197350031892805,"35":0.04170109114298685,"36":-0.06985897209926957,"37":-0.20612584109144774,"38":0.37178683509479826,"39":0.08898457206312795,"40":-0.0040747302835415986,"41":-0.05435167633799433,"42":-0.1791382432481416,"43":-0.23281182980000328,"44":-0.25027681789486866,"45":-0.025046611067660176,"46":-0.05218303932809185,"47":-0.060232775812432804,"48":-0.05099602605010888,"49":0.10217072177948981,"50":-0.17759181491223316,"51":-0.013441592521967966,"52":-0.09040482088638925,"53":-0.06850334682698767,"54":-0.16598145804880143,"55":0.04584442161689822,"56":0.12759408155770205,"57":-0.04605033212680295,"58":0.1990348041303694,"59":-0.1264242359790229,"60":-0.02924721481672163,"61":-0.043502720356436014}},{"sx":1,"sy":1,"depth":62,"w":{"0":0.056911269429843835,"1":-0.2023910289206666,"2":0.04376954618904066,"3":-0.19022734027679708,"4":0.18309120347015106,"5":-0.2074773376467305,"6":0.11828711104325272,"7":0.14715126953653224,"8":0.22160946631828513,"9":0.22737987610490273,"10":0.18557633324303707,"11":0.20871327258018738,"12":-0.1665956587505342,"13":-0.005890351674793135,"14":0.20402585094991263,"15":-0.12534242096388828,"16":0.19480137739565762,"17":0.12798290801775097,"18":0.31124095517355066,"19":0.24567887695894572,"20":0.20358202100997316,"21":-0.10684126878685696,"22":-0.17736760926604836,"23":0.6285919620866967,"24":0.09275007390072297,"25":-0.16633402407513906,"26":-0.09120029671038887,"27":0.10322033367799462,"28":-0.3780999832313971,"29":0.12763070930920775,"30":-0.07275172206161348,"31":-0.05378397857865802,"32":-0.2390917365986704,"33":-0.19908517800115658,"34":-0.22910867130929513,"35":0.3907293268109873,"36":-0.1504444185597006,"37":0.2575578118032433,"38":0.336297858944133,"39":-0.026757630588897647,"40":-0.14181707263824608,"41":0.14305922807055782,"42":-0.10328765521155106,"43":0.2677616961896593,"44":0.035946726642025535,"45":-0.137027421010611,"46":-0.10984391102371939,"47":0.14597807063043444,"48":0.03010977888100262,"49":0.36007302146952125,"50":-0.12709364576344565,"51":-0.1362824213020949,"52":0.24336320812355072,"53":-0.21226002109644265,"54":0.12031739008412538,"55":0.2560282200035312,"56":-0.008393432556184072,"57":-0.16615586842024216,"58":-0.16985086671166968,"59":-0.12597456825970194,"60":0.08570842749848472,"61":-0.040352178475581736}},{"sx":1,"sy":1,"depth":62,"w":{"0":-0.2215984358945219,"1":0.08166077281892394,"2":-0.12525454800491226,"3":-0.18851424879115072,"4":0.049363422349648176,"5":-0.061985646076019266,"6":0.3193940116766535,"7":0.37742300405424134,"8":0.15127972301893725,"9":0.16443835010835306,"10":-0.3356854657613496,"11":0.17424464448496008,"12":-0.17083768748022507,"13":-0.07101163720229328,"14":-0.049515820339265326,"15":-0.15003119751864505,"16":0.20750205083829096,"17":0.23631217296980755,"18":0.29656994570344747,"19":0.4242155368671485,"20":-0.18793192703368708,"21":-0.01216640293532403,"22":-0.30263698724549903,"23":-0.3151352136610667,"24":-0.10644328891776372,"25":-0.16923753681117013,"26":-0.05192959717836034,"27":-0.09098768868187791,"28":-0.10545626290586979,"29":-0.12383543873236352,"30":-0.14449184193507802,"31":0.4662645012978211,"32":-0.32541108553162773,"33":-0.20491088160388327,"34":-0.2835301383959722,"35":0.15527230252375834,"36":-0.39034232804744645,"37":-0.05821414760719797,"38":-0.2294656787490081,"39":0.188571725987938,"40":-0.17844477664529323,"41":-0.2280961342489775,"42":-0.09870138910019026,"43":-0.047036768784818814,"44":0.611796909087827,"45":0.2848927634476024,"46":0.0785605484674012,"47":-0.4093466840868136,"48":-0.06132718152187014,"49":0.760891534063544,"50":-0.1697621720639861,"51":-0.18958162159119327,"52":0.47403361525282717,"53":0.26170964394481017,"54":0.36578013372554596,"55":0.5346810239167015,"56":0.05225959970656363,"57":-0.2528313918488259,"58":-0.2875691693385562,"59":-0.33822230801705044,"60":0.6546284906046568,"61":0.04320635976981759}},{"sx":1,"sy":1,"depth":62,"w":{"0":0.36534175132597885,"1":0.18237480188551816,"2":-0.06628407954810812,"3":0.09499872089531257,"4":-0.031534036548523825,"5":-0.1631188160558313,"6":-0.15873666869247086,"7":0.2950604852528686,"8":0.35629473363474207,"9":0.14381727140783793,"10":0.4394826719354266,"11":0.15540011301759674,"12":0.03473483730536807,"13":-0.010257357845639338,"14":0.1753136396676798,"15":-0.06177576359556464,"16":-0.0875680833288149,"17":0.24924186914426916,"18":0.27569205991538637,"19":0.08599121955822442,"20":-0.0919292719580515,"21":0.5039517184916408,"22":0.11713086542247249,"23":0.010029983248030318,"24":-0.02215010021051511,"25":0.16625031836180357,"26":-0.14565000200399836,"27":0.38697602748875093,"28":0.14258852468048366,"29":-0.0013392368951040227,"30":0.09752894718615744,"31":-0.15006805444554353,"32":0.12879970651469394,"33":-0.28464346967373577,"34":0.24921858253895787,"35":-0.11965536516977696,"36":-0.018992674620454585,"37":0.36760244248885554,"38":0.11511214538274345,"39":0.08261916576989994,"40":0.19777012727603208,"41":-0.025022117213758188,"42":0.20634795480629964,"43":0.26821536999224527,"44":-0.3658349719783427,"45":-0.21783894798599907,"46":-0.10734703300244691,"47":-0.2715360978566111,"48":-0.13137152732260116,"49":-0.05829927332557664,"50":-0.13713569693318067,"51":0.1280430959818263,"52":0.4034531072913703,"53":-0.26901753166871356,"54":-0.113990394810411,"55":0.487572858692017,"56":0.1400518307344474,"57":0.3551034215070477,"58":0.15725566871935265,"59":0.821770466064441,"60":-0.13805124197414,"61":-0.19309600204374816}},{"sx":1,"sy":1,"depth":62,"w":{"0":-0.22307524283160854,"1":0.17220955056457546,"2":0.062090143439978374,"3":-0.0035422775783701564,"4":0.13304801679285425,"5":0.46707115204064853,"6":0.4361073480978539,"7":0.03944123729804387,"8":0.36048044693725606,"9":0.5207529672819474,"10":-0.19807843578106782,"11":0.06717670921826678,"12":0.3671195993462398,"13":-0.18804398466238076,"14":0.2444671785367512,"15":0.5147796607675112,"16":0.7041585323947861,"17":-0.025352913682951915,"18":0.44780645795959695,"19":0.3851554852508735,"20":-0.42532112574464903,"21":0.9781405162862061,"22":0.6176958405328055,"23":1.218764074111049,"24":0.2445401942161936,"25":-0.25438182673336707,"26":-0.3276182693965959,"27":-0.44807071453103503,"28":-0.1687223682805025,"29":-0.0634832537504995,"30":-0.35134754894258896,"31":-0.45968368827767603,"32":0.09554684807746776,"33":0.2590878236043762,"34":-0.32110187779050386,"35":-0.25461833271359496,"36":-0.40314280221646587,"37":-0.08062560390919177,"38":0.5149531140003558,"39":-0.2235093517999553,"40":-0.24662300968671996,"41":-0.2349676939833966,"42":-0.06862251962440255,"43":0.35224640800172174,"44":-0.29647876839007964,"45":-0.004022398136989128,"46":0.12749233706291838,"47":0.4475388715567653,"48":-0.31048449385482274,"49":0.8017595401433587,"50":-0.31093546903197533,"51":-0.23357849123416283,"52":-0.39762987162629093,"53":-0.23029705463081454,"54":0.010816475464642388,"55":0.08293633616021043,"56":0.22345172590431703,"57":0.030300479836620948,"58":0.18653462743700555,"59":-0.42280403220196017,"60":-0.33614575115114953,"61":-0.03389771428029156}},{"sx":1,"sy":1,"depth":62,"w":{"0":0.06841187668342735,"1":0.10167112089881994,"2":-0.08052833491829942,"3":-0.21407332514419936,"4":0.19480898213913705,"5":-0.06372286670440351,"6":0.3712957954880044,"7":0.48477011061904834,"8":0.16249312884949157,"9":0.38365371535318704,"10":0.0066338269188125016,"11":0.30698488826131776,"12":-0.09530580574566512,"13":-0.1287687028445424,"14":0.14633338456326228,"15":-0.16563423336502395,"16":0.4720928672122381,"17":0.493695853790352,"18":0.22205596039527153,"19":0.3968179310105835,"20":-0.30211363070519337,"21":0.6064838685858548,"22":-0.2601819682017322,"23":-0.2990113393664682,"24":-0.07023915171011785,"25":0.05155904393437941,"26":-0.26673540222852105,"27":-0.594411177468571,"28":-0.2224022454957031,"29":-0.11485982795537582,"30":0.134083606005353,"31":0.2590748355970826,"32":-0.3546192123851747,"33":-0.30755749081136197,"34":-0.2651571203143598,"35":0.5505511737821265,"36":-0.3982684393044492,"37":-0.40971116398389573,"38":-0.2709370283384149,"39":0.03665937080249492,"40":0.24784069197487635,"41":-0.006728214511176778,"42":0.5228522509263833,"43":0.19270778219931922,"44":0.9661144811588439,"45":0.41597820689496434,"46":0.2806874511540806,"47":-0.55159442849564,"48":-0.054571677131364814,"49":0.3417926137420039,"50":-0.05256817816269714,"51":-0.30969099894113045,"52":0.2057449849374327,"53":0.44311437240180607,"54":0.8891866095018323,"55":0.41467640692523505,"56":-0.04530172549946595,"57":-0.1716010859203863,"58":-0.35077129496401915,"59":-0.2747690429678038,"60":0.5396675424612823,"61":0.15862361081002438}},{"sx":1,"sy":1,"depth":62,"w":{"0":0.2905457635000168,"1":0.09273733133196145,"2":0.21368780492407344,"3":-0.030217257143471673,"4":0.041288869327354163,"5":0.12762721310546862,"6":0.24983641702797027,"7":0.28485533489892945,"8":0.5483094449473622,"9":0.31776340694188765,"10":-0.011399055439357066,"11":0.05555491968119019,"12":0.1924984579073817,"13":-0.07145281048086428,"14":-0.008776179876420988,"15":0.38668317595850016,"16":0.2563885257725862,"17":0.1959887671925875,"18":0.43505462152165014,"19":0.4464217314917276,"20":-0.09074484155045706,"21":0.7584753964305284,"22":0.7936975133042483,"23":-0.3231453367909394,"24":0.43356368192090766,"25":-0.2568253684742863,"26":-0.20365146846236493,"27":0.8372357836741579,"28":-0.05817355456959156,"29":-0.056929561486899996,"30":-0.2380554383634246,"31":-0.3241188292080823,"32":0.06061755356800676,"33":0.20650140836468905,"34":-0.19777609920598316,"35":-0.27892359515992404,"36":0.16912947756853478,"37":-0.05372724418602327,"38":-0.2833188853124746,"39":-0.25197308887655206,"40":0.37424985709460423,"41":-0.2522626631486351,"42":0.49536782894248343,"43":-0.26222854420421765,"44":0.0018204491329152118,"45":-0.3917579105570872,"46":0.39455942730878213,"47":0.3697859067371146,"48":-0.2610882023754204,"49":-0.19684297086997862,"50":0.381031877321482,"51":-0.26205367532091717,"52":-0.2860959700772848,"53":-0.37601882396714814,"54":0.4337177135865884,"55":-0.32998954085618065,"56":-0.23721855781035037,"57":-0.04820693348152053,"58":0.5793710033415976,"59":0.29638567497023144,"60":-0.21909129938435326,"61":-0.16469751713857306}},{"sx":1,"sy":1,"depth":62,"w":{"0":1.1604215272523533,"1":-0.0294698552988641,"2":-0.18497755655996592,"3":0.7789728817605739,"4":0.9647101429103299,"5":-0.009298324570709348,"6":-0.13954244439179006,"7":0.35749825863193013,"8":0.14603560871346796,"9":-0.33416449895279327,"10":1.1944877563509941,"11":-0.1620105924319366,"12":-0.25528981842058884,"13":0.819972748444468,"14":0.9394184367473234,"15":0.10695158210723646,"16":-0.38146599781357465,"17":0.33782293065436403,"18":0.13896042650843884,"19":-0.5506359025648052,"20":0.156424067643611,"21":-0.45708619628518216,"22":-0.022642956947136694,"23":-0.45954183346432115,"24":0.9115274128173272,"25":0.1932427735983245,"26":0.07244453053367668,"27":-0.5971295186944521,"28":-0.5503124877672722,"29":0.6016714232168433,"30":0.22064823323592295,"31":0.28335783137413795,"32":-0.12657192011712942,"33":0.2252064957426103,"34":0.07779536599675428,"35":0.26450733745854615,"36":1.2251002685049628,"37":0.555059527679966,"38":0.4889142940108179,"39":0.24435015401263294,"40":-0.004355150531573265,"41":0.508844513262421,"42":0.3993212707480102,"43":0.07471354820706126,"44":0.049214431387343584,"45":0.0679126183585026,"46":-0.10271469586157327,"47":-0.5200001603040821,"48":-0.5241771435110275,"49":-0.2786623735353825,"50":1.259018652809948,"51":-0.21177421963727602,"52":0.058602885459823534,"53":0.43538494907764647,"54":-0.5379613797228705,"55":0.049297189771302305,"56":-0.15161035324168973,"57":0.24728504272134233,"58":0.36995831207595464,"59":0.1282366164706155,"60":0.895619707444643,"61":0.4225750114727555}},{"sx":1,"sy":1,"depth":62,"w":{"0":0.9156550211666883,"1":0.08376875070168888,"2":-0.029372878086470215,"3":0.5865258517699261,"4":0.8055137586939619,"5":-0.00940824347790883,"6":-0.057259976153157206,"7":0.29608153252048325,"8":0.5964853841677425,"9":0.6047603201623416,"10":0.5904846162021633,"11":-0.03493669841719104,"12":0.38936317413325894,"13":0.356611626983632,"14":0.5959741784626745,"15":0.5057664853282038,"16":-0.18220918042716838,"17":0.12293173662751726,"18":0.7651075992684004,"19":0.36266036272889135,"20":0.21179449781669826,"21":1.0698683289543858,"22":-0.669244270208465,"23":0.00491557554583991,"24":0.24290942789414421,"25":0.041669722285378324,"26":-0.19830005821246185,"27":-0.35553331240071695,"28":0.00917950443427188,"29":-0.03464351558577258,"30":-0.17963789552627935,"31":-0.3036681067329529,"32":0.740384449778246,"33":0.30420944008666007,"34":0.2621209906274158,"35":0.2127430050847965,"36":-0.14323317509589562,"37":0.09914585839664554,"38":-0.27366188677331704,"39":-0.17339452096355953,"40":0.6618472205829239,"41":0.36816720987457796,"42":-0.09545357510683046,"43":0.9282456902910806,"44":0.27643803304490466,"45":-0.645989249571831,"46":0.2266366692923745,"47":0.7872982959411989,"48":-0.6767078487142901,"49":-0.3535564599412889,"50":-0.2238872486635252,"51":-0.31600240550366204,"52":0.14253515048105972,"53":0.8039700278953045,"54":0.2379886775600113,"55":-0.6701607701000055,"56":0.22899239943429112,"57":0.49713979493578264,"58":0.2789153940217665,"59":0.4994414068059825,"60":-0.19411427192168815,"61":-0.01992657954604375}},{"sx":1,"sy":1,"depth":62,"w":{"0":0.13599604225341957,"1":0.008581305592052139,"2":-0.07789373620359631,"3":-0.09672910444499869,"4":0.44913069770463954,"5":-0.05442276484431279,"6":0.0989819655686733,"7":0.2614683212706433,"8":-0.060634755457222245,"9":0.09544804940571297,"10":-0.014669689376420011,"11":-0.18052542094722626,"12":0.18252188590324833,"13":-0.12546473018862755,"14":0.4980263327750927,"15":0.07034582910223096,"16":0.0508076158171048,"17":0.35116727751789395,"18":0.16700319557011922,"19":-0.16539825967652527,"20":-0.18772197717497777,"21":-0.1400830264159398,"22":-0.08843954759919796,"23":-0.11960785957441955,"24":0.23906635663144235,"25":-0.05267590536694973,"26":0.5797245783568901,"27":-0.19553761726103142,"28":-0.22424548581563777,"29":-0.013578675714204753,"30":-0.05630584134542279,"31":0.5101689776533587,"32":0.00902830194586104,"33":-0.22429577601602937,"34":-0.1397787832716536,"35":-0.1858806095053092,"36":-0.42238516060944487,"37":-0.19813382347363137,"38":-0.20349804216580772,"39":-0.13816975350823754,"40":-0.176693184334749,"41":-0.20843426805163104,"42":-0.18178691414671083,"43":0.260853364960278,"44":0.3133921974843283,"45":-0.19267490408470556,"46":-0.14274197450371057,"47":-0.17220766721756983,"48":0.13289291943051687,"49":0.44630398980590347,"50":-0.0032225001877014482,"51":0.5792539176597384,"52":0.46623169942237547,"53":-0.1626889914766898,"54":0.24657184008149868,"55":0.3518941575479622,"56":-0.13985274137683915,"57":0.4078687838265381,"58":-0.18864237668503414,"59":0.5835492036367352,"60":0.11705195954767238,"61":0.14866325720022378}},{"sx":1,"sy":1,"depth":62,"w":{"0":-0.288954041727986,"1":0.23782571042957049,"2":-0.14271553788387556,"3":-0.17132620820168876,"4":-0.02800137251804555,"5":0.1693281714744475,"6":0.15304621273636315,"7":-0.043619342424412365,"8":0.525570058220085,"9":0.5303533389647993,"10":-0.13962834619091988,"11":0.14153583933357639,"12":0.02182313881861188,"13":-0.0637001432232732,"14":0.13237995460851218,"15":0.05394904989183959,"16":-0.005420097979892844,"17":0.0470961269811862,"18":0.27732497899370706,"19":0.14685296698778075,"20":-0.18494359992284234,"21":0.22466354495778618,"22":-0.2338639897265681,"23":0.6338920728660599,"24":-0.1339093001820521,"25":-0.17458454725173755,"26":-0.21663292677210869,"27":0.866157137062656,"28":-0.08251554977359678,"29":0.3055957826774309,"30":-0.18053889050817026,"31":-0.19745281688395386,"32":0.2429184852295341,"33":0.3371297735824361,"34":-0.12025840585263035,"35":-0.20056417232936644,"36":-0.3608476958002863,"37":0.3578070054311049,"38":0.9586702169528099,"39":-0.094180868325022,"40":-0.246668005321169,"41":0.01252754274168509,"42":-0.21381461233462795,"43":-0.31155653329214245,"44":0.03799794992556751,"45":-0.07179232494531965,"46":0.6169721791959485,"47":-0.20196842587903518,"48":-0.19332375360159573,"49":-0.09437232150678014,"50":0.18872874178258858,"51":-0.1932124184089472,"52":-0.20630654669518841,"53":-0.1993892683339774,"54":-0.16470084418129272,"55":-0.15608707580614786,"56":-0.2517082109032194,"57":-0.007732511524306101,"58":-0.12820945536062744,"59":-0.19349609733344744,"60":-0.036416683985875255,"61":-0.08394102555917328}},{"sx":1,"sy":1,"depth":62,"w":{"0":-0.2380020089446971,"1":0.3354503565213317,"2":0.049234404996442695,"3":-0.3743279281150819,"4":-0.09622145148641284,"5":-0.10585439945778602,"6":0.08861102068941393,"7":0.12808926691641442,"8":0.2040099520136334,"9":0.042136934789238197,"10":0.03919766168211683,"11":0.017387414613560234,"12":0.2109198193543072,"13":-0.17956326293958838,"14":-0.2787623976525876,"15":-0.08545824367302299,"16":0.31219513511058467,"17":0.20299071308501015,"18":0.014698392219567334,"19":-0.09531572001572756,"20":0.2966953522848384,"21":0.07959577473912313,"22":-0.13690173819451984,"23":0.26056939218178,"24":-0.07650772666324264,"25":-0.09158002130629761,"26":-0.1717006410596159,"27":-0.14931823917966025,"28":-0.20422997987237845,"29":0.46585661880766893,"30":0.07881533118136436,"31":-0.20760710962425377,"32":-0.12399520420188301,"33":0.281169623457379,"34":0.01362015584588119,"35":-0.09267237001820948,"36":-0.22680538253181703,"37":0.04076851658677132,"38":-0.21981408207588263,"39":-0.1234643899669164,"40":-0.14593366518228668,"41":0.3069494851899682,"42":-0.07755463762241434,"43":-0.0804307886869967,"44":0.34071803004691714,"45":-0.1302757729923949,"46":-0.14287426434556688,"47":0.9753099441706918,"48":-0.17139634708373425,"49":-0.13300608155792287,"50":-0.03805909655569892,"51":-0.1291464657252312,"52":-0.25576132549093034,"53":-0.1063207045372195,"54":-0.1397411178812062,"55":-0.13772592123305769,"56":0.18392056724082678,"57":-0.23212015139658426,"58":0.18450840823107595,"59":-0.1336598893606701,"60":0.0477658838619135,"61":0.038114254027654386}},{"sx":1,"sy":1,"depth":62,"w":{"0":-0.2781131562412638,"1":0.1093849943208153,"2":-0.07654926854630192,"3":-0.45519222632075035,"4":0.02301958084524033,"5":0.2056846654143472,"6":0.11360789333938894,"7":0.5284953762426695,"8":0.12872940141960262,"9":0.26794314326460417,"10":-0.39635193906329946,"11":0.012551126462156541,"12":-0.2639711563910422,"13":-0.09671860445361063,"14":-0.024362665392147754,"15":0.2635859684005107,"16":0.5295273300954482,"17":0.243335598988598,"18":0.04680812805747071,"19":0.14928675041926545,"20":-0.11157982662582071,"21":-0.03424469899054117,"22":-0.16167894803193963,"23":-0.23906417600942098,"24":-0.08038427695309334,"25":0.09896840737822467,"26":-0.18842461805775165,"27":0.4729083811927662,"28":-0.13154841908945314,"29":-0.14813179184827652,"30":0.27653972177051817,"31":-0.16331056790682738,"32":-0.2706321688972248,"33":-0.21982040677984985,"34":-0.2731073185200272,"35":-0.13093065202259982,"36":-0.33901693480407447,"37":-0.10888011057962742,"38":-0.17605909419998964,"39":0.47837994546636137,"40":0.044724099611615234,"41":-0.10545499881128437,"42":0.3068400114764795,"43":0.09381460447203023,"44":-0.020531116076343968,"45":0.3100933054580181,"46":0.18798465530010675,"47":-0.5164368924865982,"48":0.2162964973884152,"49":0.09483557518420058,"50":-0.07349797482050043,"51":-0.2588674114082933,"52":-0.12309867566425088,"53":-0.3353516518235654,"54":0.5644000630719728,"55":-0.014336078769633583,"56":-0.12625841638846977,"57":-0.26113778391393117,"58":-0.2393785007430987,"59":-0.14316595459463263,"60":0.5145279769344856,"61":-0.12346525709312707}},{"sx":1,"sy":1,"depth":62,"w":{"0":-0.34356683051497383,"1":0.21815574507182944,"2":-0.2229110735885471,"3":-0.017883461467685612,"4":0.04939302575373263,"5":0.1402787656851878,"6":0.2872515021670699,"7":0.4600937055945757,"8":0.12697101163217633,"9":0.11018604797888731,"10":0.0882590649884218,"11":0.07357031536709727,"12":-0.24318516342776617,"13":-0.17571199088081926,"14":0.03660749873235085,"15":-0.1559359481004184,"16":0.21769613382220196,"17":0.39871271984482093,"18":0.1957632333962801,"19":0.29547476178305376,"20":-0.17398485095337649,"21":-0.15146991897990628,"22":-0.1571507051125261,"23":0.531527276064959,"24":0.00023777356502082891,"25":-0.19961754766930087,"26":-0.1426611826429708,"27":-0.23907721825591458,"28":0.14388644721058122,"29":0.36174999323930146,"30":-0.19595837187913837,"31":0.10755916031287473,"32":0.43213517464715473,"33":-0.21083327059308302,"34":-0.12591745965487125,"35":0.3076385043596287,"36":-0.4066250394345381,"37":0.4787751351411012,"38":0.6643236243096289,"39":-0.11571241473153228,"40":-0.1633267369895306,"41":-0.16465714955597027,"42":-0.07647033628865386,"43":-0.26848732628517163,"44":0.43851557704014893,"45":0.5811486992453064,"46":-0.19193073199564692,"47":0.3283388104125855,"48":0.5183290088288339,"49":-0.14966612935855472,"50":-0.15450042767157465,"51":-0.18614725085990463,"52":-0.1357210012754924,"53":-0.22449657525981961,"54":-0.08585572117286307,"55":0.05530169289374989,"56":0.4061907000180183,"57":-0.07886759857534087,"58":0.30519218052202246,"59":-0.007648257777616997,"60":-0.0940736181574187,"61":-0.1787675542556205}},{"sx":1,"sy":1,"depth":62,"w":{"0":0.43731694280025146,"1":0.455763797960707,"2":0.26694272140131925,"3":-0.06407995435862368,"4":0.006770439594847177,"5":-0.18309745389588625,"6":-0.007227027205072406,"7":0.923403533359487,"8":0.5931524626022118,"9":0.11539922384287515,"10":0.4966113269653529,"11":0.5603006595201336,"12":0.1360463793651329,"13":0.14228342764865526,"14":0.08186983330299498,"15":-0.15285985413890682,"16":0.08330389382762093,"17":0.9089391677400149,"18":0.7888249736643039,"19":0.15223633697906036,"20":0.6447943929478093,"21":-0.4527146954235375,"22":-0.006639323871007742,"23":0.20394218889374127,"24":0.11009798096088358,"25":0.05402801713050231,"26":-0.2297351565938541,"27":0.2596464254425838,"28":0.6190000118406224,"29":0.13573893144068966,"30":0.6274002696605935,"31":-0.1632483093115933,"32":0.1416374805347794,"33":0.13592148130647624,"34":-0.37690438807420473,"35":0.2908903812703334,"36":-0.4710800439811701,"37":-0.2232834087624112,"38":-0.38738011625791785,"39":0.7575306802618584,"40":0.6870167471426327,"41":0.1004109148473917,"42":0.36917148253899496,"43":0.30616126852269393,"44":0.26290693407778964,"45":0.5613341962577901,"46":0.861202885438791,"47":0.47238258015270956,"48":0.3482767609626914,"49":-0.24173679450185015,"50":-0.03302050397303477,"51":0.4788393185313073,"52":-0.188993427503415,"53":0.46061162255664373,"54":-0.6344651405965979,"55":-0.13139894776671096,"56":-0.43981057168378473,"57":0.2683278257186414,"58":-0.6211082601693562,"59":0.38548139398439785,"60":0.57927625653097,"61":-0.5158145652937778}},{"sx":1,"sy":1,"depth":62,"w":{"0":0.3360776036535914,"1":0.2535502439787888,"2":0.20338577561646393,"3":0.02038585026298912,"4":0.20396260820487283,"5":0.18290521767834567,"6":0.28069447624907323,"7":0.6568260298427797,"8":0.2745664265377956,"9":0.14321273845665575,"10":0.2967586729805503,"11":0.05327645011801625,"12":-0.13917340082272417,"13":0.14425401288761988,"14":0.13968212174914077,"15":0.18046723902469636,"16":0.12962115497352225,"17":0.45675013409548937,"18":0.36849177804700933,"19":0.1600730577711666,"20":0.429030937617801,"21":0.07948072383276437,"22":-0.10805592277299264,"23":-0.13655011393392916,"24":0.1672335574069051,"25":0.41047482575008665,"26":-0.24906658719285163,"27":-0.09685560652328729,"28":0.13842606587470857,"29":0.084821041414742,"30":0.1293231781250932,"31":-0.15444986600620136,"32":0.02169065502017136,"33":-0.4078637853346926,"34":0.05596147795572583,"35":0.314968041893482,"36":0.12774912535358082,"37":0.15798325694965654,"38":-0.2666171783155382,"39":0.2273220503713573,"40":0.568423330454213,"41":0.21988144529309725,"42":0.19833852147325798,"43":0.05856892079646233,"44":0.2829904302094458,"45":-0.44543318181577146,"46":0.19767770442440796,"47":-0.3438708593680738,"48":0.06840076001731853,"49":-0.3378103007760496,"50":-0.11909967319319929,"51":-0.031211456653780695,"52":0.542303764749616,"53":-0.07206098229696001,"54":0.31512325102446304,"55":-0.3760429815511998,"56":-0.3389878492054803,"57":-0.06784321558442093,"58":0.4637505589689178,"59":-0.004108128426723423,"60":0.6376987061946379,"61":0.11830387162768394}},{"sx":1,"sy":1,"depth":62,"w":{"0":-0.11979690008917782,"1":0.18808130226323894,"2":0.007838990791713898,"3":-0.2792705058753249,"4":-0.4132616338921395,"5":-0.02473978843081452,"6":0.19875702151587737,"7":0.39571172241845204,"8":0.3312416775827876,"9":0.21803823342067477,"10":0.1074169634623542,"11":0.3165403417075693,"12":-0.031167695443971587,"13":-0.3591467573184367,"14":-0.02903485986977335,"15":-0.023994499112205102,"16":-0.0743746220695567,"17":0.3449881061772042,"18":0.2138481643107552,"19":0.3212584012538196,"20":-0.0008313074087780383,"21":0.009258789437116676,"22":-0.2072195475697725,"23":-0.15586119379804161,"24":-0.07127045921769949,"25":0.5180608572024361,"26":-0.06458625704417911,"27":0.3960054381517223,"28":-0.16705342199976714,"29":-0.11249645983739454,"30":-0.13714202131499367,"31":-0.1663371433871623,"32":-0.12860489309208106,"33":0.21839314709536883,"34":-0.1990400268085303,"35":-0.14009613569523352,"36":-0.30826934586612964,"37":0.26429506995394414,"38":-0.19646009398265885,"39":-0.15424023072372328,"40":0.7530790278870617,"41":-0.01779144958617005,"42":-0.06347724342872119,"43":0.451306183494009,"44":-0.18439587608404076,"45":-0.18746010383710793,"46":0.28502380139883093,"47":-0.11986665692583709,"48":0.4029601288704686,"49":-0.13487117305086535,"50":0.06438463954256769,"51":0.11581301322490888,"52":0.7353599756896363,"53":-0.15509218582415712,"54":-0.0933845468281618,"55":0.19388455745113528,"56":-0.13435480096589397,"57":0.18767491879968512,"58":-0.19457393661518546,"59":0.6649375924838022,"60":-0.2134921292958871,"61":0.3033883563804404}},{"sx":1,"sy":1,"depth":62,"w":{"0":0.0027839982771251503,"1":0.1959535322984067,"2":0.3100189066667238,"3":-0.2862127615907375,"4":-0.11280943023811975,"5":-0.15987422762117523,"6":0.12365610869678939,"7":0.2212305661180612,"8":0.21723757197226085,"9":0.2362311564708485,"10":0.0030125913209049135,"11":0.14421893897026022,"12":-0.15714544555695878,"13":0.004698974447242417,"14":-0.04722154558114559,"15":0.22501021600147122,"16":-0.14424313188101154,"17":0.4672471800296408,"18":-0.0033772617866254886,"19":0.05158013766935882,"20":-0.38352788130824167,"21":-0.12665926020926957,"22":0.48188263172287366,"23":-0.1895198217819454,"24":-0.13365605269895378,"25":0.37169454704868804,"26":0.07014713684923671,"27":-0.1326667572303552,"28":-0.18149836483903736,"29":-0.008102822068833473,"30":-0.11308535026706916,"31":-0.1953273618382431,"32":-0.13909608280785735,"33":0.1341634320888837,"34":-0.14010364776581657,"35":-0.1245594862191493,"36":0.5090035804019115,"37":0.2951793879947858,"38":-0.1724137642058278,"39":0.17659614461691514,"40":0.07311106705056569,"41":-0.12287900343416042,"42":0.4785930284660328,"43":-0.12240122649020035,"44":-0.18438482865260608,"45":0.19053038791862728,"46":0.41392731346385453,"47":-0.2676984831749948,"48":0.42600246823304383,"49":-0.2068622989774878,"50":0.7508353197467619,"51":0.19207117763112697,"52":0.08455660728845987,"53":-0.13987075136213373,"54":0.33442879420223154,"55":0.0935780667083482,"56":-0.09874885477153583,"57":-0.23452120138114324,"58":-0.1324696244786934,"59":-0.05985203736749867,"60":0.08874329864565034,"61":-0.13368757335675105}},{"sx":1,"sy":1,"depth":62,"w":{"0":-0.4270076461427775,"1":0.1303204075238425,"2":0.16106740696692962,"3":-0.41124902469252644,"4":-0.06000049245139534,"5":-0.14901281268055577,"6":0.25135970234249044,"7":0.4187703273139215,"8":-0.08224310933313532,"9":0.19360475359007318,"10":-0.397318123065194,"11":0.08064635321833595,"12":-0.1686969237601449,"13":-0.329968821832026,"14":0.0965085564032689,"15":0.01328966736189647,"16":0.5086037196714221,"17":0.19012703848818413,"18":0.016258341231640126,"19":0.44814799308323205,"20":-0.07859383963177653,"21":-0.1020047338861167,"22":-0.25041763284906743,"23":0.42305594765630394,"24":-0.04205151982999627,"25":-0.06923426002074222,"26":-0.17497001186448413,"27":0.6829074099856862,"28":0.0193471229150909,"29":-0.20731446836795245,"30":0.08441922464102192,"31":0.04262124997461712,"32":-0.37422656683097233,"33":-0.20746311441768892,"34":-0.26042647867194163,"35":-0.08689473544357741,"36":-0.5823226206966702,"37":0.1631885688002098,"38":0.7370350529050589,"39":0.20429436429590914,"40":-0.16184115385534112,"41":-0.2435986252296558,"42":-0.00834645117096511,"43":-0.0805293530277301,"44":-0.045594304226948795,"45":0.2479313289067501,"46":0.11960718134571714,"47":-0.41436286939723044,"48":-0.032934119487475516,"49":0.4112726946197463,"50":-0.04913293524914771,"51":-0.30196432045432425,"52":-0.10866062420648807,"53":-0.33037658009561527,"54":0.11764484496678015,"55":-0.0710305345995755,"56":0.055509676471083284,"57":-0.27928824460298146,"58":-0.13186008846340333,"59":-0.2781123215727205,"60":0.36770934056439153,"61":-0.09113522284566948}},{"sx":1,"sy":1,"depth":62,"w":{"0":-0.10358662759445729,"1":0.0330669856587588,"2":-0.08152422769213982,"3":-0.05524439783894509,"4":0.33724036671229496,"5":0.06328142945867372,"6":-0.029998988729927085,"7":-0.1268209752391032,"8":0.07057335305214217,"9":0.23444132396370823,"10":-0.014377659409543508,"11":0.09803101962990239,"12":-0.06920817073456705,"13":-0.051561227917480454,"14":0.06918785857631125,"15":0.32063808231819335,"16":-0.09711084241596574,"17":0.075288438856602,"18":0.3231508379569567,"19":0.27537410296749754,"20":-0.19995429780023982,"21":0.8591850949883961,"22":-0.23422959955844963,"23":-0.23630924412531593,"24":-0.18673036699882686,"25":-0.1747340127234651,"26":-0.16652713474750774,"27":-0.2416121678893511,"28":-0.17817844606843292,"29":0.07252279524941731,"30":-0.00779158835649657,"31":-0.2187588779377934,"32":0.5891895977972542,"33":0.5362620538927482,"34":0.5908208811710346,"35":-0.17935963709583638,"36":-0.17673571522306428,"37":-0.17055235655249434,"38":0.05696448074398666,"39":-0.1863614008747958,"40":-0.060478222515468534,"41":-0.11963083840771861,"42":0.5746384802809231,"43":-0.1877402216237981,"44":-0.22975788387521145,"45":-0.2245620487498154,"46":0.4043739622963266,"47":-0.17125775237065644,"48":-0.05807765200073109,"49":-0.12715389825558035,"50":0.6616659883814481,"51":0.025541682192883643,"52":-0.19532212646044828,"53":0.14139693017830252,"54":-0.0684239363272393,"55":0.2364794369886106,"56":-0.22453531741966756,"57":-0.1960309131380203,"58":-0.293725116380388,"59":-0.18017501751046625,"60":-0.17253229024832548,"61":-0.2105063537596659}},{"sx":1,"sy":1,"depth":62,"w":{"0":0.0654011719794876,"1":-0.008413969630441418,"2":-0.014431857097455788,"3":0.02931405010653303,"4":-0.02483235050917692,"5":-0.1615554188908656,"6":0.11475213269818572,"7":0.11928427681527617,"8":0.07013409674871762,"9":0.209962639070737,"10":-0.03688842684436323,"11":-0.2184394808643937,"12":0.0758344320401284,"13":-0.0589079371214266,"14":0.012160566249814847,"15":0.016720251386708868,"16":0.19797415761200954,"17":0.13255536698244236,"18":-0.015149422231040802,"19":0.2124792543111955,"20":-0.07958270693815375,"21":-0.091194128508817,"22":-0.18923638573540008,"23":-0.15036251702993464,"24":0.07905270414445022,"25":0.09566442029104998,"26":-0.10797771859733399,"27":-0.08756439271317563,"28":-0.09823403647416136,"29":-0.07360254277957776,"30":-0.16917173768800742,"31":-0.11628362412863276,"32":-0.23734213319598524,"33":0.07232505496531255,"34":-0.09886326947899524,"35":-0.11374143407020476,"36":-0.10475659207511692,"37":-0.05008547460095953,"38":-0.18928208894795176,"39":0.0006072932988771044,"40":-0.07999264577944112,"41":0.46390703330615013,"42":0.28966549385898693,"43":0.2848610597690118,"44":0.1138046841268633,"45":0.7490879858754667,"46":0.12266162188526458,"47":-0.06957592424490071,"48":-0.03713732246568898,"49":0.8284878158878336,"50":-0.09552315475072627,"51":-0.11369468121158707,"52":-0.24576141775015461,"53":-0.052417178863664385,"54":-0.3127820783865723,"55":0.09972445868009408,"56":-0.06613250373426738,"57":-0.12222020950238464,"58":-0.1117853243996605,"59":-0.2097199464148494,"60":0.18311025169080664,"61":-0.07564241216412963}},{"sx":1,"sy":1,"depth":62,"w":{"0":-0.10127669360541616,"1":0.050874957593156474,"2":-0.18410074123999265,"3":-0.06632961776594566,"4":-0.11941572093464498,"5":0.06379015550939184,"6":0.12325447734798116,"7":0.03085986134848711,"8":0.1349828534188803,"9":0.08437178612165787,"10":0.28041772503032725,"11":0.02842453062372732,"12":-0.12086035555382146,"13":-0.01254726555332213,"14":-0.2005356869063252,"15":-0.24178549981783526,"16":0.10562065146574307,"17":0.026031358589502607,"18":0.04251133760634322,"19":0.20090625353348712,"20":-0.0415072806939675,"21":-0.037293004847776104,"22":-0.023869021683181613,"23":0.05096770509921812,"24":-0.12636561906651497,"25":-0.10732507075298532,"26":-0.10610936376072366,"27":-0.055541816733119496,"28":-0.02918257327072406,"29":-0.08050169424258442,"30":0.07074771336962572,"31":0.24268666147666865,"32":0.28883977626866825,"33":-0.0473269636404525,"34":-0.015074860710070597,"35":-0.10656258183768229,"36":-0.06112723755178932,"37":-0.20095177944645054,"38":-0.04458669897304285,"39":0.22785480290517346,"40":-0.35384923915804795,"41":-0.013862959196170975,"42":-0.07612708623713406,"43":0.32414380278150995,"44":0.11121389228883886,"45":0.5299458705222797,"46":-0.15759178981928368,"47":-0.06199984997120155,"48":0.3356566793799455,"49":-0.036583320413683854,"50":-0.20856582537852486,"51":-0.04204445169468466,"52":-0.20929194698235976,"53":0.2602762955378745,"54":-0.10786039992276969,"55":-0.19377306770680947,"56":0.1610761839407193,"57":-0.060360236452013445,"58":-0.16421308676890417,"59":0.00923284272067352,"60":0.019291604699295008,"61":-0.12749875531933139}},{"sx":1,"sy":1,"depth":62,"w":{"0":2.3430227964948727,"1":0.10683385098724496,"2":-0.3089921338503386,"3":1.1355278925669268,"4":1.805747825122084,"5":-0.3404958347135093,"6":-0.644853868347152,"7":0.7202975526640429,"8":0.1466951902528114,"9":0.6463416407177739,"10":2.063516555897969,"11":-0.1623603554387986,"12":0.08848867814320432,"13":1.0273835220402812,"14":1.7780270777298741,"15":-0.16208335483093866,"16":-0.45145725949204885,"17":0.47244978626553097,"18":0.7147091619356166,"19":0.10001654776555734,"20":0.5753012609745959,"21":0.049828809864909625,"22":0.23681117982776367,"23":0.1675689330440061,"24":0.5731016989288346,"25":0.41583453095959955,"26":0.024542554705296534,"27":-1.4657355090296957,"28":0.3395195478903574,"29":0.8202000747748821,"30":0.03856826400066074,"31":0.4656437349964026,"32":1.0256231198575716,"33":0.41614888453503207,"34":0.5067787335172531,"35":0.6702715947086261,"36":-0.3528327780323555,"37":0.34883561678783487,"38":0.07891979315737625,"39":-0.15800942680931532,"40":-0.30107661638184124,"41":0.9849892300692913,"42":0.24466697942231527,"43":1.1493326919982785,"44":0.7044797242162129,"45":-0.32793958185320243,"46":-0.17947844859642753,"47":1.0942699907456446,"48":0.36647203501286835,"49":-0.36634229493810105,"50":0.11124467622437656,"51":0.6832695236379841,"52":0.4244578870488476,"53":0.17322063208572852,"54":0.1769465647244273,"55":0.3054923659023396,"56":0.693186461138931,"57":0.40439861269695154,"58":-0.16190211480957284,"59":-0.22128136279525418,"60":0.2866878097801963,"61":0.2076609532169631}},{"sx":1,"sy":1,"depth":62,"w":{"0":-0.8174225413874172,"1":0.24501472745747252,"2":-0.07267705145509891,"3":-0.8922183100136026,"4":-0.31605348291861757,"5":-0.1537615669658034,"6":0.5715714550790295,"7":0.3229413193247995,"8":0.13323493615284598,"9":0.39619259790660605,"10":-0.8372008743515466,"11":0.3819356935687494,"12":-0.5289375648811855,"13":-0.7368065309801404,"14":-0.18860714737964993,"15":-0.1298368172209503,"16":0.33714207230448,"17":0.566256838248439,"18":0.366585166011141,"19":0.8487762504258102,"20":-0.4047235093838902,"21":-0.1612173418207777,"22":-0.4729781937651323,"23":0.5360547734194677,"24":0.107875587538202,"25":-0.4530314558698613,"26":-0.6132355659520263,"27":1.284052193765253,"28":-0.221651194407131,"29":-0.13147156485043032,"30":-0.28798792604930734,"31":-0.17304778260976106,"32":-0.839865101227007,"33":-0.32839406767188933,"34":-0.43324480840116886,"35":0.0019649041911001396,"36":-1.3746609717153322,"37":0.04093934892668928,"38":0.12075215556434761,"39":-0.09567871366124109,"40":0.1510429346125745,"41":-0.15563029527793104,"42":0.24073060948554068,"43":-0.26358263077765437,"44":0.398713922191658,"45":-0.056247864736331775,"46":0.7501933884117039,"47":-0.6321028913396198,"48":0.07831515542855136,"49":0.32490662630734285,"50":0.11746067619975414,"51":-0.3099101715861616,"52":0.038799241401967964,"53":-0.28200932587056515,"54":0.7502085700357991,"55":0.19373751632972286,"56":-0.2796446317554174,"57":-0.3801245138456527,"58":-0.36183306164729584,"59":0.2077377197393029,"60":0.41746815093246603,"61":0.13641549805856978}}],"biases":{"sx":1,"sy":1,"depth":50,"w":{"0":0.2124178913320477,"1":0.16714799601668276,"2":0.6097248773158308,"3":-0.11473353264397318,"4":0.07308019416825276,"5":0.5800411289110975,"6":0.09307506017809854,"7":0.23400060781518872,"8":0.32091666652724804,"9":0.21631714423812887,"10":0.32961409108914413,"11":0.07538003153256465,"12":0.194110146349186,"13":0.8163795485494475,"14":0.27782667372451725,"15":-0.07383747468297833,"16":-0.10805581675429347,"17":0.028263657598678365,"18":0.199511088761529,"19":-0.03782699418882915,"20":-0.029601735266544388,"21":0.4556367005802291,"22":0.10639010911511466,"23":-0.16627301234153605,"24":0.42727281802618944,"25":0.5131451196622488,"26":0.20147838369335708,"27":0.14011449948312868,"28":-0.02875870430526906,"29":0.29761198672775707,"30":0.13511892430523678,"31":0.1947934351831209,"32":0.3166113883153356,"33":0.738537660831975,"34":0.4524178161901487,"35":0.3309780014841209,"36":0.1392260049718258,"37":0.1473762812385917,"38":-0.035256043990430794,"39":0.2193844257623914,"40":0.6180883263220103,"41":0.4000740573381126,"42":0.2646970856937634,"43":0.19796332477734796,"44":-0.08164745442385643,"45":0.16031872673448874,"46":0.021448200886393647,"47":0.09417642276846681,"48":1.2195854076316688,"49":-0.25581690024431214}}},{"out_depth":50,"out_sx":1,"out_sy":1,"layer_type":"relu"},{"out_depth":50,"out_sx":1,"out_sy":1,"layer_type":"fc","num_inputs":50,"l1_decay_mul":0,"l2_decay_mul":1,"filters":[{"sx":1,"sy":1,"depth":50,"w":{"0":-0.08033899076566701,"1":-0.17765414387976108,"2":-0.2554641113918291,"3":0.4218268012377065,"4":0.00760814727589043,"5":-0.08161607539436994,"6":-0.16557737288737093,"7":0.05041208049679261,"8":-0.10415886221174975,"9":-0.044785417157909464,"10":-0.2178785118773632,"11":-0.12311855392558,"12":-0.3069166804349191,"13":-0.1477600014624604,"14":-0.24183626899305594,"15":-0.1433560709453811,"16":0.17502818789777516,"17":0.06807271968417328,"18":0.0041529516738335465,"19":0.07573199838848721,"20":-0.0031332789298501164,"21":-0.10216912913008062,"22":0.14981990995637642,"23":0.06518332420284097,"24":-0.33653298730880393,"25":-0.20582249894740787,"26":-0.4018946203105424,"27":0.02792579215774014,"28":0.11338654274383454,"29":-0.11853484657345893,"30":-0.12026063599115276,"31":-0.11625401562029765,"32":-0.5811799669503753,"33":-0.14547080801153067,"34":-0.39735725640964903,"35":-0.25173790331097506,"36":0.02622503845290255,"37":-0.11108416713508909,"38":0.11294107548344459,"39":0.18889804032823798,"40":-0.2997818450874686,"41":-0.03371138142614355,"42":-0.07763274793845744,"43":-0.29877101962745045,"44":0.1830801082609602,"45":-0.12073802142859935,"46":0.08972087624382111,"47":0.3066667110774364,"48":-0.09589322477033335,"49":-0.17943310889828662}},{"sx":1,"sy":1,"depth":50,"w":{"0":0.44365292984814625,"1":0.23033199247389335,"2":0.032048806414669534,"3":-0.46787420163487653,"4":-0.48933760610256066,"5":0.06712238253235121,"6":-0.38293838257290735,"7":0.43463162880130807,"8":0.12507983844535867,"9":0.6621906643445803,"10":0.24947055462467627,"11":-0.3118880806065066,"12":0.39115560851951026,"13":-0.37755675239270486,"14":-0.013221508849235713,"15":0.39287563076133925,"16":-0.27680027421404746,"17":-0.5702466982912472,"18":-0.3253205328502281,"19":-0.38081329725834556,"20":0.2033562502777756,"21":-0.006650627332607988,"22":-0.06554691895503134,"23":-0.2450260980252979,"24":-0.21318576039302237,"25":0.31100766327128226,"26":-0.27407038945791423,"27":0.3343274396072105,"28":0.26730299048880674,"29":0.5095301798893206,"30":-0.2971756479819471,"31":0.3367798719715005,"32":0.04599951503598254,"33":-0.40998162301298746,"34":0.3764581279332684,"35":0.023207028434665666,"36":-0.5623545319566581,"37":-0.28045294802016413,"38":-0.31092249678751227,"39":0.11667867236994588,"40":-0.6265966684634692,"41":0.3159106750984136,"42":0.3856273631417825,"43":-0.07983976527986844,"44":-0.1283693778050793,"45":-0.036039423261935905,"46":-0.2594192928714631,"47":-0.05796095409286603,"48":-0.18672301615517647,"49":0.3817689603474346}},{"sx":1,"sy":1,"depth":50,"w":{"0":-0.13133432606025267,"1":0.07147172167973595,"2":-0.17165142321191182,"3":0.03042631802448731,"4":-0.21328153703622826,"5":0.03704151098021182,"6":0.008903514632104106,"7":0.14844817989769785,"8":-0.20916604887804885,"9":-0.07059867975103624,"10":0.07758349934901931,"11":0.07788624681998613,"12":-0.024832582122114574,"13":0.10627017204232249,"14":-0.09262157336955754,"15":-0.14987437384272956,"16":-0.29511426944795854,"17":0.04535370719066095,"18":0.22026269378452595,"19":-0.21382374768581192,"20":-0.11179602430433483,"21":-0.1827243318661308,"22":-0.031006146189689346,"23":0.044363316431228324,"24":-0.16152009084735003,"25":-0.17076340864966644,"26":-0.1194773179620786,"27":0.04287564678787679,"28":-0.03526484874065514,"29":0.01360087320754574,"30":-0.00819018620125684,"31":-0.30467019040988336,"32":0.3406914164388503,"33":-0.07349642071726979,"34":0.05510675836894667,"35":-0.07866272110277495,"36":-0.09026316103286507,"37":0.16845620548160678,"38":0.18977320826082075,"39":-0.00957372669269526,"40":-0.07097861988002278,"41":-0.038269577730853786,"42":0.10529269442229838,"43":-0.16043567231598924,"44":-0.0844185664892843,"45":-0.39781413763004614,"46":-0.3290775585203834,"47":-0.001602989230260988,"48":-0.04559452835036297,"49":0.01069933158667264}},{"sx":1,"sy":1,"depth":50,"w":{"0":-0.18215290510564866,"1":-0.19676620571178896,"2":-0.0671445753041892,"3":-0.00815417525763784,"4":-0.3311133849982163,"5":-0.1531780541163171,"6":-0.4459801207466366,"7":0.0936072153297865,"8":-0.06357122996952318,"9":0.6702449760264678,"10":0.09951708745666686,"11":-0.03607604274650521,"12":-0.053347099612966124,"13":-0.06521910763741746,"14":0.12126948451737077,"15":-0.18682727868419952,"16":-0.11423055915569257,"17":-0.5272475798003403,"18":0.12693499901679156,"19":0.18387154565951516,"20":0.29089668980488825,"21":-0.12047956472775334,"22":-0.09131157903683017,"23":-0.13905228293081728,"24":-0.07867133086180095,"25":-0.397533957685459,"26":0.15215138839551887,"27":0.1018808441774924,"28":0.3180476872783977,"29":-0.1226828524637312,"30":-0.19507445379144864,"31":0.4972446490807543,"32":-0.15198088950269814,"33":0.22402348297976246,"34":-0.13580652048449524,"35":0.1216437520196579,"36":0.10098885305369998,"37":0.29245051216235485,"38":-0.4142187509173174,"39":0.16999514367889196,"40":0.34028186502438995,"41":0.3539156513854275,"42":0.19202312870259042,"43":-0.05382699747322666,"44":-0.3632825090209722,"45":-0.28448027610932863,"46":-0.06003143936905147,"47":-0.02341221521318312,"48":-0.06970918045857498,"49":-0.10592709797667849}},{"sx":1,"sy":1,"depth":50,"w":{"0":-0.3514457364201251,"1":-0.18737423197301648,"2":1.2895068275844064,"3":-0.09636057254236548,"4":-0.0006063280864476578,"5":0.38472133724137564,"6":0.1993909815059511,"7":0.40534728933116965,"8":-0.09950333795999547,"9":0.03653892847527707,"10":-0.21612376859363824,"11":0.3024351276433738,"12":0.422964106455492,"13":-0.6225670133663874,"14":0.2186575312153668,"15":0.47387220493261883,"16":-0.2922876913455896,"17":-0.3197533071117958,"18":0.02177855770876788,"19":-0.011721924075469098,"20":-0.281358840615348,"21":0.14464749183347778,"22":-0.0998787842465309,"23":-0.3119674344125789,"24":0.9246203687000741,"25":-0.348887942713544,"26":0.061292370889380346,"27":-0.22244047048678678,"28":-0.3464249944378883,"29":0.23245292227202227,"30":0.0066386611056867,"31":-0.38535679683807184,"32":0.01822149748077202,"33":0.3402844904710385,"34":0.3284016086463406,"35":0.7834719653560871,"36":-0.28827536537850235,"37":-0.027741262040512377,"38":-0.09656649929762631,"39":-0.7317000626504515,"40":0.21434241410603586,"41":0.33548153569355305,"42":0.7695140001928739,"43":-0.057339725956595686,"44":-0.23444829402449355,"45":-0.2930933692115342,"46":0.20602340784859466,"47":-0.12116826952816594,"48":0.6617845474397095,"49":-0.5042661970427438}},{"sx":1,"sy":1,"depth":50,"w":{"0":0.5901940668585196,"1":0.02858557665199812,"2":0.40912636699526456,"3":0.33688621787911455,"4":0.0028302670860907795,"5":-0.3467369874071098,"6":-0.1769658740907636,"7":0.48428644422501216,"8":-0.27181809553757547,"9":-0.12944747100247583,"10":-0.2749995225504868,"11":0.054671415402242206,"12":-0.18458991217983828,"13":-0.24033323362386694,"14":-0.1840862185140767,"15":-0.09914993534174761,"16":-0.16233426688169736,"17":0.5477872042980482,"18":0.17244308246653448,"19":-0.12101282598316451,"20":0.3739563321497099,"21":-0.44470405333223134,"22":0.5640871808424771,"23":0.27287863517765215,"24":0.30311048708206645,"25":-0.46193553206451604,"26":-0.34198878509813174,"27":-0.015486948766943459,"28":0.715773519685768,"29":-0.0594802353280063,"30":0.3987542109596445,"31":1.0174570610443594,"32":-0.37431856725098,"33":-0.5401753049697987,"34":-0.0042438896667162,"35":0.2748333137899612,"36":-0.33565704352669984,"37":0.20640813843952083,"38":0.2170790068957622,"39":-0.0998142226150557,"40":0.47403323183196966,"41":-0.04762561185984042,"42":-0.608576762437982,"43":-0.571827852348836,"44":-0.24793014821953943,"45":0.023767472407070327,"46":0.6045028323008423,"47":-0.007757579578004842,"48":0.500636688144946,"49":-0.15651216719804756}},{"sx":1,"sy":1,"depth":50,"w":{"0":0.45089340477798145,"1":0.13759065298229042,"2":-0.46073983021528225,"3":-0.4221594071181823,"4":-0.23454841881946314,"5":0.1995802811204244,"6":-0.02846505494086505,"7":-0.1251000848983196,"8":-0.05879558126157403,"9":0.44612656316221627,"10":-0.27678122582989184,"11":0.03850744177023127,"12":0.16142276931028154,"13":0.21709303357749973,"14":-0.16844523415692525,"15":-0.12124531816511407,"16":0.42734108630720785,"17":0.22056459498039488,"18":0.10543295527199009,"19":-0.31844481241796657,"20":0.09095299287255346,"21":0.4045480512843727,"22":-0.3207817115300188,"23":0.3663447418248306,"24":-0.22725715100368227,"25":-0.025126352359203116,"26":-0.07313875331974855,"27":0.18207275467056502,"28":-0.015051936338157197,"29":-0.047600325506990164,"30":-0.09636151677345772,"31":-0.36083612242815644,"32":0.0519480238552805,"33":-0.18818557816837564,"34":0.012863738555795812,"35":-0.4132025590450992,"36":-0.036847412264793926,"37":0.12202577448145456,"38":0.44037898782733237,"39":-0.6203786187496256,"40":0.5627497644068925,"41":0.1875427117289444,"42":0.06012875030401023,"43":-0.2909063650997552,"44":0.38361845378101167,"45":-0.1694069901522423,"46":0.13108279354225533,"47":0.17294274203718318,"48":-0.7167499773894758,"49":0.3053946270331094}},{"sx":1,"sy":1,"depth":50,"w":{"0":-0.03690122554612188,"1":-0.06580427646511348,"2":-0.022789448150477294,"3":0.16183597409197956,"4":-0.0066457473399186414,"5":0.3019952574486174,"6":0.4065305325239504,"7":0.014520883102869265,"8":0.36360230206527605,"9":0.16549849693870441,"10":0.0476656009753081,"11":-0.1259836857956042,"12":0.3045697160039292,"13":-0.22028436531391596,"14":0.1478167885548774,"15":0.551709017275786,"16":-0.4548624111735487,"17":-0.17352323399310335,"18":0.014909851078074434,"19":0.19024483583779928,"20":0.21193255206144843,"21":0.2390073700515474,"22":0.29534629221177455,"23":-0.07189638253781422,"24":-0.20330513999967906,"25":-0.21586638011852183,"26":0.31371530535995484,"27":-0.0310995339240676,"28":-0.16001882914840035,"29":0.04815182038440419,"30":0.8823007303319003,"31":-0.34503214005101945,"32":0.20871793502782868,"33":0.40608029119812866,"34":-0.20908792811066135,"35":0.06482072017450977,"36":0.03269236897394349,"37":-0.12682468101763775,"38":-0.10063194634616636,"39":0.23622747933400903,"40":-0.1593803679860837,"41":0.12733090829243315,"42":-0.2369441085094961,"43":0.1630763002849724,"44":0.3573515639443446,"45":-0.00967961625375123,"46":-0.031476257387482644,"47":-0.08099202424302315,"48":-0.2732110442780885,"49":-0.09595457770974819}},{"sx":1,"sy":1,"depth":50,"w":{"0":0.3973679163167168,"1":0.11623907027867245,"2":-0.911328331193156,"3":-0.17081737088348212,"4":-0.42051415832659766,"5":-0.2935382072782058,"6":-0.15022001666457097,"7":-0.28022205075184936,"8":-0.6828521420591143,"9":0.41931652427954813,"10":0.17126108170421334,"11":0.043070059394494285,"12":-0.269085940849364,"13":0.21959779839829172,"14":-0.3186847169515928,"15":-0.1900879896770861,"16":0.3897731937445013,"17":0.5950543528418683,"18":0.022554463075411896,"19":-0.1498745870894724,"20":0.6039703760265869,"21":0.470892660270056,"22":-0.03241701141668234,"23":0.36120781941191193,"24":-0.47080363026435895,"25":0.006982312171886102,"26":-0.033676822145093106,"27":-0.15721387886414562,"28":-0.19136548205472056,"29":-0.007650582117749124,"30":0.6463156515401849,"31":-0.3355833531292552,"32":0.9072697697494544,"33":-0.6941651797664482,"34":0.3544469850502191,"35":-0.658819264270353,"36":0.5464995596357703,"37":0.2173970154739867,"38":0.12271484807550928,"39":0.02004333298887643,"40":0.029157594491989094,"41":-0.05192221052970675,"42":-0.11946758093501536,"43":-0.2547993638777651,"44":0.14227785748515084,"45":0.5846908829525614,"46":-0.27466479072301664,"47":0.02315311391797039,"48":-1.000005702572139,"49":0.3402156069548624}},{"sx":1,"sy":1,"depth":50,"w":{"0":0.18671254776872695,"1":-0.0032666485030734323,"2":-0.4468778173537683,"3":-0.04959561413554312,"4":-0.22365416340367825,"5":-0.28452396797331403,"6":0.4771212710026687,"7":0.10552196789826415,"8":-0.17409659404878314,"9":0.008495823207883443,"10":-0.025295589032828764,"11":-0.13318301893596163,"12":-0.12060951733277932,"13":0.010249371431811434,"14":-0.05353881706468985,"15":0.2676786588909809,"16":0.16451971026749435,"17":-0.09415366704574611,"18":0.049889898679325514,"19":-0.10486270762047085,"20":-0.1177773722537938,"21":-0.09856758895528099,"22":-0.17802738382333996,"23":-0.18197199708169406,"24":-0.03730611811118905,"25":-0.1949360869169994,"26":-0.0317919805144026,"27":0.006303802578705691,"28":-0.18536412684868128,"29":-0.11195277108545927,"30":-0.05934457970537719,"31":-0.38433538959990615,"32":-0.4137080092230206,"33":-0.18488037070806213,"34":-0.606472845159438,"35":0.3145068038402665,"36":0.3866198792576655,"37":0.15725664803225792,"38":-0.062363449642755905,"39":-0.11077045240498945,"40":-0.3992273124646178,"41":0.030836287781265154,"42":-0.13989601285302147,"43":-0.31914425114119344,"44":0.26501367121513025,"45":0.13316714573678298,"46":-0.1907101590792997,"47":0.12085846543505609,"48":0.005194328211869124,"49":0.1865796712298822}},{"sx":1,"sy":1,"depth":50,"w":{"0":-0.38875026935963736,"1":-0.15804678052275287,"2":0.23548538517076945,"3":0.3336697791167479,"4":-0.2805346298528714,"5":0.20364312197493073,"6":0.05779187243099632,"7":-0.09286579083639933,"8":-0.13258088048659805,"9":0.02232971979362191,"10":-0.07979095413557788,"11":-0.32551230330765096,"12":0.08540021665874639,"13":-0.2107782511239719,"14":-0.20656755310914182,"15":0.4094389911322913,"16":0.050261814697001306,"17":-0.5348710097958146,"18":-0.07917063680677154,"19":-0.1980780889998668,"20":0.332300304693021,"21":-0.3290128879268669,"22":-0.25066187291975706,"23":-0.1374129201899472,"24":-0.11599211302747099,"25":0.2911422684042078,"26":-0.23923337452412938,"27":0.006793201730102472,"28":-0.32787181326861276,"29":-0.3184458727696978,"30":0.009281632789698423,"31":-0.24995656954255477,"32":-0.12984123021142888,"33":-0.22260853579852397,"34":0.0006113669782238849,"35":-0.13593954039089504,"36":-0.2271397649032099,"37":-0.1998750002492743,"38":-0.1046698377007758,"39":-0.3265906568821143,"40":-0.311798685455708,"41":-0.07181005789167966,"42":0.1866376160270659,"43":-0.07523454281800988,"44":-0.18670598078522743,"45":0.07254750105988693,"46":-0.05778804123353649,"47":0.004271122669516474,"48":-0.256826658842932,"49":-0.18694533860183568}},{"sx":1,"sy":1,"depth":50,"w":{"0":0.5076622326054805,"1":0.31480476467309637,"2":-0.6082224588772916,"3":-0.09066122506818892,"4":-0.04117783263703207,"5":-0.32096434045902594,"6":-0.25361643401814143,"7":0.2061801848270694,"8":-0.14913772246455362,"9":0.15563704621176835,"10":0.3915376941036259,"11":0.027265359572660398,"12":0.05350647864942295,"13":0.5496812893233655,"14":-0.1665735913211531,"15":-0.20864617443834255,"16":0.35406053591820763,"17":0.5697522424140031,"18":0.24250518516430183,"19":-0.17236015500133522,"20":-0.3694129364327778,"21":-0.0741759703982617,"22":-0.5402857793846736,"23":0.44525633322593716,"24":0.37488782554157485,"25":0.1494355244351414,"26":0.04362385237098111,"27":0.005911626206578988,"28":0.052948080011812344,"29":0.04446529269171791,"30":-0.34465945666020736,"31":0.24834665186625424,"32":-0.13765051652713978,"33":0.1344263613832588,"34":-0.1518417549552115,"35":-0.4153635829899047,"36":-0.020652206115045906,"37":-0.15455480375536437,"38":0.2242856747558204,"39":-0.49120584959585695,"40":0.49233291331325396,"41":-0.17331073331893748,"42":-0.16688471349938802,"43":0.1956843186804232,"44":0.26035876473348923,"45":-0.2708545748220902,"46":0.49386849380990655,"47":0.13398988902664744,"48":-0.5292272349664053,"49":-0.5160623051846784}},{"sx":1,"sy":1,"depth":50,"w":{"0":-0.06665029081061687,"1":-0.08279921455433908,"2":-0.23148235349075144,"3":0.08176729067719393,"4":0.08194249364294473,"5":-0.0983275058546595,"6":-0.16948110602368188,"7":0.06778708705627999,"8":-0.07320335223297596,"9":0.09377064326001368,"10":-0.028269344098903013,"11":0.008728863900531219,"12":0.08453011993968103,"13":-0.0051447967499851305,"14":-0.23508287066929048,"15":0.032025458399732816,"16":-0.18175386129672638,"17":-0.0689860674323984,"18":0.07447195512467357,"19":-0.09566519817174342,"20":-0.06954302112274904,"21":-0.07138104853690498,"22":-0.08184469054690455,"23":-0.17001879512254997,"24":-0.22932596495949192,"25":-0.11120301094561287,"26":-0.07210021448725187,"27":-0.0786295452001541,"28":0.03134181101457557,"29":0.0844963569983112,"30":0.054877250784442035,"31":0.04242008540621604,"32":-0.07385298330814688,"33":-0.2552041930373129,"34":0.20269719597832528,"35":-0.17136277894052895,"36":0.05510138033750569,"37":-0.07866636832221881,"38":-0.11802614488103506,"39":0.011986271878611348,"40":0.18538425910137218,"41":-0.21829238769743015,"42":0.11830288075581315,"43":0.13865658472041792,"44":-0.06386998644560984,"45":0.2863254241340864,"46":-0.18811952391126324,"47":-0.06153881278405025,"48":0.02179076462621729,"49":0.21248975331172407}},{"sx":1,"sy":1,"depth":50,"w":{"0":0.39953153960246246,"1":0.2637985594603579,"2":0.08541685810254054,"3":-0.08283740470159408,"4":0.16810546914530966,"5":-0.08176149511565003,"6":-0.4127698267369211,"7":-0.09378090844325261,"8":-0.15344308052061525,"9":-0.29488974320446065,"10":-0.07458098241612078,"11":0.20999147149187303,"12":-0.20845150606217216,"13":-0.17107860884068637,"14":0.013262750888302456,"15":0.1558716194232151,"16":-0.015349621826116586,"17":0.38574335404087756,"18":-0.1170664791353251,"19":-0.06939475614149059,"20":-0.08678770132511855,"21":0.2877295827752949,"22":-0.006918150532108403,"23":-0.37638192262041664,"24":-0.1498143855864438,"25":-0.13590487223861933,"26":-0.023510737460860322,"27":0.012733924355015342,"28":0.19736379942996254,"29":-0.16382617349399223,"30":-0.49520161913837385,"31":0.04785000113020934,"32":-0.1984592818681762,"33":-0.13925270333429926,"34":-0.5493067687441289,"35":0.5432557099742414,"36":-0.2207351705327406,"37":-0.19050146377827695,"38":-0.013343978380552032,"39":0.3188917714251681,"40":0.13074069311165876,"41":-0.21861458469098488,"42":0.3054481828845198,"43":-0.04733200012834477,"44":-0.07006681639797915,"45":0.0456292518490131,"46":-0.3557939762888546,"47":0.0681496673043455,"48":-0.28555678530420486,"49":0.7781969593710746}},{"sx":1,"sy":1,"depth":50,"w":{"0":-0.14722226694752918,"1":0.06388862314083729,"2":-0.13234389858029622,"3":-0.112856244829718,"4":-0.26243300173383327,"5":0.016683586273063128,"6":0.2867614280461061,"7":-0.20890538887404153,"8":0.19946459410267603,"9":-0.03704185397716905,"10":-0.43563783661336575,"11":-0.28311980020729943,"12":-0.27380057562625526,"13":0.014642910055230149,"14":0.20458228344163587,"15":0.4014897746789947,"16":0.12316998239480258,"17":-0.07421112973203803,"18":0.062273869041990185,"19":-0.24502974412590334,"20":0.7833662806419526,"21":0.12761477640571262,"22":0.31238924332768153,"23":0.4621000213103489,"24":-0.5950491919726093,"25":0.03984373854245958,"26":0.10665870839874843,"27":0.32399839284894016,"28":-0.12532212915792865,"29":-0.07561292030784998,"30":0.12355309026838064,"31":-1.0200254678205096,"32":0.2552430424819197,"33":-0.5340081792228968,"34":0.049309968153288905,"35":-0.12132576718257519,"36":1.0680354553522529,"37":0.3294548589234867,